LayerCount: 4
784,128,64,10
Layer[0] Size=784
Biases: null
Weights: null
Layer[1] Size=128
Biases: 0.962590160266467,-0.18715435004998288,-0.626744072551131,-0.4156670953788705,0.8321614156665774,0.7439496510168226,0.5277922935217257,0.9151403705386899,-0.4112894612006793,-0.8524240395698908,0.0008681987501106607,0.3089455656752357,0.9770658252121722,0.38656060737650066,0.4941797582847964,-0.29016850237314473,0.7868875976323727,0.7627017946704719,-0.2434731468113263,-0.45735188928296655,0.5205163705822985,-0.2357686506193596,-0.5514333259620511,0.13863499535645274,-0.26790171648832245,-0.15825414381817743,-0.403737936762397,-0.9440340586097969,-0.3337417032589036,0.9286706563015121,0.2993533029957499,-0.9452494459976492,-0.32174093787748126,-0.6994705239371652,-0.804025544447623,-0.723294134883506,-0.6009453124133632,-0.1166637873293569,0.9316214101341759,-0.6775362034036873,0.6973156927302285,-0.1571360735269971,-0.295003087067175,0.3651969859212212,-0.4640503474239112,0.45916463217698683,0.37681180075841275,-0.6643162290724912,0.20560575086407157,-0.26340953394091304,0.2597452465646642,0.7224771353795345,-0.14429195423486707,-0.8796639822427708,-0.03964029150308688,0.6357160942171555,0.756992646973055,-0.01908553767120257,0.6302059119483984,0.6077324655243285,-0.8045945055672632,-0.2660476635857802,0.35599076745906316,0.20089171133842104,0.685775486249723,0.14329335303856283,0.8372103089235005,0.7015668100008668,-0.4042310312156619,-0.6711280634518144,-0.5029174513831511,0.1888568242470213,0.446165476062404,-0.5846180963294154,0.7990988767347593,-0.4441707340476012,-0.6352325215039807,-0.547658007511614,0.2684778028314767,0.7308758138355337,-0.5390802776059694,0.45893455361456603,0.07867867507156487,-0.4584414062494843,0.2045667189435365,0.3396494328055707,0.016042923031222695,0.21030415797246965,-0.039456014287329574,0.48656135703392717,0.7170882274260211,0.2037373524287592,-0.15012903943688272,0.11409764174573436,0.522820641534088,0.872942549319871,0.5259711566599368,0.5163986414974052,-0.9928186635494721,-0.538950999308375,-0.19268296996409537,0.8989496997709429,-0.7494010190151279,-0.25806596722811176,0.8809185023801591,-0.9965550159017352,0.8022386061065824,-0.529855689328608,0.0811333380021822,0.45865809387133694,0.7974203665060278,0.11269339505476866,-0.0386234607987645,0.8426230575480285,0.1615678283334484,0.6781972953872641,-0.3488981030678875,-0.09209087422864214,-0.18464786108697134,0.13071956508945184,0.8207165035986791,0.844107326278933,-0.3581037799126301,-0.5448848085720204,0.1929121861893848,0.7688851630218332,-0.2472476204006433,-0.25828240407993713
Weights[0]: 0.6634535061490971,0.4792560690451675,0.2813968645787783,-0.35775936551287746,-0.20770374462367214,-0.6917488499040477,-0.9928841982003693,0.9753134986270748,-0.3641986713577987,-0.5400318119395673,-0.6327389216202959,0.09320944039766177,-0.6123246762958936,0.03280829686336606,0.762783255317613,0.7848623813059472,-0.5758699046335509,0.4706578233608314,-0.18383683878175772,0.5382472358356449,-0.19117511864340642,-0.05571476605521275,0.11007490992083913,-0.07007211962252491,-0.30780750480844055,0.7844508503491296,-0.7046546375866303,-0.1659296113839045,-0.9908673474522621,0.651637798012997,-0.6901528032916378,0.13062276464450306,-0.6909620806998397,0.3309012275798717,-0.8589593814029169,0.866180074338885,-0.20834888108463445,0.5629451831630177,0.9338867729221876,-0.4237234245164895,-0.5341605132139104,-0.5655677446935176,0.13383718446541448,-0.34224099355854143,-0.7150613096147129,0.14408774540949976,0.04627273652994668,0.7603758972884975,0.5691103793536827,0.5797755166794059,0.09383235829595127,0.7752781900462127,-0.5154328884163093,0.9771893536565777,0.20222867708756986,-0.2808317277956902,-0.6308188408756716,-0.6485310157986968,0.9500481392955631,0.007845405027198327,-0.9870942123174175,0.17304541318353528,0.9661808460793369,-0.015836469370795636,-0.8498790086479294,0.23663831373520128,-0.21582847890249846,0.056774096124234674,-0.108232321733717,0.896603180978728,-0.006788737609418449,-0.13881508779656848,0.5367710504386438,-0.7601134142652682,0.07240774904955538,-0.6256073739498889,0.8104480494793729,-0.5476840965206196,-0.3550108100078119,0.5481047497820597,-0.26182188618081714,-0.4650305348751277,0.2649600092624127,-0.5706428641316681,-0.44219456028295423,-0.46543099333785054,-0.35394434693918764,-0.6681514343564172,-0.8713274495076981,0.42187234639277316,0.49699891521455664,-0.5598178652859376,0.6128970438674544,-0.07395863210501086,-0.436629212199072,0.2927940736025545,-0.5317485907728544,-0.8503263461637899,-0.492361984910612,0.0483003766500858,-0.6400837756880018,0.989498640405712,-0.13139178097778548,0.6725071983749547,-0.4134357457111756,-0.7673525539074804,-0.7614928603924311,-0.7553194741510412,-0.09521839539297783,-0.17216394896254128,-0.09127977727506298,0.9168652556449479,0.7064797942091152,-0.5980566104864965,-0.7303327087919846,0.47793632255771024,0.9080854039211224,0.536823710211005,-0.5736419090878413,0.6155519846899211,-0.4094173393256112,-0.5476770445460812,-0.07189845436806719,0.46989533187350974,-0.5976526348036403,-0.4421468009082553,0.2522795509579872,-0.38868506026209854,0.6765120612890564,0.779607729716676,0.9061374801782184,0.6607732205976449,0.9446778883899924,0.5966888133421022,0.19312919215039387,-0.24635371881265056,0.6663612461026578,0.5924528108874583,0.8427928815795076,-0.6748420063754739,-0.7039381329454193,-0.5986248727881465,0.4270669610365605,0.30083649945484314,-0.48684787633216375,0.5801336595696087,-0.2662976594950527,0.21095365435395097,-0.3436259233130263,0.08543446524321774,0.38470866968143214,-0.06797707407091963,0.7278751686370006,-0.10205277888846621,-0.5341351397673071,0.9088632851323997,0.061323589298566614,0.3986393530274429,0.2732354710108781,-0.9657094587336678,-0.014767030511931845,0.6320138813371541,-0.42532910763365267,0.12916749817702847,-0.07830516578550695,0.24794582708177426,0.9721873672549555,-0.8902090191329871,0.2137548640434419,0.5209878177945446,0.8115750764550524,-0.6843674069663358,0.694109282363212,-0.8986974067080322,0.3194901176353404,-0.8107924665374646,0.025255990095553,0.6272535591367462,-0.043293921097157365,-0.18038113124206304,0.8229272105265635,-0.9535011619009891,0.963076748059311,-0.4072286526105486,-0.6051683333272382,-0.0250451265199833,0.938185016864966,0.05334056592108351,0.14343801369638368,0.2874405536699069,0.6936541068361743,-0.7301035162208791,-0.680450121723325,0.8092577549672024,0.34079841586798354,-0.33171559000933337,0.8332103992966984,-0.6981009681234607,-0.6208583347596499,0.265206296586062,0.6081057305436212,-0.3758823829706246,0.9971987903105088,0.13538625183348035,0.2738593545018436,0.06902851066465118,0.23732954493154912,0.6220478906646503,0.575566695130114,-0.7224228160882673,-0.1086547603296301,0.436082313793171,-0.5582635716788347,-0.5462953391587778,-0.7850940243780238,-0.0523169667852113,0.67935506476965,0.9840695600556375,-0.26481383659188307,0.9469813164076681,0.3104869943626629,-0.08040449073557021,-0.02918011649939234,0.9331596074314601,0.8337054391548528,0.5439267175010996,0.9960827147569893,0.8847730736642951,-0.23931993437104326,-0.34858803496388513,-0.644002865834163,-0.27664304005226364,0.24812334938756136,0.69150776456606,0.2114569332904409,0.19559187873870365,-0.9544944595696055,-0.1671619064332622,0.3267228266118448,0.3278517148452419,0.7373653828110421,-0.684099486042045,0.48058901604272625,-0.1267191048787493,-0.5953292405549564,-0.7410170752020758,0.8268915572356114,0.8661175518604542,0.595049415526469,-0.6062269479065328,-0.005137441216566341,0.8561270040721292,0.5716361084820871,-0.567839651167318,0.9547193022233988,-0.31164921694977643,0.6533723911121723,-0.9357545597295084,0.30168081973757643,0.7299326712870657,0.07299335036596456,0.35262014293842886,-0.1383312945173841,-0.07828436199472019,0.9225187718866488,-0.8252989268057981,-0.8032541861358952,-0.2460328188575933,0.24322760561242954,0.019490734241434757,-0.09250889501958688,-0.13969533807408735,-0.33329778987920494,0.40665972013048707,-0.7903372001535676,-0.004856372720029367,0.4395995640380306,-0.899641031352636,0.5349016252601992,0.5805551091118506,0.7182480374901778,-0.870034837103465,-0.7102763418621739,-0.6333131630664186,0.6566531676397879,-0.4999236125148511,0.1517208540587318,-0.18403696789594226,0.7368176093962127,-0.4768883466330425,0.5421589770410465,0.9759309153832558,0.5252667774176804,0.6030969291515849,-0.7361728186423834,-0.608143138302715,0.4564402687245531,-0.4407482209355607,-0.0404026739813181,-0.7543552425611918,-0.9260097643587225,0.07759916986653995,-0.375791635721376,-0.4237434963806269,0.4868831119904682,-0.8595899454595475,0.19626555274998103,-0.8327978857945642,-0.7775043201528045,-0.040424325056571675,0.248751219012193,0.5528843534223148,-0.4705410351576767,0.7213319680171683,-0.9883153662031122,-0.056971801005756384,0.06281580814666331,-0.5050786538766027,0.2648817745130263,0.4159695979102666,0.014087215954303501,0.38455615871287796,0.02344393102737239,-0.27316603079382684,0.4791746939678179,-0.06835894257791908,0.3415481160541449,0.07933472126371446,0.15699637320125684,0.82512955934419,0.5415101667638369,-0.11900617606891606,0.14241110214144515,0.29562395498884086,0.5134134467287983,-0.35699787519732396,0.5057556235723921,0.713467154518453,-0.1202544826642864,0.5161342901811532,0.3039259845672004,-0.015329414214354409,-0.4065326477431379,-0.2228378748457044,0.27425820696968806,0.9894293926003294,0.4475998847996316,0.8022201912407664,0.5820610150357771,0.31949882857773165,0.33166792905803455,-0.0334430787282145,0.2962029981015599,0.5494899038193521,0.2386631038825415,-0.29674205922398095,-0.9381563621085308,0.9054869783336389,0.09978296043106577,-0.4439105873200626,-0.196753922475853,-0.8763066259568122,0.015603687155807178,-0.6024761384364572,0.4180616305293803,-0.632242604918891,-0.5896785946514824,0.23371479849037197,-0.7919663288795985,0.3687672896397738,0.4372624617974555,0.34928499695844106,0.6151744257412296,0.7501645944135976,-0.8852716176438016,-0.9707232612722115,-0.2197350801997552,-0.7554579196235441,0.45415379471857964,0.4947680735688342,0.48939528339908683,0.547610466581491,0.5037983151341149,0.8447776922780235,-0.4967191673783748,-0.41703630579070017,0.5874305574048265,0.5971061538891429,-0.9363942574413466,-0.18368258009836202,-0.4186286299576185,0.6002805659548756,-0.38632038859013484,-0.6763438953442238,-0.2873129832033594,0.1801123991609021,0.9692364599209627,-0.8039489517712658,0.3591663976898593,-0.09339446165391593,0.5816023323298509,-0.7799644564275393,0.5950973364473432,-0.7864599174196477,0.8780153397476576,0.9842076267554818,0.35350144083042456,0.5534146731772553,0.44370945055881766,0.21592320160527156,0.9249056447338895,0.8255763950479278,-0.5387924896929764,0.6129040807738256,0.07224979036459263,0.2622449171087913,-0.37327416584513806,0.1738126283389576,0.8943447553992014,-0.16490798590933342,-0.2196777450012405,-0.18678474854062532,0.1699078600713555,0.39158465141072546,-0.2123687192074658,0.8372919051833664,-0.2639965928060754,0.29419865106253557,0.043099205426615834,-0.06418728378160778,-0.9394661587706078,-0.41349838500446684,-0.11531422008586473,-0.44699395882779175,0.9228478605748162,0.2857020633748984,0.9610030307959855,0.29602264570394826,0.9694834387636939,-0.4688840819986062,0.23975887811149457,-0.957015504058371,-0.8391639315880026,-0.14567175188365944,-0.10420032362649234,-0.24388616124349005,0.13911767822649224,0.0007695849057145487,0.2514017081127511,0.4504420996878493,-0.4468146308543228,-0.20489757564146893,-0.6982506841563005,-0.475687737417046,-0.8711610879509774,-0.22720051566080782,0.050064065967149754,-0.7968506041663778,0.42126406857987,-0.9627382350187902,0.24233070044580163,-0.9342936503440252,-0.4754725590580269,-0.4773021085506922,0.16512675316928258,0.34650601772580736,-0.04574753417633765,0.9246859066166477,0.7052965711689008,0.8018600872412185,0.3096940273865345,0.3366804240907917,0.2045563623330353,0.36352537729010237,0.5953271880724129,-0.2626681631722805,-0.34762429508735626,-0.6844203880449852,-0.5044048323782183,-0.9688026998046798,-0.3021256687595163,0.7349837877484895,-0.9547533668308514,0.5917560559275445,-0.6215017364820609,0.2587231495215503,-0.7208068133543972,-0.6461716258233484,-0.5867754857517797,0.1536985317551803,-0.7569433954204878,0.7710053241836503,0.8822590419262689,0.9412419046861895,0.29869882025984795,0.18839111695564548,0.5349672530655298,0.6536983415050016,0.69887639502362,0.5559167076768611,0.8080492092474306,0.215602043650859,0.29546703644817085,0.4495372471630281,-0.859252209709609,0.2165049450548855,0.5905460620254959,-0.06192664199598441,-0.07123889823967544,0.38901082382168684,-0.8834213033404238,-0.2712903134096241,0.7014570460347751,0.38841365222673885,0.33843476974393577,0.5024445645566795,-0.9863178417861395,-0.06692052937856437,-0.8531211515603726,0.9078915854283162,0.06734001981737574,-0.40107526396464704,0.5128251729327805,-0.43620189673790005,0.5750116864140483,0.5541993229746865,0.46624591348884215,0.2708427882607598,-0.9306877263088223,-0.5929163804244793,0.20235919542720504,-0.001324371901026189,-0.3832968070093993,-0.06032155782930626,-0.7768519268263373,0.4822722875896246,-0.5604832486996815,-0.40925546046430755,0.44523360757462416,0.159410763405711,0.668169456101689,0.3409626927782705,0.42517204815824444,0.023507818146870852,0.03256439338464855,0.5078622096335632,-0.9319128855870759,-0.5089531424243492,-0.3966449962442403,0.7954552150652227,0.17725441081695786,-0.38700794878813954,0.5225023755442828,0.8021477984605453,-0.5049302334528143,0.21308917971201166,0.7033909870689975,-0.26828282106122137,0.8745255013343531,-0.41345162010446734,0.7502589401557385,-0.6802968176455688,-0.13123899657802607,-0.4783225178151962,-0.8133483705173006,0.11498708208232104,-0.8887965380962586,-0.23829120119015432,0.16525194783913075,0.8559133622314551,0.0629396898971705,0.42448568475154214,0.4842098575840957,-0.022152958154876643,-0.764261213668848,0.7286607332757056,0.1754569121670249,-0.5051160448554248,0.5367948356876815,-0.9237817710859887,0.5001650524792098,-0.01577472361539245,-0.3252021508874382,-0.7232781004734701,0.2300794838136433,-0.41058051465571876,0.4761732525546911,-0.1854446377537421,-0.555391389669567,0.010058828168576062,0.7788812870992725,0.7077995723615398,-0.2837809237110339,-0.14136693995185412,0.40910850525949266,0.3484006939063391,-0.5276863783605004,-0.09662908355773589,-0.16276020002001085,0.9194153218186372,0.3946188374892892,0.29552349124970845,0.32235344290857365,-0.25061314454748107,-0.2647966578790748,0.7614591658765701,0.13710520595174153,-0.449137025570437,0.5735964214306308,-0.22481436246298925,-0.9575272090535272,0.2134737238350668,0.19584093019172588,0.7984088621094865,0.08638332741632282,-0.2339663362288691,0.6449053332418695,-0.407960896104556,0.2915979983711605,0.5972321441384183,0.638830201532147,0.29664350843293985,-0.6828944947733737,-0.8448652528581774,-0.923348816425229,0.355054984869307,-0.2892701894636809,-0.37465801584656044,0.566692321892521,-0.12002382461654938,0.2513524770658064,-0.7230566166031703,0.6604239731597032,0.6280040431616826,-0.31054051717968095,-0.7918936029564347,0.6674701653735107,0.9341489830679022,0.5462372608232486,0.473570203163461,0.453275651416404,-0.07456824512899307,0.2409589408156272,0.6694229727934222,-0.032413962777896765,-0.4345924367357942,-0.4880413578301861,-0.08218978582052039,0.7723053399273772,-0.35686888926979476,0.7035267086337218,0.8800946790143064,0.6112073066684834,0.23915874210572685,-0.7220155579471064,-0.9018235776412578,-0.022838936014578003,0.1614921774459209,-0.33142953213984844,0.38432321190400803,0.05766573595367808,-0.4769632817111114,-0.01085669686847281,-0.3062873877674071,0.5275031391193639,0.7745223826610121,0.5591985842023037,0.5728348361201747,0.10993291396178906,-0.12152946606349646,0.09856349839762024,0.7107563501739671,0.04580184307219537,0.8180277952076997,-0.8560435072779858,-0.28660155333885995,-0.9442599071274301,-0.35224952065482296,0.18761884652648697,0.5110797746570894,-0.1576365810745107,0.7870303095856578,-0.1534155467150428,-0.07986825485124534,0.17650234097497539,0.36751990642748766,-0.34023700131639767,-0.5806350012568824,0.34938941722777056,-0.40237076116725085,0.2331554302897273,-0.4938845527389735,0.2700149944378132,-0.8299411338893423,-0.5786632986639921,-0.06476098162343769,0.9372732517948714,-0.4525600678532199,-0.8580801663259418,0.1930636545610911,0.006208979061901987,-0.0608761939503607,0.8078773002176904,-0.10616518608581516,0.544580721084299,0.9928123131360915,-0.16563925108203625,0.793040252194293,0.09445350016208987,0.5606415064822143,-0.9647984746679656,-0.6726717453788369,0.9739275695634668,0.15302667447972418,-0.46617805652963207,0.2656516305036526,0.6720754904182609,-0.9313877293086985,0.5170033061003497,-0.8400167673081238,0.11764002177754418,0.14333343745364502,-0.7761313048080222,-0.4876013963891199,0.6456365108702502,-0.4073583452996604,-0.5592586442638462,-0.12425702303846231,0.3966910938716919,0.20871747434545185,-0.22387480513373148,0.5083001803179739,-0.4941693178816555,0.9945570975516722,-0.4951016649115373,0.9032237957712375,0.978588264425559,0.9519670391231623,0.37485805404133066,0.18369643631563348,-0.46684084249047597,-0.136157891310825,0.32141164658656884,0.7883157850246364,-0.43776013390526086,-0.0946535211391425,-0.46803227413022513,-0.8830116800419109,0.6362280732189436,0.15556876415180443,0.2630042383740676,0.8685535238443658,0.03042967292965848,0.9819366009821819,-0.9245763672164531,0.862875541608257,-0.28474488914233864,0.2954786966068106,0.24819830304393475,-0.04806093361604069,0.5520709573999378,0.958617771956426,-0.6036508416773988,0.885736025816638,-0.21548368838405407,-0.4730986549859395,0.8214975725028186,0.9793704720117946,-0.35187166060873853,-0.36939300287952326,0.2871796727586442,0.7202677408793325,-0.3061383260908249,-0.6666861770985117,0.6268240751823522,-0.7462020869116308,0.8219217908670762,-0.5644559392540045,0.9500658185920052,-0.25986925757484014,-0.939352619433474,-0.6762469642219353,0.2395149037425941,-0.7588776702801128
Weights[1]: -0.09242832897809727,-0.5221294926116846,-0.4761059188638376,0.9191334647681255,-0.35797720651979426,0.187968684913576,-0.31689043218125146,-0.2962312639207725,-0.5770810123426285,0.6316254789156959,-0.42545861444690203,-0.5325070496334261,0.4356756207699308,0.0038083228300365146,-0.9645685599951859,0.0840081959422716,-0.4473761978779809,0.46885998056682765,0.005621076098466737,0.8683890913931602,0.5427364974947351,0.1746918499351906,-0.3028841499718298,-0.6448874742001702,0.8216257196951777,-0.9590462492588192,-0.7202889498883341,0.34541287801480514,-0.4919324393812252,-0.10870831418256666,0.22831792162187292,-0.28089713178616815,-0.8447731713972861,0.9400227898452538,0.8769446405940431,-0.9509691623742549,0.2976034913666563,-0.9397629927563309,-0.9938944540889442,0.44263831220690086,-0.39592989506010423,0.01649900480010502,-0.7290573137481964,-0.2983116560142076,0.05228268962925431,0.7863049627217953,-0.6137538299028547,0.431735737915959,0.9146343785871911,0.6561225464828884,0.5080235784445069,-0.14510694478876285,-0.7661061723558726,-0.627266761673273,-0.5970232615233507,0.732879821086712,0.7807546573601452,-0.8312184446636673,-0.9024922549270523,-0.39893095726097516,-0.09174236519808987,0.3376966898039433,-0.8042988245395473,0.531627301839938,-0.5966924427061773,0.8554385173392662,-0.6877338782361401,0.49565283092467705,0.1268636822359932,0.986400602379069,0.7864047045756153,-0.50761320512165,0.4627544346557717,0.5629827638915659,0.26431898645326446,-0.47376250730536995,-0.09625083631661291,0.9954275060423778,0.30282983617057546,-0.9646792430266176,0.6547075806440354,-0.15202468780429323,0.43077849942761404,-0.1480549858641136,0.3832681073729265,-0.6265751335893641,-0.5147909594302955,0.7824935902759869,0.5370460513686044,-0.8559351804926689,-0.7317238197344,0.12882193603032355,0.9627292621707215,0.4050365031720309,-0.46561932259500927,0.2663734151359525,-0.17920217066034771,-0.2606846155881345,-0.7016192133080303,0.19684417228998807,0.47403884095793547,-0.10940666082753181,-0.6951279443200342,0.9282337762081221,0.8697178419072731,0.01563678356615683,0.39213862055546533,-0.3290889362474386,0.10841425187346254,0.8767392457820191,-0.17086934259667497,0.7853271513177673,-0.1340482808342428,-0.9378130119004348,-0.05363853790501061,-0.9397176773937967,0.9069181903763293,0.3437561613245663,-0.8516408055329885,-0.970117309116813,0.3702294767695615,-0.47022746851212693,0.9586067795560727,-0.017201137271337763,0.7282485204337957,-0.32461278268447746,-0.45561015870210186,-0.9401218940103192,0.02858871834776572,0.9979243000020988,0.7054262952161692,-0.835570424545715,0.6970467193504082,-0.8940143361194126,-0.42252242536057943,-0.21960440858898908,-0.456896743484259,0.502544723219492,-0.017772827771386557,-0.6323686761932301,-0.018713754144829564,0.8142979768171432,-0.3259206615974757,0.6603068055865853,0.31493416210400604,-0.5170509710521675,-0.7371297831354335,0.9005422740711562,-0.5413249589229585,-0.5259016452012126,0.359455224759623,0.47745323639269793,-0.3946588134758279,-0.7202764107600741,0.8273142488094252,-0.06282713676036523,-0.07931642503870551,0.31070432643131557,-0.802300351395924,0.1975429848892758,-0.5163215921255712,0.3734943247678479,0.6695979737775025,0.12448599411726259,-0.8287004175729586,-0.33530312186819644,-0.9117195680326408,-0.2400339447148302,0.5009050720841182,-0.817752779376578,0.5171790660904623,-0.5956265328431626,-0.6315395318832752,0.7897835126067333,0.04859644502801652,0.5559314999524185,0.8559073369343454,-0.7035055997736682,0.6618683836543517,0.22629827240887537,-0.6031817294841808,-0.3697404139966407,0.600422295172729,-0.45180580438235063,-0.372273579403131,-0.7833550018485067,0.5599987258313546,0.41481164090383216,-0.7084550690741429,0.651813793043048,0.8579455123952429,0.22885635690611628,0.2924353691248387,0.7700920988666322,0.8816520729482415,0.6468655567834458,-0.828011000448843,0.5636106578463738,0.4890072231595437,-0.3497627160277975,-0.5912448488805427,0.5211272435210997,-0.600362798012962,-0.7232224112596862,-0.04138183675630046,-0.05165027855193226,0.10523114437407925,-0.20012726303609418,0.21282799640810013,-0.7449256539376744,0.06597902128969156,-0.401242985767338,0.6155415046739707,-0.04956042537241765,-0.20667099259662644,0.8261980621538954,0.7486524814158646,0.12053956311549681,-0.5100770865293062,0.9429015870871496,0.09121928880513619,-0.34026819157426624,-0.5194049130749911,0.8838894655387335,-0.6498804612317497,-0.7038509974739752,0.11193809803199861,-0.40856310977067944,0.923671368430864,0.4199539701862736,0.38394250040126154,-0.7077889784516275,-0.18914399909237994,0.01417759528617391,-0.17005292500627434,-0.12741986465018726,-0.7877020012786292,0.31710696323969156,0.5771207035143798,0.6608673154012619,0.0843344280540808,-0.2744629244941293,-0.8343424658870467,-1.0233623334688235,-0.45403850189396505,0.22296336011890105,0.5680190575915385,-0.6824985918041777,-0.04733042281462363,-0.9752119192738141,0.9114877581184206,0.08418375397295863,0.09163232384791242,0.5461056360723944,0.5590179951670664,0.7349367885547395,0.04712824147069597,-0.46602918160999246,0.9263082816853692,-0.33922971381769973,0.8437147098347783,-0.475620190224301,-0.09623821624410733,0.7931809286049569,-0.10747713377252051,-0.1903512301940782,0.8334397506033284,-0.3573805495851655,-0.8668002406428185,0.9032567017162864,0.5856477377216684,-0.5900908391043709,0.5154330670974423,-0.19877881258676605,-0.1703194926948574,-0.6720299812369188,-0.5489151643351257,-0.5280926858671442,0.355446975378062,0.15167844255998664,-0.27067256871176537,-0.20556331016382356,0.6387673130439442,0.8794304272270306,0.5176336520630643,-0.6820181716299939,0.20045021139106267,0.2631871147375493,0.4586094214853875,0.09472747630995146,0.8411814239583373,0.6865033852735845,0.4033629350253564,-0.031325969905365306,0.8574570011127368,-0.39782566482221243,0.846852585257758,-0.6441969159647505,0.08415007025815077,0.7374159864758286,0.40958498778320457,-0.06279984918564896,-0.8169299603652675,0.027055445605449036,-0.6025978548464355,0.49872502940647534,0.5939629513742231,-0.6969374211956456,-0.28391063459399657,0.23104797640398522,0.2838519528898653,-0.4361824736318147,0.1886974654456579,-0.20714707893291337,0.9314428548940656,0.04870696973461053,-0.12927957487283034,0.008849040831587397,-0.7001717166141903,-0.4170577633009263,0.6173612921318712,-0.4074221344527763,0.19100014030967918,0.040366728481310746,-0.9669100041762402,0.8750819367904762,-0.007735493104619049,-0.4204512937312883,-0.01863585365585269,-0.7558153710356216,-0.5241406023032372,-0.9393913745597896,0.34996023650744945,0.6234950663631293,0.7776311811886873,0.799086935724638,-0.38863755361579244,-0.38828813256150485,0.4768855718322498,1.009293990466492,-0.2658075005705048,-0.08919660156663899,-0.45290225066845413,-0.7863610510879917,0.7937487825507981,0.2917850090687599,-0.4635520451999911,-0.35936453765156157,0.02789170375080351,-0.1880921682978021,0.7081282513677303,-0.19197582038215086,-0.9714176073274746,-0.4935528155130733,-0.8510732341075229,-0.15194520223813643,0.7665010343945872,0.1555529721290491,-0.029075765414756483,-0.5162534702179271,-0.5177309110377594,0.040556305572649665,0.35475776314491303,-0.5251173775294411,-0.24482529388965357,0.2232433274496548,0.20044152401408244,0.5545815844539304,0.025395362312110786,-0.8601536115661915,-0.564423337936577,-0.7520421728055111,0.5321142302457189,-0.6807369387319602,0.8939514806547434,-0.2890105268649525,-0.9826448121608657,-0.0490405237278321,0.18301163499619616,-0.2889204718765672,0.3460419443542284,-0.595261604764734,0.5842629083860572,-0.8112778399656865,-0.45349050200203966,0.6606201391721271,0.9980436527383724,-0.18500489237951345,0.48758352710287256,-0.03520936008319697,-0.9531819056501528,0.4571453600456683,0.6407712379660324,-0.006860957949823221,0.509249011757434,0.6830153792282474,0.5710265738172106,-0.9182820389976311,0.4699559297014562,-0.4290429698334285,-0.9031411681395353,0.029579065938221585,0.6374710890104822,-0.11766908941849177,-0.6475563929213204,0.42939048238368527,0.25278835230327046,0.7285227990778889,-0.3340107389535269,0.45848457114819413,-0.16951471509178306,-0.17003231559032225,0.95152846644665,-0.7660979030503281,0.12350399457790451,-0.9125099023396661,0.4925209616741728,0.1980109071349776,0.9371769316201921,0.09453337969935194,0.22518327982406294,-0.614553583606404,-0.9507778323957593,-0.9510222746717911,-0.886177268853727,0.006695300851874233,-0.3458066847623648,-0.4276781922984413,-0.15813570461919127,-0.7729332319547016,0.16570476265206505,0.947667850158291,0.4834157229715013,-0.37440052404790564,-0.37700473010447083,-0.6557454135391885,-0.2339482375736424,-0.31541705963425115,0.817094866613189,0.13217985971624677,-0.594643637084145,-0.7281001857375227,-0.8387963108811308,-0.9496752749894165,-0.8339409305872121,0.24495946208246022,0.5100673760800005,0.40684786970114706,0.8696185685087081,0.4217589140971001,-0.8272814721927426,-0.6553810376931826,-0.8516578369612742,-0.6023583861044827,0.4005277000473082,0.7683971978600082,-0.017771847521007487,0.6021486569689966,-0.226333962606207,0.3648598834354466,-0.19617326338443716,-0.2822866951035046,-0.09388312251315045,-0.5592797371526591,-0.7077570059275267,-0.12100022910030593,0.36094046786195116,0.3633211527623502,0.6153816414018722,-0.22011016770261482,0.3173883886479244,-0.18249899949063497,0.3954774874241451,-0.1706243153524698,-0.3108552355835471,-0.04673772167728174,-0.7757697160242916,0.9988974425936572,0.8661489486071043,-0.15942163726287972,0.47013178722473414,0.22597750054019383,-0.28651332523071976,0.4240711256498104,-0.9488540678899621,-0.1890572987575451,0.8060311350011292,0.09786138751150296,0.2363830959978721,-0.09188333426337753,0.37889482387200335,0.18253272929454512,0.9127629774938307,-0.5386070423133889,-0.6576082980560265,0.7300379316746739,0.37291919416676694,0.723041099741597,0.7689679990743263,0.30913166422570243,0.9210346213614682,-0.8283462328036997,0.7912857317325126,0.08970028678406972,-0.8956304834669597,0.35521752729789235,-0.05085852511732769,0.30566251059326466,0.6887085948552512,-0.5799763213817941,0.5182350162284737,-0.029493089041239644,0.7258680612601082,0.946705196594621,0.901437847503055,0.5685127062291438,0.9938178936290495,0.5123077613419557,-0.6005915648484924,0.4615057390239109,0.06499029708392319,-0.7540831734391225,-0.8776912801776122,-0.26543521269459264,0.40343374440920066,-0.860682101595017,-0.07050260691825445,-0.03350286346921857,-0.4817546177818184,-0.02783133044272257,0.5803198030126839,-0.49915353744251356,-0.7701913480508101,-0.4430723942085506,-0.08054593721430092,0.2984780200284338,0.43469176880768123,0.6073291670045516,0.3003238235879331,-0.31605102922607625,0.8616507621820952,-0.4988398050826701,0.40871841792383884,-0.18627086846583746,0.3860975572883796,-0.5633360532664994,0.4558327930065382,0.9212629688709445,-0.47355662293933215,-0.24173405843350124,0.7438653317087367,0.883487684691969,0.32877964681423255,-0.7009061239044547,-0.7410901666703198,0.697129817130097,-0.9314546305585641,0.060875209542399,0.6859825000567281,0.9646105458795142,-0.574741069960753,0.9821831341749909,-0.21299100071796728,-0.2834600747020264,-0.16029063386856146,0.004784159626740429,-0.27055056197642485,0.15683665759362908,0.02565799180442182,-0.3966430867605133,-0.8665142441832903,-0.6082211790645594,-0.7873612770488955,0.7189242820218941,0.591104130543071,-0.47692733037790463,-0.18294671716896782,0.3137284838356209,0.3740867677255139,0.0034127598956398813,-0.31155013167837176,-0.010684610815106299,-0.5576783202391482,0.7790329110711034,0.24638347292616203,0.7009542480581228,0.1720668157432539,0.9305518902514838,-0.70231165909316,0.2219948141006729,0.22986493410070663,-0.6261834407347178,0.9215388353548659,0.32606572868660433,-0.7498041526125875,0.867509423941,0.7063198116296805,-0.3138687943173665,0.9704292544133258,-0.6204223124013425,0.684356572042153,-0.7267847304272266,-0.11638840467403307,0.8924590454878597,-0.39308337409583566,0.3696709417808318,0.7136799820072137,0.6329186939853492,-0.308312836712372,0.7104503250263865,-0.11474428657197588,-0.21908383686984134,0.7066369725887836,-0.3100390458991933,0.276160677557886,0.4359435408543533,0.5398614544141394,0.00797608821092921,0.4701564523718118,0.13875511807331598,0.8360660522412817,-0.20185704870227583,-0.14042617725621287,0.7943050109637162,0.3641125528024141,0.7496595623402437,-0.5321118479661472,-0.13485434899352935,0.4472497751390691,0.7118030564039873,-0.20355034148504522,-0.9102193671749367,0.3180051856784019,0.022373766414754796,0.3578613597070265,-0.5763604137686003,-0.923882686497589,-0.47691051544477725,0.17582211511946388,0.9042678391115124,-0.9858664758437623,0.549880734435227,0.23886472696385574,-0.41276198411954657,-0.6632608993273512,-0.551051229029452,-0.3328204133235013,0.2315778812540592,-0.9393465370781099,-0.17431444725697076,-0.6656996335875163,-0.30407558587381034,0.21381273254239144,-0.17601231438469803,-0.47048459565042977,-0.1301849533080909,0.40776554563356243,0.09789416372438407,-0.4908236858223927,-0.1806562928845905,-0.10957990824262676,-0.13274388745869456,-0.7907035548450795,-0.018698037306275554,-0.12415447604104624,-0.23202623111755882,0.46885363267215596,-0.2795618471128688,0.3629400466396193,-0.13037380721903113,0.35982622735194214,0.01677196985891638,0.8321539730914653,0.5658886132602992,0.12462159391707806,-0.7138146821939455,0.5702497705101317,-0.7137266915402344,0.470181400716573,-0.0765438108999727,0.08540734479223203,0.21743836987235893,-0.2140550260365025,-0.39006168607114233,0.3861212714336977,-0.8716032495124281,-0.12217395750074057,-0.5577407469402851,-0.567410927449179,-0.5277440422093485,0.024721183487968236,-0.014525342434993135,0.9793968209900878,-0.6647954358089694,0.02428293275846305,0.1834360878837462,0.3715365395748693,-0.7253321342753862,0.7113924919214996,0.5687653317902075,-0.0199048617016081,0.9467414337893676,0.8686378346144399,0.19063467308442794,0.4669819108522413,0.3234458720886362,-0.12594592251160452,0.6588765250793083,0.712257680349172,-0.7542119527953732,0.29157794140818427,0.12574264366447108,0.6390365397739395,0.6171019028951887,0.7436570139556173,0.6291016553452191,-0.9930088007614678,0.5425269204426894,0.575708996503607,-0.25255122652861817,0.8754569626764659,-0.006329623519596428,-0.73378730180384,-0.10322393435203658,0.873301713668416,-0.6085433287585822,0.037375148868828534,0.4969494089004347,-0.4583943194981638,0.9411855060333318,-0.08535122176881471,0.2946111193367331,-0.42692512992160636,0.8999458858277396,0.9464956223715542,0.1486722245573402,0.36191501159310113,0.605227748679569,0.15005183739124428,-0.9361734119878027,0.25434267299917646,0.2336402811266669,-0.23707442415741942,-0.7931094711397637,0.1583438140093267,0.8427380201781189,0.32469238045825755,-0.637705081905101,-0.40999932839069486,0.37485087261295447,0.14860107337525164,0.8102260929579967,-0.3022565354137945,-0.036056281549882274,0.6933083691137416,0.9864247618179884,0.6805287355932075,-0.028138231033523642,0.3173329594160117,0.07552523961082347,-0.7139292767801924,0.37710466858796066,0.11727084457747217,0.7710721743158402,0.33113926897344137,0.9969668220714512,-0.44733222641392245,0.7390906539461997,0.6706062805236346,-0.4034683319756148,-0.7124829514475925,-0.5703927341710742,-0.5887413907743717,0.5130978131262109,0.49310610047220527,-0.358183318450201,-0.769255199362177,-0.9422247092901844,0.7221900260644918,-0.9972801217796654,0.06212365490483296,-0.32491976922607035,-0.09305126270887032,0.16675480788888164
Weights[2]: 0.10442268527318843,-0.4031323452494724,0.609131151628276,-0.793362483286002,0.9600708605535659,0.4681434889641327,-0.6099467573733752,-0.712105210736443,-0.9254734022195793,0.7777558647923897,0.8772380044112158,-0.8836305634508052,-0.008146598473259492,-0.12270186148709705,0.17761921751202037,0.317914061862004,0.5902423623903852,-0.3083113624287357,0.9934690035849201,0.08733382406054702,-0.2810061924536741,0.39896748373236846,0.18464565145999456,0.47083761797791235,0.05149168756394262,0.7556799611801654,0.622753444883392,0.24967174290198457,0.3146130811956771,-0.9865984152940095,0.610990492445878,-0.529844068703169,0.9505160366885905,-0.02151225834224013,-0.7732834162997471,0.40009916732092354,-0.056463378042198475,0.5324531372322017,0.7105354199700689,0.12838817906025257,0.8974638059257827,-0.8582875234346313,-0.6632679885547925,0.7353419483338213,0.6158680960609895,-0.47455275499939586,0.2388913991110826,0.18047715219691263,-0.4554291914475286,-0.3151941836416694,0.47188129251444777,0.9833915932026653,-0.08652026629379028,-0.9205790161716654,-0.9264093748882456,0.70545520154082,0.41222200329053305,-0.8617064663496364,0.15514582915005537,-0.7956091006265995,0.8453900440807407,0.1403814997246402,-0.026718291932120164,-0.9388749869255698,-0.8332346276534882,0.40708207311438493,-0.8341466001393956,-0.9866343401310194,-0.34941844518735,0.777520050191097,-0.6256225600957975,-0.9422107748418165,-0.01884678239880444,-0.1349191754753325,0.18987001813476434,-0.42271866901904287,0.062235472287160976,0.4493037031261733,0.8549695219169229,-0.4739555574366616,-0.48321143793091714,-0.5577237073135207,-0.29489906565048685,-0.3701927351626534,-0.45847970780845715,0.6275988992432127,0.5566761975906214,0.8710950528602559,-0.09510288345399442,-0.4787386178405669,0.9878771640303905,-0.19475691169256204,-0.6226926919178537,0.5061445205966684,0.28299813497951165,-0.24291769379885764,0.16843076849748884,-0.7243930016292226,0.5685765759873096,-0.7912139770533955,-0.6404061548600002,0.22552573924210195,-0.4701044026157374,-0.23294924163862563,-0.6895716235458719,0.41409206735626425,0.0022383756014696665,-0.9516010908184578,-0.11044903430642983,0.49630929413079716,-0.3567802707463411,0.9629183001643598,-0.7166759882665593,-0.370898613413283,0.6876023373043176,0.40311375139426153,-0.5647194346248728,-0.6565255567694668,0.5196047208828873,-0.460833526896701,0.8504058755237636,-0.7052416529996515,0.10846854332297506,-0.8706798273467831,0.79917862775367,0.5859041040533512,0.6943580651871744,0.4765996697444828,0.5806869094515742,-0.569433246328493,0.4074547823898858,-0.2138104506413463,0.8807271271388639,0.6461834989703183,-0.8338899496980106,0.2909204738690097,0.9123806953022167,0.9380501759881388,-0.6806211116167815,0.1274282248352785,-0.374639476358257,0.5082772884090792,-0.01845591283331438,0.4085878224152084,0.8780416529057742,-0.9750411361339694,-0.4780809234260027,0.7482059214954293,0.8185421832923507,0.8798843835852501,-0.6781982591739848,-0.17296369726949784,-0.2285088269092379,0.04505701524601383,-0.6286159559668613,-0.9326860439972986,-0.8849740446653529,-0.6013335530153019,-0.024032036788000637,-0.2601739263753051,0.7281024051856004,0.5052188595879044,-0.5373100374769761,-0.5431986709161868,-0.9125412683526712,0.8565912553372752,-0.917808826974504,-0.36285948723687766,-0.5373492108366216,-0.6036604855226635,0.4907330560920449,-0.5027696106130115,-0.9819318347138846,-0.615697996766215,0.913805949461556,-0.6578714128853154,0.3132883755014254,0.6999419789565048,-0.748578730802286,0.7656436864001129,0.058691070825054426,0.945042433309233,0.668170189737246,0.7050111186340011,-0.890435595028534,-0.41714680738182064,-0.9700206500689279,-0.14974600760013207,0.2765569105761736,-0.915713291769338,0.17045089948208955,0.5118084260463311,-0.03935769621252905,0.5780848635258549,0.39381807455505147,0.09813084504480041,0.04196106877269279,-0.4752191665932626,0.32112909076787965,-0.978549602431501,0.9305184797968096,0.8689323622225653,0.2855551323320509,0.4223237244056931,-0.6102606882092104,0.8250818081295904,-0.19867640953376636,-0.6357471526963839,0.1144505716386201,-1.0003199512964134,-0.2770321008353993,-0.6283911279577665,-0.9002311987835978,0.19056531044718522,0.6779031747340857,0.7718461420572013,0.8436666562727554,-0.2576742989062578,-0.6583899294217463,0.503564494430816,0.8259650589087815,0.2308741487706425,0.34933716121564484,-0.6389643101203089,0.2221338875694825,0.9789277855208738,0.5365880855995175,-0.5539893086785401,-0.023029089853629316,-0.20017109717155554,0.30016751834199185,-0.2115221041724169,-0.6207073254854459,-0.7695974916555733,0.8225768682682357,0.14630170063277487,-0.386624849329387,-0.8025591972107398,0.27611718833059073,-0.7471392408181905,0.7416754607965518,0.6178848801133,0.687852119536709,0.2197884449297473,0.29073658753590487,-0.260716862289513,0.36238569869889514,0.7479184538814792,0.8840061136912583,0.5924839198554326,0.2273676801600344,-0.7221568449037881,-0.820996449245604,0.8175645963370635,-0.8045146613402826,-0.2881064579301078,-0.48614054067228435,-0.09132675913595134,-0.7999312187544682,-0.5897764580276685,-0.7118190923797915,-0.6454022224711917,0.35476310179251813,-0.7454963185432212,-0.3192424189513859,0.9379798832509926,-0.9627227989144401,0.9250009777052083,0.38908416566586573,-0.5038234363668656,0.10719942342118441,0.5699896155320304,0.4015558683844431,-0.9545207903898734,0.720526521464919,-0.8408353560794309,0.4951612779382435,-0.9222146300236762,0.011041828901992012,-0.5348952643270117,-0.38358058006669427,0.7886696317180384,-0.4379954223697984,0.4014025674465584,0.5644895138939245,0.006478161657468938,-0.3905701243274706,-0.43881296619717636,-0.9656572164807735,0.09163140410414264,-0.42264382382992743,0.6728173793790292,-0.9943340621712788,-0.08868767652901263,1.0109114772096304,0.4428678355638,-0.7094046231836547,0.3884668772735073,-0.49180301212811434,0.3245367126582734,-0.3128395555419225,0.4352092538416559,-0.643327989128102,0.35236407506855394,-0.5621293715956293,0.5908683601724303,-0.17322778011356843,-0.8803591122293655,-0.9029664312968806,-0.9636793052608517,0.21673226413164848,-0.5540098826608326,0.8887847595415886,0.7191178439842338,0.7938041220390257,-0.5006863658785291,0.7674318582191015,0.91010811112222,-0.33831295084488944,0.6641570298233258,0.3492275122666807,0.4895530798377913,0.8978175691194971,-0.7041383681036759,0.871538993751364,0.38517247286877554,0.5522359891586154,-0.4895079157824022,-0.9664216409229577,-0.7127018242161302,0.8563831378395713,-0.9406225438884565,0.522317620703167,0.624235779803356,0.7465004286479673,0.17337983715039673,0.4315586962884099,0.20964050256164768,-0.03199612676724606,0.9819817263386373,-0.8291407106494306,-0.5218769273778441,-0.5358465349002959,0.974020581510857,0.8436578377058215,-0.8798030171405989,0.773124635326713,-0.7034931092748884,0.10887686870720607,0.5135064817100857,0.6472358472349317,-0.6580736450540862,-0.31474790735697006,-0.18624607653477263,-1.0075966392293916,0.2164319983746263,0.5346407011841343,-0.9274472224254547,0.4460055392873632,0.00545875774950666,0.9885641038364563,-0.72147527882898,-0.9412904213840563,0.8046859287678665,-0.8215108941409321,0.15735480802010504,-0.0646615880842607,-0.7262155039986421,0.9637707629157973,-0.3860891844758912,0.0647149304894238,-0.4613754815722169,-0.058503310355396305,-0.32157138216404624,0.4971794208943162,-0.1366093560412098,0.012788910093831063,0.8950694395567589,-0.6367799986689403,0.701534972923237,0.575113434956638,0.25335469116821374,0.41274914197946494,-0.46287816602149917,-0.35407197934951795,0.5138792123792312,0.3335034532586727,-0.33939044984960487,0.5911876669112535,-0.49486606730840454,0.6154662536529201,0.35523248992638323,0.7619231574991361,0.9625451154832472,-0.9911250397521654,0.9015700844426747,-0.5936134447228277,-0.34879582032464346,0.8153529728235099,-0.3136897470248801,0.18369784561257232,0.5069461216618997,-0.6987848737566771,-0.5458412225236382,-0.6201341578189661,0.006476251475894471,0.2927640851620314,-1.0461560792141726,0.3006579391047405,0.13705787755240015,-0.7951871902135648,0.6463567777919241,0.6827048488760213,0.7101889327921102,0.38005011007417044,-0.3145091344204308,-0.1607034630890486,0.49689598916885247,0.1476761750633251,-0.33760228629112354,0.8221395489862839,-0.7252711382346559,-0.30194583316424206,0.4687472901333082,-0.019637606812405704,0.6894822652291949,-0.20254903512173938,-0.03729521807986351,-0.36538492609080897,0.5070037929784031,-0.6400068867577142,-0.7187045665888423,-1.0032397825767267,0.6036540526556001,-0.5425465680075521,-0.9389929106148422,-0.046867925358685336,-0.04947917947300622,-0.8916923212908878,0.580744133551304,-0.8362729731547257,0.32302344284982526,0.29580979826777776,-0.5778914976762102,-0.7231482172958312,0.9446565806607978,0.6664004873793574,-0.9504867335550891,-0.4192255788572252,0.32338409466826556,0.07773088527737682,-0.06581657988290146,0.5002226619494392,0.13992804417451993,-0.10431398832556159,-0.07104188411825574,-0.24279217292497457,-0.2381674730788005,0.43301122896854,-0.312362162885327,-0.7767245716339102,-0.668205369653297,0.28116423324841816,0.7473243148856855,-0.2797891703598751,0.8650851944832598,0.5788660386827938,-0.9846200113626273,0.20899550969987113,0.2759409104529509,0.6930796865833375,0.8886633822175969,0.36644518159630013,0.5427993086831642,-0.503542466789271,-0.5030960736345016,-0.022380153193315544,-0.7240543354880318,0.20647790152881207,0.060301450574910875,-0.9538780394726796,-0.22823142503771532,-0.5528125684132513,0.37948872379238807,-0.4983571620327661,0.49903391248981765,-0.15780721277770104,-0.08893025168264074,-0.26161683078770265,0.5459879170757096,0.24728442850939356,-0.8705214863464089,0.46223972772603666,0.39804827791734243,0.3485789395268071,0.8301973890453921,-0.9809256668723969,0.51440466141779,0.6860047274566935,-0.5977498200039958,-0.6585184271048256,0.6291269714148375,-0.16159003468304411,0.3032098167125181,0.630199066191073,0.18906750305977993,0.5677382385207983,0.9689920525853486,-0.3393222639985952,-0.5831038558146635,0.9808828843731148,-0.4564544972936451,0.62000041931325,-0.5765265708139373,-0.32661016068999654,0.45977899896898156,0.8734916484641944,0.9182166323525247,0.24349072004862082,0.2028424786974286,0.04482260557138162,-0.31521774059088764,0.27306196893728873,0.6625661415652457,0.9950032874454041,0.5286303934342944,-0.5780049805565253,0.955162501579836,-0.8309364404695939,-0.34837530522997273,-0.5236596602591033,0.46283125386705204,-0.4099732122430453,-0.19570854082503752,-0.28111638467810884,-0.5830050108875171,0.9333586096453288,0.14519621240106692,0.7512940642142845,0.31242727209718946,0.9291013938273557,-0.12714319038902333,-0.7494450435119668,-0.6782392924844167,0.561226026104462,-0.25505106948926387,-0.4905412747212183,0.008048390113903486,-0.25245068475759064,0.9062256917980908,0.9463353837390714,-0.9073242549737482,-0.7640826011840639,-0.5514488615417273,0.36958068864943056,0.6488488864947601,-0.6703360977897209,0.1693412517985986,0.3084234955294167,-0.8981178421052721,-0.2325997227954677,0.6129035305291897,0.8002185643651609,-0.9909469587686225,0.9405519021398163,-0.4809178889455413,0.9549191721011604,-0.185387357427299,0.7025140772046661,-0.7448360825384297,0.526397207918704,-0.2713828254444715,-0.8286002868410134,0.9498814164854483,0.269113108439582,-0.8766888730933887,-0.5459243481654013,-0.022150278856746725,-0.9142573810288214,0.24831003678649521,-0.015591396491784315,0.37800661724899265,0.21594260782745778,-0.746169861287889,-0.32037025006505204,-0.6214747166361076,0.22691385505111605,-0.8584085823308716,0.43494490880283765,0.07026886710443936,-0.9126207846741289,-0.23598264215326992,0.8366361362098884,0.6499776430878257,-0.45359915261376704,-0.683982258416004,0.07082583827419411,-0.760470008786233,-0.6203743820236777,0.040651047224877994,-0.21984954354268538,0.7051770496223798,0.29868420568694426,-0.5532209224317965,-0.5993321099950888,0.24430932882210102,0.9043464121176203,-0.7379048026959997,0.1419197438014297,0.20934005417364654,0.20556958355268917,0.350974652613967,0.06065497037985135,-0.9490666845576217,0.11747355438651219,0.38939365995553965,-0.6030390772982682,0.54638842565305,0.32942329129642967,0.562026618775924,0.29190704659181965,0.8137469491178403,0.3814808684216495,-0.36711760733498977,-0.8331541947573686,-0.23931641057867853,-0.11029893029510689,-0.4804111108837126,0.4154703680734147,-0.021824602902620657,0.04029119059747389,-0.8331866906165427,-0.39045327665576324,0.06732832868865934,-0.5467417298943306,0.24229461295617546,-0.9612020589230592,-0.26722610800863533,0.8646106505136055,0.43541306696618576,-0.5482656823230282,-0.044514074476675214,-0.00032832613230138197,-0.774395145370809,0.8646992835517504,-0.26359543728809587,0.7033623874668788,0.7857028207675101,-0.46749539399949597,0.1579811743208169,0.9215606982465169,0.5264697635327634,-0.08920163620966694,-0.18276127617044557,0.7483785996196792,-0.033638304634422175,-0.6556801284795916,-0.2954052714410156,-0.7281855232868908,0.5896841314322361,-0.6416077306246613,0.4058178842936649,-0.16856843136944313,-0.8614055746150328,-0.8780516106067465,0.0032293000273542205,-0.24734829424291305,0.993530219417778,0.5752839220572654,0.8603048994486708,0.35059571887859886,0.664187030710367,0.6817777751394445,0.8940102243302437,0.11029230109895227,-0.6635788789315051,-0.18547174611549874,0.15674363491719098,-0.22989568225954624,0.4324983433632489,0.05878318847148992,0.10614618062657905,0.9897305457169703,-0.7394960400788873,0.06733239956255789,0.5611652590153577,0.2702368109815006,0.728939345443123,0.2810837696492611,0.4903597919073597,-0.11304070022639452,0.31889828825298666,-0.5820506548425419,-0.7629023342220589,0.08233850965385248,0.046125161017349425,-0.8984339823473403,-0.1537967934989356,-0.8963435347640624,-0.13853001647560392,0.9837528569548171,0.7098321680491009,-0.7895811012897552,-0.32793617217239746,0.8069920687968806,-0.7430836035604977,0.844448630625591,0.017271365512754544,0.7079992544408884,0.41323336279635936,-0.8462154128803944,0.18939790836973014,0.935541829064275,-0.1171150594563759,-0.4334911376859797,0.2126751679715899,0.368915959246317,-0.43830040413712335,0.08403061303295724,-0.43921686962210427,0.7121706063450177,-0.027379685559952516,-0.32394004767944107,-0.9323886213509313,-0.05134725433371368,-0.9831766113560538,0.24623768555290892,0.4446801093615034,-0.1883282853236088,-0.9358328599183974,-0.7651448965841647,0.9679890563562461,0.05246212754978896,0.9080137982536172,0.44818674933546543,0.34851194794686147,-0.10497959382132604,0.31674925392342224,-0.5470718348152339,-0.18956854715457583,0.7167166283897668,-0.7262126718304178,-0.9279678631238489,0.9015768978751786,0.32595788881892784,0.6743741297503709,0.390250481893331,0.535064404613834,0.6679287970382388,0.834703257230438,0.6293290861087522,0.5075663437636413,0.7600825884193567,0.5428733348580419,0.14929937717937825,0.011132542514769694,0.03377221572854183,-0.857192479938824,0.7234110821613162,0.7901686801529344,0.010678710886593334,-0.6002314787359124,-0.7944003491636367,0.6438321143592858,0.1783782593805241,-0.8142044692366405,-0.8630642191800588,-0.9724719691893421,0.43469819120815867,0.22065692079284083,-0.6473851537552593,-0.8999531790148249,-0.8589284912957477,-0.7243108347637164,-0.15593349801187095,0.43838327817543554,-0.09941182243610347,-0.22817695198030075,-0.2862765776395223,0.22639850025363195,-0.3814071125264312,0.7111732809390747,0.7767513123232646,-0.023031542554046713
Weights[3]: -0.272711240347806,-0.7920935320631105,0.5095887926917471,-0.2412855789257612,-0.5629457931793043,-0.6852602677816806,-0.24778711388250207,0.593338171762106,-0.3372405149681682,0.7997527419588308,0.316948107125679,-0.9318123226667812,-0.5717999774831347,-0.27414135507966453,0.1680924255252314,0.5853184645927132,0.3707024703597195,-0.8996337865943247,-0.552728123754602,0.4820884109856973,0.5292822651235769,0.36649483505938885,0.4843934231830731,-0.30119316713008715,0.7109160990039427,-0.8894556350491268,-0.7380508322911574,0.42908409770069844,-0.5029874180923157,0.17157579267936574,0.2995054299475184,-0.37698279105917676,0.22863119339040994,0.2089940603864351,-0.5489105002716699,0.97788906282647,-0.3726530118718059,0.2688136097364191,-0.0023560156125370657,-0.09408281142547859,0.6004019601272428,-0.493291350776931,0.47831202367242054,-0.5240635767225472,0.5271183948624498,0.3701956008422167,-0.5276118449529688,-0.9540355969006361,0.5456309968352462,0.6410800356609188,0.24789041711384918,0.6108070675333994,0.32947943607786634,0.4948800464602561,-0.09444421115072643,0.3607939245928051,-0.2764869552461835,-0.1892180401781658,0.047798322070295995,-0.6734901581301773,-0.9472094354905232,0.3231287884167995,0.09632558985442174,0.4911836923524662,-0.49975268798868766,-0.30606910181514413,-0.1604435160571912,0.2192059621304301,-0.7252308548079947,0.19020336269876137,-0.04202852353548092,-0.8981111393766995,0.10272222901821237,0.5413546876708766,0.8816864508584545,0.022573615900507882,0.8881828113869683,0.008456999905620322,0.17168843800746303,-0.659279501838274,0.638156209903842,-0.7840152353905212,0.883453100865452,-0.1440674537532346,0.9236853755655166,0.688698362414119,0.2935377728629567,0.7337511469301541,-0.6965617284628385,0.09029557513552522,0.25437601807265353,0.8165650283063599,-0.778984712333877,-0.32886585748235964,-0.14687337593495542,-0.7227268282895567,0.4103830593686473,0.9871283313199544,0.9756891112661403,-0.16681250332240594,-0.469360883100592,0.25318219291660116,0.7711952579073587,-0.6445723658635152,-0.3168914408036002,0.14600155649054858,-0.49191516148481296,0.7881247484069898,0.6131935956018015,0.8829821729487657,0.4726111132058366,0.7150560448481962,0.6390935218143712,-0.2929221760914299,-0.31164636803401935,0.836805799899998,0.43967568755134745,-0.7596069563923435,0.5674983167869496,-0.18845105040280663,0.4003931253218991,0.10580533701265482,-0.08423230940673143,0.18447357005648013,0.935827266759037,0.14140631121951835,0.880873459647165,-0.5671829008806846,-0.30794025691723975,0.6105102282528097,0.6160222360087898,0.9022594107201334,0.03276788863947977,-0.661499058670131,0.8024892180794039,-0.6226583163712445,-0.5552104932978799,0.5280254667289674,-0.8271760129496344,-0.22231618092503225,0.18061352389893193,0.5054130244559669,-0.8794424486716476,-0.5795439014116042,0.6176844619296884,0.5393199732244573,-0.8225284935080113,0.5139374637575529,0.9827805105516596,0.016320824165046544,-0.16240251584090415,0.16978907584965278,-0.5806510772888126,0.1632190220844749,0.4320573921532648,0.4290393683146339,-0.6596487363656409,-0.4099825487906208,-0.5775630967413532,0.5457162737494708,0.261406414216722,-0.9339762868793826,0.08599325334936071,-0.9993515112142738,-0.7292083835830951,0.5715566331388227,-0.3177118437912836,0.3005925804845022,-0.10300355735374778,-0.6966203850212602,0.3920162931978779,0.91165022082238,-0.9326205513830912,-0.21043321588754849,0.6309354256982613,0.8949801008659322,-0.015221298757990928,-0.505478669253666,0.5645843560224327,-0.6070849879098451,-0.03994504367492357,-0.6371644878090124,-0.5502862676337239,0.6741129032286205,-0.23066811345345675,-0.5555970469085666,0.48391948586866357,0.8716809273807817,-0.10403936342304257,-0.6296999349292591,-0.9654040103725945,0.8536124702752445,0.10842517721859046,-0.368878123987875,0.5125558355415964,0.104116771884317,-0.594483660345191,-0.888222765125438,-0.850335517828509,-0.9538721712091343,-0.1433535152501947,-0.12361955938416076,-0.38305897888869933,0.6786347243171743,0.6205831277249743,-0.07894984647885926,0.09713257881472354,0.625042983111061,0.5305540893644541,0.539729107554806,-0.55757834135661,0.8453870117638936,0.023057630090104673,-0.9754889860878724,-0.4209889941686906,-0.09629405767495737,0.6234389714656903,0.4179560556805273,0.23340860218396473,0.8285910756460348,-0.9098678323951865,-0.1863395707618164,-0.6051139894896718,-0.4882511587293126,-0.7441798996851685,0.5339484743466361,-0.19677495639621045,0.43644718054516574,0.27658585980129136,-0.4736798315777027,0.4894637612111232,-0.1268108998556356,-0.6577772065953603,0.5162320755984914,0.5352316440808214,-0.9123864407245014,0.7508449102110057,-0.23441632564601084,-0.9486553487869385,0.8454403305508105,0.34217025837142473,0.8539656244727285,-0.6610672005485365,0.3699888950887401,0.9411134707099997,-0.8010637506023266,-0.1640647180953658,0.0853322591098642,-0.9466452933599452,-0.38563603879215014,0.4764275958186144,-0.02247310570556349,-0.1301872865903132,-0.6789265934745439,0.9559956611860523,-0.9566286122224427,-0.5186860032571105,-0.8953063055510329,0.42358079525808834,-0.9096439433794673,-0.8785286721131883,0.6641857248561979,-0.6461283544118154,0.010510397730804297,-0.9558092317458217,0.5608370602528778,0.49980902944869593,0.5021570020482097,-0.5109209924703221,-0.5054466728870088,0.15066323610168927,-0.14768928161213737,0.37495898594992116,0.4005990588014185,-0.5112255180024051,-0.761476781108173,-0.5217625617616636,0.026993711025916856,-0.43391276590242644,-0.9496365040306172,-0.304186764780519,0.7178927844939254,0.3830924739051109,-0.337245975896457,0.04964180081156615,-0.48856161847496055,-0.9963421625999465,-0.9754262966920744,0.5646656181498737,0.4985898117558384,0.6133127491338976,0.6509976071472614,0.34173225586266215,0.9508817512301725,0.7155697676080485,0.6754677847074075,0.5022583253505448,0.3304198006496701,0.31885780690604953,-0.6296686813136524,-0.2966957103279891,0.34021210591641177,-0.39708017395983,0.5626435529266687,0.466167174962427,-0.38185489987109555,0.5971401574076807,0.4687167235970109,0.8322619124465911,0.7174724422942254,0.5651339495392209,0.4546322213608272,0.5383281648259942,0.37271881389705824,0.39454282140105157,-0.595170564760999,-0.7157848464585886,0.6946184453921215,0.9637697207777824,0.5354538950074583,0.553605547609462,0.46209922217362837,0.933390452350693,-0.012679495852023794,-0.11413733922830131,0.5034370525227798,0.5068749599866728,0.4129601722393297,0.6794361773906248,-0.17928502096344165,-0.25655260401521895,0.14920052939523032,0.7074519208201449,-0.8134589296828298,0.34136269210901227,0.3569492964804868,0.1161778891068781,0.8204489209784422,0.19672752600010845,-0.5682402947548746,-0.08598007140803876,-0.46542586930737134,-0.8076882091386655,0.8477609630254485,0.9360611313865086,-0.8430808972389722,-0.8891258367964128,0.9648566159152068,-0.449731197400337,0.30726631804456533,0.3890330002091612,0.8083233695246677,0.3725108119790161,0.7775293434872578,-0.19272502613356543,0.2276626526163646,0.409028289032404,0.6201780307212998,-0.3183052710780146,0.9627732969647149,0.10568848955709886,-0.8259999276259914,0.7857670457036081,0.017256221276361616,-0.021998682535252834,-0.5840665798560095,0.7475472836510964,0.3520776228045694,-0.9689221737373522,-0.9626113739827502,0.2887022251008045,-0.5354591502345885,-0.5001943280635511,0.5284025294557185,-0.3863230529967997,0.016373131990776935,0.2722582300715422,-0.9167453372246808,0.05281389223648329,-0.26684904998967596,0.39138085913562015,0.5298765019743349,-0.1499370089410355,-0.6344877530264985,0.429772412810476,-0.06384596505303297,0.7808578742607103,0.9243237729763256,0.3694525125294237,-0.8957560145742055,0.9526910399797797,0.501976190834295,0.14345342160363383,0.23395422903539353,0.32655746830932686,-0.2596896154863027,-0.25160271281761076,0.1747956232150954,-0.13073845802716283,0.5204458353659415,-0.594682516762257,-0.25367275456429794,0.9291666962355504,-0.4859988190975124,-0.9832878645242885,-0.07720400686176654,0.312545213471752,0.8445895824139391,0.1499663783604241,0.7777713541909697,0.9507044127256418,0.31631558856603975,-0.4363184631452994,0.9475082906180314,-0.4301992903680884,0.5658404648144917,0.31356381779236897,0.4161342444904774,0.5931750282613444,-0.9520798669904842,-0.36022522456954476,0.8232235106747707,0.9831113628964459,0.9271518928658812,-0.9158712377836735,0.7859505636547589,0.32022808986730805,0.2613116330582948,-0.806896865114841,0.8726160571848072,-0.7315771062432965,-0.9037747790914019,0.20849299978467475,0.5314830331913244,-0.6759099176476853,-0.3669422526168663,0.5860551056952854,-0.6775306988439447,-0.6578409131180629,-0.5051849489793309,0.6197640499560348,0.9329386768185606,-0.2336208472813052,0.5798804469312915,-0.8533044149416054,-0.3641547101382887,-0.05568252739295476,0.2020420800904008,-0.3311231524362802,0.760717003494835,0.42723281934262847,0.3330398236089571,0.5815166164058017,-0.17926957470647706,-0.1267257017575436,-0.42504262426292644,-0.233617602845313,-0.9937057164210719,-0.5609343438696108,-0.7630889784010478,0.6022257545713381,-0.9529571083618007,0.6421361832943564,0.2719507939541308,0.5010809649920857,0.8390978911383548,-0.9146583772879963,0.015743480547581613,0.6150385664883977,0.925045995683015,0.9670356020781391,-0.02176213125780324,0.07116677382549597,0.09758594962655853,-0.5657057387594626,-0.2870910508963703,0.06041095268931751,-0.5967690840348457,0.7809150366955042,0.4490571950790738,-0.1576421173092174,-0.8830631179190535,-0.41544604259074774,-0.565402509467806,-0.5432435886628418,-0.05296577806390915,-0.4761291307586464,-0.6029420477126067,-0.3354440244368049,0.7461294417395162,0.8662778204235099,0.5779992409177939,0.886916795345756,-0.9078329661676583,-0.12215111313964264,0.5592517858531042,-0.7190822981571997,0.485096998762567,-0.9308956746718137,-0.7060013744063804,-0.4624431080928395,0.9281649374999874,0.5936982843995553,-0.25163870549371403,0.7939705847734448,-0.5510050493995682,-0.7381269502165387,-0.51570540830293,-0.613022535859152,-0.8376263130678145,0.5174061671615624,-0.626568654927754,-0.7626213461017833,-0.00812099403515338,0.39574793995368424,0.492575231439607,0.46524396359766057,0.20751845390860846,-0.18154607230951186,-0.43760743986084516,0.3270150575903459,0.698160011031094,-0.650550118598792,0.8554308900771093,-0.9529347667359068,-0.6175482356720443,0.08485136173757506,-0.034079100134295964,-0.7869576292420594,-0.12185669649478825,-0.5618556568221449,0.5782893139767877,-0.6654198894581851,0.48725311527366433,-0.08816299265630678,-0.08580705480920481,-0.47676140231860864,0.8424637655221211,-0.35371832530528763,-0.988044176816126,-0.31059115511835694,-0.96153670904308,-0.9895279679944124,-0.49554434475678,-0.7699870893197567,0.49700128630037876,0.3427650330120202,-0.0971022032502202,-0.28828913772693054,0.39379131313656335,-0.9133346827551222,0.055726613514785986,-0.34498180418507285,0.5033353291167816,-0.035500674339735236,-0.1632191193128346,0.5785108100256983,0.7391289331666795,-0.29761515431926355,0.41317485524954956,0.36587521031772496,0.29768377137262547,-0.7272154315035861,0.5088341606356364,0.7242087292132009,0.9418576205142273,-0.964975900312579,-0.248600858648563,-0.9134305026342795,-0.5135588661367048,-0.028150295466555876,0.6214154285063224,-0.43667690017548527,-0.18545313235634783,0.8829815321466654,0.2934124720979224,0.6918459977683323,0.8450494804537213,0.6177422523624033,-0.4624020009040628,0.027073360526502777,-0.8208477626651748,-0.7471561244442855,-0.18198963309730853,-0.21063629128534178,0.3790063631623082,-0.07672888183813953,-0.16814365385479468,-0.47600933791883726,-0.9237070008757091,0.33593638117235924,-0.21589033548528813,0.13935741090185827,0.2296517702480889,-0.35883511590329586,0.39221781634610303,0.7722224234143308,-0.4927996764865604,-0.21886126707908854,-0.7132653349010062,0.4671080674605888,-0.3950280327893252,-0.17395851525233227,-0.7693221666851028,-0.5752404570224677,-0.5383917930336011,-0.5152002934248743,0.8322136922038815,0.6202262740676414,0.6712025886733097,0.14383928717292815,0.7322392797713351,-0.8805481222833265,-0.8358443071301301,-0.6138985052769531,0.18672297298289964,0.044839895816910946,0.4547742015937224,-0.280529548079022,-0.6547976339491073,0.01732171653645187,0.19934489365074076,-0.7793155308049791,-0.9952073467431578,0.14765005364779446,-0.8138305158384137,-0.5216366519808056,0.33445413717977807,-0.8218491563230494,-0.5018722613537483,0.5280253209392479,0.1896716466900915,0.06548250938728147,0.3248183244322207,0.06191675475902497,-0.5821417070102304,0.35449835255485884,-0.9770623799306631,-0.6061516169487273,-0.6737867797137176,-0.1070090006603901,0.09076383946964706,0.2116300720775639,-0.147211926592147,-0.06754628804863727,0.6036971014010242,-0.33534221320196156,-0.024798281968011704,-0.15763232839942257,0.4490458404362425,-0.6634580140654812,-0.693905081442406,0.7794628231510736,-0.5647365746152161,0.27288450487953675,-0.7340183524034376,-0.6153604109428031,-0.17874158332667514,0.08401398316315145,-0.7608366696063131,0.9770024646114992,0.14170493168589873,0.6479338191215336,0.12300665959802967,-0.8553022406321495,0.9532718639603219,-0.33409564445451634,-0.20592571664877501,0.1014621383983001,0.9677752982674983,0.832224620428041,0.021902275747573974,0.06092581854244972,-0.6067427683653044,0.4522113667112828,0.926557877066805,0.9865987633142185,0.3642405239740823,0.06657394954765418,0.5373051129933686,0.5160127099822187,0.5076258638396732,-0.5024086562417347,-0.2689964359207049,-0.8442810710687391,0.21572399568544887,0.4089796595505518,-0.3676267762038618,-0.9510430211651083,-0.21264724653309047,-0.9702132056871755,-0.46760281664726205,-0.06146586922065633,-0.8450855928683121,-0.6506655726817742,0.7507690972419312,0.4420501624429831,-0.911844490986245,-0.29190968595999744,-0.0208181520089592,-0.0622072541444596,0.8705835034468135,0.8737395796336884,-0.12454763852271611,0.6197697220462233,0.31900360776065084,0.2498550150775607,0.3884096142781943,-0.017731372740925955,0.3504198674813006,-0.7135450326435012,0.01956615178825616,0.7510663586440804,0.5425978244946328,-0.28159190111661486,-0.533608376320445,-0.357545706125837,-0.08254711812238871,-0.03233642264083051,-0.07102623631759841,-0.45562871333939425,-0.9659505747100108,-0.25432556646611804,-0.6860511692641541,0.9372117230376282,0.29935953360952405,-0.9166318550317697,-0.09398858858923831,-0.9560771956835301,0.7014422694693516,-0.5154922853761783,0.900569770438862,-0.3398938446025801,-0.9086149408987793,-0.39598708106018,0.6499867176869822,0.6373303977946427,0.6251134405029535,0.11202953714506214,-0.16315778026504335,0.9658689806078882,-0.9795090369784781,0.6495863029964204,-0.3019756735663615,-0.49847604666929,0.011795617198335565,-0.21806823953277665,0.395936306284711,0.43655065234589885,0.8835256117785004,0.10911299712448996,-0.4748642553923951,0.12052677344555351,0.779116550357601,-0.5651894386695648,-0.09625667943444882,0.12490906991293138,0.5597907488978424,-0.06175936156034445,-0.6795898115633008,0.23563546279242042,-0.6561563963332011,0.3444868099617244,0.28082635778972254,-0.1340878471425212,-0.6141148030823631,-0.6405400036091637,0.6596812995428598,-0.061415094445187224,0.06837703709880683,-0.1715215822549172,0.016542659614487754,0.8048848806903162,-0.8692134841667551,-0.036895216925486585,-0.47611967636091623,-0.6155368777064313,-0.9523055488021605,0.8128904904298906,-0.07378570040398547,-0.48243919456491213,-0.3125681613164806,0.46946075906486295,-0.8396028074620305
Weights[4]: 0.9593719700162169,-0.21995700300669163,-0.11901039496018107,0.6565744977707857,0.7002695983742688,-0.47492235222594925,-0.9224603511031998,-0.3131271979367022,-0.20838065129163708,0.6012067569425361,0.6220253769410893,-0.32399584694020256,-0.6312400547933019,0.8320678294785637,-0.8848268566116816,-0.34846257294922256,0.12211742863157649,-0.5426485992701019,-0.631826384752908,0.0550471940334174,-0.907429662489998,-0.27974913608271124,-0.01025974238769134,-0.18398823271691256,0.9109302376913513,-0.48071980172801754,0.07721461871509194,0.7469002584679518,-0.987973661156359,0.8028493830016112,-0.4517963758910989,-0.12561715539806395,0.18408961742375496,-0.31150291455513934,-0.09345981715873808,0.6058421999243284,0.4784703913510173,-0.9968931982279258,0.23831530718054394,-0.4567006106752439,-0.2490612311517174,-0.67033014244881,0.013265531981953238,-0.47042024110929126,0.34107940613342413,0.8478761705792863,-0.9842968229131293,-0.7843733782807241,0.6977173470415721,-0.7253231274547629,0.3954433768035115,-0.7699195620463787,0.10128714381777093,0.10534999850455207,-0.5002410651651402,0.239121106098928,0.7903027393809998,-0.9350221622432685,0.7456442600794342,0.18098940010228626,0.4478630290589589,-0.6693606095711517,-0.3251535367803432,-0.011230034293248314,0.053003132833635114,-0.2523574676608469,0.4919145356360426,0.6802628597618374,-0.07447235336269831,-0.49066905653601,0.17306703569976012,0.11901062685950214,0.21903609354935405,0.8248742259223361,-0.6958915748148652,0.7629004799588119,0.7069853319353356,-0.5398395012784002,0.4749323611496632,-0.936945932887935,-0.4964229788148883,-0.138412003004184,-0.9508170885736202,0.7373494662984039,-0.5925939938019003,-0.6818768138447202,0.7730957007841652,-0.9212603810807971,-0.8112618493899991,0.6674190767423338,0.8155394605433286,0.41349255359428594,-0.7425374583073601,-0.9426740929217423,0.09543636026579727,-0.5797006215805656,0.6548233943315331,-0.9755044337247984,0.47657662605707385,-0.4065631262057289,-0.644038365056756,-0.6645596826749667,0.29009897508197424,0.18838640357758218,0.10160983684547698,-0.7235672500559908,0.011044344404267381,0.2764129178954349,-0.19875842668058274,-0.26314154512395227,0.5321357741635926,0.3301422406593999,-0.4099545233929318,0.6825901929673692,-0.32258762108282546,-0.4137249679368571,-0.7185435209975315,-0.06250300307874712,-0.41863604049134817,-0.2651200533216447,-0.02545316844501211,0.4131749167168397,0.49152470915183644,0.2581085698949679,-0.3103734336778918,0.7522499736045695,-0.1445125865731023,0.1608152765476236,-0.27057609977569935,0.8837868250401879,-0.8919368798049592,0.6824853740147757,-0.01641612733547393,-0.11850451264460782,0.7244839633573009,-0.8143797462679033,0.5714890219138418,-0.13920349215120242,-0.36426037054707316,-0.8690267437459094,0.3070788417510124,-0.5033172171112696,0.27749804559978575,0.45187969573395304,-0.8647166974212587,-0.5146027801160713,-0.17655292301278236,-0.4251276512747294,0.37991352816108304,-0.49083867179734575,-0.8611571005830342,-0.28453013085131357,0.435754503745435,-0.26327785091599754,0.6181015089571739,-0.06622230233109859,-0.15768488393938918,-0.9798795716763967,-0.5127240074332047,0.34704862648438334,0.43622012645225866,0.8957106857627084,-0.41167459406699713,-0.060117234750044365,-0.37121863075123107,0.8496460085034585,-0.6534416320051261,0.708549989251676,0.9754977607985482,-0.49072432494290374,0.014786010149301143,0.42065997115367093,-0.6945220073136269,-0.5447484799283128,0.4278011049273429,-0.5221359513337426,-0.8623456375171789,-0.9590427099144138,0.12559259058013786,-0.7872961483569779,-0.06209496325168477,-0.7000421653871038,0.776465153284477,-0.8002252131365073,0.7186843268488158,0.3684850135985503,-0.7785628494193815,-0.7637904679506494,0.30335797078575777,-0.1875170994126812,0.3613383558534021,0.5516308717579843,-0.6337984128081232,0.29370427471292415,-0.2839114085230564,0.4577446838178414,0.9497077306498343,-0.6399344809539311,-0.17690167351481578,-0.7143627059247171,-0.8535998775065263,0.12467873145395625,-0.4006254120732776,-0.1261322443319242,0.5100634162217874,-0.26953108623137306,-0.5739703975729563,-0.0026280148863422515,0.30405798327908967,0.13651376811307597,-0.19313457578523682,-0.19921451500097873,-0.09087088077116177,-0.7190226324516387,-0.6127859505251744,0.11715383536542082,-0.8968754779212598,-0.6374533056031131,0.19318961830088144,0.2380306810317705,0.610287849609874,-0.8953288252909336,-0.5540554558644329,0.21119204685613147,0.18505457937021497,0.4752873934224655,0.054458383961794254,0.008053092755402114,0.7475043302932692,0.9798380648279159,-0.47184368198357696,0.7767978468904443,0.230982373902811,-0.15100969665894756,-0.9421327440737614,0.8040132584477307,0.683280283299832,-0.06542639427833649,-0.2695261644642551,0.021362490184014878,0.004909982057014038,0.28437567827385224,-0.0823776195826064,-0.880573326831597,0.9951887115397926,-0.45625616689724585,-0.3667970398851983,-0.9199990704283114,-0.11220367490882222,0.5878796631413883,0.3902071841946837,0.6230092158648228,0.18759913984108678,0.5850676454534138,-0.3246505555345912,-0.9658323228200116,-0.3177252177160502,0.3979641847890047,0.6855832737337719,-0.9809120753691122,0.668997854610218,0.4040619981890988,0.23304561096170223,0.343514700481452,-0.371008316919367,0.055830705582188105,0.5756915590580608,-0.929528742805901,-0.7708460257646118,-0.38448518492936745,0.43118420654753103,0.17002216267614498,0.6346859966211698,-0.8436196738069967,-0.7373236514478898,-0.6363294057717218,0.17667955587463435,-0.6756349074075161,0.253996180023065,-0.33489592156135284,-0.15504608543359022,-0.02554254560989444,-0.8797432323357757,-0.850817087492317,-0.4054482924654796,-0.08507125412998529,-0.4119877877701017,0.6314790414792855,-0.8381614712244652,-0.981657396394864,0.13768068815595655,-0.7053945018777832,0.24274460706832213,-0.27955426384828835,0.3726070294370935,0.5732396104312605,1.0037071808047437,0.6034931535539224,0.5003948525786198,-0.06337599654938221,-0.0423916837257478,-0.43366695668877236,0.8633512914538201,-0.6968813071478537,-0.8530281166792978,-0.7661715102224478,-0.9777880795196574,0.04191597972154426,0.32221862269668766,-0.6883211497628694,-0.142511878694646,-0.6482113388930634,-0.8505710775753125,0.03026083901353932,0.17413401006447793,-0.3107329100886047,0.29882058303877645,0.1303790255780649,-0.23260570415370735,0.7332587600231815,-0.5177989208124506,0.9950243997378198,0.9207029177274387,-0.8070099444181902,0.45646104145385363,0.1554741996431693,0.9294524611782123,-0.10498016380115467,-0.19898668455372198,-0.30298379477522175,-0.6245223618486289,0.5925270903820763,-0.18434468339399657,-0.6717011917716363,0.7328774853296938,-0.7134023996598098,0.11110177129092702,0.817138074812078,0.9994505653155272,-0.6444376494809677,-0.10182225695158104,0.5532974426078,-0.6907395812174024,0.8611981443673883,0.20004975147479345,-0.17069170855500915,-0.8170006234558349,-0.772047979449878,0.5679303426967564,-0.29927993876649484,-0.7003145919701197,-0.11052990496359938,-0.15707008661816657,0.8134079514109618,-0.5164531735895459,-0.03091601983649973,-0.35261750368353445,0.6828141883566954,-0.12929829302104062,0.005182710944294344,-0.696974673167325,0.12822791986550564,-0.7407085056140592,-0.37296467897154606,0.9361867196560776,0.2649610309232777,0.5289321344014872,0.8154291562009292,0.3028442713425919,-0.10844291463685457,0.5795671066407007,0.49044201452791897,0.1346218052086783,-0.5632818234136278,-0.15814951798441487,-0.08418211594731705,0.6576893180678388,-0.9342451164227884,0.03008771526857875,-0.3540865377846018,0.0026345460595393233,0.739150155909548,0.35774847224768064,-0.897231494482784,-0.5809123967247414,0.49930787613936556,-0.22765258610032096,0.014668114024525503,0.8460877192421294,-0.24310424143593024,0.638379921968272,0.4290036006965692,-0.05358075958377717,-0.005732145628767116,-0.9570045796954094,0.7642488651875187,0.30204729949957426,0.6873259549079201,0.9159004174101467,0.9353674268762527,0.3085378731282081,-0.617718680307093,-0.06184608133943675,-0.3281286129217383,0.1109774942423706,-0.1729018008150767,0.791742854579665,-0.5752044966684242,0.0021828568564794897,0.590075422794461,0.32205728879599294,-0.40173877372019906,-0.3188817232729704,-0.7540129230106991,-0.9716914302851627,-0.42268149993507265,0.7669232039558345,-0.8495414060771193,-0.7877414290736157,-0.5631432903758917,-0.507403510393297,-0.48573597962303827,0.959799833577033,-0.46029253597433145,0.26433903904901557,-0.836615892129695,-0.46248094556513897,-0.8405975626347225,-0.5691980529434367,0.11723779150401695,0.6318684464526908,0.9801852229756958,-0.825393263575183,0.11958348394402471,0.3829735588658712,-0.3495119645241212,-0.17606699342167847,-0.28856614710419726,-0.0028247359615280417,0.6023994517741414,0.7348371536568358,-0.629850972351741,-0.9615446960934659,-0.738733319443992,0.42789847935917713,0.05014120091225083,-0.2497366700553041,-0.29959005829859064,-0.03405793059340578,0.4656769202396631,0.9877840578499175,0.13634614419953262,0.47710772684304453,0.4877380341549017,0.4389620366996438,-0.1978651369949514,-0.5582019747715944,-0.5966546062901187,0.3871059483820814,-0.04684943857691868,-0.6915301942469146,0.6793070842832042,-0.9183460243770285,0.9295836681370971,0.9709523863418688,0.3671300445644299,-0.5478967762751681,0.5785126583794034,-0.1126415026236883,0.40947720844482927,0.7691052455139928,0.050761363027040485,0.1372519597118962,-0.3922327223197709,-0.29887695764139155,-0.8775746719341607,-0.5242042827998308,0.698533153021025,0.1028074720421841,-0.8009847131562349,0.3988983879792032,0.8232919125926177,0.16910336151040256,-0.0900607434563361,0.05457405723399306,-0.5624810911142365,-0.5294284314889068,-0.32419882193114885,0.6844395733616363,-0.39003522035197935,-0.75062598497525,-0.5628603724054084,0.3111325465013042,-0.9097348746264138,0.3332975958710995,-0.9234979982287547,-0.689569842499189,-0.8944692316293674,-0.7225862566670904,-0.9434795004182069,-0.39923157208927834,0.1619423772962496,0.8003519902938754,0.5554285168440214,0.6965706207307849,-0.06297730517712297,0.9990941844876362,-0.13780075085246968,-0.22400679310039007,0.2974796181249402,-0.7209122238126693,-0.33336214418290655,0.2488510763566566,0.18152527711206848,0.5548755723942159,-0.5262107473487176,-0.49857762522290944,0.125544981994074,-0.15634454241198778,0.5142771933786281,-0.12939361649399753,0.7936593493986397,0.9431729738225152,-0.6766660733929146,0.1683264167598047,0.3125653831232078,0.6938656502307048,0.033789614736682606,0.2573650720054591,-0.38931220555180324,0.7794737973154866,-0.656552905056883,0.41150219897343887,0.03914692208131165,0.5911068085539652,-0.7630439893170464,-0.9770600777012576,0.5816272292055966,0.17587505657474722,-0.891862031187893,-0.5379197362248026,0.6299706981818401,0.8928405329638543,-0.6407332985163638,-0.7161087414467089,0.5147631323373747,0.18171972637465544,-0.8370302398418521,-0.4667358642651247,-0.12894013733783835,0.6229838383548268,0.23862067143470608,0.3085250134153874,-0.2259342674160969,0.16798668704682035,-0.19166325165187464,0.23830718400610065,0.4817512181968202,-0.6365176633170422,-0.6511121530323811,0.20643678549976863,-0.07141568934145182,0.5723396621515693,-0.8346945875485868,0.5184429667510293,0.9100863859976195,0.24796758605301036,-0.7971043764673842,0.5752554175302195,0.2857726687319904,-0.5841258597912214,-0.11147764155948939,0.9168063057196467,-0.2945280151589974,0.0657309789984102,0.2765609018717902,0.8859295546152332,0.5559187131842286,-0.9607184124180461,0.6781280593217284,-0.7897595492143927,0.6073815560002724,-0.4486660517047467,-0.5647564137190377,0.013195111888085975,-0.445554931389892,0.034922081527729576,-0.3755321965438929,0.8449314785399156,-0.24345869628873595,-0.00674263993592128,-0.4588112958980777,0.23344500047780814,-0.17145559957311649,-0.10410740450031104,0.5036020084807477,-0.9765910608616496,0.7014293748402491,-0.1480714455939156,-0.6253767216941466,-0.7342984577428467,-0.07483582145846203,-0.4466586767395704,0.2443041246499324,-0.5919053828742298,-0.300153605804882,0.3320219486442224,-0.36426425009152125,0.762182820477608,0.9573639109532182,-0.04588092632865581,0.6976153858460559,0.45590917461361236,-0.3106081780561284,-0.8613526038179885,0.5990552294994962,-0.6227496376367052,0.13709607587060701,0.15211030056332708,-0.03600210185907882,-0.08967072567421508,-0.3422834851816666,-0.6186809579101045,-0.16647635109580197,-0.6894048122945676,0.9167476126243521,0.7027755681990033,0.08418643078322954,0.7648750677894317,0.4888503884585504,0.20430977415453302,-0.8223956615988739,-0.3119960251415403,0.6810119718227178,0.45968159400415987,0.3268139513716835,0.090041494504568,0.3427681724274383,-0.9790206467635094,-0.6882823424824898,0.23461293393495164,-0.5950527003011912,-0.13771501702150102,0.8875675675866974,0.8024222300399197,0.29564197421802296,0.08527952948830997,-0.4559468214660636,-0.27118363429763614,0.3499102599873529,0.18033457635867986,-0.06638378752846623,-0.41139317149690524,0.9106555982871031,0.4694239370854302,0.60613940325631,-0.49634763420098765,0.6636326808217508,-0.08068569444896585,-0.4555001372666788,0.03892190839668193,-0.7186514554599551,-0.0954416112369954,-0.7069265388533376,-0.21923370995523117,-0.19873622767568389,0.005249616226763232,0.7775745036907376,0.24394746462067007,-0.17898501231287844,-0.4909862650050718,0.0344821899358565,0.11611672263411643,-0.15960735695418315,0.7293849642059695,-0.4946180253730239,0.8114213490963048,-0.4709879215884547,0.06340492772264701,0.035846881653007964,-0.17693536231462653,0.12927132002377367,-0.6687934131577359,-0.592352786989031,-0.6916114341053501,-0.7465602149006725,0.5956415984220699,-0.16301383734333177,-0.7404660662759205,0.8909805660899714,-0.1598302702717406,0.43120596400152406,-0.5484448138384357,0.5058781837606234,0.27281043085866163,-0.043860967757115565,0.5146861577009252,-0.42160693529136806,0.1068012775419287,0.0011584577156036335,-0.7096076420087403,0.3077050257975724,0.30010571391326635,0.9041759771779998,-0.16923237273899483,-0.8651718794671688,0.8070411131750053,0.7350881862151848,-0.8396653671933643,-0.06820387629242797,0.7614477312944121,0.9803700055835629,-0.3788836846961098,0.8695021708819559,0.7024441999132761,0.9365107397137352,0.9843847948927661,-0.4947771378622457,0.9758750557947261,-0.4726734950545586,0.22388930023828957,-0.7973965563799239,0.5364179311024109,0.3624075601633674,0.9960878193360232,0.08698931387019782,-0.4170729962257077,0.610238538873493,0.5675822121871552,-0.22675406803691478,-0.009304183073949202,0.2240636568628549,0.40553395701829986,-0.9542576996396565,-0.2686815426073417,0.5061785082827222,0.8184113352645241,-0.5880087090600323,0.5691646503140986,-0.8258475287937781,-0.5536013280756777,0.8422862858708418,-0.3576884601999486,0.3105870133984582,-0.8670288994012202,-0.13336467591379705,-0.19541220062604864,-0.4179469847203917,0.8046605483650511,0.3524202533776035,-0.006167601331215189,0.024357293278145287,-0.39651826182218186,-0.42052522740351284,0.7772691574773143,-0.9122110856288165,0.7712870946951615,0.9376981537498992,0.9080881578419768,0.7437783133908074,0.551901116758539,-0.8031974256984877,-0.8324940259719705,0.3870887008435506,0.9411003067815211,-0.4626159255684428,-0.42516395143473706,-0.4246259850564533,0.1381837134892976,-0.8049608728871498,-0.898021157783466,0.5503153426341318,-0.07883578589131857,0.8007588553245919,-0.9190721669788808,0.3816030143674478,0.5602919038200247,-0.7729425177783438,0.2423153870004766,0.15153065656848752,-0.7139187919506425,-0.999126011505316,0.8055779905084417,-0.7848380411904482
Weights[5]: 0.9663385236479056,-0.37941808131496335,-0.1739408155781873,-0.7315268571169706,-0.3564704569785252,0.7348914135875606,0.880713181514625,-0.49609686690200905,0.8253863369232912,-0.377748645552317,-0.75040390237719,0.6747803118428124,0.2552228389565008,0.3682601420992333,0.5827080987313333,-0.7302788857977274,-0.7744659091227064,0.4438693017903106,0.6096214212522011,0.25044141116106955,0.4435170560346531,-0.8968069208305361,-0.19727711714677376,-0.5014530604246319,-0.6043338568901335,-0.47250298944884117,0.5442296124735053,-0.30461723325057755,-0.2434424987265107,0.4576971053414498,0.551027128263855,-0.6087754162069295,0.9523440152184777,0.6076751675492502,0.9747617831336157,0.9168021557465205,0.7487768641434502,-0.6930991279394827,-0.5053458295321771,-0.5398522864747104,-0.778734339298091,0.04641220953614078,0.09577787718539033,0.1785075008769088,0.8313317353983092,0.7068227025246354,-0.6949309351364761,-0.14120265987757719,0.6596072882691433,-0.11819045763378522,-0.9394528828279362,-0.4429953132956267,-0.8040434307437592,-0.03527945235151775,-0.6641035227403527,0.8631454444784417,0.8178590358318105,-0.6724877551535553,0.8728069997731629,-0.883967467529684,-0.8093381988859447,0.18533041476520262,0.7473456318245015,-0.6323107684181588,0.07122422618382807,0.8583715138297396,0.7224362966243347,0.6475476714072506,0.3934983589656178,0.6659059429848129,-0.4790557499411775,0.9186332188167763,-0.050784868677512196,0.1494737077269115,0.029175750459160543,-0.6028951535014879,0.007415201984073638,0.6242153819763174,-0.3327847958229412,-0.31115655941476883,-0.7775720543123652,-0.3145677276489175,0.03577547848027929,0.8747479589072744,0.39714998816938607,-0.0059775584405183935,-0.8047319854631703,-0.012376532430004583,0.2717786902896029,-0.888383661344826,-0.9010568800852898,0.42126461929700554,-0.5659061277126456,-0.6213783620024931,-0.7305140875887657,0.035935245936706384,0.29906657771163925,-0.271911354396451,-0.8927167253069191,0.9729602215685695,0.9843864059003007,-0.3424786065437265,0.4652989811568051,0.9937013452843304,-0.6391347076926077,-0.8580861016447126,0.6077895553818855,0.046482861529329345,0.9355447971893218,0.9387916307611353,-0.14426975750563187,-0.8063563461445069,0.6602970406693858,0.18396355918793184,0.8936045867826812,0.5052295287629727,-0.8504450637150766,0.8725976729172271,-0.029460756587544767,-0.9227982153756535,0.6631034992929099,-0.2651871709456608,-0.6242310188823523,0.28188202031044374,0.5598629646137745,0.08719367278689671,0.47420782836193964,-0.4311204451794638,-0.12062338113986387,0.9922680036214987,0.09742709233133179,-0.72086563747342,0.5169321072832365,-0.30574501739151083,-0.2956768054234862,0.5647720039742218,0.2201332911942775,0.04207413319594888,0.5138826665998821,0.2552360898140986,0.3862328861775961,0.1487851530075004,0.05207867038067371,0.33298705952846763,0.2558860961608058,0.9052994660592171,0.7609675786276198,0.2501303130994226,-0.5149829487851741,-0.23574361635173835,-0.11361969034821717,0.4249021784217137,0.7459102594103477,-0.9830639887111763,-0.7056555041465057,0.24543222987269778,-0.7172568344505031,-0.8156748306685024,-0.5725039124285134,0.2592243605137206,-0.34140015056970585,0.040855146861459704,-0.8296820847999806,0.9442521036075171,-0.15924663802573769,-0.4235963138861565,-0.32328845342774337,-0.0339579419391034,-0.5204934754969988,-0.6713019654486803,-0.7149037624313048,0.10748080308897467,-0.641286936576684,0.7153006153013199,-0.30903110155324964,-0.4856816537145906,0.6832198652158097,0.04336492666337178,-0.9724816871171539,0.6636188596673951,0.3325633231635259,-0.7784274155797297,-0.9278609086722359,-0.8856981750590458,0.10916724281674106,0.67337642837402,-0.47769388997094553,0.48675384198289284,-0.6132732206005689,0.4582432730574366,0.286138689472077,0.037691603514420205,-0.3846643890182787,-0.7473029949456933,-0.40213846201176684,-0.6509631758793086,-0.017709913206151673,0.10977437771380627,-0.5077663024457946,-0.3205175899530377,0.2285839710249017,-0.2050795873643528,-0.22937621140357867,-0.8428876626509888,-0.5169865820194101,0.782996282567547,0.07185094505268604,-0.9538255152858731,0.33673939964347677,0.7857733047946919,0.5588381119276549,0.24453758979419649,-0.832637584033027,-0.2296828460437806,0.923991955750064,-0.574456190707859,-0.048105052242049216,-0.9493379376932414,-0.16405794526457923,0.16918399798180173,-0.9453734680755872,0.18986092935775445,-0.4183562022719328,0.024623066664032134,0.045543894658583994,0.24837990722077885,-0.5078548078927467,-0.8939819987369617,0.11743472147002068,-0.6580730336050178,0.5320282594915611,-0.42674879511485253,-0.44590611820736203,0.3505611484370691,-0.5633229282975285,-0.45171151487675615,0.46327994850690984,0.9223279141666716,0.6289316809737631,0.33059030824384794,-0.3873832665897394,-0.5114945251589046,-0.8473760506488867,-0.40641658180589857,0.8915330684028029,-0.9566619312892779,-0.12073777361330262,0.8502604457783793,-0.6697766043570714,-0.8251039804076329,0.39741720417394166,-0.06847356775238811,-0.7256697200823901,0.3230496995724037,-0.3751441218774505,-0.9612730098707941,-0.7867252339754469,0.7459956140013125,0.11077512200492201,0.2307802388587874,0.2880495319012767,-0.03593204813978625,-0.07278085988981145,0.00548259761481928,-0.737981477842221,-0.015727984813445218,-0.327511194701123,-0.19684077905681407,-0.6707428611629129,0.38417176526312,-0.0357455477676954,0.028086820362159808,-0.583712490127458,0.5067769898620289,-0.4346314419390497,0.5750956263277194,0.04212290376523642,0.9927839133854881,0.13657902699735902,0.001360245515294567,-0.6309153864304141,-0.35811525367112607,0.7757946056201097,-0.0574558454842651,-0.055492807412997475,-0.3995032806871263,-0.7013704989577506,0.22749852446257068,-0.27834236401987367,-0.603337134515698,-0.6637019287682355,0.7260010744899718,-0.18025076121892789,-0.610363629335719,-0.9755550905914718,0.6267655391221848,0.5502665701638954,0.15629003096419847,-0.6690741416404655,-0.10012532961171514,0.3550332289011054,-0.9326105446649879,0.5180685242450186,-0.04846368220097552,0.21571574603007915,-0.6249449903261592,-0.4826659567107754,-0.2331531295707231,-0.24231883289400435,0.049760251794830124,-0.003395913636030534,-0.7795059509868882,-0.39058626466308904,-0.8905902314414491,-0.13830437471079848,-0.35513043187331894,0.18973073964532647,0.9890831267983851,-0.9412107865088374,0.6684342183105714,-0.30155178985257197,0.4471583241667789,-0.9274165828592964,0.9214812095841708,0.047866639711993904,0.24722973802393985,-0.7899243474479986,-0.9902494039716718,0.46496243371712165,-0.07768409118637078,-0.9802648860043733,0.8915653954686436,0.6674341455415982,-0.7575853754568777,0.6455988630864764,-0.6993031574875597,0.12362402822991081,-0.17574171217891466,0.7268298499876773,-0.430545122104798,-0.9168401756433944,0.5317788701729164,-0.530182642643425,0.6756271053634029,0.40460322205648586,-0.8835974736651971,0.11266711499483606,-0.290923355831049,0.5469235964746697,0.38464684354531253,-0.5602823096651248,0.5585745073723064,0.09847124842516845,-0.33145639905456414,-0.7982436434780368,0.8938492187655251,0.9779638031230969,0.5796403123056502,0.9026044926535575,0.9743199953689798,-0.8288248813845334,-0.4910673189401009,0.30056983479325194,0.8343922029409521,0.02939089808119033,0.1050386908953258,-0.4469363360884303,-0.6329979121911682,-0.5361919461949677,-0.4390033168022695,0.5217225720640886,-0.6316191307944937,-0.7380262134113803,0.48745273379333764,0.5794437135193711,0.16328975775741902,-0.008427517061291226,-0.5939785309085045,-0.46885831987867377,-0.06828826028330649,-0.8645258191629586,0.4989420136687535,-0.5363727760407452,-0.9307725987217059,-0.5338343406084853,-0.5530665389594617,-0.2070760217145221,0.005092666952448255,-0.9564996417409273,0.750761222909559,-0.678441041930784,0.5430145904156447,-0.0790957608628533,0.7525098546186975,-0.6017152581371903,0.5742301203117494,-0.7687951637783983,-0.36457750922941673,-0.356837594665826,-0.7005449934857612,0.563416273357496,-0.2586599665100136,-0.7543064521753993,-0.013710072388146595,0.8797777952645978,-0.9146902798397382,0.3096232815407726,0.6092971473280259,0.08768726009974778,0.03866278798481689,-0.09672590040109988,0.5616634098674707,0.03972107642518727,-0.03579372205645263,0.8405336727665783,-0.32363734549080825,-0.9553732797295662,0.23062960488285378,0.36724151548335393,-0.41851121998322716,-0.6886348434205329,0.5479709969591213,-0.6764932878671648,-0.28694991005647774,-0.7605681035535747,0.9782235226120146,0.4409571753859179,-0.4912107459287113,0.09126457225308895,-0.9876436088245365,-0.061158089095555125,-0.6379707499423523,0.7799328578355157,-0.7637894794607962,0.37001036705254037,0.38400327934982276,0.2542564097490069,0.4843213117129412,-0.8034817761408194,-0.6272563504423859,0.12987201273890392,0.17801880280472884,0.9220227998556404,0.008053597532237777,-0.15297003237203233,-0.2402264239453834,-0.49768792814467466,0.9557254602926437,0.9112227819446581,0.7219220873536178,0.5296083826243916,0.000583190936866762,0.2681799098292128,-0.9389878405617483,0.9809466284163788,-0.9905593682745163,-0.5764633204952598,0.5386532400119366,-0.25074344984110725,0.8996667196404827,-0.3468351601983682,-0.20114988844446388,-0.48280381422231655,0.06720231750930225,-0.9003620279414806,-0.4488714021494522,0.7900194541625107,-0.20484283356463906,0.5826907850567105,-0.5511278686279231,0.42675547742691833,-0.43658262185593255,0.0357806408013126,-0.005453899039632559,0.45062471062439724,0.13237769675086142,0.6253793032958075,0.31545311460059744,0.8660248228656244,0.4796662486529286,0.4759188776258001,0.4850533043430436,-0.40878102385544957,0.36143379512610196,-0.5257509049881961,0.930850177194956,0.08663594198868625,0.7125101217033516,-0.7356069071587541,0.35869256864491744,-0.03696400915859705,0.7074842250417129,-0.27303647974165285,-0.7006666825377557,0.7219258676804209,-0.6810173038491111,-0.351427609847767,-0.15517650223705517,-0.09535356673477942,-0.7011797624861358,-0.027325494947677626,0.7088108024135282,-0.6282213840765047,0.4616128743913084,-0.7048795165982468,-0.033808995519675755,0.9648025501355542,-0.7263624620280985,-0.3896070045370641,-0.15104696107116217,-0.6172555626743697,0.10058539589833712,0.6648289486205675,0.2636450603415091,-0.5804544820369596,0.16718530348087843,-0.7792323822765781,0.1583275213295342,-0.4084515720923386,-0.836062556673594,0.4507436100297496,-0.930512069804144,-0.46929458033845517,-0.7858625519634294,0.47528290370020043,0.7086516870571672,0.8250434883675835,-0.2630293485381694,0.2748003726011269,0.13387935754558034,-0.5168447333932131,-0.22031681948356185,-0.5894084319422992,0.5670448800395451,-0.4931679617116078,0.7671080752122719,0.11327468841954813,0.12974145035348597,0.06672657729471115,0.5080450399419439,0.9657173115260259,-0.18619861368201573,0.10174802860266693,0.41489531639702026,-0.013039994288778044,0.8669808497467681,-0.9540249984864786,0.4680696164985359,0.8660181839551911,-0.45353594192548413,-0.9022590045844094,0.4854014619595157,-0.7552024283237766,-0.26694906264147067,-0.16215916300385577,-0.10086351766383787,0.18104967472711417,-0.8399086323752574,0.9858310865172331,-0.41431669304814034,0.1403261745070694,0.22701055706805118,-0.0018896567644037798,0.47651363791735557,-0.6341924498016911,0.6031571811590023,-0.3093430392597967,-0.9026393420312402,-0.24446666722150595,-0.3483427108915048,-0.9467295821590187,0.09171631685176972,-0.9003102461026892,0.09587602303666468,-0.7976759554954688,-0.3590717216281114,-0.0389795605843777,0.10086458895749055,0.22234740585407137,0.604346891021185,0.6582445491376541,-0.6476971728949329,-0.1392552159443755,-0.27486850753187597,0.03955617036649772,0.0006989086981392667,-0.46511439115978515,0.6772505537035178,-0.2713826295320795,0.6071088833767497,-0.41406219332202443,-0.04681667920519439,0.14425258950528352,-0.5184787458427693,-0.6316673089604473,-0.26193066562900386,0.81405764722815,0.6248945819022131,0.05160766265901057,0.38607732344544554,0.1816586881107637,0.9582040378098371,-0.2838921378649834,0.2168440501531621,-0.5158864576223876,-0.01037555971155559,0.38184734466286235,0.15370202752150666,-0.4713105491694578,-0.8082648701072972,0.9300474142329989,-0.9295723465874662,-0.06292931971276616,-0.6185185125183865,-0.0725612421857944,-0.2119766525979977,-0.6337342269875734,-0.7270211492325278,-0.5630425324491424,0.36510864150016964,0.06902424575249855,0.014512198806024609,0.370391152288871,0.15158806202424255,-0.930287531351104,0.10378072010028878,0.9495871560234259,0.6183820559931209,-0.2753722192344767,0.4683971954653032,-0.16668856504800525,0.33387428285053017,-0.9534258541841052,0.8258706853740398,-0.576999945555571,0.7061740474145289,0.6358993312511125,0.6375309385534054,-0.7699156942637244,-0.9624285269353672,0.6171301489775676,0.3811805729666635,0.14856110287297564,-0.4631177594247823,0.6770614691437509,-0.4844898467345582,-0.9838873594924283,-0.23722889797632996,0.5556468712752177,0.5842413900615021,-0.6227477980822202,0.5467718092211112,0.19320260363787056,0.6876722161357266,-0.6826787457026675,-0.8333820700863689,-0.41688980494919664,0.5663904980305164,0.1564698615451043,0.38595013849530013,0.0425631497793853,0.7544830037821423,-0.569629409008569,0.06389150434285196,0.36079246055371716,-0.41270664958875003,-0.9892245931500684,0.0988066993182557,0.9567597145013325,0.22125991583860483,0.15212401615088988,-0.2712651655409789,-0.9571054549688033,-0.6006140055137752,0.7479784925226023,0.6878436727858352,0.8681945758643514,-0.162276565720856,0.47708430526037005,0.5564819053437445,0.08934825121883401,0.1863957625712221,-0.9373755983580945,0.13915531053910934,0.09120060109473964,0.28817180976652157,-0.8471459730951973,-0.6222970947450099,0.5276501614064615,-0.7391030429082825,0.12461472489769485,-0.9304593355264308,-0.51778735011713,-0.16279768625404578,-0.016327323865297894,0.8502538203495804,-0.05091176789762064,-0.9153351960309479,0.17608978002150066,0.08976811873250079,-0.4952652535844898,-0.08269405881068392,-0.1939886124776623,-0.666503506557319,-0.5706675227594876,0.6448578041255744,0.49987631454126746,-0.20942178518018773,0.9380032345363885,-0.37211121216980336,-0.7009186892308847,0.7479288483727391,-0.9066342822772611,0.6029328851042934,-0.6927531590972279,0.8740698685058672,0.7124535634520066,0.2970046060242128,0.9730237451769331,-0.9273793492128045,-0.5654965041044617,0.6371048873463203,0.5762751789653093,0.6971119584967904,-0.9033627686572088,0.08257855711624895,-0.753477815423849,0.2056922312852425,0.4157133183515227,0.8977246721730217,-0.2612445593165441,0.7813279022375716,0.6575375290855474,-0.6167799642387684,0.0476506571507318,-0.8312533869553607,-0.6206965891740734,0.728439528368618,-0.28917627562264736,0.4463427092164489,0.7882954952252541,0.3622116396958994,-0.5643327150327772,-0.10493986433084357,0.9649491782726954,0.384207092758393,0.9774319507511219,-0.12072023522142328,-0.4696271240104116,0.11508867755303553,-0.8546864864671074,0.6571520928559602,-0.8880309815928484,0.10346912923430507,-0.34473537716303737,-0.13237014093081012,0.34103076222400674,0.10889942902554739,-0.7631407379001103,0.34675392012426354,0.3983356195494232,-0.705815916743975,0.3748648964682897,-0.9597214376366331,0.8891333471467409,-0.4822465914684565,-0.9096086807128082,0.7101456819615073,-0.44471777204643836,-0.8619171752882736,0.48928058775574,0.9765007784480699,-0.4188875851309335,-0.4736469236545483,-0.7156748444380587,0.07229185619963885,0.20143760237909736,-0.3183675535574404,0.7365455132613636,-0.28005660478028316,0.10639881580434674,0.3672424197975743,-0.3246806447043459,-0.699375359201513
