LayerCount:4
784,128,64,10
Layer[0]:Size:784
Biases:null
Weights:null
Layer[1]:Size:128
Biases:0.9242724012230741,0.4668639371743457,0.22780738920606414,-0.48486776940811027,1.306849110797904,0.35246735991647976,0.40322009263630565,0.5621027387352435,-0.6959036533370926,1.2634985761219013,-1.4318309512259526,-0.542273769612255,0.7291093728695739,-0.06407591167848692,-0.07539773026032122,1.1202691699594012,-0.015178723510923609,-1.1353427840554546,-0.07450022006386084,-0.5944156172865687,-1.852608340615198,-0.09264717046183318,0.29536509800230243,-0.5264914757232331,0.40961614619786874,-0.1831045586625287,-0.8333258735443563,0.20066710478995972,-0.75264736846033,-0.11489470750420076,0.7587700631061369,-1.314597399824985,0.2569074533965765,-1.4191044614411445,0.64647612923459,0.05130666357295482,0.35484097662266023,0.040292993033637835,-0.20068599131076587,-0.2788088025125085,-1.21202764286306,-1.0103819589999643,-1.149965581106416,0.8111336450469893,-0.1279622163877068,-0.06513278876489155,0.10994424262643498,1.2360923681934826,-0.9297584713461761,0.47847635658562143,0.049731119389363324,-0.19539696512797308,-0.2171044307502706,0.5818953070421786,0.38271345712707505,-0.8647780206208685,0.5983405454157698,1.0902202382393003,0.4602200574871293,0.25065706975658475,-0.33400987673485105,0.3100364688862651,0.22510139938858864,-1.4487565096245938,-0.5124529204198797,-0.6085818021656293,0.6481710549263695,0.2163650759677346,-0.5643506104148204,0.8257992889410084,0.0014103351988527944,-1.226806505578934,0.25220728044882784,-0.05560627922388935,0.6889304485112805,-0.7480595549836637,0.17081836708929066,0.7647926803704418,0.38847014850995626,-0.9889874763803701,-0.39305133003827825,0.18194869560335053,-0.07804971792591124,-0.021552240965940658,0.08982889352630433,0.42951381969827335,0.3435747654226747,1.0940939288092995,-1.3808282696424836,-1.2746466378154928,-0.47387967548149407,1.075092661965876,0.5493341861455338,0.275974184108168,0.900893041496148,0.22071330371874104,1.0368552192358926,-0.10443908152902302,0.10530926245696977,0.3933723728865645,0.24729205578304245,0.1460646883540573,-0.4072100605301271,-0.4008512686327486,1.7684464647975775,-0.4001622292961158,0.48911682411915847,0.7135502047229898,-0.5472221529613129,0.2752130724715962,-0.625916639601844,0.5088148052612793,0.12036128492490476,0.32220143192846706,-1.5913418120861003,-0.5945784682392298,0.06345339159825066,-0.09929546500496078,-0.032977883914216445,0.9958130605848716,0.3411513269896455,-0.8005730860534761,-0.21852868978989673,-0.1425202834757877,-0.109763959208516,-0.73848371433374,-0.8412998875195384,-1.0656894832351904
Weights[0]:0.4792560690451675,0.2813968645787783,-0.35775936551287746,-0.20770374462367214,-0.6917488499040477,-0.9928841982003693,0.9753134986270748,-0.3641986713577987,-0.5400318119395673,-0.6327389216202959,0.09320944039766177,-0.6123246762958936,0.03268827899692957,0.7625205243523001,0.7848624556156528,-0.5758699015373164,0.4706578233608314,-0.18383683878175772,0.5382472358356449,-0.19117511864340642,-0.05571476605521275,0.11007490992083913,-0.07007211962252491,-0.30780750480844055,0.7844508503491296,-0.7046546375866303,-0.1659296113839045,-0.9908673474522621,0.651637798012997,-0.6901528032916378,0.13062276464450306,-0.6909620806998397,0.33090122757966023,-0.8589593740899155,0.8666177905399396,-0.20770134972068102,0.562975493135949,0.9339034569620881,-0.42468613366305297,-0.5384514510312642,-0.5635901679138987,0.13686275754633662,-0.33977604406022816,-0.7162091278308282,0.14401800714336876,0.04597224115127427,0.7602329322103516,0.5689110607019404,0.5796744758283535,0.09365893771238772,0.7771928477433548,-0.5127290277170816,0.9771893536565777,0.20222867708756986,-0.2808317277956902,-0.6308188408756716,-0.6485310157986968,0.9500481392955631,0.007845405027355305,-0.9870931764401334,0.17304521979530704,0.9661680289362953,-0.015607859541800155,-0.8430416430287768,0.24389626108816026,-0.2162705252793949,0.05615000847841669,-0.08115726492160744,0.93979157993307,0.03293982462038335,-0.12737536765492272,0.5430335729685911,-0.734564049345835,0.07158725709667227,-0.6308338943543681,0.8246983410017723,-0.54811812766392,-0.35670998718817787,0.5487730451550824,-0.25987084461968335,-0.4650052788445956,0.2649801538119149,-0.5706428641316681,-0.44219456028295423,-0.46543099333785054,-0.35394434693918764,-0.6681595022870188,-0.8713258974623563,0.4218719643390634,0.5012670926215195,-0.5505309908354861,0.6274274851983659,-0.03457113757107948,-0.3841209879013779,0.3626349753139855,-0.3994785086065354,-0.6921758030806682,-0.23644796522440692,0.30234145699312354,-0.5099360950179433,1.1029139780551385,-0.0616210727298735,0.6501111670512896,-0.4605732130192637,-0.7236997113005958,-0.7644185502221519,-0.7908401458877333,-0.008869734101861764,-0.058858359881951906,-0.09119092744777185,0.9167877627037847,0.7064797942091152,-0.5980566104864965,-0.7303327087971286,0.47790867181110885,0.9077628881501315,0.537823314607764,-0.5650229273804408,0.6538413109461904,-0.3262475610510928,-0.41807559586078935,0.08431256314564327,0.6158465973773672,-0.3701460688253744,-0.18568993327573804,0.3692898571982562,-0.4190560460877793,0.4330156277427138,0.4670131292110448,0.5997279605061278,0.42219078684158307,0.7491651526880303,0.5592047654530908,0.11897472352698821,-0.403358116048394,0.5465996785601773,0.5693948778958731,0.8538634557850578,-0.6711455825163325,-0.7050825991435256,-0.5986248727881465,0.4270669610365605,0.3008330383792374,-0.49658451992158265,0.5684333993941255,-0.2160192406858948,0.247656177701175,-0.3244474550828092,0.20046314109819227,0.5616655624633882,0.10966387347679117,0.8440588037549027,-0.11130723214730597,-0.7238229644524202,0.3957854164556139,-0.2553900779778302,0.2969126609013247,0.12824147063797994,-1.047928448125409,-0.22368100203665278,0.21691531918751591,-0.6996577046739981,-0.10815064742073205,-0.23638141238235533,0.14143300726515873,0.9501212133746918,-0.9042379379094855,0.20779757886322914,0.5209878177945446,0.8115744026904711,-0.68631608692745,0.6719858109551263,-0.9098644526594611,0.3440340669398372,-0.9452662019451974,-0.17673046098676315,0.42960645003230613,-0.2259352294926951,-0.42073716145713286,0.6694703175809388,-0.8914044186871031,0.7720192389503823,-0.33295249791364945,-0.22162190204373336,0.37973054978997717,0.857648341523729,-0.09880774294030423,0.21244051820288729,0.1338119724180089,0.5137613508189153,-0.719254680764544,-0.7793611068486431,0.7135422538893748,0.31465099789755757,-0.3507466339393921,0.8252462362151836,-0.6981004818403191,-0.6208603340211772,0.2644743490274345,0.6028293214361202,-0.3254748808596694,1.1097008720273847,0.10813379428647747,0.14042756701451709,-0.27716669273178113,0.12019029185852137,0.30319040724296564,0.17704536848938462,-0.7305306965231076,0.3901120014090191,0.707640592411507,0.08412316289537299,0.44503665489931804,-0.3531851535365594,-0.19565503290704256,0.6264867158667928,1.245098200369754,-0.280281829499969,0.9579585856511339,0.29239971684668836,-0.0735471669278745,-0.06764562010771123,0.8763746109852825,0.8225430474594961,0.543912615455179,0.9961063654836916,0.8864990306180446,-0.251825746406835,-0.2674310070888284,-0.5054718133645053,-0.3590093943174842,0.05880820986508163,0.5089453485791818,0.2872292285911078,0.33591404323230145,-0.8430831712431824,0.3825432578208444,0.6599506581696498,0.2464629342241944,0.8200528175517623,-0.4721973684048593,0.6148545173367953,-0.017248977439426952,-0.18891974353706664,-0.4602617671514626,0.8198935932694886,0.9216415178138209,0.7359448769103,-0.5422688007938434,0.0288385489628548,0.8551929792968255,0.5593562558244115,-0.5678207100050806,0.9551226111160218,-0.31510115621033263,0.6231360674046817,-0.8835242644770754,0.4225424060925981,0.6472373131102882,-0.06677622089902922,0.3494082584693151,-0.29183855522563357,-0.34437823800897766,0.8717307768616069,-0.4154206729954709,-0.5384111560592174,-0.19089384601882314,0.05542595809433901,-0.25303679588799705,-0.593842933633551,0.019767426371952262,-0.13432544627116794,0.18042976151642626,-0.713144539759126,0.1446365416165316,0.4322762094423498,-0.9663481357819114,0.5366053235057588,0.652407805623032,0.7137551178961429,-0.8699942424853123,-0.7098797618810416,-0.6290676292759514,0.6343542471914808,-0.4987725742248788,0.25455104367375936,-0.13901835503673657,0.8695121481840609,-0.22174191407492785,0.1608908951584223,0.7451934810825881,0.4382939512401323,0.6634558168378674,-0.42573425793898323,-0.01515844315891259,0.297199912278258,-0.6283971680870761,-0.36253519952290975,-0.6402123441367971,-0.8022056302644288,-0.23512224260940603,-0.5333499840032471,-0.5315801849261149,0.15045768574832846,-1.0566418762779033,0.15675037478967502,-0.8175484969782572,-0.7807403664271484,-0.040285346743380086,0.25352778948007904,0.5598364415740524,-0.47375684204670404,0.7209312369221929,-0.7939875197968985,0.08666332524503848,0.17413583627626017,-0.46977124232019596,-0.16634420632685676,0.331092902542754,-0.19606595239620844,0.34552567809576473,0.3592139018313788,0.17411380930621803,0.5597390730421857,0.04823777683756632,0.12707746544116813,-0.15561683882586272,0.021156375504152825,0.3794235726310852,0.08773176320600837,-0.3310969209294953,-0.09195962510211804,0.03316913897166235,0.4381585985658605,-0.33193081065189683,0.5055864431525239,0.7135616663704487,-0.11976580311238937,0.5180151113645091,0.3034463080979582,0.02048484855864265,-0.24212464213453586,-0.1578573096925185,0.16606384851895778,0.9173328979118859,0.5194489957391736,1.0024149275368415,0.4966281070944701,0.3777046706938111,0.7023883669632744,0.13169940626732482,0.32835560784708645,0.550556875146719,-0.03849361961020224,-0.3286560845142009,-0.9979592071808521,0.47513874594891015,-0.14505049596538175,-0.45673086999958945,-0.17395750154141557,-0.9218367298912463,-0.021353035135861193,-0.5723237110454737,0.4225383482212813,-0.632243801843072,-0.5860614264319145,0.26355012126817523,-0.8017466325065592,0.38377647951059235,0.4929494699966168,0.354705400562084,0.3915106976021596,0.5501782847205601,-0.6719080463315971,-0.6510518192199458,-0.326771823622597,-0.5393625777425318,0.7123473555189264,0.5592957080409598,0.5226313722509929,0.7959850143270931,0.6208412528925196,0.943659448832629,-0.27807123266971073,-0.6014953386699929,0.5541542643091711,0.773871546673436,-0.7353746219101153,-0.06775383312536674,-0.36836628531238436,0.6643493169162265,-0.3716396560770792,-0.6763439926080722,-0.28207880481568504,0.21865787109485055,0.9349914891039336,-0.813944381373972,0.32861769214256303,-0.15197132032939786,0.42619899816111606,-1.0573711430099109,0.3617420530681044,-0.7540808671841611,0.7253364085741323,0.9216034329331925,0.5384775114927348,0.6960630607859878,0.5691322612994466,0.41610740087651393,0.7978120899846552,1.1041484893732005,-0.1144077342170633,0.7053945385448723,0.27416453561918197,0.49316848073065006,-0.0941426478695545,0.4044915617376712,0.998243024072645,-0.12039353010685964,-0.21804625325226862,-0.18678477539172908,0.16988926731231446,0.3932621996873824,-0.23753239007619711,0.8623937593286176,-0.2954121850900559,0.2795345751835195,-0.09753806462124959,-0.1940933098200759,-1.0677568172667333,-0.4220787043076673,-0.3458447391063387,-0.7329799699856817,1.142422907431442,0.2336447795709466,0.5428362918950244,0.05128696486021412,0.9297549874848577,0.23574379213047647,0.7555457963964549,-0.4655787597523557,-0.4901094276903352,0.2616993542211646,0.05489645258624341,-0.13892850589733685,0.2044162023355781,0.023284330789072504,0.25193153570490096,0.45044212823842056,-0.44682390642307623,-0.20029309229024442,-0.7002198858886377,-0.38591069479201906,-0.7532257829573128,0.1083734291160757,0.5512130047723407,-0.3898317828631573,0.37099514914050125,-1.0856829176167297,-0.1446521785564053,-1.235817855937773,-0.6120243264825393,-0.8740371223053945,-0.3098630081727101,0.04540074296709207,0.018602651810168857,1.4327095508957914,1.4750547352711914,1.234415130517952,0.5082967002557192,0.5720778297851193,0.3188722747135785,0.37887446282082865,0.6308448527569867,-0.23519630998107582,-0.34565384089310924,-0.6844203880449852,-0.5044082952936308,-0.9471783803206819,-0.2391837124425071,1.018798249963786,-0.6750556685413678,1.045127806336524,-0.19371282950197227,0.5515217812610196,-0.8607972276395979,-1.1648630450235742,-1.013238443986719,-0.1454522128552899,-1.314924958617868,-0.023045299309733105,0.16635954257755947,0.49327011897204676,0.057601864011253834,0.09534906471648644,1.0252986829349602,1.1715384285241643,0.9696637906027684,0.7371706118357856,0.8663827326502486,0.18464397205266836,0.3123966028748737,0.4606626650989625,-0.8493612348347812,0.21869423137908678,0.5905458753652835,-0.04371627336993778,0.1028029533926596,0.7914241932865961,-0.6346884666671122,0.14054434049885292,1.1511560230904898,0.5300030094278196,0.4209023405803033,-0.07027852907469666,-1.6828147192777096,-0.6261162557416952,-1.207726332859673,0.40131873242882027,-0.09832367613205838,-0.3165715453404542,0.5048271129347186,-0.7030047310669294,0.6769873384520809,0.9771819794303325,0.8253988158889252,0.4757915030579025,-0.8343935527501396,-0.5367183870319386,0.18219982530390524,-0.017178590315514223,-0.3948384738011382,-0.060321563693350996,-0.7751386131589278,0.48645704265203976,-0.30795208112300426,-0.21101063971607864,0.4630049928438651,0.26330211481713645,0.8764605553797281,0.5656438351616291,0.5067152213874224,0.16967547373843989,0.17388933273565216,0.5555909126153916,-0.9954249182370448,-0.44811099226027146,-0.493909206875744,0.60097370243658,0.10084422297848492,-0.779529526373783,0.2743454911530383,1.2120372230154448,-0.13632998395422213,0.5115704308861758,1.0104464251362522,-0.09395475291269263,0.9098045453018815,-0.3946011154992793,0.7512257514164964,-0.6802968176455688,-0.1269737972626292,-0.469119382890262,-0.6925890691331112,0.09619145642876523,-0.9412315456513605,-0.2115516642685554,0.2889281773787815,1.1301853115624156,0.5269198308194231,1.4129745752461693,1.352358178896927,0.7359827780241378,-0.6242339838756779,0.7902220543150582,-0.010106057160001188,-0.766119664636288,0.4629313824683907,-0.9469128990141574,0.21177060416939908,0.008048550314956176,-0.06061935463547963,-0.4331625366000984,0.5288605739783114,-0.28132784531667027,0.5013827596358473,-0.18104987133956918,-0.5553918984459354,0.01005881788799535,0.7788813515037943,0.7092541848066727,-0.2464265774256034,-0.16653051659260198,0.31377403624474515,0.1517943989402347,-0.6490537725916955,0.20702631342873365,0.22258205443572385,1.2381700116403063,0.7474565167721825,0.7674809402878816,0.6594650304848081,-0.05915821470406317,-0.7213996259071355,0.46586507891859225,0.2182235444536687,-0.21392928883937665,0.4599186954292383,-0.26229305823779603,-0.791958431818565,0.28162390660267095,0.29193657776803644,0.839649484365863,0.09398148986550237,-0.23236595268400312,0.6449053331108663,-0.4079609060638683,0.2915979971717088,0.6003326931797073,0.6267094867587971,0.30356896335154665,-0.6857992343785375,-1.017266954086526,-1.0877118357205997,0.3337759634557601,-0.4059942780357529,-0.3605519194684024,0.4876372582305502,-0.06471900336277235,0.5083156832249294,-0.42149049007062683,0.39948369901905756,0.43175440976489105,-0.2672909908991711,-0.6077038522469561,0.4996957066418866,0.6921863970429183,0.4652116176690228,0.47829347753555007,0.4867732787141736,-0.0666318397985292,0.24361050918810498,0.6694169183788885,-0.03241396301974944,-0.4345924367357942,-0.4880413578301861,-0.08218994904108876,0.7443561751965309,-0.39573992947028347,0.6770073611824068,0.7732535223776641,0.2533883351553769,-0.21447465826909456,-0.9814165705446961,-1.1494734728173441,-0.19787482726848263,-0.032225581389308235,-0.354219910192525,0.3255165286112999,-0.6679538632421596,-0.7419040440180376,0.04429147704991186,-0.24468545573701656,0.34987724620617155,0.6435170466221002,0.5945723267371946,0.6038912360558969,0.12625729894471752,-0.11682453315191851,0.09841429159604871,0.7107787535730705,0.04580184307219537,0.8180277952076997,-0.8560435072779858,-0.2865900306405907,-0.9741845126505128,-0.3775466722307572,0.15451896138968854,0.3362696250063953,-0.5686585770135375,0.29280713947175624,-0.7030734502354365,-0.5178423983866367,-0.23723077802093231,0.10149551174036578,-0.2680242020287727,-0.6212880264823891,-0.14308675818186303,-0.5159617057648131,0.188038861528278,-0.44798748542621386,0.22063711016159823,-0.8628747332199019,-0.512151312075886,-0.051625086390795015,0.9402661756153498,-0.4430520935016691,-0.8504728759313823,0.1957402226889013,0.006208979061901987,-0.0608761939503607,0.8078773002176904,-0.10624935054311248,0.56361668326672,1.008226706833056,-0.1661365640997833,0.7502896055508309,-0.04384021799833426,0.4195323378839928,-0.9625949330893863,-0.8826233801108476,0.5473605299941399,-0.23812708644928005,-0.5758123025206932,0.1536593554766328,0.38041712045621656,-1.1320282327009636,0.537008092847345,-0.6839524052106948,-0.04007043892258208,0.08644104935002998,-0.763744683732851,-0.4875667611759825,0.644863114088225,-0.4070261539377282,-0.5568755569746854,-0.12140822293135353,0.3966910938716919,0.20871747434545185,-0.22387480513373148,0.5083001803179739,-0.49416939166415386,0.9943423751922849,-0.4969076674466236,0.90067897309172,0.9322123839400338,0.8738645516422745,0.4402189401183713,0.15687977918532897,-0.5755187847702771,-0.11437584741235675,0.4338788549287488,0.6895309936824896,-0.5485666276542644,-0.2321499317958064,-0.5672963213211658,-0.8693239274005302,0.6211603389138646,0.12868116036591726,0.26483181101394815,0.8702617724356339,0.030341034545009433,0.9819357379544199,-0.9245763671676889,0.862875541608257,-0.28474488914233864,0.2954786966068106,0.24819830304393475,-0.04806093361604069,0.5520709573999378,0.9586178592304763,-0.6036499413102631,0.876479052934549,-0.2680909315088756,-0.5209301323586575,0.8129914398820896,0.9804123055110973,-0.3580068607764176,-0.37957097312798016,0.2917471100318153,0.725294398271377,-0.2976064497671806,-0.6519709324202778,0.6605091450299222,-0.6841164164571123,0.8291603869090457,-0.5689490463136352,0.9529136982488289,-0.256699983581694,-0.9393103513231046,-0.6762469642219353,0.2395149037425941,-0.7588776702801128,0.9457132359713842
Weights[1]:-0.5221294926116846,-0.4761059188638376,0.9191334647681255,-0.35797720651979426,0.187968684913576,-0.31689043218125146,-0.2962312639207725,-0.5770810123426285,0.6316254789156959,-0.42545861444690203,-0.5325070496334261,0.4356756207699308,0.004301803413840139,-0.963488296910604,0.08400787408659321,-0.4473762112886254,0.46885998056682765,0.005621076098466737,0.8683890913931602,0.5427364974947351,0.1746918499351906,-0.3028841499718298,-0.6448874742001702,0.8216257196951777,-0.9590462492588192,-0.7202889498883341,0.34541287801480514,-0.4919324393812252,-0.10870831418256666,0.22831792162187292,-0.28089713178616815,-0.8447731713972861,0.9400227925006299,0.8769447701945919,-0.9509136602582926,0.2979074881523144,-0.9376583609907998,-0.9920029217467681,0.4429221489201021,-0.39584986561908747,0.022475275954256975,-0.7221815718492398,-0.32072327453991034,0.0023945441207982674,0.780382894259125,-0.6134339995002177,0.43172664203626354,0.9146339921797455,0.6559374409836414,0.5071284502269299,-0.14516991791823428,-0.7659826073823867,-0.627266761673273,-0.5970232615233507,0.732879821086712,0.7807546573601452,-0.8312184446636673,-0.9024922549270523,-0.3989309572756635,-0.09173942848603295,0.33769843042750436,-0.8042986179207802,0.5316361045736364,-0.5958789288046403,0.8599492936414492,-0.6727606890772875,0.521307212835137,0.14124201269450554,0.9789794305193567,0.7326005371125236,-0.5144840920420276,0.35694632599875176,0.5477052552765046,0.2933702356406637,-0.4603492051348152,-0.08868338801806584,0.9956307987652787,0.3001905391595828,-0.9659294925251892,0.6544057012271303,-0.15196931081715703,0.4307920312999643,-0.1480549858641136,0.3832681073729265,-0.6265751335893641,-0.5147909594302955,0.7617168413749386,0.5320974427020245,-0.8530433254306318,-0.728970166464122,0.13294410254228375,0.9706561379289429,0.4178184249527653,-0.4126321568941092,0.30110403673720953,-0.1844053572897644,-0.31709801924248626,-0.5878610556697875,0.4459008818115758,0.6573231021444013,0.1379590319764592,-0.7342428044964849,0.6556445641066281,0.7387097169581959,-0.012588595317870259,0.4300234459260238,-0.30543513546601414,0.10730045228802085,0.8760955427899629,-0.1687501230894808,0.788879046189041,-0.1340482808342428,-0.9378130119004348,-0.05363925160627114,-1.011337820374953,0.8893788341267603,0.3496210673141936,-0.8155805175158797,-0.8719865626099231,0.4469128531854569,-0.41373458508657096,1.03733700520763,-0.06234828137015851,0.6610569282402458,-0.37991363355774954,-0.3728198883352079,-0.6686768875300256,0.07200249692289902,0.8546838096914772,0.8215254455285405,-1.0573913429202673,0.5629846019318226,-0.7366513459822884,-0.41170537578402333,-0.26530409671589555,-0.4494392004641203,0.5545966549904109,0.02861298688140779,-0.6169677331315683,-0.012474589273304287,0.8142979768171432,-0.3259206615974757,0.6503487292288231,0.3007346792119007,-0.5342195229837805,-0.8616325376056865,0.7480656678428599,-0.7706828250185543,-0.7372851392319141,0.17440552863855455,0.38377563760945255,-0.044443250278387414,-0.3790918450433266,1.0352667481375906,-0.031348117043290345,-0.16475242911246835,0.09223031905765422,-0.9853685976840733,0.49054561817752385,0.027421950952403865,0.9123824331993133,0.6769724499870846,0.09596801425307949,-0.7065960210175669,-0.24976340022161242,-0.8502136768506272,-0.21144493733516367,0.5092562186013468,-0.817752779376578,0.5168902752545608,-0.5915394972327422,-0.6690610454649121,0.7651972970394317,-0.09015264760754925,0.1913131061738166,0.43532263751536404,-0.9858948936733739,0.32638545954249915,-0.3962091207960081,-0.8423584134756,-0.28534622003580434,0.5939302100933279,-0.1708158452833754,-0.11631388359102669,-0.7156384905369158,0.31815563420594234,0.5069167210518976,-0.6810228295463306,0.6960210583354995,0.6910282260556033,0.1564834513266525,0.4575453890558878,0.9571174392027303,0.9480352518543861,0.6593773239006577,-0.813660327140701,0.5636069335066012,0.475594392638572,-0.3474125811045173,-0.6375008510738158,0.5272215748996838,-0.4614403872596919,-0.8628233643734345,-0.06192740450519856,0.3067867633952906,-0.1318620951310837,-0.44736331170856375,-0.09892687179730801,-0.8314845938837171,0.1421305421708958,-0.11851104358326688,0.6029962842114003,0.24998590803960738,-0.5355895484997479,0.8686135847393881,0.7953266193168158,0.016216948995527475,-0.7482698479230672,0.8038188613038252,0.18244111511136743,-0.15067281341146097,-0.4550098656582959,0.9653356504189284,-0.6403160028925992,-0.7038660112606275,0.11089782601486403,-0.41019248557528165,0.9328688527946649,0.4557799096197464,0.520126779090323,-0.769371905267301,-0.3915909074292542,0.26250748617100667,-0.06213869094556121,-0.03919418585894773,-0.6091350313754506,0.44803134873640577,0.7332311317334592,0.5281785676829466,0.021715094361464415,0.22414079753204313,-0.7367974423800412,-0.568501247859851,-0.27568790286796285,-0.10230353549212813,0.2495325293714493,-0.8764580714094815,-0.10206642172235837,-0.8100561010944766,0.8924182446897252,0.1557478204333275,0.11095439560658076,0.5460969077782225,0.5569713384437506,0.7541211600310334,0.08150485997788606,-0.6800943974547052,1.0247478593110118,-0.2695885416684534,0.5565424001267691,-0.4626239963487613,-0.43103948821828353,0.39708033291896927,0.16301954545515743,-0.21089249200748628,0.6270820000131107,-0.741457958559619,-0.8218470857613516,0.9137286632426205,0.29220121858568826,-0.4208838792167635,0.3602592907347061,-0.41397803496535207,-0.3799958549626859,-0.9616512902241415,-0.3197745442187531,-0.4140731385270039,0.4090358992866986,0.16620711800266585,-0.28156996276505647,-0.2055706075377286,0.6381277318609018,0.8873623304739585,0.4388420723097677,-0.840943881862887,0.43578281191767493,0.6646453365323906,0.5957487361508914,0.025525863897219593,0.7862901906583238,0.7227583343076812,0.6528281561236078,0.22768754641994446,0.9420079388163964,-0.26467162006455,0.4732182187016919,-0.6106273380120526,-0.06806783863650233,0.6387803002230242,0.42447672408924214,0.064075659401074,-0.5983387047001316,0.18172918330188317,-0.31768113984621327,0.545124309475073,0.5363607731557744,-0.67726698003687,-0.2885393758728405,0.2310460435250581,0.28521500526993154,-0.46488226948102146,0.07966931497588828,-0.16504468261368566,1.318655915244456,0.28342280664058744,0.02764597137852702,0.03867064893233244,-0.3536710675570544,0.040658965369827646,0.7728418559431719,-0.06326368149113497,0.03249766182914272,-0.2550243723390776,-0.7527265255592959,1.2861907615635402,0.332570033164363,-0.6789908735195023,-0.06095389746424351,-0.8928937065059864,-0.5901091932350419,-0.9502680104227783,0.5121216594908385,0.7068716802919848,0.8019076635427383,0.8323933030078066,-0.386681529641214,-0.388288967596996,0.4738267824766881,0.9658295330850311,-0.29991361369663605,0.03241316355570213,-0.15708346719449487,-0.777874072455208,0.514138562930264,0.21200804235083506,-0.13624591696522811,-0.2794032375746899,0.14593027446307105,-0.46707383803908825,0.5014133589440202,-0.383206761715492,-0.8441389788541415,-0.26587160448022146,-0.382111327858916,-0.3554633969679053,1.0396381243788846,0.13662453492813503,0.0025054191840498223,-0.2644421725062115,-0.2889050818988,0.15311954299637712,0.36252040617934495,-0.5119740482665641,-0.23589136123328097,0.22324454129306887,0.19410487024858364,0.5112776661745252,-0.03438183152850749,-0.7510708418465948,-0.2412062442089612,-0.5831055033956214,0.5851708060480634,-0.6136017214723846,0.9473007732055632,-0.38808795555946407,-0.5774221901516953,0.015730278974789222,-0.005028324996560188,-0.5593126507426177,0.20986830688439537,-0.15950803368785324,0.6856146856966857,-0.9180518322146408,-0.25617864902329446,0.8409831435193373,1.059856155987369,0.23806687444628585,0.7956539321005438,-0.0007316894775865572,-0.953452784290029,0.4858848492495017,0.6410273144333537,-0.006861024933447227,0.5042981557698997,0.6514943584644197,0.5073612523981449,-0.9365601956637165,0.7197052179054593,-0.06535806641287745,-0.44330868751595565,0.1711405664706938,0.004118761213992687,-0.4902180695381635,-0.47319998441529654,0.3087340552279625,0.09715646663401405,0.43711671051392265,-0.9039270492245093,0.59258516222302,-0.1592999784319743,-0.2765443940195236,1.0215482701352414,-0.21075740300794313,0.31875043475577575,-0.6713907585192324,0.5725647918730994,0.2486696676784702,1.0151208820675712,0.13936829666381684,0.22535255872426133,-0.6145536198180468,-0.954000724744079,-0.9757619801952546,-0.9103966210728884,0.0447211382674126,-0.3292655000998425,-0.2024874918496812,0.11024045334752568,-0.8871853161422335,-0.16799385143813989,0.4276377600523383,0.01851797220597497,-0.7653986756563735,-0.41846694694969333,-0.7425436376741861,-1.039113360058123,-0.37050910917130947,0.7385036955763372,-0.15561774653650903,-0.26068434299081006,-0.37201847770039376,-0.7076422343945403,-0.838425578176575,-0.7825402375685431,0.38157106138069374,0.616097168790287,0.42635027032612277,0.8702671229101968,0.4217588325031142,-0.8287697317195553,-0.6364267878843305,-0.8117928472036581,-0.5365155948138367,0.5590987578085123,0.894026625236182,0.11942319264523509,0.5598213687468441,-0.15368272287094709,0.21108616984957276,-0.49837469830848286,-0.6336929415692784,-0.1687641264224254,-0.4914938822797163,-0.8286419538494089,0.0688682040073322,0.30105012400123166,0.30064007347473387,0.6528580545780247,-0.03630144856928293,0.404982753238931,0.09283235783442553,0.5922228995003501,0.01123641412515541,-0.20469765878835589,0.011986258119999834,-0.7731593509464763,0.9988974425936572,0.8654441358585847,-0.11090162174628947,0.5157148528576316,0.35575531958054535,-0.007698080598209591,0.97247145015904,-0.2328945107392575,0.6950890505903823,1.4008530584492445,0.26361379058519513,0.14159197870797893,-0.06559625947227199,0.20511368560490076,-0.07475026178172062,0.432358522035824,-0.13084685895766957,-0.2309897286386996,1.081880917052182,0.44673147892564724,0.9255557483924597,0.6872366523877403,0.4373768143657984,0.8523590041034058,-0.8093910865499245,0.8140851391484323,0.07967155789917749,-0.8922864161687758,0.3606107663009473,-0.05097205306004253,0.32156140438659025,0.764158456561313,-0.3591490708261755,1.1756452320061994,0.8983186419325904,1.5820778995161329,2.0978821403435903,1.835201337613177,1.1432626002536406,1.070960021300082,0.8046610590145027,-0.3531151785185793,0.6955715325298625,0.013123204034969728,-0.43496239164491934,-0.6770548920682408,-0.4642482041607743,0.31063297241448984,-0.8619297243364037,-0.1527360922842646,-0.01857589250955765,-0.5139365150189961,0.04964522620411099,0.5523333824108231,-0.5450217662402329,-0.7706497240751001,-0.44307236253006493,-0.08022737039906369,0.2869161942335001,0.3622348384019749,0.7060478569292572,0.963655699337046,0.5101526793916312,1.2111068709349226,0.015482534485647683,0.7403881263793793,0.07195572454171258,0.3509040669326225,-0.33676391957437257,0.8314940974494694,1.0956863201250606,0.13951339926933948,0.5553355425150931,0.7910856117092951,0.6541330263593185,0.6576625373494094,-0.3203517587779852,-0.6078417554505005,0.7271598973730792,-0.8860789388300433,-0.031187798225186393,0.6468994690720506,0.9565545137561036,-0.5749624650871308,0.9821831341749909,-0.21278023450238767,-0.2976761881653533,-0.3014007570330675,-0.09944174891963835,0.05788917498433522,0.29637878646525156,-0.05843159006382065,-0.10029288592891872,-0.6049869657011369,-0.4825101924886932,-0.48530098670384797,0.567554765670598,0.7466949983011226,-0.17678959116006812,0.5744331116707776,0.8737177658249703,0.1753362725396831,-0.15262358268744505,0.19689892690586552,0.493879840215343,-0.6102418905258016,0.8177624174996921,0.23295421787440054,0.6222227853962865,0.20998822936613154,0.9212265095316117,-0.7022995728383171,0.22199418978451035,0.23027804441757593,-0.6486126397422158,0.7770702581876684,0.10603835254039595,-0.8555822782287598,0.6156414310064829,0.10174822274852176,-0.5406374259610444,0.9815042968901341,-0.803718095598833,0.31713347915456935,-1.4166097610317478,-0.19118697720045266,1.1007701088992947,-0.3188633757932241,0.4696579363699654,0.9082133438197046,0.940641208774805,0.2737450258754656,0.9948495050205014,-0.014235977755366442,-0.08407603250009998,0.6688331775425211,-0.36878387802778534,0.2928345502176089,0.43417501487163446,0.5398614876863417,0.007975483404647033,0.47017878643449423,0.13012423153244113,0.7431593534434999,-0.4065514599020862,-0.4834459532031212,0.410488136664776,-0.3516961000422819,0.46857507843679486,-0.6954943356497452,-0.5291105688895916,0.14194305037915214,0.37815280182176403,-0.2902209073350199,-0.640086328721003,-0.12359065464735336,-0.03794955994715054,0.7053760040699089,-0.2388640903131401,-0.6686000948639138,-0.20713140110549783,0.391303775086657,0.8555438135960889,-1.0228932540396332,0.5741481941581654,0.25144362451533,-0.4170303583214659,-0.6632608379017465,-0.551051229029452,-0.3328204133235013,0.23150538402081203,-0.9758534607452963,-0.5423407803530708,-1.1883305054175635,-0.8607680177745928,-0.27995583626092574,-0.29662429149593644,-0.29769742110497,-0.13517802150514022,0.12014505485271122,-0.04760142142364047,-0.6585776979618874,-0.027843156694538813,0.09475117290324273,0.09513792530251745,-0.4420413276590757,-0.015510510888225902,0.03967393873166351,0.12543699838951944,0.7338236972137078,-0.1261086563700031,0.4124860919970003,-0.11449774165520517,0.36256962722318714,0.012285230797965601,0.8321539730914653,0.5658886132602992,0.12462159391707806,-0.7197794863484948,0.5190779905921736,-1.0367262995093363,-0.06332567947082655,-0.5282708754946891,-0.2705108648702376,0.17221208547214012,-0.1763927758549913,-0.3885877555880525,0.28737011723708566,-0.3826081584385817,0.018603716879831842,-0.4048873241324397,-0.3143954538385789,-0.45139461792008506,-0.15149969584913509,0.15937593279591805,1.6886457260097465,-0.04290375153087205,0.3809246027054875,0.296061574757091,0.34407275933936093,-0.7286376546929823,0.718035721768174,0.5687229318411263,-0.0199048617016081,0.9467414337893676,0.8686378346144399,0.19085909990606928,0.44389363050675545,0.12601879146438377,-0.35144893667571314,0.5827813341900939,0.5519961340000956,-0.9840170786787512,-0.09008188692879995,-0.2060741244327239,0.6682033468043712,0.8867603665916018,0.6549174962749548,0.6278532052822374,-0.8691401473594559,0.5364747631010481,0.8315039463814903,0.17307991336382164,1.3057448064077999,0.28540369730172327,-0.5255862993942463,-0.05476256124351571,0.84915746762208,-0.614918584953065,0.03744661030509465,0.4969492491815742,-0.4583943194981638,0.9411855060333318,-0.08535122176881471,0.2946111193367331,-0.4267985407738708,0.8997940936682068,0.9508933579026937,0.13334320822318124,0.35489333309296617,0.6495143490299025,0.27566887664679773,-0.7511445178055136,0.41126450575651075,0.4339280598932594,-0.057082812700232514,-0.7464145584165571,0.10245873983793352,0.854807262289306,0.35304184792418114,-0.6238076956998505,-0.34891054209689926,0.42122360405067993,0.17386397211919769,0.8163296131353248,-0.296813128906367,-0.03605502296395412,0.6933069766583925,0.9864247618179884,0.6805287355932075,-0.028138231033523642,0.3173329594160117,0.07552523961082347,-0.7139292767801924,0.3769982716840516,0.11715183605251411,0.7708486543047978,0.32820235853217183,0.9932939855117175,-0.45139979041011036,0.7410060633112537,0.6774681472064041,-0.40036620910433457,-0.7205071530760672,-0.5723630825606851,-0.5913084373111179,0.5054979910747579,0.48216947103161795,-0.37810397753115843,-0.7701870313340519,-0.9390101616365457,0.7261339132866816,-0.9957087444756225,0.06209180091377934,-0.32491976922607035,-0.09305126270887032,0.16675480788888164,-0.2074155673419198
Weights[2]:-0.4031323452494724,0.609131151628276,-0.793362483286002,0.9600708605535659,0.4681434889641327,-0.6099467573733752,-0.712105210736443,-0.9254734022195793,0.7777558647923897,0.8772380044112158,-0.8836305634508052,-0.008146598473259492,-0.12515401978294383,0.17213858471924537,0.3177902600094355,0.5902372039798617,-0.3083113624287357,0.9934690035849201,0.08733382406054702,-0.2810061924536741,0.39896748373236846,0.18464565145999456,0.47083761797791235,0.05149168756394262,0.7556799611801654,0.622753444883392,0.24967174290198457,0.3146130811956771,-0.9865984152940095,0.610990492445878,-0.529844068703169,0.9505160366885905,-0.021512259831916365,-0.773341080590173,0.3950534176930469,-0.06757329158157355,0.5189050028475116,0.7066033944953073,0.1198334446190022,0.8876735382626462,-0.8819788292035666,-0.6892552693837872,0.7146799644913366,0.5850426966098047,-0.4870358106770007,0.23311367756550655,0.17567117667553572,-0.45620154527350926,-0.32178326158301046,0.4227115024057656,0.9361316244046992,-0.09666319906024307,-0.9205790161716654,-0.9264093748882456,0.70545520154082,0.41222200329053305,-0.8617064663496364,0.15514582915005537,-0.7956091006425258,0.8454066569333003,0.14048888966563772,-0.026611916520268824,-0.938768703256916,-0.8564886302071435,0.37031897624474763,-0.8807314370995037,-1.077548137321552,-0.41096398663749045,0.7279346121463294,-0.6751032662130405,-1.0356326829953186,-0.11291749671786941,-0.1607691254050659,0.15395549286867752,-0.41952540161016105,0.04295860309494224,0.42512973728364806,0.8257835134933367,-0.5285903439756908,-0.5005213906590281,-0.5553544397050101,-0.2933143799687158,-0.3701927351626534,-0.45847970780845715,0.6275988992432127,0.5566761975906214,0.871104301327523,-0.09380331330312315,-0.4625658452761529,0.9724495445828998,-0.22337860721831143,-0.6609391435793315,0.4894759198750205,0.2058779134840132,-0.29270724483719707,0.0959234162778703,-0.772816044014246,0.4411227355858582,-0.8641051710068158,-0.6770516765903833,0.2552601767346197,-0.40533326505099804,-0.03661960972039567,-0.6134513182392117,0.3926536880022038,0.10472012081598539,-0.8271635157951054,-0.13178221308463475,0.4631295162327089,-0.2987620553267254,0.9526316247136952,-0.7166759882665593,-0.370898613413283,0.687602536404693,0.40314432928925154,-0.562823942399542,-0.6502996994227861,0.5202278983944564,-0.48935322326791647,0.8038186925928162,-0.7333240299385233,0.051191867987419565,-0.9114526025349218,0.5870729542169713,0.40938052103823824,0.49684104669738277,0.3580393336941499,0.7073504839967873,-0.7125657985424302,0.15032311794266734,-0.4413165425773383,0.7292589065176793,0.5695412921069031,-0.7098203970169362,0.4379325295761252,1.0428914511404488,1.0393036123821129,-0.5767452694120785,0.19952826097343093,-0.3775791035331615,0.5082772884090792,-0.01845591283331438,0.40821476060261325,0.8918210816536634,-0.9996394397753339,-0.49770206980444603,0.6096545546581833,0.7086047985878934,0.7693533066761393,-0.7033830230078839,-0.28499116182232265,-0.573956721568806,0.021897401665069094,-0.5462753697832006,-0.7466064773014115,-0.533062053183809,-0.5523881445863033,-0.5491949224511338,-0.7974664962648748,0.4052881309891541,0.3844390406412105,-0.6322914144382447,-0.5472083287795693,-0.9182475138834286,0.990554934737013,-0.8528233801309548,-0.38272855348263896,-0.5433030722378555,-0.6036604855226635,0.49073538604304745,-0.5009098589221731,-0.9385682879873671,-0.5534676708707513,0.9946678908304172,-0.6384681453669204,0.20923269458183807,0.5261667587091537,-0.7626569498951491,0.6458697481981105,-0.02684499489993435,0.9493359208092502,0.4824008745074863,0.862564995334346,-0.8017748742603816,-0.7049050058964565,-1.0412613502570036,-0.4231167503374936,0.2755012306609524,-0.7985490570683349,0.11723159331069126,0.3962704287002858,0.035953998762661074,0.7554723449135677,0.45992677241330543,0.04673213044734486,-0.0020192981113548165,-0.47512619149610613,0.319153795329346,-0.9534604124963685,1.0358727730631256,0.9314186516901584,0.2234533747724732,0.5737348690282763,-0.3424096584350523,0.8578688607018846,-0.08661192035199532,-0.7436018189312328,0.11311941653616282,-0.7174210451296843,-0.14828305924331303,-0.7570692768277374,-1.1998987560485141,-0.4463190874893846,0.33383006431683554,0.6265643389017538,1.0640120667516253,0.23051283534367517,-0.4391702429424627,0.42414070325887,0.9154316667329383,0.16699032295017932,0.40156982596863433,-0.6693295252454879,0.19468930556342826,0.9791485572776223,0.5422967471599255,-0.5193287329841735,0.08754255021761626,-0.13693315525944028,0.4278445486014869,-0.009809919509781193,-0.19474201345064548,-0.5297823521934865,0.9075293260695585,-0.15959199116409192,0.036996654569070114,-0.38654417727336704,0.019884356008560686,-1.258175993118537,0.312458930275215,-0.06536517072033556,0.5930836091839784,0.44928297835501163,0.6787272376429949,0.0614906370220166,0.25919370191411456,0.5258965858341897,0.8434499844659636,0.6536284002230462,0.3694754783602328,-0.716509186277402,-0.8228866322138468,0.8176736379535879,-0.7934235081438112,-0.26006464709177524,-0.4120859097310325,0.11850187870546515,-0.6454363724537429,-0.5275115886778199,-0.8130149757853261,-0.5308776057287312,0.5733078523711419,-0.7003714629549711,-0.12480220555304698,0.9818756059691423,-0.4774046414375135,1.429953457466443,0.2632137111499716,-0.8454764109584991,0.35070571412101226,0.6449847087650807,0.6359048382380725,-0.8139010862822048,0.738007294287197,-0.9044788793626196,0.4536484967322975,-0.6559284522608967,0.21699493820150662,-0.5179634701462966,-0.40354268353087785,0.7887765459137197,-0.4290332379946661,0.4323147435077761,0.6884665739154225,0.19712578753632684,-0.42932674359172207,-0.6839360136510442,-1.301865534758216,-0.08478974413875014,-0.3732134251748665,0.8124583322395912,-0.7231230657818439,0.20576817391022267,1.8320438920223772,1.0802398527031931,-0.40096678541529646,0.5976711028865457,-0.23915365364528143,0.5860442468821208,0.09403048880364531,0.90599924980193,-0.3513474306633629,0.5080189079699875,-0.45151720148105556,0.8596694777196665,0.0033488091500531625,-0.86939468207807,-0.9060698298504329,-0.9636451488989622,0.229254540885128,-0.4596615954482732,1.0761386075827315,0.8126747273929528,0.5092869965441404,-0.5443986398490753,0.7599397622339221,0.4188016259814549,-0.6695859686459152,0.44132305879537087,0.17755804546366338,0.29027858313611415,1.115517748089694,-0.541386680014083,1.085676351615393,0.7215612426417466,0.8913735653455326,-0.28788035746755114,-1.0530818157311892,-0.8169533741990836,0.8672241295674896,-0.5391498465110792,0.7494503395489993,0.764997640315264,0.864590574848945,0.22773597134756998,0.4344440334083307,0.20964853421908142,-0.012788216226108314,1.096893581091749,-0.7055455026326016,-0.5393474231372092,-0.6063145185929445,0.9129131417580256,0.7360777419687162,-1.3377070420650043,0.4599417717573706,-0.9965488887272583,-0.5148203862257148,-0.12352683005465308,0.0697286487426969,-0.9653931649183566,-0.02645027923710579,0.19322314016115638,-0.7261101425414095,0.27871108296796115,-0.05435872101020085,-1.3637406751312227,0.18720567292851725,0.1618296312639673,0.9213518240761486,-0.8754337210712774,-0.966913968354809,0.814680891200645,-0.8205527477570371,0.15735310738637034,-0.03841551846599593,-0.6218933178552527,1.0161349724106925,-0.4615328298283682,-0.11247778223897097,-0.5065581028497764,-0.43422076007036736,-0.8955476932333167,0.2956554065212407,-0.3919017787501337,-0.5455842684949141,0.18381417939600597,-1.1454156404634381,0.48771881468218126,0.5929243430668956,0.2109256489669574,0.6705304035622348,-0.4154827013506978,-0.620669849652782,0.24812319180266465,0.09831219604670462,-0.3533259720031499,0.43700096725946797,-0.6963962984485056,0.5746091808601981,0.32214291229464764,0.7484568998880141,0.9625786777271449,-0.9745123943143225,0.9717250197570805,-0.563071371386568,-0.318197559365922,0.5813227976707829,-0.4910975809337609,-0.058598145995962574,0.20081163651863573,-0.6983533606627874,-0.34026729445785936,-0.740195687349384,-0.5610145998211504,0.0994243489103993,-0.9200886361643271,0.23799796781833757,0.11817964285913748,-0.24321807367410242,1.1218298691043427,0.808824044491846,0.518739771701795,0.18029078291390876,-0.31746696867927937,-0.08718434092709104,0.3483492788996203,0.09960834291280547,-0.34914983785806153,0.8214590680289404,-0.725259937369574,-0.30172428509797083,0.49638765412305946,-0.012026700304902417,0.7654563806590237,-0.06035196569121312,0.1359108389239839,-0.28839955807234297,0.5499013489951076,-0.46320966297751126,-0.27499216554161837,-0.9931521273292503,0.22100030439192458,-0.646344091507193,-0.6888234790455662,-0.055029578620837676,-0.525632430896759,-0.3832982599476998,1.1319056050783982,-0.606816195756669,0.04424756787654149,0.1529465008327596,-0.5193249631520992,-0.7755507204631306,0.7766693940864474,0.5800850626552124,-0.9834844222194994,-0.4231615394914634,0.3233853029984635,0.0776228227594935,-0.07570711541367253,0.5116516507155621,0.15048252953788935,0.12875646429430282,0.1442575161411649,-0.22337008126375174,0.31454115452147163,0.9829516957441574,-0.1180082438052718,-0.7884879464731718,-0.8900893099448681,-0.3193436732254413,0.4411096794109233,-0.5522142801570268,0.3894708986890706,0.9880725288049316,-0.3897869326182198,0.3107584557816931,0.09654646478005424,0.7682578072866605,0.7786563044238554,0.031401292477960134,0.1567699855234713,-0.7986202149696972,-0.5566913393101565,-0.02290232426515668,-0.7240543354880318,0.20659339318622086,0.03774846956999254,-0.9321298256850491,-0.24131406587773682,-0.4770054385965386,0.40748185304803863,-0.7041149491150058,0.6545324218706661,0.32944638008738997,0.3504402392709639,-0.11063703238319271,0.17029145500422718,-0.3937247687758515,-0.8404486838546488,0.23106389486627146,0.33277635550545476,0.4395171886230197,0.995950067466251,-1.1601262703469193,0.16686381399641817,0.3244277875673693,-0.9480962313466504,-0.9957573843585171,0.38423301131354665,-0.392278486581559,0.3038022993464785,0.6304039643516369,0.191830485065257,0.5679106163356441,0.9732618635864352,-0.3515818224781555,-0.6769019958420924,0.7872996228340647,-0.657730596741649,0.47997121078631116,-0.32445567011098914,0.2808566880286429,0.9953646737886379,1.2755601773300194,1.0051929304036167,0.12134520562147191,0.16844044220586626,-0.15076533172140008,0.05830497317071253,0.4843210541090189,0.5611339169316424,0.8727935547425932,0.40541438228011695,-0.8081961399448822,0.528973514803324,-1.2158798664699306,-0.6746970418089656,-0.6254129941910231,0.46167441427725125,-0.40910776762939843,-0.1957085968180154,-0.27968949482666183,-0.5693783291000407,0.8618380290111131,0.038151307320696465,0.5771643920488055,0.04450170422865666,0.5691782416066946,-0.06785753316430322,-0.15061232009562117,-0.17158371844179549,0.7223535736686926,-0.1901290498987741,-0.5432264357729226,-0.03854891846024837,-0.10424605110273989,0.9238584860718086,0.8378026447266022,-0.7642304156842726,-0.5457668780280502,-0.7534839523555907,-0.07936885594560178,0.2883872295109257,-0.9832252570681674,0.05437512398230279,0.23407227875506267,-0.9419760537946372,-0.23289526293309545,0.6129035305291897,0.8005301421657262,-0.9898860826482431,0.8411635685006543,-0.7031072618242824,0.6728066569326282,-0.3982736726032795,0.19546173213613494,-0.9924442253599386,0.6649522255175556,0.23366099900366827,-0.7279378678195818,0.6121380790753219,-0.07172077666540058,-1.211500971510142,-0.6649324767135445,-0.05749798593226835,-0.7272245261338436,0.23327507479206247,-0.25354014518467327,-0.10504716999272237,-0.334905307498735,-1.0429319821538567,-0.4209007978671947,-0.6446743934014942,0.19495071978403403,-0.877597042910097,0.4349187013139815,0.07026640810079679,-0.913374575201998,-0.229636312656876,0.7457603383360035,0.5232341581777615,-0.7096320552102158,-0.9572876429398482,-0.43818433558493936,-1.1246003407610285,-0.9199476103075839,-0.10232297329226944,-0.2219572495228461,0.29023826120374735,-0.3154055831619971,-0.7738464031490785,-0.4971690955755167,0.4289208610841747,1.1363082793833201,-0.5941808460521238,0.16936108101392888,0.001022869060422414,-0.09320481865710382,0.12646006005948182,-0.007270959052776901,-0.974134501749688,0.10737848112121644,0.34052296621797234,-0.6030390772632983,0.5463860434932709,0.3293843686824404,0.5546326670529665,0.2283544650088955,0.6586845863563043,0.24405490437395522,-0.5560627839404914,-1.0193145363161769,-0.6810284148428419,-0.48308543562105455,-0.5224014539689076,0.37188704073690515,-0.3179249147556828,-0.2630047282872762,-0.6358929662073945,-0.14134984756043373,0.41033019279021676,-0.3998506488447117,0.21138265847964552,-1.003170531156876,-0.3975015635531899,0.7476167530108341,0.33163071857983534,-0.5784614334383996,-0.07922115108659031,-0.009805883102694776,-0.7783707322089556,0.8646992836163094,-0.26359543728809587,0.7033623874668788,0.772861413310311,-0.5079399853154798,0.12233085223088994,0.8788660733784036,0.6315755026320478,-0.04705231550440582,-0.5814378674685516,0.4180523759402007,-0.04037241131905214,-0.6439255184408612,-0.14281859473731878,-0.5282816888183842,0.6357947240986641,-0.5566109412840273,0.44310204634192885,-0.18087488484189107,-0.9415755784037135,-1.0085279273357455,-0.050041987527576125,-0.2618786275992365,0.9346495095664308,0.5255601328972379,0.8175201979430949,0.35249284115148105,0.6616538484985278,0.6817777751394445,0.8940102243302437,0.11029230109895227,-0.6556763856594229,-0.14828465584930856,0.23286323352280772,-0.1041066817778459,0.5852730348594987,0.07275509876182663,-0.12150593858087033,1.118935265246118,-0.2584684874171271,0.36575370496623255,0.4686964233644493,0.12105560654329003,0.49807464219320735,0.17312730255553932,0.5440976994452588,-0.047973136101075765,0.1826165551606097,-0.7188783716261571,-0.7832576219439036,0.05981997264506986,0.06149920351868227,-0.8790598825561886,-0.21272907358653553,-0.9338609488140583,-0.15536204381831972,0.9837528569548171,0.7098321680491009,-0.7895811012897552,-0.328001972353993,0.8501092220852575,-0.6570421127501979,0.8779094482117837,-0.0600397512086697,0.7129369842889925,0.452599127962781,-0.44749961533389526,0.5061652408323598,0.8581454643434434,-0.29172613572464356,-0.48609768092083566,0.37658886434648803,0.5671059191882336,-0.07585611967126867,0.4756335898318878,-0.1384529847650833,0.7316178376346502,-0.0969601608251199,-0.2699839163955876,-0.9050673664054582,-0.021210699449969922,-0.9829991358367262,0.23101241802055872,0.42647667717004584,-0.1883282853236088,-0.9358328599183974,-0.7651448965841647,0.9679890563562461,0.05232351131073748,0.9059695641583373,0.4490306797917323,0.34634340144265785,-0.12357114965761458,0.42556382289818945,-0.43697226152527346,-0.4337947780565691,0.42590808422425414,-0.9216759227925982,-1.0226731616139586,0.9312527280898716,0.49159611869854813,0.8752009974819873,0.6212406218778856,0.8052160702320322,0.8194038117581556,0.8957387799078015,0.7439619611612145,0.535018742544823,0.7553801777697247,0.5429151340563767,0.1492993827905397,0.011132542514769694,0.03377221572854183,-0.857192479938824,0.7234110821613162,0.7901686801529344,0.010678710886593334,-0.6002273495147021,-0.7943896259427282,0.6443413676671357,0.1812992384208972,-0.8105354685190942,-0.858671945349649,-0.9665359652546665,0.4215914141884044,0.19446682024081602,-0.638788278775472,-0.8877841900030311,-0.8335289843421881,-0.7015623687702995,-0.11710301576671926,0.5188162134301341,-0.07468208432621616,-0.21035293516693554,-0.2132453661708838,0.2550345359505391,-0.37992393226428306,0.7111732809390747,0.7767513123232646,-0.023031542554046713,-0.5651619460271494
Weights[3]:-0.7920935320631105,0.5095887926917471,-0.2412855789257612,-0.5629457931793043,-0.6852602677816806,-0.24778711388250207,0.593338171762106,-0.3372405149681682,0.7997527419588308,0.316948107125679,-0.9318123226667812,-0.5717999774831347,-0.2707379641556803,0.17554467799609583,0.5853184645152985,0.370702470356505,-0.8996337865943247,-0.552728123754602,0.4820884109856973,0.5292822651235769,0.36649483505938885,0.4843934231830731,-0.30119316713008715,0.7109160990039427,-0.8894556350491268,-0.7380508322911574,0.42908409770069844,-0.5029874180923157,0.17157579267936574,0.2995054299475184,-0.37698279105917676,0.22863119339040994,0.20899453563176518,-0.5489074582912948,0.9817525562225046,-0.3658917625013314,0.2781231957638573,0.009597008809693355,-0.07439705155738144,0.6165847692193483,-0.4684766962729159,0.500066032496924,-0.5013646906846491,0.5730326443197662,0.4410057396202346,-0.47015544595093645,-0.9347041441016342,0.5620527590217521,0.6537618150082413,0.29143481203866667,0.6651139008242621,0.33454091251410234,0.4948800464602561,-0.09444421115072643,0.3607939245928051,-0.2764869552461835,-0.1892180401781658,0.047798322070295995,-0.6734898226596556,-0.9467283972019148,0.32327827162032013,0.09613575593639025,0.4936500423492248,-0.4790861808799116,-0.2766899117410022,-0.1433390111876708,0.24390942559689663,-0.6614971121542058,0.2696501076845259,0.13895038512267116,-0.6601276799777465,0.24692734583406542,0.6153792720286461,0.9585265953700056,0.0760923643994061,0.8970078090950012,-0.04155822296604812,0.13382477465901013,-0.6081578381174366,0.648789255566317,-0.7749185345434494,0.8899923233346373,-0.1440674537532346,0.9236853755655166,0.688698362414119,0.2935377728629567,0.7329415239420306,-0.6941339784778615,0.09159454371357141,0.2649469927722748,0.8562109136831413,-0.7350838638519548,-0.32223486416343317,-0.1270659311261944,-0.7067913292544242,0.5143343782032,1.1477368615277699,1.2008459169117713,0.09328332980948914,-0.3987865520956583,0.2678023299474911,0.8796034674565631,-0.5859011657130752,-0.3020892979835103,0.19176143337329551,-0.4895785802681307,0.770772846968103,0.6185501731299703,0.8893674754170727,0.479902223633891,0.7150561835006465,0.6390935218143712,-0.2929221760914299,-0.3116462558764062,0.8340272699703243,0.4394752315940597,-0.7497905758686112,0.6432745727945627,-0.14122426900534338,0.41634566328702977,0.10067858486919881,-0.15134958320307532,0.3152385783320089,0.8598926260061001,-0.08097888134374111,0.8897744932377111,-0.17629454191573926,-0.08637799153686461,0.0887636193450443,-0.24144778911361986,0.20339397539570445,-0.1751572606285808,-0.773013122995977,0.70613057627716,-0.6766106546287857,-0.5813713178062088,0.5073490930986736,-0.8435911082260755,-0.2344027168201024,0.1782392093969501,0.5054130244559669,-0.8794424486716476,-0.5795616743763355,0.6184881003895025,0.5941517950296462,-0.7287162336723639,0.5835568635463174,0.9951790176734505,-0.03784651654420304,-0.22493544142547897,0.32189994964647234,-0.7873651196828426,0.28694267704370335,0.8484858843910826,0.7043656656316157,-0.5141340579384257,-0.8238825548334083,-1.506939242810757,-0.36746995770366814,-0.19357267467634046,-1.3076549397464696,-0.13137200008041686,-1.2008620844271107,-0.894188255587163,0.4820409873780122,-0.35841628785019947,0.2913567070650788,-0.10308659223238299,-0.6966203850212602,0.3920257691354298,0.9146809446474546,-0.8965328028224274,-0.07435296327268431,0.7739800259832456,1.1174768326439404,0.16100152989711064,-0.6376018123451604,0.3461803122810786,-0.9005489394787748,-0.20291089294202516,-0.5201254060115168,-0.6698106354512249,0.7945509480731417,-0.1404388669220897,-0.636346250352976,0.38585396354620305,0.7558054367906706,-0.2965035502500766,-0.749236767721305,-0.9847611427280669,0.6594338989251791,-0.09735675815349938,-0.522228020945869,0.40421077989967513,0.09020752015892983,-0.5962406847853079,-0.8882012143750262,-0.846833122749267,-0.9196953529296727,0.0013137633779253567,0.09829929564794604,-0.4629418857136374,1.0110747059069634,0.9316295394987227,-0.2180452683828638,0.19401462395075442,0.40006338742187714,0.2779077988014541,0.4963355351307767,-0.5676802576582705,1.3415000730576385,0.131373400759329,-1.0237192325278666,-0.3067253161458213,-0.42634901413096543,0.20191105098522782,0.3309120439948076,0.17084556728318406,0.9868126896318605,-0.6224128760808364,-0.06572404740221525,-0.577287137342796,-0.5601227480148192,-0.7511315209708557,0.540417906539241,-0.18112650781943743,0.49838922174242534,0.4664768803287685,-0.26860371602016886,0.5328903495491155,0.13856699214928722,-0.1508709559806695,0.8385965180179265,0.7102843892082029,-0.4786964483205237,1.0615073823526293,-0.04998152287674636,-0.5356037369502018,1.5688400513385938,0.691753085336499,0.4892806834778394,-0.6857735127225171,0.40932580983577466,0.5880317050650554,-0.9326232407059255,-0.18718991908597088,0.4466914519923264,-0.4049456895679307,-0.3067992893075461,0.3670153527500486,-0.11311601583760543,-0.15977493789649888,-0.678930324953938,0.9720220019374868,-0.9004353511393706,-0.4320264216426959,-0.7727052541379922,0.5450690624570858,-0.7229862094762192,-0.17852891428782028,0.8034398954848968,-0.48677916242983915,0.1083033860270133,-1.0961539664268263,0.8297170262860993,0.9728043107987248,0.8565367578850829,-0.45792021895680707,-0.9500655448286356,0.08779658052391139,-0.14443167126033696,0.4346135002169912,0.33195089496290847,-0.19024233665238402,-0.22706000142465715,-0.3886379458622918,-0.11109270083459319,-0.6500294831760166,-1.0053458428664874,-0.2571611624008173,0.7178416827717701,0.3957755826626332,-0.253909764191326,0.08668082645082502,-0.32777829261665187,-0.734848422770883,-0.9412419028385052,1.0869028081389724,0.6141550050776822,-0.06038108567847266,-0.11394856283642549,0.3875288401654439,0.7538498082242292,1.0909577452358652,0.3844018328060524,-0.21617533327555233,-0.10912652350752228,0.04890665350373724,-0.6274479569366075,-0.35267217665081485,0.29803764543198835,-0.09959524638744535,0.6482654473685583,0.24572354902637328,-0.6106127575275359,0.34370886247356863,0.3455415663377194,0.8008964220895715,0.7174961206148618,0.574041076684837,0.5192987992187494,0.652478783006607,0.5984002960525812,0.7791379833179629,-0.37860965390970014,-0.3746463000306607,0.6363247100210995,0.5898731433330375,0.30099690361652226,0.2354431407204899,0.047410416674692826,0.9915485599051191,-0.4115249033716594,-0.7582988271426333,-0.03619777544534918,0.5391467068678591,0.35387344123166725,0.7079937073419806,0.09215769004493535,-0.28160852513490703,-0.03501860906393287,0.299036900313238,-1.2592639647870727,-0.03539542035947104,0.17143893821013018,0.08784021683602611,0.8205433772283702,0.202855956973884,-0.5211285089980067,-0.04242081041480822,-0.1934926627221193,-0.4811843251580788,0.9362391133297646,1.2799032561850197,-0.5565087571158234,-1.0297958486321916,0.6119245795754413,-0.6292540515810278,-0.28789742071830704,-0.3467638114917398,0.3042916556545345,0.2531596820417147,0.6841028731705581,-0.3186645446549762,0.21587301087448388,0.6000646186090515,0.7485644311288816,-0.43305273124556337,0.7940158008336383,-0.1193360159300894,-1.0911105160004064,0.5418410400904741,-0.10560764789255626,-0.02044292914142651,-0.5840666833087915,0.7512181082827055,0.3963382995518986,-0.927398154862293,-0.7492088447676405,0.33184192188031425,-0.5721725889908746,-0.5308572931398218,0.2989942949285837,-0.6941089638843105,-0.047391636826475535,0.2680295550373495,-1.6904757270289315,-0.9996070551139679,-0.19319519462313783,0.39827214536192446,0.5364396522686714,-0.3526212057730916,-0.8338466519454588,0.2964378935971384,-0.43474517747068725,0.8129006338321016,0.9396224480657361,0.5058537462667009,-0.9246880014934954,0.8200899012952046,0.42175194214370904,0.14004956002875324,0.23393294944988563,0.3278414299770883,-0.23621505971513265,-0.20598140098336606,0.1595446697522079,-0.24056820536420345,0.5372306967177607,-0.5735355438091996,-0.20266136049166167,0.8995133561370495,-0.0894345214099482,-0.6745679016244122,-0.5477547500813368,0.03649768561386913,1.1431437834520661,0.35194054015334364,0.7733385206665266,0.7097880971648785,0.5514515212953807,-0.12123484956121121,0.8506072081060831,-0.4741253607328011,0.49364923119105936,0.6261538499024341,0.46497301762936116,0.6669324144968471,-0.9399740645599194,-0.36041140990483106,0.8232189718267606,0.9830688495687553,0.927798794796886,-0.9176121038179499,0.6782689366230688,0.15755339530302612,0.3363984848656875,-0.7451900592636751,0.7469576352570765,-0.8526939241633648,-0.6625237986497565,0.18622092059597467,0.1875188867752202,-0.5059920101951886,-0.2192157164133061,0.6381432706346118,-0.8634174835935998,-0.5392392532868578,-0.13438009133041895,0.9595502571173425,0.7346940434650753,-0.29272168223907824,0.519328054965889,-0.8891830387078085,-0.414161943330111,0.047460719056301365,0.18829970430473578,-0.31803269928626615,0.760730882374166,0.42683319874506526,0.3122875941368683,0.5128154876048704,-0.228355985485708,-0.3054160812666939,-0.32986328960454936,-0.005171813528857603,-0.844656511518943,-0.8835854405755876,-0.9354359089485386,1.002123494181236,-1.0081493161170154,0.5601232604814742,0.46327233828669,0.6898572564241452,1.1584477547430387,-0.38754697881544453,0.3372847604563616,0.2980318927815646,0.2475209832119258,0.8744172892786178,-0.14912906314220836,-0.03868757446661977,0.056267447260484514,-0.48771018580754993,-0.3210732208585343,0.058331401959295225,-0.5967690840348457,0.7809398002925338,0.4155687855622046,-0.1813552316635325,-1.0199447010257616,-0.5428633700216481,-0.49571622559428535,-0.38503651316059107,-0.3553013343717868,-1.1195798871157223,-1.0477053272595709,-0.1134700661087132,0.6552312752511367,0.6151699201222912,0.287194815829627,0.7658701680984963,-0.6625697507610073,0.11999046541227597,0.5467449366015394,-0.7742870232494431,0.31162867676764733,-0.8101664400082591,-0.5937919428808832,-0.339813351914754,0.9658560069817208,0.7086007868282587,-0.2681882789725579,0.7890219615883178,-0.5448343811690227,-0.7381110097072505,-0.5175917963054836,-0.6683609275113429,-0.990107486625408,0.37560790206516986,-0.6202987405595897,-0.551242203092404,-0.1423582499624852,-0.16082926164663938,-0.11803457158801828,0.6688214933535619,0.3472147909340897,0.09140184175009128,-0.5370659140766009,-0.02380632578125953,0.48077797263289745,-0.6617922479526464,1.1784836686190894,-0.6741781579840165,-0.5957143997675928,-0.038633679123095344,0.10607397373775296,-0.6861634871556794,-0.10618191179251249,-0.47914644269652207,0.5708089354772549,-0.6436675126063374,0.48725306246362715,-0.08733540364748112,-0.09829586903200488,-0.5770458652535927,0.8005750462523061,-0.3910606282882506,-0.9816626689575938,-0.24896746865291222,-0.9661667849336159,-1.352518615933487,-0.8687157727850184,-0.46991999949045943,0.6483157584289022,0.30291219685914234,-0.16473047996952495,-0.8153651190162581,-0.05479905104480601,-0.8774441473482097,0.21138160559156077,0.04365667555623153,0.6826949995389661,-0.023666406782114936,-0.10542143647158368,0.5699066245188323,0.7270627183011265,-0.2856753056907797,0.4195079773272033,0.3796625010429569,0.29768377137262547,-0.7272017092203296,0.48471456398722407,0.6034273079936578,0.8045314181339008,-1.1721283725236789,-0.27986513423007864,-0.766964731541879,-0.5198190365681006,-0.14204160642326627,-0.07466152981973884,-0.7223365925014875,0.07756295874304962,1.040704041043247,0.5307118647091003,0.32560983017477724,0.6159626801013648,0.576736238915972,-0.6169851048427484,-0.16728682865028613,-0.8341712627534074,-0.5891593107384678,-0.2299597926304379,-0.29704770153070265,0.3225071852067546,-0.08697535847218466,-0.16457954374962952,-0.4760159953659991,-0.9237064821354157,0.33597803385164965,-0.22425412483582438,0.05944507237198616,0.002136676186378933,-0.7062007032726858,0.14560843157495829,0.773616331836617,-0.4555297087553757,-0.1823985146430183,-0.9354493930105,-0.24208832623182122,-0.4197542540081158,-0.4031206515596678,-0.9797951404717399,-1.0612337311913074,-0.519920606081349,-0.7215848705715777,0.3761692124015288,0.3224639054354793,0.6051713093952906,0.1355035456940303,0.6015813900643966,-0.9560113450240921,-0.8484665809562776,-0.5985610817263711,0.24284459724926086,0.044839896988334585,0.4547747041233824,-0.2805271615449866,-0.6566727795589089,-0.029422347118982534,-0.02652257591984331,-1.104838908053508,-1.3024574611671778,-0.0022405971367855894,-0.9504308276180133,-0.7240092120467462,0.13493598063362244,-0.9925207785288908,-0.556269662415894,-0.11832702562777193,-0.21854370613442853,-0.052162486499168915,0.11883581617428383,-0.15252629823518313,-0.9749623833646934,0.0006528022066565645,-1.0208975065204173,-0.7652016539055474,-0.8141677523528186,-0.18159912083184931,0.03621494259884993,0.20273466673405516,-0.14165031863047936,-0.06754628588600901,0.6036971014010242,-0.33534221320196156,-0.026716810140331344,-0.2103699743525782,0.3660636996987112,-0.7973275340169107,-0.7266986708127806,0.5937004527599762,-1.1919498389633367,-0.08376200304265641,-0.43160159277331495,-0.395229304890604,-0.08363960295884039,-0.021332656601264485,-1.009540101267576,0.4805273818138568,-0.656843761666412,0.12955428220655252,-0.4927915655878059,-0.9763152407753843,1.0228500944765895,-0.36070493235077256,-0.26734289286271157,0.043014088464569125,0.9405690688392638,0.8217014920401097,0.02017206409414275,0.06092581854244972,-0.6067427683653044,0.4522113667112828,0.9269806169649781,0.9513857729924727,0.513765732193652,0.3972218297593654,0.7408537794831064,0.5445376915957812,0.09274549731403206,-0.9029496248727572,-0.00040417922813598575,-0.802902028649908,-0.23557480988942434,0.034883189476483875,-0.3633026508425875,-1.5598753447259448,-0.6915020907449805,-1.2899775340681046,-0.6179324918203927,0.28899401883851245,-0.6365203459121654,-0.6959743756225314,0.7319265296511652,0.4358674769974019,-0.9060688308775089,-0.2944489642283044,-0.020904832524681862,-0.0622072541444596,0.8705835034468135,0.8737395796336884,-0.12487794033925691,0.6428165554930311,0.5100396518551203,0.5675465295487646,0.6014712107359678,0.24587930413341358,0.6252384464892442,-0.45146562536964785,0.08730331366559896,0.6385855308901183,0.7481731282522034,-0.15899372720482977,-0.4997739651476898,-0.7524282244199104,-0.38198494147654927,-0.23310843808023526,0.040095357805801396,-0.3390345069670658,-0.8438145045351606,-0.26607728270489484,-0.6927068000423299,0.9491734757511523,0.2939305829769949,-0.9167276481046285,-0.09412151811846788,-0.9560771956835301,0.7014422694693516,-0.5154922853761783,0.900569770438862,-0.3398522425991599,-0.9130139613278542,-0.36867171767221446,0.7096419525633213,0.7446318468868185,0.7653157217217054,0.2723530200971901,-0.11042090128871755,0.9694973786545865,-0.9430047789047549,0.6643546928727491,-0.2555251353757256,-0.46520497524350835,-0.016621148025484724,-0.13367183404443894,0.5926070938470608,0.583329369550288,0.912003941082739,0.10539443444234481,-0.5038432299777139,0.11746045092994652,0.7791333185219169,-0.5651894358391347,-0.09625667943444882,0.12490906991293138,0.5597907488978424,-0.06175936156034445,-0.6795898115633008,0.23563546279242042,-0.6561563872135436,0.34448860625062167,0.28335115062732646,-0.11938846620858865,-0.5992272062109011,-0.6343899497863383,0.6635860743824351,-0.05955230140110073,0.07827784815635927,-0.14751368455122355,0.03846895766145797,0.8231057425919168,-0.8428598998183198,0.005131005512354493,-0.40938973800823175,-0.5899044890933963,-0.9228236459463046,0.8430063094075962,-0.08558470564119977,-0.483324480978215,-0.3125681613164806,0.46946075906486295,-0.8396028074620305,-0.40767072765513823
Weights[4]:-0.21995700300669163,-0.11901039496018107,0.6565744977707857,0.7002695983742688,-0.47492235222594925,-0.9224603511031998,-0.3131271979367022,-0.20838065129163708,0.6012067569425361,0.6220253769410893,-0.32399584694020256,-0.6312400547933019,0.8305482260564463,-0.8881521887740961,-0.34846026350306214,0.12211752485850001,-0.5426485992701019,-0.631826384752908,0.0550471940334174,-0.907429662489998,-0.27974913608271124,-0.01025974238769134,-0.18398823271691256,0.9109302376913513,-0.48071980172801754,0.07721461871509194,0.7469002584679518,-0.987973661156359,0.8028493830016112,-0.4517963758910989,-0.12561715539806395,0.18408961742375496,-0.31150295572913206,-0.09346039092616132,0.6064596277696973,0.4788184870967592,-0.9901980854669091,0.23916897953775382,-0.4484485676788077,-0.24816818058799714,-0.6724217740193326,0.01998779381785058,-0.46701878066683117,0.32513999669884,0.8236633770560342,-0.9951546182502213,-0.7855570306033371,0.6966882521815998,-0.723851443889579,0.42261901309976063,-0.747708970570877,0.11120841674732339,0.10534999850455207,-0.5002410651651402,0.239121106098928,0.7903027393809998,-0.9350221622432685,0.7456442600794342,0.1809889650955597,0.4478855817602976,-0.6697348127784931,-0.32515408284131986,-0.00725969625599299,0.0586361939095204,-0.24394569189511414,0.5057525592274367,0.7046617760253531,-0.01541921812447593,-0.38601027223483886,0.2686170228205509,0.16593057482896856,0.24343588066522315,0.7967816336555609,-0.6639610953201597,0.7706319139818546,0.6939220595529291,-0.5200734448830902,0.5302977265717281,-0.8984680258935627,-0.4800346036702958,-0.13840396413520079,-0.9504408828208816,0.7373494662984039,-0.5925939938019003,-0.6818768138447202,0.7730957007841652,-0.9224535628185657,-0.8111713372167694,0.6690761132156995,0.8379119994447889,0.45179121733360783,-0.6969507319893989,-0.8995661830397863,0.14752787335231593,-0.5735916645621756,0.8346698504595025,-0.6424283578402336,0.9025357697821553,0.05072587165043511,-0.35280326373731224,-0.6672989507625215,0.0680887781498585,-0.03622947925389774,-0.010585520238884046,-0.7645696511501541,0.03752062744241205,0.22821972160207873,-0.19778641428715693,-0.2689055968817652,0.5259716308172299,0.33643502067455267,-0.4099545233929318,0.6825901929673692,-0.32258762126371493,-0.41774956397709523,-0.7204049328828341,-0.060662256035544426,-0.37763412643401,-0.19317199402828855,0.08581498201252308,0.45563704224060636,0.5823204067827722,0.4379206959447911,-0.17473097381538805,0.8823539314261655,0.11391096557385678,0.5319619018906355,-0.17278099162828237,0.5965760743428791,-1.4359626358887225,0.366035797862404,-0.11935642104188803,-0.39363555282067075,0.4244397907977718,-1.152181902071699,0.562447510846003,-0.10207788873169087,-0.3562142852517011,-0.8743801105444883,0.3106622523397308,-0.5033172171112696,0.27749804559978575,0.4512514442388041,-0.8633143620246355,-0.49491894565225864,-0.24585916871461505,-0.46106538632787464,0.42815802535399217,-0.4413674926602209,-0.9612448791096059,-0.24790130914092257,0.6206268265330079,-0.271637303076118,0.6831795253608427,0.10628599055478027,0.24465090644556553,-0.592811822522755,-0.39939540591294526,0.17198967462473794,0.0869000572967069,0.8688142569994151,-0.4946792884062194,-0.22018911475321815,-0.20455461143083456,0.9937100487055189,-0.5950735040350374,0.7241248026698723,0.9815486364940749,-0.49072432494290374,0.014881356756203765,0.4371800633736989,-0.7206693436689781,-0.5065168636153201,0.3452963826134413,-0.6020303521939337,-0.8585083378488021,-0.7552434720914051,0.37232209635977326,-0.5769857914512798,0.36679900418805034,-0.25713882832265583,0.8765304361353567,-0.6738549483477416,0.8898655447013968,0.4949985732561469,-0.7090698539121119,-0.9068196015584743,0.0782869081454297,-0.35050839949810614,0.1274851818601366,0.3082763672612362,-0.4901675169175944,0.3843256637579637,-0.20672877727270875,0.5089486863385907,0.9742986299476537,-0.6399389831219509,-0.17593009886180383,-0.7118549028214783,-0.9081605920262157,0.14044707711574358,-0.37394871618369446,-0.17330282233813576,0.20510211988255975,-0.234828114594441,-0.6455276424330524,0.29316462152507355,1.144300882164273,0.33541105807400806,-0.4466805054607998,-0.36470852034344364,-0.06252534933653314,-0.3878661476183813,-0.3171600684550706,0.27254188752917663,-0.9854064939822118,-0.5719594878397887,0.13610232690026408,0.03348592249809248,0.3643403753381488,-0.8716139694979342,-0.44887291325407586,0.22484849677236407,0.20159411497791851,0.47468024476266774,0.05358652592241895,-0.012542791596997975,0.6742027620005031,0.9661307312041834,-0.5682899940277811,0.5248669957980429,-0.21131156367856274,-0.37081596621220675,-1.0067719594382398,1.290959057249083,1.0944356384522953,-0.07583095040369452,-0.3650730702583437,-0.2900741825911341,-0.3496526336845186,0.20968700703636642,0.06459020236585289,-0.8555807815306878,0.968603700380189,-0.509210969116705,-0.20833093662639618,-0.9157184276724369,-0.37293624737881953,0.5970728138402149,0.4618674675429182,0.6147139792123525,0.18530233850434857,0.5849806971007968,-0.335148586197796,-1.010278914448455,-0.36963532551624423,0.4455475498692409,0.488094241983042,-1.1893094148396173,0.5215506894218157,0.15017546863355938,0.23647025424176965,0.7594670410303735,-0.005628491898455687,0.3454434517627644,0.5450912714694516,-0.901834251092829,-0.724994125550027,-0.46276192755427803,0.22474433102340555,0.13006191950939106,0.32382384627661787,-0.8938652058833197,-0.6778034840306452,-0.7183257078435548,0.07816124218477365,-0.622227747310946,0.3156685426384031,-0.3229360171849944,-0.1523184752061069,-0.025644849131977746,-0.8876736237006126,-0.9356743079648977,-0.4485836681336404,-0.02610412661737632,-0.4212825218741765,0.5016824483801104,-0.8241359225723459,-1.1940223063089197,-0.11793554503081786,-0.6417496895602567,0.2901912887329278,-0.2670228226397011,-0.15929979043610074,0.33970683497318677,0.7450786073552839,-0.04543000986291641,0.17516226114465105,-0.2153458294076524,-0.3666645354203942,-0.6835955234545059,0.6400903150411362,-0.9269592945262937,-0.7651143386622081,-0.6809984546554753,-1.0074234076830684,0.036605217131010254,0.31850136140571517,-0.6883524845744315,-0.15412626105810093,-0.8325180063867276,-1.0449018835461938,-0.04998392811474452,0.06010571855004503,-0.7252054592133502,-0.35516828158269276,-0.5324047788601048,-0.6385127489017214,0.5748814927845161,-0.7555600047159587,0.9169855565944875,0.6279038840252779,-1.1999574350324749,0.1374690088360759,0.042996537902102276,0.7093529306016391,-0.03338800722894786,-0.19234411907693708,-0.7267824649640077,-0.9343231119406071,0.15521721493802465,-0.16962384204546063,-0.650667012398378,0.6671344990654224,-0.7766377778283782,0.10937378613542706,0.8171095021786644,0.9914580266926858,-0.8474994201907158,-0.32429314914296503,0.32580862507399694,-0.9403647794615333,0.5509415137314854,-0.34574929595708426,-0.6231924182057872,-0.9349527152945464,-0.7226823686740272,0.5062470757244375,-0.40477616595818644,-0.7734678268941755,-0.28695120383827327,-0.2645664454128938,0.703411301156631,-0.4986250484739394,-0.09208935440194525,-0.48771832503009876,0.19044124626660933,-0.5784978663333226,-0.4075524052835742,-0.8253150912554899,0.29588729558230503,-0.7484050099444569,-0.4334779421392616,0.939100877352577,0.26495676878024554,0.5257529670603125,0.6661441192702774,0.1261475512796859,-0.36940847112425956,0.4362591884830498,0.2970503968422976,-0.275892039735438,-0.8346493856080783,0.2597433639498461,0.301398643437668,0.9996844181853144,-0.8736299544946056,0.29179129107365626,-0.2878117848990083,-0.0749106453661662,0.5642806054958999,0.46680578558243724,-0.8432184757307482,-0.48467474108221237,0.3772655617972084,-0.5949326762258864,-0.35471655860399004,0.8024491576931932,-0.0983427509657863,0.6643021966147563,0.4228874157816012,-0.03716989478357762,-0.005738061021649336,-0.9588820300077265,0.6819428103455798,0.1986869201834505,0.5430188800982829,0.8129029592559939,0.9624103060738416,0.18198162593376774,-0.8816097496219426,-0.0724738116593231,-0.16905092354418827,0.21788824425311315,-0.29720930013546587,0.7562123231157963,-0.6554547757288293,-0.07817658924581589,0.6332216238838352,0.6561372747283829,-0.09791342859532691,-0.10107306784451613,-0.5882545100299892,-1.0365985969069742,-0.380700329996321,0.650486245944466,-0.8779259041495541,-0.700814297903233,-0.5328269699805479,-0.5078632957218785,-0.4857399588829718,0.9590552496827799,-0.47843483691677036,0.41148746737661657,-0.8352052061363373,-0.39219632222197,-0.5652015111143175,-0.35584913187611955,-0.2288191570601413,0.12828116962367234,0.5870554771026595,-0.8568487652681179,-0.14220009480841805,0.23259540952707478,-0.42997972749702007,-0.3536569634324328,0.274583712660474,0.5435753638747232,0.8653046176904433,0.9120094783497557,-0.572387409393698,-0.8650462311046617,-0.7659204183515822,0.327954409510411,0.1303642748789327,0.0023895756059572827,-0.24845560758991897,-0.019537634113293435,0.4656652496032056,0.9880923114280389,0.154360491521477,0.6464951731930614,0.4883041790846458,0.5893018670418052,0.23058648653404382,-0.49556622629599795,-0.9313055753572164,0.08307873223072532,-0.1503912322203039,-0.6549226146495941,0.6175005177051588,-0.8119860726316447,0.5194358299571266,0.4680846654745979,0.31663075755280734,-0.05102446945581752,0.7037017563436139,0.13921358095349817,0.6216315716472118,1.0795137076442263,0.25829133741303983,0.3489169741834731,-0.20525757236816472,0.03024342574071507,-0.804142485144362,-0.5121349332575732,0.698533153021025,0.10286957263466107,-0.7408653577496368,0.5205473536771883,0.8960473721584156,0.3367997878765166,0.29169780852833915,0.006467231545698217,-0.49444544301495996,-0.11969279664957058,-0.10166524366015116,0.491080004075685,-0.5176091983810497,-0.7913153058765072,-0.637162231940002,0.0352847009399746,-0.4977746185777804,0.8852810088119465,-0.39006043245154287,-0.13065223701457243,-0.6011230627648086,-0.4095631915049459,-0.8703148667116728,-0.3801227794855046,0.3252864284716682,1.0204777942507832,0.5591759568223503,0.6978335733482396,-0.07017648471556195,0.9991259315725816,-0.11091274450693263,0.004006575407497187,0.4655070490967329,-0.36297164464811654,0.2196458289327038,0.5943406461776889,-0.0011984890937949556,0.7028777588728201,-0.4052927358433091,-0.6277355808669682,0.157884936359852,-0.17788889157723684,0.42332440781179215,-0.03705378727159713,1.4705106675805006,1.5003064726127913,-0.014020658853909953,0.9323293108539753,0.5291908287023231,0.9677735754935296,0.3501428169973125,0.5172851816797487,-0.15865710203381683,0.895233271567967,-0.659382893155789,0.41284276934165437,0.03914693341238436,0.5773538504357649,-0.7555298605407201,-0.801727447136252,0.7377141091938951,0.4398104770313803,-0.281672163663692,-0.2509773424455664,0.6985084019481865,1.2358683719476027,-0.19822719484460483,-0.622672479641352,0.24419456179879273,-0.27255745981211804,-1.1827112779447801,-0.1368474476675818,0.799683125961505,1.103427754618724,0.5719008720609841,0.45740264654891016,-0.18087175930378405,0.41934850815927616,0.14341299127671986,0.516298426371107,0.46578634935635305,-0.617082267918768,-0.6353566265804467,0.20543505751723787,-0.07141568934145182,0.5663679484393588,-0.8086551111588859,0.698296627154994,1.1395697001601994,0.5270337452534616,-0.2927237208194082,0.960117703313961,0.5069348308221162,-0.05514916726792295,0.11917411621445073,1.0210105893624821,-0.37090860032014883,-0.305349115721923,-0.10129125435675383,1.0014610067443872,1.0880261080629408,-0.4380163136310978,1.2014185609890273,-0.5142329080337502,0.6542995114653991,-0.3873852345297809,-0.5836184443874655,0.1475322603433596,-0.4382140727027394,0.03904459835991825,-0.36740489343174165,0.8449311730464069,-0.24345864838980225,-0.0067464115387678115,-0.4306263808920133,0.37623229583170126,0.10402230552901193,0.242483938491773,0.8155316981380436,-0.5378946433887695,0.7835763950583151,-0.19738331443084922,-0.4918267364382142,-0.2718040709980958,-0.11272642499727839,-0.38163106602001695,0.11097456872430363,-0.3574470652521968,0.28222350169398813,0.9597720721712122,-0.11259818657067286,0.9318189336484015,0.7507671462308169,-0.12309914701833916,0.5989893120800686,0.5023821134127491,-0.3135016226085489,-0.8329608569448953,0.6041811313692612,-0.6227798267178107,0.13709612227269916,0.15211155512786154,-0.027961597416557314,-0.035079926884012465,-0.04122599947223594,-0.3234651333205061,0.06331963196564296,-0.5747458930913049,0.6492721834126943,0.19916037760805858,-0.0639422616857656,0.9919548453511337,0.10114236949611762,-0.13237471310760165,-0.6965134685980533,0.18104160587688387,1.0680229233544423,0.642937736916948,0.3740974435029384,0.18105008023171038,0.12717990757992798,-1.1643240536189317,-0.8050055066444295,0.21994182813879887,-0.6011311605644332,-0.1250744211935923,0.8860975275043239,0.8023664963517282,0.29564197421802296,0.08527952948830997,-0.4517946463493353,-0.2437073166978226,0.5010365193344432,0.36593673631932383,-0.01687131464444115,-0.33793941448686554,0.9689013034886588,0.29746277853597036,0.1284939665890464,-1.1518951266423534,0.03997247838430806,-0.16005327913691808,-0.06609830595375746,0.13002724488280626,-1.0032886626393003,-0.11240778602468628,-0.5571795379795937,-0.08114828417057643,-0.2501410102776052,-0.13626879366412561,0.7731880559360637,0.25949631053160416,-0.20356472622807759,-0.48280176398626384,0.03433157504312019,0.11611672263411643,-0.15960735695418315,0.7293849642059695,-0.502363745583823,0.7900403819693759,-0.5508775789716938,-0.08369086246936688,-0.04358534226967023,-0.2007530580129817,-0.0007474534434861711,-0.7980288849981602,-0.9125559933569365,-1.1628079776926505,-1.116933192636035,0.8934895196695698,0.07723382414920182,-0.838724467980534,0.8517049389506923,-0.028666791757987493,0.5863103790030687,-0.4081023206309044,0.5744075863517578,0.3109094079168985,0.014575958105743983,0.5120290742879534,-0.4161934598991898,0.11199270741889966,0.0011531834862555223,-0.7096076420087403,0.3077050257975724,0.30010571391326635,0.904335916439486,-0.19264607881262696,-0.8683429311921461,0.8508481248099511,0.8189163527913409,-0.8195469724654623,-0.20344852690972073,0.42584824165120205,0.6702791724807614,-0.7396664431122973,0.21329014932616774,0.7408919761538375,0.9822403984168054,0.7275557778731128,-0.6754181411151219,1.1315900125483405,-0.33209646399952536,0.2749548166151699,-0.7864332868959077,0.5477655821443546,0.3436053733833492,0.986541827537398,0.08824408836968613,-0.41779913416460807,0.6102468304314227,0.5675822121871552,-0.22675406803691478,-0.009304183073949202,0.2240636568628549,0.40559598003543085,-0.9577353511720387,-0.2279009537813266,0.5474860386047087,0.796874013200724,-0.662169349415408,0.5246125055768154,-0.8036682801437701,-0.6019896219960755,0.7343269612048822,-0.3984721770807587,0.19878278630966523,-1.0106458450757592,-0.2558358261970279,-0.3251416536312112,-0.5010418366419326,0.7485379960983499,0.3070701099272271,-0.052714217567308194,-0.015936234798603142,-0.40179107976097944,-0.4206111648002622,0.7772689893600752,-0.9122110856288165,0.7712870946951615,0.9376981537498992,0.9080881578419768,0.7437783133908074,0.551901116758539,-0.8032018650362801,-0.8327082066164972,0.386485543130382,0.9391146240770151,-0.46430276856847985,-0.4276693773592466,-0.4325934054551792,0.1285343527638424,-0.8194578850915891,-0.9275196961548436,0.5047526645415255,-0.11161608900863666,0.7716362143633311,-0.9452839749452985,0.3253216033273836,0.5271294467404071,-0.7851407005077565,0.21064368936345915,0.11395703831195504,-0.7210276354330655,-0.999126011505316,0.8055779905084417,-0.7848380411904482,0.7794135332943004
Weights[5]:-0.37941808131496335,-0.1739408155781873,-0.7315268571169706,-0.3564704569785252,0.7348914135875606,0.880713181514625,-0.49609686690200905,0.8253863369232912,-0.377748645552317,-0.75040390237719,0.6747803118428124,0.2552228389565008,0.3685980531382345,0.5834121028364897,-0.7303188406913603,-0.7744675739099436,0.4438693017903106,0.6096214212522011,0.25044141116106955,0.4435170560346531,-0.8968069208305361,-0.19727711714677376,-0.5014530604246319,-0.6043338568901335,-0.47250298944884117,0.5442296124735053,-0.30461723325057755,-0.2434424987265107,0.4576971053414498,0.551027128263855,-0.6087754162069295,0.9523440152184777,0.6076751806006228,0.9747992343171228,0.9182461144753524,0.7516356998639053,-0.6906137115528045,-0.5037709281997876,-0.5356009323133356,-0.7715246819106484,0.06568815806578814,0.1239100972493516,0.19280785796752975,0.8271176049421598,0.7458721196617961,-0.668778272751034,-0.13383293553352849,0.6591970156277189,-0.1186549058549027,-0.936981888701987,-0.4382318058652401,-0.8035635143917514,-0.03527945235151775,-0.6641035227403527,0.8631454444784417,0.8178590358318105,-0.6724877551535553,0.8728069997731629,-0.8839673016458075,-0.8097917769799945,0.18522003058166445,0.7475904756227787,-0.6307782260039838,0.07214707293994962,0.8765592808419083,0.7641635595233445,0.6844384064518929,0.435475436651066,0.7399792894537279,-0.4253174838267713,0.995349976558306,-0.007099293697496767,0.14710675110207494,0.11718472363856804,-0.41379373467167346,0.14756547801137931,0.6945664000325799,-0.2680375424131487,-0.29257711833815137,-0.7797794565140975,-0.3204932645516103,0.029445989656982714,0.8747479589072744,0.39714998816938607,-0.0059775584405183935,-0.8047319854631703,-0.021123591659601287,0.26921595990110336,-0.8888978024834593,-0.8992292781494002,0.43568076611633394,-0.5431909994480874,-0.5454310906168387,-0.6109755041676103,0.171311497455563,0.4446170673129055,-0.22006084135740236,-0.7033181699420523,1.2051641825611985,1.127185577301093,-0.1939392278918395,0.8090710224258066,1.4128796511107269,-0.39669850350553904,-0.5239811708013915,0.8510157801382705,0.1156509931270366,1.0199714182608042,0.911115300528213,-0.19734265966351192,-0.7980735572300425,0.6602970406693858,0.18396355918793184,0.8936045867922933,0.47523790086017287,-0.8604342733557441,0.8617302997527929,-0.0351559800037856,-0.9049082737453745,0.73241730929391,-0.12060886977232078,-0.49334445251298714,0.24452164098666318,0.41267992488629934,0.002474707284998356,0.2208701049521019,-0.4397465549282188,-0.419597079244983,0.8201036365195733,0.20823968959251615,-0.6780192628195689,0.6865757318065732,0.10558996950574898,-0.2106216519791426,0.3950399437782389,0.16053021385578675,0.02283924828730834,0.4517728400222852,0.24837796034292353,0.388439731798802,0.1487851530075004,0.05207867038067371,0.3291028977582378,0.24925572094396747,0.8972121972352989,0.722074047718096,0.2683412608887477,-0.4238242447417723,-0.1379888856229285,-0.27433984580015486,0.018968400273717996,0.18385192799311312,-1.4587239802683898,-1.1047679724372401,0.001062246909410562,-0.8251165321187424,-0.6597439284438259,-0.7983949045821075,-0.29905360285283383,-0.4751249836612786,0.10538719483445941,-0.6212772674829135,0.7218463109666919,-0.24510773770800864,-0.36796502145515975,-0.39270744223265824,-0.029798450256362737,-0.5175390434183174,-0.6713019654486803,-0.7149220348759395,0.10773925593559815,-0.6676731619380579,0.6868764462604681,-0.397581057943327,-0.5287780628967726,0.7384080152119202,-0.0967446045533887,-1.306824128065826,-0.014800156626444865,-0.3567671878136656,-1.1805640267744821,-1.1498642918373845,-1.3895296448646617,0.2637099430702089,0.8602752887049782,-0.6797532851743533,0.11246718970244668,-0.7002217175437192,0.5576836521124378,0.34321573128450655,0.04168518283786316,-0.24719292751928754,-0.7300111542308216,-0.47066658391547955,-0.6582183058178899,-0.011311794305684141,0.10977268543035197,-0.5080707122023971,-0.32024655948585395,0.19539003868169977,-0.23646868278946964,-0.3880681173630164,-0.9818316016242447,-0.6737414397540659,0.43900645938711597,-0.44984425622130625,-1.5513581332925432,-0.21021606707358564,0.768454482813061,0.4527794790804021,0.08182031043410563,-0.6514375286267219,-0.5102974723890578,0.5200643582135139,-0.7148724763480665,0.002761702546006771,-0.42072995168978267,0.15693946721858928,0.3203946901562516,-1.0023602189575211,0.18874305656523688,-0.5532887363188546,0.04469801882913276,0.04900127747659434,0.24640519226687957,-0.507545590198628,-0.8949945563928463,0.11031628217783686,-0.6979745041793932,0.2640014388455079,-0.579560747039752,-0.5074410966249647,0.000519998295535138,-0.920793443735255,-0.5049351806507796,0.8633007329300002,1.2639219818157996,0.7715964727834147,-0.062443573243944776,-0.5043216760122539,-0.32878014369431974,-0.48058426376663455,-0.18191428280234045,1.147182249627883,-0.5741265044165139,-0.18243621446510763,0.23017494337923328,-0.9449242342784865,-0.8999452372097076,0.308659600424206,-0.04995544239063165,-0.7110430688565819,0.3230528172958577,-0.3742364007031417,-0.9694610164660007,-0.7077560406438986,0.752226284026864,-0.15549575888980102,0.16366505739751153,0.24274256932462432,-0.4503910997439576,-0.014985856333705253,0.25306101510164364,-0.29922565574909177,0.16379636472331444,-0.7936164134165312,-0.40700318599243435,-0.48965906053166464,0.5875803791898914,0.3804874359553424,0.14264561364876188,-0.9241837453402785,0.10433329205373207,-0.6841947862669918,-0.05633335639260251,-0.1365612645892915,0.7051000688860415,-0.04995278072334569,-0.04134448578521764,-0.6369081372770167,-0.3581104355075217,0.7755388223600383,-0.09568127193631117,-0.06227308169240339,-0.49574531836673796,-0.8465720699974959,0.42694708045187213,-0.25070722862896666,-0.5320834621193785,-0.34612383112901,0.8670756104812113,0.2281821589355901,-0.6254158137781413,-1.0670709119374897,0.8654523584716568,0.46112033284300397,0.18556922127055306,-0.8740634928939578,-0.5115374387421472,-0.6756712522265756,-1.7803375312800875,0.3928175896196507,-0.3969117365894624,-0.014175028395398267,-0.900792151708533,-0.8093678916288362,-0.30453810913711926,-0.2453814637183817,0.049760585130107844,-0.02283428111010382,-0.7920708675028755,-0.454803911482168,-1.071911948642655,-0.15673685740038293,-0.1904932210238325,0.5490044792573864,1.5957898930030976,-0.49760068129405965,0.412951162559563,-0.09166939347171338,0.8229392620674313,-0.6028070985305815,1.0538397104622481,-0.673426181965488,-0.4001313982287337,-1.346369671264015,-1.4759062428368983,-0.5215580536201827,-0.6425936955475019,-0.9545223244852893,0.901097025746796,0.48637290816737594,-0.9740120613254941,0.3895937350858045,-0.7617196849968388,0.12418252727734119,-0.17574286581243212,0.7249163469845337,-0.43795396243608936,-0.9666609804018458,0.4576592288293787,-0.4188356777181191,0.910924908406209,0.6112403163068691,-0.4251772067972179,0.0732197472940436,-0.6841843076521411,0.5934190450904394,0.5667633282609401,-0.5533470962449109,-0.3507985879973131,-0.9485196418041588,-0.6718163594047932,-0.6172101720046237,0.9133421359757881,0.7725397498117732,0.5897708639938989,1.393038416731188,1.0695660015799449,-0.7178199410871154,-0.6884081422800099,0.09663758270617205,0.6675894289112292,0.04091235319405524,0.10502996182911664,-0.4487422454023346,-0.6444695643229217,-0.5819062024307204,-0.45565397766623345,0.515100193107927,-0.4608025132161793,-0.3132836330256753,0.6480541885374846,0.6608755745474613,0.13581481076452456,0.08551804998494192,-0.44556043679240465,-0.37313422465168594,-0.6030557946402297,-0.8655246871913806,1.1144092058229198,0.20067878647409884,-0.30094379495744367,-0.516502593216052,-0.2187625607046609,0.33242087377411483,0.14986722330853608,-0.8555424363970036,0.5918750836894378,-0.6907049288524412,0.5186838921331866,-0.0690827403178663,0.7519486101055718,-0.6034189790045469,0.5639188110749086,-0.8047408978011996,-0.4394525612524201,-0.6353963209579175,-0.5216558570771347,1.0222078065454816,0.29903059760564754,-0.4461699829380796,-0.11522203946368029,0.7103788956409594,-0.9693692602054409,0.40461379977425077,0.40553076868579085,-0.0707063073125315,0.01709465690278786,0.12394186032292528,1.0974654439263407,0.003534230379127457,0.4688758392402932,1.026879715759854,-0.2342419223373829,-1.0737685227079377,0.24413922293995366,0.36001324869489937,-0.3928536567501911,-0.6883894865027559,0.5477872464175734,-0.6773228120053555,-0.28986223477137424,-0.768219012761872,0.8901724212781242,0.10775381566991353,-0.2841199297322658,0.4243658037317832,-0.4204982711698181,0.10508081370490842,-0.6535723273527384,0.8849858391927996,-0.7905738471222745,0.23472563652599002,0.33908382245286073,0.30299538043332563,0.8367302707226029,-0.8710050601137267,-0.3200615681348547,0.14957625951348838,0.16253119097100446,0.85196054806701,0.11547955004624416,-0.1234093911524305,-0.16224187272220783,-0.40980195610860937,0.9733619389532184,0.9228669634421861,0.7219222004150906,0.5291974975227545,-0.0013803870796782762,0.2794471911251575,-0.9549845079979877,0.7907926607335442,-0.4461816881183681,-0.10074940383424222,0.4851407182804251,-0.08947368838334128,1.432689279546404,0.39728981437761784,0.23131225638071212,-0.07803035575341637,0.5653335571710936,-0.15564981580949316,-0.38759900413167236,0.22081282375929726,-0.4243464026860443,0.33897210810413275,-0.5968150817155642,0.29700939287060496,-0.08614899075275337,0.10746826791237479,-0.07041988673199183,0.5862134789042409,0.16404613179077054,0.6238733210319704,0.31545311460059744,0.8658485741687317,0.4602882540557635,0.4613678120531669,0.46118412347463633,-0.598942740663294,0.47792166768403593,-0.42183334841606424,0.7614560793486734,0.04348228728253643,1.067494605480969,-0.4175459806737294,1.0953373949726457,-0.09766480694540723,0.47334028473467316,0.3833609535938682,-0.7590476626985528,0.05504090369818814,-0.7900442692440114,-0.3383175389787614,-0.19798699321901428,-0.3072634018064582,-0.654465445214824,-0.0068644019290153915,0.6718770580832166,-0.5418343393419568,0.46751773647228556,-0.7145685998789302,-0.032345026816613005,0.9647941827144985,-0.744527677757973,-0.37095183253461367,-0.15991301781798628,-0.8108090255709024,-0.18195842478180638,0.30130935343572796,-0.0010887761307203944,-0.7778706472406167,0.3792555110706253,-0.62517696745248,0.8351614737583709,-0.2109920828098164,-0.7219185472368111,1.0035428875365524,-0.956066205432008,-0.4106080689831747,-0.5703252544785931,0.39656984743551515,0.1627568502983738,0.46040685363884637,-0.19057875151673404,0.3259031012492181,0.2420779708183916,-0.48210452432065787,-0.2274102057879212,-0.5900980832264521,0.567044832865951,-0.5026153366049985,0.7253209775827826,0.07696834451043952,0.07062923505235633,0.1510135583043889,0.41972754869765794,0.6354884986317718,-0.5172880310627884,-0.050935202101335814,0.7311190800045425,0.20917534558952422,1.1213471495989882,-1.1518578268202857,0.19017244624942226,0.9074155443335513,-0.016610541775742442,-0.5139131791834337,0.42227122927007094,-0.7514139130233246,-0.5077308799551699,-0.4202355353743718,0.002371579713321127,0.29109027352935385,-0.7461872183922728,1.0151490831541023,-0.40289535320180575,0.1396419562236585,0.22701055706805118,-0.015230268616907888,0.4390962449557764,-0.6863519418619063,0.46082569632390674,-0.15916332249171727,-0.6317285325034355,-0.21666218921792582,-0.4546064291506635,-1.0114483344955663,0.21937830187714452,-0.6238255022115329,0.5209890237807661,-0.6695398399096829,0.20363764269916904,0.5404174716567375,0.357329062601276,0.20293302556321624,0.6898731375731583,0.658813226689705,-0.5869251449721524,-0.049793940112358846,-0.33846147773430485,0.03477653902896453,0.029463161065778128,-0.4500780916907352,0.6807567993002104,-0.2713846236566252,0.6071088075243694,-0.41393227237971114,-0.05208138832470096,0.11839935817999231,-0.631758977258061,-0.5354289494869765,-0.18735448574220506,0.8233482401690441,0.538506533189495,-0.0454160048641077,0.3126835912620644,0.27187601757547214,1.138321017774492,0.06591388668824028,0.3807444976709646,-0.18664217149687984,0.17527445725105956,0.5161493926447881,0.20221850733042704,-0.5365494710645743,-0.7574260677540491,0.8550593515029186,-1.108299579084822,-0.11232590503625335,-0.5866491993160338,-0.06399050320768022,-0.2690765246778843,-0.6337187593706749,-0.7270212227145202,-0.5630356358518829,0.3640640684577456,0.03680851305068204,0.07903666113074165,0.4201691629854166,0.01483093832804194,-1.1699331980917618,-0.3421380512145989,0.3597297449354018,0.10967306657590614,-0.48560200502587464,0.22728324938231684,-0.4918164933604001,-0.00144301419043489,-0.9931368243216813,0.6523824491827147,-0.7207695919367649,0.35197207458394575,0.6093638528304148,0.6729706185630586,-0.7963041234502578,-1.0604831783104034,0.5364615378047171,0.3715308648637173,0.17032289044774743,-0.4683573289973812,0.67709002474418,-0.4844898467345582,-0.9838873594924283,-0.23736994598557332,0.5314087617073422,0.6076174460529801,-0.5700489819083283,0.4454789918395161,-0.19936646230490457,0.12287213739329393,-1.1010874156740886,-1.146656669091136,-0.8486787554444731,0.26123016465421156,0.14715171921939765,0.14974400861011133,-0.3181357743770716,0.5039821947998471,-0.8859007027689667,-0.1183742681214539,0.45983556369061507,-0.34684651304004355,-1.0464081676757069,0.015044013922306355,0.8773355692229668,0.1765338435373265,0.1659947422221571,-0.27080267321690354,-0.9571054549688033,-0.6006140055137752,0.7479784925226023,0.6844413633885853,0.8070894717056446,-0.2012943819102329,0.3850530431883714,0.5546805206945562,-0.005738374721060815,0.14261903633463444,-0.9467623006290274,0.34374389124343424,-0.10208486051829327,0.3591443377738658,-0.5353833587014999,-0.43544088948586024,0.5091903087511321,-0.7009269426891133,-0.08583807563472055,-0.8248688802377663,-0.2872481322315854,-0.07902944142079328,-0.028147766924317957,0.7326843268195188,-0.13242904137717101,-0.9755328069942474,0.18014879005453432,0.09170978972128876,-0.4952652535844898,-0.08269405881068392,-0.1939886124776623,-0.6664296173938825,-0.6274896248700048,0.535705249009797,0.3925439082421798,-0.23603332619065537,0.9991982300002072,-0.1342165928315408,-0.43575350795353046,1.0551889982916631,-0.9281347658643528,0.5402465465281792,-0.6167527580049167,1.0144118568990366,0.4925132659402049,0.269232848019625,0.9623068891673885,-0.7936582919011804,-0.44533979028429055,0.683657537599079,0.5248825755540816,0.4982150705614355,-0.9916720242987352,0.03461241940818866,-0.7516539058129128,0.2078484666154177,0.4157133183515227,0.8977246721730217,-0.2612445593165441,0.7813279022375716,0.6580400584323925,-0.5944005518414882,0.04111123972999857,-0.8523751045844487,-0.6113226010900862,0.7111168429532543,-0.2189768861228945,0.6407646979616701,0.815370996201626,0.5946983348898123,-0.4457369803736359,0.01494818365711722,0.8118878241086521,0.43030960969815646,1.2395817372451314,0.08832438886589566,-0.42639135552354746,0.21981143601833283,-0.7711325009789483,0.6524168031691305,-0.8844236561539676,0.10351880371572215,-0.3447355229527946,-0.13237014093081012,0.34103076222400674,0.10889942902554739,-0.7631407379001103,0.34675392012426354,0.3983356195494232,-0.7058433492919585,0.37437849771893644,-0.9591723923628043,0.8941129478616177,-0.47940178687633594,-0.9123794091530094,0.7130157157532765,-0.4278734986077641,-0.8288458823498083,0.49300800149460894,0.9693479016750964,-0.4352337246390129,-0.48429122487691717,-0.7174427287478402,0.09410718328425847,0.2127649465603861,-0.3178977922989193,0.7617915991087745,-0.26620232548323625,0.10572240494972916,0.3672424197975743,-0.3246806447043459,-0.699375359201513,0.7524111586401292
