LayerCount:4
784,128,64,10
Layer[0]:Size:784
Biases:null
Weights:null
Layer[1]:Size:128
Biases:0.6916153317290633,-0.04955843793127724,0.1436673121325276,-0.2266788605579656,0.8771471620657276,0.9044670346087875,0.24078987292464887,0.9086750876667844,-0.5783139859987959,0.5040359980834896,-0.6438102664203049,-0.16316352527980704,0.36145416469927377,0.5454813700944404,0.8531469182295317,-0.020141468378318487,0.46697291545429054,-0.8612813018163668,-0.47554194628099294,-0.39856946539255805,-0.8997255686567307,0.0437221621945595,0.6150793198961512,0.5788265754208768,0.5234639413363577,0.06448190205664923,-0.227049748234329,0.16285110067428255,-0.30606271645769517,-0.36058242764938225,0.6761743157912763,-1.0096369677364851,0.9107049010858657,-0.25650827712657187,0.49800674687543106,0.09485433925418821,0.8506142707505457,0.5771719587504994,0.09582879923358129,0.7010177904612968,-0.5688452616417633,-0.7114571858725186,-1.0384496328062884,0.8717840286855056,0.0773967673737936,0.6659586408606,0.05699505793431116,0.40735223841990625,-0.8354747206396884,0.7035412827939503,-0.1577156087935655,-0.5517908897552685,-0.06384953257021969,-0.5895077536758736,0.11194833982521417,-0.3820517829046352,-0.16632165634608345,0.9129025754450827,0.05795358223220753,0.447367628673882,0.2265971368182895,0.4785599328679937,0.21925788102182295,-0.9482540594947819,-0.6744728210030175,-0.9126335069412495,0.39076084367589575,0.23520929628094425,-0.10523331486998956,0.9950409661222754,-0.599244063686089,-0.6474488323160947,0.49043002507463485,-0.2740192828728981,0.36466058839227034,-0.7272052393018456,0.008084177520796848,0.8151375486759792,0.4917616417234189,-0.9498235103621431,-0.45648831752288227,-0.569736632541805,-0.029277529127590168,0.24623106422683685,-0.7125186707970055,-0.5504230316229635,0.35723841895215225,0.37805821902301895,-0.9850344621576147,-0.924149074809458,-0.26430285609925647,0.9677595260287435,0.5105089606407672,0.4770043782816385,0.771121199529637,-0.023129255473648986,0.8787653371636154,0.08772715970132257,-0.12878977967752311,-0.4075839946173213,0.3771828422730746,0.947508765207307,-0.383387978942174,-0.5292234854621655,0.5322461458036486,-0.4242701917878363,-0.5110134495455152,0.8563219684632756,0.22962861783109115,0.21054467727875445,-0.8163302339102344,0.7921749719345845,0.4696144711880939,0.06956136189431375,-0.8585821907662833,-0.06166725313230626,0.5478910753898403,-0.5577820466165068,-0.1950952598207622,0.4132113883372176,0.6562819664341957,0.1275579791500216,-0.5287221977426827,0.37338489291898835,-0.03816155744015098,-0.97193731793836,-0.32533186961543015,-0.7181187261714495
Weights[0]:0.4792560690451675,0.2813968645787783,-0.35775936551287746,-0.20770374462367214,-0.6917488499040477,-0.9928841982003693,0.9753134986270748,-0.3641986713577987,-0.5400318119395673,-0.6327389216202959,0.09320944039766177,-0.6123246762958936,0.03280829686336606,0.762783255317613,0.7848623813059472,-0.5758699046335509,0.4706578233608314,-0.18383683878175772,0.5382472358356449,-0.19117511864340642,-0.05571476605521275,0.11007490992083913,-0.07007211962252491,-0.30780750480844055,0.7844508503491296,-0.7046546375866303,-0.1659296113839045,-0.9908673474522621,0.651637798012997,-0.6901528032916378,0.13062276464450306,-0.6909620806998397,0.3309012275798717,-0.8589593814029169,0.866180074338885,-0.20834888108463445,0.5629451831630177,0.9338867729221876,-0.42372448705280585,-0.534167100939073,-0.5655677446935176,0.13383725093867904,-0.34219393310686264,-0.7149796039008463,0.14408774287681014,0.04627273695847824,0.7603758972870078,0.5691103793536827,0.5797755166794059,0.09383235829595127,0.7752781900462127,-0.5154328884163093,0.9771893536565777,0.20222867708756986,-0.2808317277956902,-0.6308188408756716,-0.6485310157986968,0.9500481392955631,0.007845405027198327,-0.9870942123174175,0.17304541318353528,0.9661808460793369,-0.015836469370795636,-0.8498790086479294,0.23663831373520128,-0.21582847890249846,0.0567666471036879,-0.10823757216798822,0.9023080156119644,-0.001334781713793696,-0.13781000732510026,0.5367924124502554,-0.7600480452619804,0.07242415211569354,-0.6256051049389098,0.8104424586879141,-0.5476953342797249,-0.35501669134848735,0.5481121359010998,-0.2618220286871583,-0.4650305348751277,0.2649600092624127,-0.5706428641316681,-0.44219456028295423,-0.46543099333785054,-0.35394434693918764,-0.6681514343564172,-0.8713274495076981,0.42187234639277316,0.49699891521455664,-0.5583978808156099,0.6194227637249402,-0.06499371422771298,-0.4257457222012275,0.3036987129060154,-0.5209246700991689,-0.8399205313482371,-0.4828662825008623,0.05511374493506963,-0.6392347477306541,0.9897226363155323,-0.13119728114452314,0.6732813817388349,-0.4126271845686319,-0.7672875142155119,-0.7614918735710186,-0.7552962514949233,-0.09521851001764342,-0.17216394896254128,-0.09127977727506298,0.9168652556449479,0.7064797942091152,-0.5980566104864965,-0.7303327087919846,0.47793632255771024,0.9080854039211224,0.5368252757978799,-0.5722082058697963,0.6264821794436127,-0.39185554295985847,-0.5368892406782781,-0.06119975523953903,0.48056993056129316,-0.5903943735731261,-0.43497017995870446,0.26793085815512385,-0.3687298274773109,0.6826656717126902,0.7768121652324225,0.9055814352586087,0.6636515020468537,0.9483819151505046,0.6006608887539353,0.19175063643890863,-0.2495040587993214,0.6664338290521472,0.5924532263275563,0.8427928815795076,-0.6748420063754739,-0.7039381329454193,-0.5986248727881465,0.4270669610365605,0.30083649945484314,-0.48684787663060447,0.5803639563921477,-0.25877149867504123,0.2294070366738256,-0.327056932084397,0.09538732265025146,0.3904375276809497,-0.04807374506105094,0.7505378005268265,-0.08189415092154317,-0.5214767790526035,0.9274107460508253,0.06738473595980136,0.4140203172645612,0.27786583871586606,-0.9513944187639851,-0.0027758396574560514,0.636888512107226,-0.4260492484633434,0.12241377609775664,-0.08121960459659304,0.24746440407687986,0.9715336576384063,-0.8900894209220115,0.2137548640434419,0.5209878177945446,0.8115750764550524,-0.6843674069663358,0.694030094245012,-0.8981733609983683,0.3231877572983697,-0.7879735509714363,0.043607759147900875,0.6339169317207617,-0.038451216043509276,-0.17044230292871237,0.8289333192910273,-0.9600809881741432,0.9376102302949911,-0.42652838892045136,-0.6331898685678515,-0.048931433764630286,0.9268912015209845,0.06857369287381049,0.15952220729783845,0.30064443629333565,0.6945867497713188,-0.734235776405979,-0.6810221141595697,0.8103460019371103,0.33995422812717274,-0.3320978420312696,0.833251883730862,-0.6981009681234607,-0.6208583347596499,0.2652290004854309,0.6079946802007639,-0.37519886665036734,1.0025048340880711,0.15739621002171858,0.30058517777009847,0.08091566425432264,0.24425433942272198,0.6221330781545638,0.574055897068897,-0.7728875567847752,-0.144475728781715,0.4156065951054649,-0.5678714088105026,-0.5464545608016833,-0.7736263456138145,-0.021188880255345405,0.7080137162656659,1.0074502226602735,-0.2551653018405799,0.9496986330507373,0.31435002343480567,-0.07446460061415332,-0.023536481923051748,0.9359494552044172,0.833746246386289,0.5439267175010996,0.9960827147569893,0.8847918145874418,-0.23949145185187604,-0.3475449090043414,-0.6271979654968646,-0.24815953832204343,0.282171452113608,0.7240305398111045,0.23748305557769092,0.19970975140231378,-0.9592256977464119,-0.19128385385930435,0.3415196870424968,0.3719546816123688,0.7857512034894643,-0.6472158762297641,0.5328191440064052,-0.08760726608640014,-0.5416814827063845,-0.7180260148030988,0.8333971583310052,0.8747845475833312,0.6026454809666197,-0.598073489349929,0.0031120184151123527,0.8568761810182935,0.5716361084820871,-0.567839651167318,0.9547720767660902,-0.31164274470695963,0.6531622041855585,-0.9347681499566007,0.31814762705521404,0.7518437697854239,0.10392943710268263,0.3766586253863324,-0.1286990161783768,-0.09600958351733702,0.894344881254643,-0.8281769117250437,-0.7853233414396349,-0.2182270671382273,0.2840178414496654,0.041471964843338614,-0.047473009310671166,-0.1015961358208393,-0.30281673051401,0.4379582607131914,-0.7795815140851687,0.00866193678287416,0.455422783863227,-0.8893965250071939,0.5399335586749995,0.5805503865284946,0.7182480374901778,-0.870034837103465,-0.7102702524918637,-0.6334037085654469,0.6565407013781859,-0.4989316230023094,0.16370027429934086,-0.17509502722131773,0.7500832145371507,-0.4657803186107606,0.5257810319821803,0.9290567247818441,0.4879148276035755,0.5894745169073764,-0.7333508893957145,-0.5824061727842318,0.4957612924784217,-0.4217300129242829,0.0108542651947334,-0.7095876525052943,-0.8995235453537532,0.11123110857894541,-0.36963069651563385,-0.42545323280150443,0.4856365446204026,-0.8487281985775038,0.1963627298312067,-0.8327922455335054,-0.7775043201528045,-0.040424325056571675,0.248751219012193,0.5527080188793564,-0.47053851236161837,0.7221866148057313,-0.9774099844712181,-0.05760123526916549,0.05928620610045168,-0.5010327581229684,0.24863764502940244,0.3751293056480968,-0.0018944954751611866,0.3796671954928305,0.028040421052609024,-0.24921374747636488,0.5152722369398612,-0.02866828497365769,0.38238022485970913,0.09579938318072737,0.17540716280661448,0.8484763942714637,0.5452915485105639,-0.1228883650484973,0.13438250126707463,0.30089985372283556,0.5134152599576837,-0.3569981368882821,0.5057556235723921,0.713467154518453,-0.1202544826642864,0.515932309267219,0.30412873605259566,-0.014480617361828185,-0.39582633636127196,-0.22937139068870913,0.27046815463707136,0.9937715687509857,0.43735922014718814,0.788903658190124,0.5820330767640615,0.30953065189834306,0.3357322856359035,-0.004121120880610839,0.3238401293788819,0.5719318196423512,0.2566472380800049,-0.28785511388812496,-0.9244084280922239,0.9286405565500074,0.10629980131140673,-0.44276469220782805,-0.1991996762370023,-0.874168725181327,0.015602718862326852,-0.6024763470656541,0.4180616305293803,-0.632242604918891,-0.5896785946514824,0.23351384405526887,-0.7916374851047561,0.3696473350904953,0.44322243732970185,0.3424219027293615,0.615446917398901,0.7501530891862855,-0.8824950941923586,-0.9601168498886702,-0.21487694227223925,-0.7609906252576536,0.46235814267238573,0.5207039901560072,0.502274223295953,0.5336679560502144,0.4897959697638543,0.8552927667663066,-0.471120217268561,-0.39893933254178027,0.5966364908167222,0.5989262522280607,-0.9336811773471544,-0.18704437451353018,-0.4186304007228935,0.6002805418358951,-0.38632038859013484,-0.6763438953442238,-0.2873129832033594,0.179911203300539,0.9695887291673339,-0.803040537148108,0.36209803089062675,-0.09674311176735739,0.5766411506547915,-0.7697669630002315,0.605990097026677,-0.7667402184313507,0.8794575531582122,0.9842058742625787,0.3674516902629749,0.5734112563346799,0.4236795023505582,0.17698459825028653,0.904711110317441,0.8359506972458156,-0.5108350765024571,0.6298108003108733,0.07990123637153759,0.267141951079696,-0.366361944079943,0.16948543434565513,0.8946905877971311,-0.16482000921349424,-0.2196777450012405,-0.18678474854062532,0.1699078600713555,0.39139484399528923,-0.21205399287947418,0.8380270719659649,-0.2628323177558646,0.29611225699934507,0.036646846077438774,-0.045864586284495044,-0.918445436178533,-0.38129225155443497,-0.10015078071617757,-0.4339213502443722,0.9262429808291038,0.2733133972229756,0.9216049850347989,0.26554508693867745,0.9669831374196151,-0.446618047110252,0.2685125212352468,-0.9399804751448236,-0.8291914882809028,-0.13759998168915202,-0.10307836328460045,-0.24600119254943295,0.14140664006922793,0.002245132661101516,0.2514017081127511,0.4504420996878493,-0.4468146308543228,-0.20489935788705305,-0.698405428566142,-0.475455635767927,-0.8744386589595536,-0.22150062558359074,0.06000206615184139,-0.7824555740313052,0.4293302878179942,-0.9629103616913053,0.2418234672905293,-0.9186259999191815,-0.4864832830918343,-0.5192103357448328,0.11492989446301397,0.3339112373946121,-0.040032457198718126,0.9565299885990929,0.7390997325097862,0.820086467576438,0.3223310076321328,0.33981480533346886,0.20548315696104472,0.3649820338383966,0.5968638836463158,-0.2619169775385772,-0.34762429508735626,-0.6844203880449852,-0.5044048323782183,-0.9688056970508374,-0.30215076754414355,0.7354921891704811,-0.9636994515627858,0.5951015953817259,-0.6010274772482473,0.27592749066758915,-0.7281140191461036,-0.6869525301189949,-0.5952587750170405,0.15351173133830964,-0.7954497817154944,0.7118588194608647,0.8334237944884754,0.9461286693417378,0.30959475286271887,0.21443418326587305,0.5565208773704539,0.6670939781448052,0.7001402243493198,0.5563863211361743,0.8101683146491437,0.2175235095197785,0.29552336411159036,0.4495372471630281,-0.859252209709609,0.2165049450548855,0.5905460620254959,-0.06194271234115777,-0.0712875841295318,0.38986395988481837,-0.8848086010095649,-0.26025599241497077,0.7287666057205037,0.41828500997681195,0.34092726478245755,0.4779751518813988,-0.9977600969113809,-0.06525125746283533,-0.8735784519147306,0.8836067209708713,0.05194717822613994,-0.3825476673074043,0.5418298099123242,-0.3982013066416249,0.6007646575120599,0.5682961575905121,0.47365240033513883,0.2789977206814496,-0.9227623216720539,-0.5851483094666756,0.2023616339283264,-0.001324371901026189,-0.3832968070093993,-0.06032155782930626,-0.7768519268263373,0.48225595090172935,-0.5605294277283822,-0.4083856106400761,0.44988783102911006,0.1755880225469535,0.6918001067091323,0.35829487186871306,0.4326904175415074,0.04318028010193854,0.07339450799173433,0.5447837279672022,-0.9270503666257586,-0.5139921126574513,-0.4056160128646892,0.823835353228474,0.21512598618286122,-0.3518848436978469,0.5519183631470421,0.8150547161815485,-0.48844615780172423,0.2271439299633871,0.7118550084010647,-0.2631370862214421,0.874527025092315,-0.41345162010446734,0.7502589401557385,-0.6802968176455688,-0.13123899657802607,-0.47832247609813067,-0.813376637629558,0.11607437575375966,-0.8854550192698183,-0.21962451065574268,0.19953985592509602,0.8778020180470391,0.06123770084317161,0.43048166526488774,0.5260833346636465,0.021191427434297482,-0.7526573206076239,0.7153067560116166,0.18146896898784623,-0.4667767587644152,0.5666884529099377,-0.8879929853492016,0.518670422121695,0.0023219713860892104,-0.30905430935323436,-0.7066151303213257,0.24624711847823724,-0.39593274918716065,0.47753786798071174,-0.18544481141041405,-0.555391389669567,0.010058828168576062,0.7788812870992725,0.707799505903687,-0.283776699951984,-0.14012808583912195,0.41379894873323964,0.35568734416349373,-0.49764055570794363,-0.06287440786516585,-0.132949515808786,0.9475135969621682,0.43956485238379606,0.34788725250477603,0.350500346400303,-0.24887000899837344,-0.2577802412502589,0.7837869646079106,0.15287791220910277,-0.43115047046452204,0.5731289991238185,-0.21266072243450238,-0.9426897528580179,0.227312567106657,0.20743182980438463,0.8013179298388367,0.08706527237084974,-0.23396698192716114,0.6449053332418695,-0.407960896104556,0.2915979983711605,0.597232099564589,0.6388305475629579,0.29753411630842047,-0.678485630094763,-0.8399186954901352,-0.9004819173141697,0.3843788852246493,-0.26292299872115704,-0.34503661039443606,0.6145644111751754,-0.07411753751494594,0.2531127997748941,-0.7400547205355463,0.6468238196949107,0.6318772475371585,-0.32454365622998765,-0.7919523672706498,0.6583649506937677,0.939483228428492,0.5513193619077402,0.47746468859754504,0.4540488629678029,-0.07443191248199041,0.2409588660467823,0.6694228015486487,-0.032413962777896765,-0.4345924367357942,-0.4880413578301861,-0.08218978711078674,0.7723008459969387,-0.3570848823238115,0.7041549163643707,0.8816424783871838,0.6186065791056814,0.25635089363729024,-0.7042872839314355,-0.8783373126315343,0.015585754121470681,0.18399482100589115,-0.34325905085980013,0.3714025031958648,0.06140105104220282,-0.48332090644089093,-0.031974452278545416,-0.3182824196476086,0.5149848897661772,0.7754419039976264,0.5614898832179467,0.5730994402535577,0.11020402088292976,-0.12152971879501515,0.09856349839762024,0.7107563501739671,0.04580184307219537,0.8180277952076997,-0.8560435072779858,-0.28660155333885995,-0.9442725222899436,-0.35239039210084167,0.18702893649922867,0.5100437409192332,-0.16011052941001355,0.7841528813589632,-0.15254905626815157,-0.055602097857553726,0.2039012562278932,0.37107405038251207,-0.3667885529646976,-0.5887110793381608,0.3639531239655187,-0.3879618459264058,0.22036706420765645,-0.4977255324440939,0.26116407515184326,-0.8275868867685875,-0.5765948539410782,-0.06476131771997407,0.9372733816496047,-0.4525603206687875,-0.8580801663259418,0.1930636545610911,0.006208979061901987,-0.0608761939503607,0.8078773002176904,-0.10616518608581516,0.5445807169203783,0.9927945997084386,-0.16563056298638573,0.7930246363037641,0.09424987583377625,0.5555646701186214,-0.972781349113228,-0.6621581032730214,0.9844361653267668,0.1601016060575139,-0.4832837637736938,0.25966868388414227,0.6759490087044313,-0.9203973876082278,0.5156543792741355,-0.8491701182587836,0.11277454848471664,0.14312348064724284,-0.7762035854953476,-0.487601783466302,0.6456359834446719,-0.40735846081022126,-0.5592586442638462,-0.12425702303846231,0.3966910938716919,0.20871747434545185,-0.22387480513373148,0.5083001803179739,-0.4941695790734576,0.9945751925344403,-0.4950414366594953,0.9032352779903301,0.9785769007979392,0.9523078944570135,0.3751736985208709,0.1927906765887137,-0.4485293476654318,-0.12880301394200963,0.32065265320810266,0.78811667989142,-0.43626832726935083,-0.09794114943094685,-0.4795638578938265,-0.8839375376459913,0.636471659369084,0.1555687193106385,0.2630042266072366,0.8685535238443658,0.03042967292965848,0.9819366009821819,-0.9245763672164531,0.862875541608257,-0.28474488914233864,0.2954786966068106,0.24819830304393475,-0.04806093361604069,0.5520709573999378,0.958617771956426,-0.603650678848969,0.8857351510729242,-0.21548669464148001,-0.47310093941690246,0.8214976333555156,0.9793706828774564,-0.3518687770352698,-0.3699213473052026,0.285933694594851,0.7197020174159702,-0.30608304630499883,-0.6666231254499086,0.6268950919414874,-0.7455648047067152,0.8222337557864895,-0.5644559392540045,0.9500658185920052,-0.25986925757484014,-0.939352619433474,-0.6762469642219353,0.2395149037425941,-0.7588776702801128,0.9457132359713842
Weights[1]:-0.5221294926116846,-0.4761059188638376,0.9191334647681255,-0.35797720651979426,0.187968684913576,-0.31689043218125146,-0.2962312639207725,-0.5770810123426285,0.6316254789156959,-0.42545861444690203,-0.5325070496334261,0.4356756207699308,0.0038083228300365146,-0.9645685599951859,0.0840081959422716,-0.4473761978779809,0.46885998056682765,0.005621076098466737,0.8683890913931602,0.5427364974947351,0.1746918499351906,-0.3028841499718298,-0.6448874742001702,0.8216257196951777,-0.9590462492588192,-0.7202889498883341,0.34541287801480514,-0.4919324393812252,-0.10870831418256666,0.22831792162187292,-0.28089713178616815,-0.8447731713972861,0.9400227898452538,0.8769446405940431,-0.9509691623742549,0.2976034913666563,-0.9397629927563309,-0.9938944540889442,0.44263055725308315,-0.3959779757737746,0.01649900480010502,-0.729464890552378,-0.29953066370766707,0.05156222939604879,0.7860674336011406,-0.6138061603244568,0.4317400705327168,0.9146343785871911,0.6561225464828884,0.5080235784445069,-0.14510694478876285,-0.7661061723558726,-0.627266761673273,-0.5970232615233507,0.732879821086712,0.7807546573601452,-0.8312184446636673,-0.9024922549270523,-0.39893095726097516,-0.09174236519808987,0.3376966898039433,-0.8042988245395473,0.531627301839938,-0.5966924427061773,0.8554385173392662,-0.6877338782361401,0.4956074518531741,0.12681114099685226,0.985609573111115,0.7841204191622263,-0.5126274918460477,0.46271261339052255,0.5645973979502391,0.2645222792158573,-0.4735742696502633,-0.09623148940470122,0.9957178961759181,0.3052540635659362,-0.9620543753559117,0.6547075292494855,-0.15202468780429323,0.43077849942761404,-0.1480549858641136,0.3832681073729265,-0.6265751335893641,-0.5147909594302955,0.7824935902759869,0.5370460513686044,-0.8559351804926689,-0.7317238197344,0.12881037801615372,0.960958938035737,0.4029170789297943,-0.47002607249210243,0.2615525441520233,-0.18335355681023272,-0.2612072437416972,-0.6899117769080397,0.23607239195029087,0.4961321308054804,-0.1144190722836645,-0.6941265644324626,0.9293995560756247,0.8763940096461368,0.024217725114386957,0.39388475169207976,-0.32839488104634545,0.10841421053436816,0.8767392457820191,-0.17086934259667497,0.7853271513177673,-0.1340482808342428,-0.9378130119004348,-0.05363853790501061,-0.9397176773937967,0.9069181903763293,0.34442054219390633,-0.8507613499506431,-0.9721531093824631,0.36305855004632615,-0.474219508216794,0.9265728658752652,-0.09196608678484432,0.6690621623460968,-0.3530665821168379,-0.42616343250112076,-0.8887734880162131,0.09344273770688963,1.006778741908711,0.7177293860651328,-0.8388918151401897,0.679032316265245,-0.9082130620781044,-0.46287243263481287,-0.27466961236809795,-0.466891387123753,0.5043328206015015,-0.017772827771386557,-0.6323686761932301,-0.018713754144829564,0.8142979768171432,-0.3259206615974757,0.6603068055865853,0.3149897926249952,-0.5134711926523267,-0.7323142414296063,0.8995433199868624,-0.5557106269201152,-0.5458723626922707,0.2751478195749211,0.38801165209921623,-0.4107028615760509,-0.6981687558374869,0.840077920660964,-0.1020105818828776,-0.07893572176610915,0.3259589137896862,-0.7087829460664467,0.242293374621475,-0.5818161569631918,0.24691049012692354,0.5847127193436444,0.07518548363457551,-0.8596729056167101,-0.34594490257401667,-0.9127974030465777,-0.24028174967006874,0.5009050720841182,-0.817752779376578,0.5171790660904623,-0.5956265328431626,-0.6378438116844265,0.7823808754167243,0.04066013446850384,0.5236738434687321,0.8438301917335588,-0.7572573033170851,0.5686572886773739,0.20930553115223408,-0.5968576842266297,-0.38057597283985484,0.5210784536667533,-0.5103207511418696,-0.44140121528513193,-0.8254783447215857,0.5433466124548149,0.40079433120645863,-0.8209422168124749,0.5194746246439421,0.7667067869187585,0.15186189810476364,0.24692732213861768,0.7754601929764989,0.8796394083846284,0.6532686277050219,-0.8115805609655045,0.5636106578463738,0.4890072231595437,-0.34989434821653975,-0.6148744558283517,0.4954486719047567,-0.6217578142992709,-0.7558290458587437,-0.07165154047750069,-0.11613296000247196,0.037083653795618586,-0.23840045218225983,0.22033357007607968,-0.853434949055455,-0.027513408853658064,-0.3624668961744123,0.6784621983110636,-0.01838800741104961,-0.19596327016390472,0.8377313915261521,0.7279568887986246,0.01122089752926887,-0.5493964918136456,0.9149168063573138,0.059223810680220944,-0.3432471306185831,-0.5108614632167598,0.9076389292805735,-0.6381869085263855,-0.7038509974739752,0.11193809803199861,-0.40866882009466776,0.8881466109573174,0.4060310180414266,0.36398625691218367,-0.7370514020627218,-0.19298482691582539,-0.02738875257228,-0.21751446219234472,-0.030151715772102967,-0.7578297230721939,0.29006249164189796,0.6271182331551792,0.7493966082611095,0.08133062611974373,-0.2162167485524558,-0.7027179942542784,-0.9588760034261391,-0.4315811420700553,0.20640612061389002,0.5541101019749282,-0.6900991546980821,-0.02217764478510382,-0.9298425487965881,0.9365918538507002,0.09142265362341935,0.09163232384791242,0.5461056360723944,0.5562340689139103,0.7348333611357153,0.017801907819920658,-0.4888769583849861,0.8995950939839535,-0.32199409663784273,0.87288736853171,-0.4956007290273112,-0.056009556460594696,0.956158182763641,-0.08249015109914164,-0.11551107515105194,0.9609444928176406,-0.23198936864698458,-0.7985365378006126,0.8887183617225045,0.6659777443652521,-0.47125630067129043,0.5718032732388193,-0.17676604974279353,-0.1211303048004745,-0.6608967744035427,-0.5009184130339195,-0.4540098096433505,0.3882121956313849,0.15158228874007315,-0.27067256871176537,-0.20556331016382356,0.6384460907839652,0.8742241941690655,0.48818190515241056,-0.6971508980051887,0.210846409993214,0.34444891778147463,0.5229926311545194,0.1453355401588334,0.8873874496822114,0.7800833579851948,0.46164683702641796,0.09240963966137068,1.0183277110614952,-0.3634352374371529,0.8531044710432835,-0.548832082445225,0.27655538262786167,0.9323399777117509,0.47704708574624516,-0.041161218276638066,-0.7548526978151499,0.04460188803648221,-0.5551632795346615,0.5164308974962096,0.5947772383062886,-0.6945554430549824,-0.28391063459399657,0.23104797640398522,0.2838519528898653,-0.44963827664797507,0.1618408240058146,-0.21984665757557745,0.9546552717370568,0.1856757703726218,-0.036870113896910535,0.06043416318326644,-0.6115103290674785,-0.31949055673425775,0.6928039871799732,-0.28826771108477106,0.2594287384406285,0.07528197175789052,-0.7921713029529821,1.0790728977595714,0.1384664824031118,-0.3144925914585276,0.041044252588590124,-0.6751352680380321,-0.45522194529495047,-0.8809804854810677,0.40282282815876547,0.6427903462654019,0.7785596743007215,0.7991100876540298,-0.38863755361579244,-0.38828813256150485,0.4768855718322498,0.9915094925326183,-0.29389902704724946,-0.10633858846673894,-0.4363196947552388,-0.633718051073503,0.8705446595262516,0.31540770638032667,-0.40327505273423214,-0.3612366922320562,0.03458327265137238,-0.13215134197622358,0.6478696323160091,-0.122235714891369,-0.7710382238637191,-0.40393543026298073,-0.8039783661178095,-0.07884628189852351,0.8459854549027616,0.2413102956236806,0.03636187496620504,-0.4501902822680868,-0.4695694243335604,0.06677442056886718,0.3573751458860023,-0.5250989200004805,-0.24482529388965357,0.2232433274496548,0.20044152401408244,0.5368978180433793,-0.0025147387640310974,-0.8783468273767074,-0.5689555888734058,-0.6459027661130301,0.6133311792072798,-0.605079807993863,1.0011940291245618,-0.2711769524564136,-0.951055608539005,-0.023903469526146012,0.21515535590591095,-0.18416981133874075,0.5737848989165968,-0.5264403346288942,0.5267372110901953,-0.7725312279456739,-0.45608297168204454,0.604204015416201,1.0504600511629725,-0.15512458786312788,0.513308527975643,-0.004301943778232545,-0.94599870934521,0.4571474938640447,0.6407712379660324,-0.006860957949823221,0.509249011757434,0.6652394894814302,0.5437726105799302,-0.9511707466374092,0.45547080606110346,-0.4093201181097326,-0.8335372401325641,0.13643470930620058,0.8074128420245825,0.02274347591345262,-0.540865935097333,0.5206993675657392,0.3419612352240172,0.7447710558839984,-0.282807523065704,0.4562333582826989,-0.21588628379620367,-0.1834929753353947,0.8587105636710057,-0.8194141179140961,0.12097731313831726,-0.9202725140261648,0.49784734287800736,0.21128645247878838,0.9380555558147995,0.09453959003556944,0.22518327982406294,-0.614553583606404,-0.9507778323957593,-0.9677919819801077,-0.9154407924455903,-0.03689418041234548,-0.37393324830415287,-0.4347279448165287,-0.15658023021886933,-0.7667725194928581,0.19913216127816863,1.0024886389140766,0.4683799000171565,-0.4185334041693354,-0.49279310510799496,-0.823035673412905,-0.30241625799165833,-0.28128709995476786,0.7251405846973561,0.017107833406153385,-0.702432396626729,-0.7618350153926581,-0.923930101863463,-1.0117963270465782,-0.856117880029411,0.23134951603741993,0.5017841241604696,0.40672567139661636,0.8696185685087081,0.4217589140971001,-0.8272814721927426,-0.6553834109596626,-0.8674590682129774,-0.6310743432715237,0.36295757071499846,0.7145452129104225,-0.058614270720684945,0.5515926712626936,-0.16111768046188807,0.4277634806228266,-0.21318808991646485,-0.301902934368511,-0.21661682330240165,-0.6926892362470958,-0.7563091970070382,-0.13509374887444214,0.24130593898400693,0.18472754024664828,0.5041821100967178,-0.3121838810105115,0.2494627225271942,-0.24717047357783317,0.37935224434834985,-0.17855174089498074,-0.3123023218159928,-0.04668469496035002,-0.7757697160242916,0.9988974425936572,0.8661489486071043,-0.1593768824760639,0.4693692379589444,0.21559876527855204,-0.2895986292008543,0.4041916206693908,-0.9749822888085183,-0.22809211764823695,0.7899144055540619,0.23832772524659535,0.39224654759705396,-0.029777142632653342,0.35395283843197645,0.06443721009460349,0.8763330715362888,-0.5198473230033095,-0.6267180716780337,0.6750392668154716,0.30955762972691453,0.6418701793253128,0.7336846399090261,0.2852579551023641,0.9189454862738322,-0.8347855779101514,0.7891536867684659,0.08970028678406972,-0.8956304834669597,0.35521752729789235,-0.05085852511732769,0.3051135162357663,0.6920032147274423,-0.5881029734548505,0.5259091538014216,0.051702832509366976,0.7795687924635709,0.9341877838195982,0.9800286641707718,0.7255557051583534,1.1290847656185914,0.5659928461810959,-0.6387279840526842,0.3954389306958411,0.09955107861078792,-0.5838323927310075,-0.7052893296282972,-0.21530613409805754,0.3385906179414454,-0.9314052179472019,-0.09039860116622683,-0.05176271908099259,-0.48231770280543657,-0.029970782930247346,0.5822138463615839,-0.49915353744251356,-0.7701913480508101,-0.4430723942085506,-0.08054593721430092,0.2976810634114173,0.43788115965165436,0.5969097520657527,0.31982338588160547,-0.2099232888332274,0.8959502540294063,-0.505373694044647,0.4358610341711651,-0.04465241272734963,0.5258961528879381,-0.5260104246835834,0.40884588189724713,0.9070725137563486,-0.42845038778419475,-0.0055271279757926565,0.9017948963598835,0.8934096686694788,0.27461169935762136,-0.7639949667819033,-0.7512079167362415,0.6772912055182783,-0.9402940486055738,0.05856133272170158,0.6864780364716766,0.9646105458795142,-0.574741069960753,0.9821831341749909,-0.21299100071796728,-0.2839245728072315,-0.16176829112718683,-0.0005077211673530335,-0.26655792440194476,0.21773092327739965,0.049853115809402125,-0.37198868919423866,-0.8198191778196232,-0.4182551289221416,-0.644113960826969,0.7142171775398097,0.5713697894703923,-0.47694121397890205,-0.08230330807151665,0.4571411943155998,0.4816670945186025,0.0020538153505977094,-0.34297165707497257,-0.07287653375576622,-0.5873647491534251,0.7664486614774636,0.2471038258640704,0.7030738546834027,0.17248884160162284,0.9305672537438,-0.70231165909316,0.2219948141006729,0.22986493410070663,-0.628882957245873,0.916338591102176,0.3296078724081875,-0.7366485127896458,0.9003485016231039,0.7141338285919291,-0.32363237331411293,0.9090994815480861,-0.6196589385153749,0.6640782776074369,-0.7688490155570163,-0.13901605562425343,0.9430185349468254,-0.28621537982511225,0.4035402105887688,0.7996531005997942,0.673725363049302,-0.31345219631560134,0.6879794136904656,-0.1420703018998452,-0.21953523535667385,0.7064695615197022,-0.3103765740526553,0.27615873570299504,0.43586856559866183,0.5398614544141394,0.00797608821092921,0.4701564523718118,0.13777529433762917,0.8334505633928677,-0.21438023531153352,-0.16149548059664318,0.7508387634190717,0.3337167985516136,0.7099379426212699,-0.670053071607755,-0.1707876655926633,0.36174319510454617,0.6627332173414585,-0.22796624039946226,-0.8561045351354579,0.31978720341806466,-0.022186031601274504,0.40388849101598123,-0.5123149982208339,-0.8843090873394471,-0.4704288717534907,0.18501632506518537,0.910650618840542,-0.9863881707823152,0.5479068899360721,0.23887134180082492,-0.4127468340090696,-0.6632608993273512,-0.551051229029452,-0.3328204133235013,0.23163358223635197,-0.9440625143137827,-0.22538510227058395,-0.7346589791361454,-0.3846049399362267,0.13598273369023076,-0.24307438067491277,-0.5612180463090612,-0.20094864096922457,0.36969643251937295,0.044701342698219876,-0.4584423644930123,-0.09377910812310075,-0.07355684323860694,-0.15439566707171198,-0.7075765728427491,0.06977800685519601,-0.09148689703887201,-0.21126753087253278,0.5181213419280614,-0.2585724467605739,0.36592509006582535,-0.1304289257426004,0.35982622735194214,0.01677196985891638,0.8321539730914653,0.5658886132602992,0.12462159391707806,-0.7138146821939455,0.5488061826134786,-0.7655188885522926,0.38885052823262994,-0.13054738231400403,0.018042233795768418,0.1373163071827729,-0.3199440272529275,-0.4978721671302881,0.27723397336000205,-0.921024519259224,-0.07621273627171647,-0.43483585701034383,-0.3849731107024024,-0.39489164615207223,0.08250718477844424,0.030933784900076405,1.0214114777324173,-0.609971275574059,0.1039084422061199,0.19882714713783428,0.3711425063463499,-0.7251670190915014,0.7113924919214996,0.5687653317902075,-0.0199048617016081,0.9467414337893676,0.8686378346144399,0.19063467308442794,0.466934357260297,0.3240490656431331,-0.1243932840604237,0.6375039417461508,0.6867159901853843,-0.8108252541512551,0.17428399633159272,0.05884063645226793,0.5981363873937532,0.6120309651763686,0.7878320170644182,0.7019986854723098,-0.8402266858489785,0.6444385396703447,0.5996494534192953,-0.20585024341650837,0.9257651865547273,0.06579913756582881,-0.7157760054917487,-0.09756002174429428,0.8736461781037592,-0.6084678882004272,0.037375148868828534,0.4969494089004347,-0.4583943194981638,0.9411855060333318,-0.08535122176881471,0.2946111193367331,-0.422603761222323,0.9285462606759949,0.9577940308323739,0.14616047504898608,0.34759923473640275,0.5764999050810082,0.13470384894056275,-0.9437803619868761,0.2595362102950397,0.2289473692470808,-0.22688786688706233,-0.7399513083354475,0.22431849002216747,0.9191049761381428,0.33827853312648565,-0.634758353484619,-0.4108534620109115,0.37622002387025993,0.1489603542016363,0.8102260929579967,-0.3022565354137945,-0.036056281549882274,0.6933083691137416,0.9864247618179884,0.6805287355932075,-0.028138231033523642,0.3173329594160117,0.07552523961082347,-0.7139292767801924,0.37710466858796066,0.11743399573988943,0.7692626455665376,0.3283153718755313,0.996988257742099,-0.44675217296422726,0.7394636296527569,0.6703999288980123,-0.40292835832515983,-0.7107599553223444,-0.5694544846957552,-0.5887150197769827,0.5131301675461261,0.49329198022999826,-0.355428325646426,-0.7678966095545882,-0.9422247092901844,0.7221900260644918,-0.9972801217796654,0.06212365490483296,-0.32491976922607035,-0.09305126270887032,0.16675480788888164,-0.2074155673419198
Weights[2]:-0.4031323452494724,0.609131151628276,-0.793362483286002,0.9600708605535659,0.4681434889641327,-0.6099467573733752,-0.712105210736443,-0.9254734022195793,0.7777558647923897,0.8772380044112158,-0.8836305634508052,-0.008146598473259492,-0.12270186148709705,0.17761921751202037,0.317914061862004,0.5902423623903852,-0.3083113624287357,0.9934690035849201,0.08733382406054702,-0.2810061924536741,0.39896748373236846,0.18464565145999456,0.47083761797791235,0.05149168756394262,0.7556799611801654,0.622753444883392,0.24967174290198457,0.3146130811956771,-0.9865984152940095,0.610990492445878,-0.529844068703169,0.9505160366885905,-0.02151225834224013,-0.7732834162997471,0.40009916732092354,-0.056463378042198475,0.5324531372322017,0.7105354199700689,0.1284278738514739,0.8977099136313533,-0.8582875234346313,-0.6640960395147669,0.7333006101321684,0.6163100864926129,-0.47296957464143635,0.24069034841010853,0.18136939135014962,-0.4554291914475286,-0.3151941836416694,0.47188129251444777,0.9833915932026653,-0.08652026629379028,-0.9205790161716654,-0.9264093748882456,0.70545520154082,0.41222200329053305,-0.8617064663496364,0.15514582915005537,-0.7956091006265995,0.8453900440807407,0.1403814997246402,-0.026718291932120164,-0.9388749869255698,-0.8332346276534882,0.40708207311438493,-0.8341466001393956,-0.9861516773598618,-0.3444749490682048,0.7754040649418469,-0.6337281952208877,-0.9428024936607226,-0.015078192037699441,-0.1315332958632614,0.1861039468032441,-0.4227043491951472,0.06572123502320916,0.44792166706822784,0.8537519232395289,-0.4748019598620884,-0.4832213090290033,-0.5577237073135207,-0.29489906565048685,-0.3701927351626534,-0.45847970780845715,0.6275988992432127,0.5566761975906214,0.8710950528602559,-0.09510288345399442,-0.4787386178405669,0.9878771640303905,-0.19509690128452353,-0.6215951811006244,0.49934423594108535,0.2714501171241528,-0.2540987487932672,0.15663691698488982,-0.7437335857937892,0.5327159977649786,-0.855890480099185,-0.6838578053993926,0.2128859072574885,-0.467534451907042,-0.22574077069477738,-0.7238926958937019,0.36574548182038713,-0.00340890298854978,-0.9525199460338057,-0.11045697410271695,0.49630929413079716,-0.3567802707463411,0.9629183001643598,-0.7166759882665593,-0.370898613413283,0.6876023373043176,0.40311375139426153,-0.5647194346248728,-0.6568318837629455,0.5178905537721863,-0.462605847839967,0.8611574767219878,-0.691675373035649,0.10171318935226216,-0.8661742723337855,0.7912480480150547,0.5612874099782835,0.611630917578968,0.35266632120855507,0.473255243092974,-0.6279117346632915,0.3828186975719132,-0.25562142760759804,0.8253273725852684,0.600805762804094,-0.822651695773312,0.3034429982914463,0.9103826983246875,0.937392891898884,-0.6806211116167815,0.1274282248352785,-0.374639476358257,0.5082772884090792,-0.01845591283331438,0.4085878224152084,0.8779379285530982,-0.9778319536444112,-0.4972170798721516,0.7207830821445712,0.79283227951982,0.8530055330664261,-0.6895858173769877,-0.2101673971445735,-0.3059850362392963,-0.017174925203487366,-0.7128185606151712,-1.0457322085984426,-1.022499463516018,-0.6841859656630649,-0.10430906678409387,-0.3705290387807038,0.6663872294005787,0.5154028686697248,-0.4911160698989046,-0.5045651024683455,-0.9165081302427752,0.8508109568479171,-0.9178703536887924,-0.3627609178889015,-0.5373492108366216,-0.6036604855226635,0.4907330560920449,-0.5027696106130115,-0.977452167600998,-0.6243936719812246,0.8546919324864322,-0.6667316453913191,0.2957151201488654,0.6576171859754767,-0.8142687645079417,0.7008812843017165,-0.011521106634355033,0.9380849780136984,0.6912054412854503,0.668062990219562,-0.9920065329715644,-0.5311771105149534,-1.109414249354263,-0.24746441157032656,0.27715039863695223,-0.8238285674625202,0.28154107794880623,0.572251196847046,-0.008818051507938424,0.6176473683228536,0.40391852813929113,0.10442968696070618,0.041951754280825676,-0.4752191665932626,0.32112909076787965,-0.9744026706750468,0.9487091017286221,0.864412442482548,0.2147558542693466,0.38608599561495444,-0.5902827668854338,0.8481677064041486,-0.15977452322189387,-0.5205619424314557,0.21122825726236805,-0.8990608893101248,-0.125826300824048,-0.5432097335065944,-0.8744878616932716,0.17375454334622206,0.6312870251780237,0.7762670212841027,0.8401673167591205,-0.24491593946741985,-0.6118156807111921,0.5054669204726328,0.8319558376961378,0.24898751776020572,0.3651113598543351,-0.6293848395063224,0.22213099409269446,0.9789277855208738,0.5365880855995175,-0.5507445370351153,0.00837604355680717,-0.23956215357997848,0.2645321285886422,-0.21150298692225378,-0.5511812854241146,-0.6403305065238064,1.0262731259667417,0.3440999126010698,-0.21569079010367578,-0.5035640552273791,0.6056647222466354,-0.5183059979724182,0.9572264402655158,0.7601574120525928,0.7415157502223592,0.3132204767212755,0.3100816820437041,-0.325831082916811,0.3072818857458702,0.7575552384174541,0.8770186769461702,0.5966789818059092,0.2185641323226634,-0.7212593071463262,-0.820996449245604,0.8175645963370635,-0.7993343054793389,-0.2831646311263974,-0.4559169365560014,-0.10917167058853575,-0.8064567180029013,-0.5896389664040739,-0.6150373951051896,-0.49124734008201976,0.5051465516970344,-0.5955027667777112,-0.17060968934816897,1.1133570144604203,-0.7646159660174476,1.1353375417664615,0.5340212822600892,-0.43169620588665514,0.12354435647998382,0.6212913951737157,0.41111142245341603,-0.9722535147705662,0.6562954640747569,-0.8494303821610146,0.48222338539502974,-0.9191930591939683,-0.004798633984052148,-0.534233268903332,-0.38358058006669427,0.7886696317180384,-0.4373976890012271,0.43070026830996955,0.6186183306123633,0.03578444552712179,-0.3838908029328727,-0.445752714426462,-0.9235562580631865,0.2100042002156406,-0.30114657110380516,0.7252571325666732,-1.0552744925959516,-0.06003593680157547,1.142743193197032,0.5624489624084685,-0.645299235981819,0.3290342293431877,-0.5051480276303357,0.3823800108721264,-0.2977672346892645,0.4362746493553973,-0.6588002741699617,0.3241129639695513,-0.5720010883482285,0.6106450339399264,-0.16976268483890009,-0.8803599065036348,-0.9029664312968806,-0.9636793052608517,0.21673226413164848,-0.5253198432616716,0.9544714468044214,0.7703764080997016,0.7683942111681145,-0.5743495225998632,0.7644308006240808,0.9616088768152702,-0.32680735297999464,0.5768709598322201,0.17437554678719672,0.37483334425896797,0.8712894128109885,-0.7249869319221941,0.7908765948304155,0.33384618115335396,0.6187979154739045,-0.41638873695835243,-0.9314542798711695,-0.7837357078880213,0.7941545071738302,-1.0166921148103063,0.5063210514724827,0.6150042414300773,0.7463279714891593,0.17279668031731515,0.4315586962884099,0.20964050256164768,-0.03199612676724606,0.9977072755082542,-0.7791708068187777,-0.5015360270031703,-0.5973911361948073,0.8835763333488433,0.8143825738746717,-0.9177703298619393,0.7284758284817526,-0.8514128299178293,0.005964445617298332,0.4056907148882253,0.6105972390458103,-0.6786122271287015,-0.38324906537842063,-0.1498721109490425,-0.9254506332273237,0.2491498386768061,0.5354256968036091,-0.9886146224525436,0.3358880856288657,-0.050193435142031645,0.9618935416286177,-0.7272291246713662,-0.9415423684686137,0.8042210157166089,-0.8215108941409321,0.15735480802010504,-0.0646615880842607,-0.7106811262799638,0.9922389194819328,-0.39380286290735794,0.03453040274119984,-0.539251704226376,-0.1294501781672919,-0.45188546656953144,0.33968510023653636,-0.31763403074696067,-0.20776454134946984,0.7527378022375356,-0.6829600462551464,0.6740543534445874,0.5136751814283895,0.30265530661092904,0.45345240434951417,-0.5307306341593503,-0.3349701027626547,0.4974380926018651,0.2257431049589196,-0.4155052070568144,0.5598739791272401,-0.5008389576694928,0.6158355931425085,0.3551787427528278,0.7619231574991361,0.9625451154832472,-0.9911250397521654,0.9170274221883283,-0.5676898887373089,-0.37185825639871595,0.7852699217794817,-0.35582943479140755,0.04663715103345214,0.3394587242154399,-0.8302820485330769,-0.634288211223242,-0.7206261993581385,-0.06953183751771061,0.2223809814872583,-0.9818215325634865,0.3150119518321551,0.13852036176230964,-0.783698571837283,0.677892957080896,0.8066006490349505,0.692404900463682,0.3024513195232524,-0.37132258896654763,-0.18736729044106906,0.5006698887701314,0.15041941272378578,-0.33767934423705864,0.8221395489862839,-0.7252711382346559,-0.30194583316424206,0.48332968423298084,0.005111243187795153,0.6885230838328332,-0.228019254144249,-0.05529935184046754,-0.40152862874603074,0.45806014246177995,-0.653376389453209,-0.758552608900447,-1.083005736038904,0.5157788703738411,-0.5287629288148367,-0.7596932302302772,0.011959978143076012,-0.21592337113779766,-0.8580158429727209,0.6607586054146305,-0.6828385919089137,0.37084054434015185,0.32192392816460413,-0.5972844071982465,-0.748189396500678,0.9513163105466123,0.6733476150194447,-0.9524380900036775,-0.4192255788572252,0.32338409466826556,0.07773088527737682,-0.06455710515222386,0.5118853784861938,0.14444599216895057,-0.1622241252804501,-0.08163530767297097,-0.20083835100828915,-0.18312158575742166,0.42719457488227663,-0.4093117972529689,-0.8938029278109312,-0.7891237127175753,0.2809486918278784,0.8729759364364796,-0.2776114002315604,0.6978311135495107,0.5250317571652178,-0.8951970269359667,0.29752503004330594,0.25139560764627533,0.6965997326967714,0.8554124106732309,0.31410652934077243,0.5077527370694146,-0.5085278775681655,-0.5037540299421001,-0.022380153193315544,-0.7240543354880318,0.20647790152881207,0.05945182149835533,-0.955388452131056,-0.25178452444107696,-0.6185736701362566,0.3322949308619096,-0.5450567370620277,0.44582760224163165,-0.2440363628179154,-0.29192990959858484,-0.42160879416169567,0.3769033510679275,0.1882856736546183,-0.7696337776892241,0.49367330906210916,0.3286283763788734,0.23838853414264077,0.8191523814579084,-1.0047619123788252,0.4598689676881555,0.6303725831650103,-0.6752393315603802,-0.7384172539471942,0.5765277401284296,-0.16678595877897445,0.3032098167125181,0.630199066191073,0.18906750305977993,0.5677382385207983,0.973780554214485,-0.34065480681266214,-0.6179546758439358,0.9361086292778075,-0.5165470512218784,0.5374862567577411,-0.6907522653939496,-0.46328726094226874,0.26885182202249563,0.7163232617392004,0.7536893078871187,0.21116593780947207,0.35262133860293454,-0.004474857100924966,-0.3817394304280296,0.1847429060029462,0.6516756472185095,0.982936266847426,0.43991810439544893,-0.655458192125599,0.887566984495398,-0.9009847248013789,-0.37183774549113413,-0.5274703867397244,0.46283125386705204,-0.4099732122430453,-0.19570854082503752,-0.28111638467810884,-0.5728856831313943,0.9291229424603967,0.10582010706857994,0.6885923417467452,0.24117672053584022,0.8535421018332627,-0.22122695913974108,-0.8332745305205703,-0.7888629405684325,0.4215170787100592,-0.39266224363028673,-0.5438638610700035,0.04837167243471978,-0.2831769075456714,0.8385757710614672,0.9083095688536377,-0.9072193966217901,-0.8089690170836065,-0.6332391512581209,0.2682557901809743,0.5818661558552655,-0.7035609098648655,0.1622546810644112,0.3070147442156879,-0.8981178421052721,-0.2325997227954677,0.6129035305291897,0.8002185643651609,-0.9962994586768192,0.9333533891170341,-0.5084634629999796,0.965048289014761,-0.2095339779394725,0.6621092221494419,-0.755683281297312,0.511602393510081,-0.35807167132103396,-0.9734398136994651,0.8810724874254262,0.1852614314443939,-0.9185564359150062,-0.6086263199178557,-0.03408281968515465,-0.9553651933913655,0.2659028893523755,-0.07624327421753327,0.3022701560944712,0.15100176188506623,-0.7889271670263447,-0.3328227316864065,-0.6234397578760275,0.22427635693703726,-0.8587955619804739,0.43494490880283765,0.07026886710443936,-0.9126207846741289,-0.23984094490895788,0.831202047907726,0.6338404355576959,-0.43933630427312415,-0.6313964572353745,0.13270998485772437,-0.6613394579990332,-0.5662402339193651,-0.0691851235867903,-0.33131529888660416,0.5449471538361038,0.12867271253356627,-0.5935241329960077,-0.6215535129662878,0.29165534146324107,0.916520716569789,-0.738716507856879,0.06393001644639079,0.13807216063352157,0.1606825673620405,0.31661690670049086,0.04559917127521676,-0.9515533223699392,0.11602866787055977,0.38878630067599235,-0.6030390772982682,0.54638842565305,0.32942329129642967,0.5615758660715697,0.29184243197198745,0.8360549880254086,0.40311473487002636,-0.3010258045836482,-0.7401139300991882,-0.14693751758400983,-0.040537234855757436,-0.5502034080194521,0.38789816120075893,-0.09932496173223022,-0.006451840078916997,-0.8501835593386126,-0.4190693580106734,0.11113251841879497,-0.49885168716824263,0.27722963980582666,-1.0396142497924126,-0.3297893639185482,0.8122772348870674,0.39641297932527786,-0.5607586587996487,-0.04479938943992809,-0.0004949423703246622,-0.7747767503030574,0.8646992835517504,-0.26359543728809587,0.7033623874668788,0.7855434896971194,-0.46814964414464916,0.18202257956694934,0.9726541416497321,0.605066397476074,0.025712861206952695,-0.05589884139193274,0.8133836955822806,0.025056558412331544,-0.6458383713191856,-0.2916849498257049,-0.6653219978010144,0.5859211554857607,-0.6064731628500754,0.5190940467532537,-0.14786377591954164,-0.8842342301411299,-0.9517082922882868,-0.035067348929072324,-0.27970993830746166,0.957653767240067,0.5378775203918074,0.8599917947244207,0.35059571887859886,0.664187030710367,0.6817777751394445,0.8940102243302437,0.11029230109895227,-0.6635788789315051,-0.1857919980205073,0.17312963939931675,-0.18376588813039899,0.48892858398426764,0.10752785496222186,0.20106835649540636,1.1134975852127418,-0.6350806935803393,0.18752057577819517,0.7006217855034406,0.377967010855177,0.8856032102917899,0.35527611244992535,0.5566042322396614,-0.09206293566818011,0.25475717839423245,-0.6624423462714073,-0.7987933255589209,0.05159588380176323,0.037062170946654996,-0.9149698056340145,-0.15411000404325711,-0.8963435347640624,-0.13853001647560392,0.9837528569548171,0.7098321680491009,-0.7895811012897552,-0.32793617217239746,0.8069927838913507,-0.734223395272584,0.8663921091762202,0.052414858029601795,0.7516667421365407,0.47093777667723236,-0.7493418688890929,0.27076388308862787,1.0120654709650505,-0.004243673948779865,-0.3270311914513418,0.3139990364796117,0.4104611260379753,-0.3045163501912898,0.17943672935009122,-0.4525033902711632,0.6484095729786786,-0.07747396057408652,-0.3301567514207997,-0.9338571389207946,-0.05200067633134927,-0.9833197161737176,0.24623768555290892,0.4446801093615034,-0.1883282853236088,-0.9358328599183974,-0.7651448965841647,0.9679890563562461,0.052318975150179636,0.9049078315998843,0.4441917918385889,0.35236049480491083,-0.099794632349366,0.32025611068874865,-0.4990433505046371,-0.13205446329438553,0.7159737074909969,-0.6938312590251515,-0.8603795417506658,0.9039682834409865,0.34536776117904655,0.7021198566321624,0.43195091376467454,0.5550537332910058,0.673835364510504,0.8346403122160739,0.6293125686227139,0.5075663437636413,0.7600825884193567,0.5428733348580419,0.14929937717937825,0.011132542514769694,0.03377221572854183,-0.857192479938824,0.7234110821613162,0.7901686801529344,0.010678710886593334,-0.6002314787359124,-0.7943980764196553,0.6440799666575014,0.1790106414749496,-0.813273725268112,-0.8622085106512087,-0.9719025789447636,0.43471802977974044,0.22394794590706865,-0.6395672620792122,-0.8952821418276485,-0.8410518340261572,-0.6940607207787027,-0.14166179514696015,0.43563423550496944,-0.10076891140751688,-0.22817695198030075,-0.2862765776395223,0.22639850025363195,-0.3814071125264312,0.7111732809390747,0.7767513123232646,-0.023031542554046713,-0.5651619460271494
Weights[3]:-0.7920935320631105,0.5095887926917471,-0.2412855789257612,-0.5629457931793043,-0.6852602677816806,-0.24778711388250207,0.593338171762106,-0.3372405149681682,0.7997527419588308,0.316948107125679,-0.9318123226667812,-0.5717999774831347,-0.27414135507966453,0.1680924255252314,0.5853184645927132,0.3707024703597195,-0.8996337865943247,-0.552728123754602,0.4820884109856973,0.5292822651235769,0.36649483505938885,0.4843934231830731,-0.30119316713008715,0.7109160990039427,-0.8894556350491268,-0.7380508322911574,0.42908409770069844,-0.5029874180923157,0.17157579267936574,0.2995054299475184,-0.37698279105917676,0.22863119339040994,0.2089940603864351,-0.5489105002716699,0.97788906282647,-0.3726530118718059,0.2688136097364191,-0.0023560156125370657,-0.09408141429801697,0.6004106223175049,-0.493291350776931,0.47903937962000454,-0.5222397426446889,0.5310020270015734,0.3762794846181813,-0.5266127264426415,-0.9540161523980718,0.5456309968352462,0.6410800356609188,0.24789041711384918,0.6108070675333994,0.32947943607786634,0.4948800464602561,-0.09444421115072643,0.3607939245928051,-0.2764869552461835,-0.1892180401781658,0.047798322070295995,-0.6734901581301773,-0.9472094354905232,0.3231287884167995,0.09632558985442174,0.4911836923524662,-0.49975268798868766,-0.30606910181514413,-0.1604435160571912,0.21948392448008283,-0.7221308896898145,0.1921894741440027,-0.04112883827576817,-0.8906302557306277,0.1330754245709674,0.5960215632379783,0.9157592569821897,0.030933359916570886,0.903225253194608,0.024669324923292033,0.19289181505911762,-0.64826430684261,0.6388145311133406,-0.7840152353905212,0.883453100865452,-0.1440674537532346,0.9236853755655166,0.688698362414119,0.2935377728629567,0.7337511469301541,-0.6965617284628385,0.09029557513552522,0.25437601807265353,0.8168644172250855,-0.7775105556085362,-0.3271310582603573,-0.14455145533658875,-0.7185202709747095,0.44624405206877016,1.0348902088605794,0.9756313461652418,-0.1419331253559388,-0.392516828690686,0.2736404795199367,0.7846932868568215,-0.6155403801447581,-0.22906351991713597,0.26040406531282906,-0.4387402885095397,0.7998212348772971,0.6137231148355256,0.8829821729487657,0.4726111132058366,0.7150560448481962,0.6390935218143712,-0.2929221760914299,-0.31164636803401935,0.836805799899998,0.43967568755134745,-0.7603312172663916,0.5651600013270434,-0.18754354940196793,0.40407788821254836,0.10726623343324945,-0.0974425471235348,0.19224879884983956,0.9545836429505445,0.12642704404941424,0.7755906460956676,-0.5870047658388181,-0.28596971259320875,0.605725121766216,0.618948539629625,0.9217736367497801,0.08699490958274814,-0.5916858082339587,0.8679074735729476,-0.5877905388816899,-0.5577251963928606,0.5263305361775122,-0.8271760129496344,-0.22231618092503225,0.18061352389893193,0.5054130244559669,-0.8794424486716476,-0.5795439014116042,0.6178577338732917,0.5383155799103742,-0.8403973958525832,0.47245611683853433,0.9281516766957755,-0.026543199468457082,-0.18565417654156802,0.1625020091051504,-0.6267793355082576,0.009124129954685598,0.311392536767416,0.36160976072873824,-0.7899411406587653,-0.5007383415898132,-0.6436300235746372,0.5274475051017276,0.2647704213288228,-0.9085189076568961,0.08609577730986157,-0.996872151267144,-0.7272814594546846,0.5538355771903404,-0.3350764791368244,0.30023829103576327,-0.10300355735374778,-0.6966203850212602,0.3920162931978779,0.91165022082238,-0.9315782869198856,-0.2246616783131553,0.5758697221564616,0.9002231945830156,-0.018222989455219878,-0.5410431060561659,0.5085116278482099,-0.7051292543388439,-0.08454175885863968,-0.7850315490985094,-0.6143434340663452,0.7163624130641781,-0.29925709398306544,-0.7033428470836356,0.37213231663738155,0.7797165929590952,-0.19380032616153692,-0.710999044012239,-1.0243978505092668,0.7524720044096583,0.07112765594923715,-0.4031289724682907,0.5079669838206389,0.0968944330730912,-0.6078371110659406,-0.888222765125438,-0.850335517828509,-0.9536892376649162,-0.13889944582801592,-0.13070467741912928,-0.4383788307064675,0.6964548339628077,0.6752722354097301,-0.05105501319679561,0.09915229711868886,0.5927551961739533,0.5383348051307689,0.44096912482882167,-0.5731022731381711,0.8021286833975881,-0.09911417602394114,-1.0205252249425152,-0.5175213252132633,-0.19138715208347254,0.5119150984340503,0.36814691830409524,0.22448947615099396,0.7775381230716103,-0.9537023370685573,-0.21050954162537097,-0.6218377048281114,-0.5102651244320335,-0.7492716882489868,0.5339484743466361,-0.19677495639621045,0.43662220349681774,0.28564043422349894,-0.512781758601193,0.45264761953009197,-0.08915507917202109,-0.5288606913802826,0.5901775172865837,0.5749928406151682,-0.864409476615383,0.7688202867112865,-0.15950214074144606,-0.9502263160677735,0.8054399138730938,0.36895753850152974,1.0081737169786738,-0.6101586863036378,0.27458429616358043,0.790811143472705,-0.93127996353246,-0.20034001549472125,0.06720381926066571,-0.9886069289670326,-0.42184324416094143,0.44595790849403,-0.026670161847782394,-0.1301872865903132,-0.6789265934745439,0.955995852246859,-0.9535392769361006,-0.5121035477652325,-0.9131168522038626,0.407996033493661,-0.8809757727169074,-0.752635228427517,0.7679304702493281,-0.5964429059177064,-0.015956040797486106,-0.9748996431799276,0.6401793196627237,0.3180710927891778,0.3583984894850444,-0.3599835473045974,-0.23982086738915454,0.2385797712288168,-0.17089206290862258,0.2431990803819085,0.31258188370633266,-0.6523870050336485,-0.8443200684680838,-0.6093440480195803,-0.0054715838114801,-0.4554269246964036,-0.9502123885014613,-0.304186764780519,0.7178927844939254,0.38309249595058825,-0.32184210337462865,0.06640952976032113,-0.4861436104769271,-0.9642193195221413,-0.9072624650082921,0.6843184834148601,0.5758220818101852,0.6067984099552799,0.549179252987571,0.3393310980345598,0.9278376841850124,0.5353794850588979,0.5041750426939913,0.5587228120760408,0.5237964616821003,0.43421431298487656,-0.6833988741700092,-0.4134133542298516,0.22926801412115896,-0.5223447218942195,0.42717643250680204,0.39382437413280025,-0.39953959816600876,0.5734739396574219,0.4659341970996912,0.8322619124465911,0.7174724422942254,0.5651339495392209,0.465323467108065,0.5594070007110379,0.38031916501015234,0.3922483608621712,-0.6030775458754895,-0.7130971035516058,0.6932947781332492,0.9645955053293408,0.44103393881081615,0.5529847433555742,0.4053420998820702,0.7339451445553793,-0.12834570427996575,-0.1046969747304954,0.6738557777099279,0.5398104114911829,0.30593015931046147,0.5113775501190102,-0.26110699547701666,-0.28194181825957976,0.067573552141133,0.6717200940897512,-0.8298784505761138,0.3399509345117349,0.3568869169901134,0.1161778891068781,0.8204489209784422,0.19672752600010845,-0.5677496803771862,-0.0736927646828135,-0.47051232635481677,-0.8313299257923457,0.7986410814729304,0.8516858646110909,-0.8542777127048643,-0.8648179039323921,0.9905467065768869,-0.34113618770567106,0.2632184065553155,0.2595627422756229,0.7216573575996653,0.37433797319476725,0.7793240674760357,-0.20366878973778935,0.10164882352790838,0.21953688892800596,0.551546042109657,-0.3279362917101869,0.9869064848873299,0.09214431908626973,-0.8470980875340897,0.7862828240866311,0.01720649016191635,-0.021998682535252834,-0.5840665798560095,0.7475472836510964,0.35256148639961227,-0.9665691716961132,-0.9754795741414826,0.24404875517697935,-0.6272611209881346,-0.6254124931695555,0.5445289963631316,-0.2955961087600805,0.08210235820506223,0.2790657745361609,-1.0433334074661456,-0.11091740431956999,-0.3274799510412086,0.28889746373428377,0.43893770244869423,-0.1799525364223979,-0.6960021085160644,0.36880654628814313,-0.13522232611413673,0.7656362304991687,0.9522463893758766,0.3881508482212823,-0.9188985858237099,0.9538159708680041,0.5019704415725096,0.14345342160363383,0.23395422903539353,0.32655746830932686,-0.25920336286500256,-0.2494036474052692,0.14766957408310438,-0.20599692819416976,0.40844032735872177,-0.6949022117410387,-0.19692134041262743,1.0049275754010256,-0.4353334249695329,-1.012020899038275,-0.31349614450713104,0.1720806788319605,0.7914689538095719,0.1305834863001857,0.7863533610857831,1.0064476176062949,0.4375771394599603,-0.4508823458126338,0.8453072724986535,-0.4703541874369598,0.5675515823014489,0.33888827758536344,0.3989215988194802,0.5942357764305684,-0.9521113468895791,-0.36022522456954476,0.8232235106747707,0.9831113628964459,0.9276106217538986,-0.9268453639510247,0.7517223113927086,0.23787463580704035,0.18929320916561734,-0.8628210809119182,0.8807679775883914,-0.6605268114710913,-0.9334749666706182,0.12418069309148513,0.4579100052132612,-0.6566184529257041,-0.3246671182022389,0.6635037762097997,-0.5161214635367375,-0.3890881398931103,-0.2857007273694643,0.5820213933115094,0.7930979760240023,-0.2678488670222762,0.5544763673060341,-0.8540696915908387,-0.36375035515151644,-0.050332125471364196,0.20151429976464896,-0.3311231524362802,0.760717003494835,0.42723281934262847,0.3338153133430395,0.5697890087969524,-0.2245137186013289,-0.21445532157208133,-0.4591062008218194,-0.22537491316736352,-0.9140721053634665,-0.4902120867135998,-0.8177765862672144,0.5738245666021173,-0.8838296411530666,0.7634313998922511,0.3151568545908894,0.4825422318850264,0.877225865976962,-0.7270820054106817,0.22883854865641534,0.6071487078130243,0.7859932238284536,0.8844356788839747,-0.07017993351272937,0.08308964196311931,0.10704708645826493,-0.5597940604553853,-0.28735984080402005,0.06041095268931751,-0.5967690840348457,0.7809150366955042,0.4487643512181863,-0.16564711369037988,-0.9308729995324105,-0.4901892321121756,-0.6143342657498708,-0.5347879108894024,0.018130299370779233,-0.41227040462701775,-0.686576360111902,-0.30849006178859123,0.9279117935200458,0.9904033140401177,0.6162417311004453,0.8993149720756857,-0.857996164270974,-0.1450367308533397,0.5820825689355492,-0.6952574965063919,0.3977243999487014,-0.9995737496727647,-0.7401630434874167,-0.4464702877041393,0.9321737558622635,0.5959708767143628,-0.25163870549371403,0.7939705847734448,-0.5510050493995682,-0.7381269502165387,-0.51226121924856,-0.61366996679648,-0.859573787105244,0.48545124914389143,-0.7090604264802498,-0.8545951392187281,-0.052937450376255094,0.3749946709441669,0.5425984005392985,0.5496446519407236,0.3458042968786287,-0.10472276896253539,-0.44285714950975363,0.2505959688259055,0.5911997146579958,-0.7701372889975115,0.7643028467369377,-0.9991016346635327,-0.6767820959789084,0.049964987403775564,-0.0274859818673031,-0.7718331169145938,-0.1165643889524066,-0.5626306805642888,0.5782893139767877,-0.6654198894581851,0.48725311527366433,-0.08816299265630678,-0.0786113285410673,-0.4718466510517286,0.8443703238748943,-0.3685548859953253,-1.0453850679015333,-0.4144831567498306,-1.1483381815993394,-1.0291571328301128,-0.3849721464167834,-0.6783499341277064,0.5602699642052766,0.34635050426010183,-0.2332091320628716,-0.5185317480347876,0.25361674713863896,-0.9808584652482211,0.041906684711094426,-0.4020212935674047,0.49049868824029363,-0.039153127469015885,-0.12205707596340291,0.598255060924231,0.7433766410625364,-0.2970101061417045,0.41317485524954956,0.36587521031772496,0.29768377137262547,-0.7272154315035861,0.5085083687957188,0.732122742065013,0.9488685894837056,-0.9812299538478472,-0.29897322267537857,-0.9459600748523657,-0.5831916619869538,-0.062133606602503506,0.6851975742440938,-0.42239227611560154,-0.16173313914353635,0.7492986955957157,0.16499978490240022,0.5328095831864665,0.7677295241531369,0.5742846336070271,-0.41934945195927653,0.03406745893115445,-0.8275303040940558,-0.7284146297123535,-0.16179885980535066,-0.1854007347783389,0.39737297943156075,-0.07616283216537713,-0.1681850485396509,-0.47600933791883726,-0.9237070008757091,0.33593638117235924,-0.21547371036565002,0.15267500789593044,0.22976585536406358,-0.3845396375877424,0.36354525638536905,0.7874383115394298,-0.43532003782044076,-0.13795898762029168,-0.748828034451038,0.4669103321516084,-0.4754187622950612,-0.31359928603998943,-0.9138956672281577,-0.7549369025845255,-0.5612776029567886,-0.4607611955424164,0.8775326898123578,0.596955607288063,0.6861992252103213,0.11397340874586129,0.7127544945398283,-0.8610249191731155,-0.8005409974958002,-0.6103521687156345,0.18665845226925662,0.044839895816910946,0.4547742015937224,-0.280529548079022,-0.6532536353716264,0.030672108458339977,0.1992182242796559,-0.7855438456531949,-0.9613719181974342,0.19700476001967246,-0.7530780700473629,-0.5706177640484371,0.1414077046397083,-0.9973881969272907,-0.672319739201027,0.4058364820691312,0.09746965244034203,0.0602287297938036,0.45015323316244144,0.12199077823641077,-0.5913795345311423,0.3072908812414409,-1.0562117418746193,-0.6798734170281034,-0.7314950073141923,-0.12535044961494926,0.08987958033300007,0.2116122493660289,-0.14725274635082483,-0.06754628804863727,0.6036971014010242,-0.33534221320196156,-0.024329751918567545,-0.15538066348322924,0.4453697534075481,-0.6507129297166524,-0.6359271383680757,0.776788139379011,-0.6417146877320625,0.13892069476989874,-0.9044735908045883,-0.8300649153628592,-0.3646220975643793,-0.026334367788240092,-0.8130552587555595,0.9360873690089386,0.15033486452430717,0.6037762619001916,0.09204131408152241,-0.9330665564333213,0.9133303888016857,-0.37085179056106676,-0.24105435691297866,0.04735011162938454,0.964222755183484,0.832224620428041,0.021902275747573974,0.06092581854244972,-0.6067427683653044,0.4522113667112828,0.926557877066805,0.9876156041893508,0.36656202644079394,0.10389168832135962,0.6322392632599129,0.5740406451946897,0.5134434550136482,-0.5180253438402527,-0.23149039225131512,-0.755228952178958,0.31023474446193,0.45215690085453336,-0.3855452677019999,-1.0277903532177848,-0.2776473819847462,-1.01470839095544,-0.5195286839830191,-0.12945284673970955,-0.8633208609973052,-0.6436700853041025,0.7516303891102526,0.41312529659222863,-0.9154266394388028,-0.29190968595999744,-0.0208181520089592,-0.0622072541444596,0.8705835034468135,0.8737395796336884,-0.12454763852271611,0.6191029378347738,0.3168128828677972,0.26066461651819056,0.4081820278107885,0.011181937128245426,0.36198099289467733,-0.6451699581240506,0.11583700721849743,0.8634598129954271,0.6253766869750796,-0.2219681146336904,-0.44692835660360103,-0.3114311519563978,-0.041741879475736966,0.018155850244342017,-0.08319712877633034,-0.5005734199082451,-0.9725187550716897,-0.2476284756099005,-0.6877446746210075,0.9297386202314316,0.2977228623337869,-0.9166318550317697,-0.09398858858923831,-0.9560771956835301,0.7014422694693516,-0.5154922853761783,0.900569770438862,-0.3399306177656386,-0.9088289485728336,-0.39591099665485596,0.6512000662687311,0.6387993456227162,0.6254343641439379,0.1546868337215717,-0.10857459968322421,0.9760973247947382,-0.9609164163305633,0.6922151912916887,-0.2697584597373671,-0.47902858284512445,0.011692520975667649,-0.20528277378708126,0.40310739427283243,0.4377310771714725,0.8832086231323083,0.10902981570669444,-0.4748642553923951,0.12052677344555351,0.779116550357601,-0.5651894386695648,-0.09625667943444882,0.12490906991293138,0.5597907488978424,-0.06175936156034445,-0.6795898115633008,0.23563546279242042,-0.6561563963332011,0.34449206335754545,0.28083553831275615,-0.13407305348059914,-0.6140930115079035,-0.6405269049710638,0.6596943628229021,-0.0613412469333142,0.06944737732182635,-0.16989171685222368,0.017914031944267543,0.8122769693204994,-0.8570416124834594,-0.031067437370045987,-0.4752481513002583,-0.6151068896485914,-0.9523055488021605,0.8128904904298906,-0.07378570040398547,-0.48243919456491213,-0.3125681613164806,0.46946075906486295,-0.8396028074620305,-0.40767072765513823
Weights[4]:-0.21995700300669163,-0.11901039496018107,0.6565744977707857,0.7002695983742688,-0.47492235222594925,-0.9224603511031998,-0.3131271979367022,-0.20838065129163708,0.6012067569425361,0.6220253769410893,-0.32399584694020256,-0.6312400547933019,0.8320678294785637,-0.8848268566116816,-0.34846257294922256,0.12211742863157649,-0.5426485992701019,-0.631826384752908,0.0550471940334174,-0.907429662489998,-0.27974913608271124,-0.01025974238769134,-0.18398823271691256,0.9109302376913513,-0.48071980172801754,0.07721461871509194,0.7469002584679518,-0.987973661156359,0.8028493830016112,-0.4517963758910989,-0.12561715539806395,0.18408961742375496,-0.31150291455513934,-0.09345981715873808,0.6058421999243284,0.4784703913510173,-0.9968931982279258,0.23831530718054394,-0.45699301907163375,-0.25087416320933936,-0.67033014244881,0.012391140562063035,-0.4727190418840807,0.3427080535948748,0.8489802584705689,-0.9847055511407483,-0.7851765874242417,0.6977173470415721,-0.7253231274547629,0.3954433768035115,-0.7699195620463787,0.10128714381777093,0.10534999850455207,-0.5002410651651402,0.239121106098928,0.7903027393809998,-0.9350221622432685,0.7456442600794342,0.18098940010228626,0.4478630290589589,-0.6693606095711517,-0.3251535367803432,-0.011230034293248314,0.053003132833635114,-0.2523574676608469,0.4919145356360426,0.6781188848253488,-0.07724607564429295,-0.4512990776415088,0.21536282718793717,0.14113231614283486,0.23143989143427704,0.8164760128364447,-0.6966806813575266,0.7661841886946761,0.704843077705319,-0.5431256481198445,0.4727457089932163,-0.9368899318230871,-0.4966310946007816,-0.138412003004184,-0.9508170885736202,0.7373494662984039,-0.5925939938019003,-0.6818768138447202,0.7730957007841652,-0.9212603810807971,-0.8112618493899991,0.6674190767423338,0.8155394605433286,0.41345010329486304,-0.7410020762994696,-0.9419987765392949,0.09748293060331739,-0.5786918098117879,0.6764865372405154,-0.9273655703615232,0.5379387590288519,-0.3120558257567976,-0.5754680590234111,-0.6567733759448316,0.284398595671168,0.19603518442465737,0.12251081642914377,-0.6929770358282609,0.03828916071438494,0.2758486314604224,-0.1989258241605396,-0.26314154512395227,0.5321357741635926,0.3301422406593999,-0.4099545233929318,0.6825901929673692,-0.32258762108282546,-0.4137249679368571,-0.7185435209975315,-0.06173707582632723,-0.417366726508626,-0.2627711082894158,-0.01906278570499336,0.4150682290328296,0.5018654422173936,0.28253598041173145,-0.2552721566907425,0.8045045428127957,-0.06711792740177934,0.27981875871251805,-0.2246468811540281,0.9109588413410112,-0.8425579550777389,0.6892118019009401,-0.13084929888109417,-0.18053320250746946,0.6584681655294988,-0.8683813300123497,0.5688553397178676,-0.1397361199714681,-0.36426037054707316,-0.8690267437459094,0.3070788417510124,-0.5033172171112696,0.27749804559978575,0.45187969573395304,-0.86452569060966,-0.509759582724768,-0.171379731543853,-0.40918559797567716,0.40662659248548183,-0.461839236894237,-0.8309945028341849,-0.18406490128421754,0.5877313592193937,-0.2293350027687051,0.5691310880975785,-0.13906002849681545,-0.24336931862513622,-0.9021190282747977,-0.40729687713175095,0.34801204038470307,0.2799217992190377,0.7156775567832407,-0.4901140608388037,-0.07232419306334256,-0.34156546243489305,0.8983410833466904,-0.6450089358401536,0.7084565348208612,0.9754977607985482,-0.49072432494290374,0.014786010149301143,0.42065997115367093,-0.6948329329966503,-0.5426334105472567,0.45593973911292024,-0.5185065232769939,-0.8197605025143839,-0.8924187981933244,0.2189529946257815,-0.6547969017106754,0.0547661625252395,-0.8059993155189427,0.5704443669194081,-0.9815114633383831,0.6719365558926758,0.46564349859801357,-0.70358644793628,-0.7483622667888367,0.1434009775224562,-0.3454636386195097,0.2842467851412525,0.5600476249233965,-0.5781799930328553,0.34706173790988654,-0.27288622431848214,0.4420678128827278,0.9266192312196971,-0.6399344809539311,-0.17690167351481578,-0.7147785122778393,-0.8516482582747436,0.13963103130259,-0.329225958734346,-0.08810109193101812,0.45573615613630597,-0.2819590836917683,-0.6022052437884458,-0.00041306189973477024,0.2931751095212863,0.02802847140652011,-0.3139858108401024,-0.2550934496129984,-0.06418761040506295,-0.576820289665515,-0.4004362613719506,0.26435163212015556,-0.9800959875359283,-0.7737625567585644,0.07980855957841529,0.2705119155213486,0.6722202042881716,-0.8453495094133787,-0.5509529847849568,0.1868206503973028,0.17630040614584735,0.4752873934224655,0.054458383961794254,0.00767616563192038,0.7417316478741678,1.0309933277716572,-0.4199298861874177,0.7484094072553702,0.10678098439101275,-0.2215828563929884,-0.9180176468898666,0.8346724172837584,0.610885362948035,-0.11426542274965326,-0.3281731532161067,0.051079738135759764,0.05346203365955646,0.28220117592728156,-0.07815281315853037,-0.8388857681069619,0.8925870810712235,-0.5728236745737278,-0.4479153305465535,-0.9555139575063621,-0.10414527471837526,0.560623041566749,0.38100007808316727,0.6217231060012385,0.18759913984108678,0.5850676454534138,-0.32787812532343547,-0.9673737076433385,-0.330332941846899,0.4405454854431439,0.7247452599061847,-0.9870582024221229,0.6438934289360091,0.5091734209153068,0.34801190269112176,0.35473947674514544,-0.41235009350566554,0.008470483179270046,0.5710180522797662,-0.9079617715364543,-0.8135465461356126,-0.48199206234165937,0.441853869588744,0.14487748248043053,0.4845651626572999,-1.0038881820736607,-0.7718661651806391,-0.6978179959331141,0.14278796770584137,-0.6937914955593283,0.24165881812367973,-0.3346354691130255,-0.15504608543359022,-0.02554254560989444,-0.8801156442344881,-0.858594123547953,-0.4217409873754827,-0.07372165164798986,-0.36740664070120044,0.6725564364426769,-0.8198037749159643,-0.9436614306577603,0.12469095113445684,-0.7116510336628737,0.3230373987393257,-0.26607980412588256,0.3531153861246831,0.5193495071185483,0.986998243819404,0.508413072849766,0.42441244711468745,-0.13077935747520533,-0.21207561570945532,-0.5377748701656387,0.8178034127813187,-0.7564555973144595,-0.8800370416002246,-0.752384888135629,-0.9730724743895766,0.04212038521940807,0.32221862269668766,-0.6883211497628694,-0.142511878694646,-0.6617712188271437,-0.8851131395452453,-0.005625005345501126,0.2288692562207307,-0.2287855643577643,0.28618044394517494,0.017061753573360674,-0.34896968948835755,0.7486415817083548,-0.3861547703767291,1.1104027280921898,0.9123516633493375,-0.8154090351330793,0.5359556308027343,0.15657616701125254,0.846185024876172,-0.19737561773607923,-0.3665630501757332,-0.3922070092811661,-0.6358714892932839,0.5341226533382747,-0.2456106970445556,-0.677361088771323,0.7324651596897613,-0.7147160571089117,0.11110177129092702,0.817138074812078,0.9994505653155272,-0.6598090121524436,-0.13404380274926217,0.5179161285821144,-0.6324923159972369,0.8880610777232331,0.15416516283446538,-0.2551131109620862,-0.880157222315433,-0.6470417267791324,0.7905096972828314,-0.12396888494019367,-0.7375393083115224,-0.04734529593250585,-0.10497603906467327,0.7321227668515564,-0.6019571735009506,-0.09861706522055874,-0.5020798891913558,0.6059688142827642,-0.13897493396074273,-0.03634588676486424,-0.7536823448933033,0.10865648986407207,-0.7413025738232647,-0.3740119726982487,0.9361867196560776,0.2649610309232777,0.5289321344014872,0.8052867238752139,0.28577721857911736,-0.1305791029036021,0.5847276528103615,0.4869578595473283,0.20872935147677868,-0.47179908578995444,-0.08750751588254795,0.07568290676786649,0.9579929166156493,-0.7347241984321966,0.1360064329340622,-0.3111231488403858,0.007003972222806623,0.6206983050567254,0.3185311298521214,-0.8188814558721382,-0.5883082479538306,0.45598733634458194,-0.2519412219757488,-0.04686892852621479,0.790322357701983,-0.27889997725538795,0.6381043849339502,0.42888252627729684,-0.05358075958377717,-0.005732145628767116,-0.9570045796954094,0.754707261805752,0.28729102397046574,0.6755552011173215,0.8890322466879441,0.8976659405241733,0.47201561092266087,-0.4002391976791265,0.13274854539569073,-0.19151454817185024,0.2607288731967874,0.024699631783823638,0.8806495406325268,-0.6596547225500219,-0.06799518312643184,0.4976269391536743,0.34910020040533557,-0.33690124997981113,-0.301801858554124,-0.7356964458038266,-1.0057897903096438,-0.4810464428304145,0.7147056651707798,-0.8913486885815938,-0.7914427661125324,-0.5630803099848604,-0.507403510393297,-0.48573597962303827,0.959799833577033,-0.46929404859863877,0.2524197935931771,-0.8425622394411857,-0.4707910443062589,-0.8563434506914733,-0.44764941224650645,0.25511233474819117,0.7109362666238058,1.0004597366091244,-0.8630894984180623,0.05763565291357237,0.27163542005570784,-0.6091658338065955,-0.2996066621683316,-0.28022825895085307,0.020137102792826527,0.6628269640352016,0.8101558359505885,-0.5590022063976438,-0.9686345085694819,-0.760304220951358,0.3849595998538621,0.006050543901853926,-0.25844532874800363,-0.2982600410602978,-0.03405793059340578,0.4656769202396631,0.9877840578499175,0.13629857671940535,0.47353614063946203,0.506872933964817,0.487141619456608,-0.1731127504768552,-0.5372675794244556,-0.625662187370295,0.39956360723126805,-0.041458560419620254,-0.8361008776120659,0.5207061500333693,-1.088347758526695,0.754297040466355,0.8639191185004802,0.3937529536630899,-0.5096434168746504,0.6795123838666787,0.01386790781926457,0.591605126907,0.8596801702038658,0.1386866966459697,0.18722880492988286,-0.33301972311939176,-0.2860450745852894,-0.8770369162876686,-0.5242042827998308,0.698533153021025,0.1028074720421841,-0.8004727888465729,0.4116413306585675,0.8842323955376686,0.24265095185492272,0.004210843966993448,0.14510431148242894,-0.5131545825365088,-0.48920809509902696,-0.3769340394780033,0.4559985060384294,-0.5435871572108557,-0.9053161012179362,-0.7595934470698681,0.21573443632199793,-0.947834051959765,0.40922458922102023,-0.7789620654282607,-0.4871642683822606,-0.6857036645800464,-0.5334072402137233,-0.7799209615005385,-0.26672110520968373,0.23676275070125197,0.8308840216284383,0.5554285168440214,0.6965706207307849,-0.06297730517712297,0.9990941844876362,-0.13689101152881103,-0.20249050712643882,0.3713774095920428,-0.5890372773852842,-0.16597024740412822,0.3723657884016417,0.2918820379560532,0.5558686547489038,-0.5900145682670292,-0.6161805826286026,0.11871444592394777,-0.2912876238969775,0.3560277438072483,-0.13502728753967005,0.973307140009988,1.117341980972996,-0.5941952149189127,0.27717503225578993,0.4662635605470481,0.9062564380342415,0.21804209126290822,0.3821747607584395,-0.3576387206445396,0.7907027918078763,-0.656552905056883,0.41150219897343887,0.03914692208131165,0.5911068085539652,-0.7634280435870727,-0.9540327853204837,0.6640934607337678,0.3484825583727763,-0.7300234908534083,-0.36111612546273875,0.7985078530836581,0.9354540995946922,-0.6016147729147951,-0.6993317354637033,0.5351070829796517,0.05444285798329137,-0.8816568760659996,-0.42304271749266636,0.07909289366143828,0.8739941311309282,0.3990807317359064,0.43154871812923096,-0.01739257038560234,0.445236199658242,-0.04067783085049002,0.2931817124343659,0.4878175299951802,-0.6350901136473253,-0.6511121530323811,0.20643678549976863,-0.07141568934145182,0.5723396621515693,-0.8344222767602805,0.5371486418953516,0.9832754148919133,0.3870848576161132,-0.650058887380253,0.7016733177850963,0.3565354019658617,-0.5504814949679925,-0.10471650338854607,0.9046990067965334,-0.3900148433647575,-0.03411643299838289,0.20624105326273767,0.9330325400000223,0.744668818183879,-0.7826902204949063,0.8023763599736063,-0.6138753050524339,0.8130919841263506,-0.26313899118957773,-0.45435155827805207,0.06288015690797777,-0.4280710599220982,0.03749211596714331,-0.3764039323626518,0.8449314785399156,-0.24345869628873595,-0.00674263993592128,-0.45834217999406723,0.23694006148911056,-0.12398498053154762,-0.03301835300652204,0.571741965995625,-0.9355060731330788,0.6467228225029853,-0.1717633529222676,-0.6083596524896532,-0.7611880026422189,-0.07931625169549304,-0.5143103623417752,0.18537784325733989,-0.5694858796150023,-0.18056183830756015,0.4935164015553475,-0.280420008885299,0.8200483194997276,1.0267695676212452,0.04241057017137719,0.7851026853482245,0.4973905705202381,-0.3034009141110581,-0.8615293191436145,0.5969514304214516,-0.6227496376367052,0.13709607587060701,0.15211030056332708,-0.03553285275336906,-0.08699822454240874,-0.33685206093954023,-0.631598850926097,-0.22397235337271526,-0.764709129055747,0.7308768568129262,0.5002768461828233,-0.011348396067161743,0.6030579855397689,0.3802041987690741,0.07308938146465016,-0.8647307075395654,-0.264401863014527,0.7472306356913266,0.5533970004410133,0.367981705780653,0.07601223934691569,0.3462583788919117,-0.95180615304701,-0.6501673379453378,0.26015410696657904,-0.5891407648142268,-0.13809034772124404,0.8867079392098648,0.8024222300399197,0.29564197421802296,0.08527952948830997,-0.45581993068563537,-0.27545837447014737,0.31504922240579164,0.11913251479218234,-0.16770883299462838,-0.526360534684102,0.7046392805374109,0.2520139351799717,0.40494110703692743,-0.6575935933094985,0.4915910027461781,-0.1586163729374855,-0.43422707647879416,0.06104774204909128,-0.7752026164971455,-0.1426627506003924,-0.7227462157218457,-0.16581400575598812,-0.15509499937350982,0.0664318749390004,0.8101499763901046,0.2703021081167447,-0.1692897191387382,-0.4909862650050718,0.0344821899358565,0.11611672263411643,-0.15960735695418315,0.7293849642059695,-0.4946180253730239,0.7921986970227588,-0.5038303954233159,0.02156745457895701,-0.02689287450969283,-0.2241443792822594,0.058043431104052,-0.7430502843905151,-0.6430376839200799,-0.7877920771848981,-0.7847470302084747,0.6549184801413571,-0.21824902642059985,-0.8308033033184585,0.7237174338265832,-0.29055951145632253,0.42496362696943707,-0.43994093563252523,0.5741004706407428,0.3046552132468766,-0.025249073041399596,0.5369765880387254,-0.41191192298644674,0.1068012775419287,0.0011584577156036335,-0.7096076420087403,0.3077050257975724,0.30010571391326635,0.9041759771779998,-0.169049177310357,-0.8630993619059434,0.8142139239577764,0.7388476583057676,-0.8289549739230151,-0.07463919584019461,0.7217079299715218,0.9453452444667203,-0.4581082262241225,0.8143456702590389,0.6833900279086409,0.8851252935382283,0.9170209908283442,-0.6073119208049818,0.9080266393525168,-0.4394489513853642,0.27229325748353855,-0.7736486209208092,0.5366396819140391,0.37725157440318996,1.0163136208687036,0.09141893156123954,-0.4170729962257077,0.610238538873493,0.5675822121871552,-0.22675406803691478,-0.009304183073949202,0.2240636568628549,0.40596491958857917,-0.9516479527277721,-0.27201375720294746,0.5069502056110828,0.802339927866828,-0.5866329333268608,0.5788920899481271,-0.836237304822021,-0.5671375745841138,0.8237854126976362,-0.38661759039962756,0.3271150179759031,-0.9098073697139105,-0.17795601275506226,-0.20689913806988394,-0.4291618845462104,0.7925583021184673,0.3527695833046442,-0.006075933194332277,0.024357293278145287,-0.39651826182218186,-0.42052522740351284,0.7772691574773143,-0.9122110856288165,0.7712870946951615,0.9376981537498992,0.9080881578419768,0.7437783133908074,0.551901116758539,-0.8031974256984877,-0.8352855819695879,0.37351063899060594,0.9234098500879636,-0.4678282778529825,-0.4249927506598004,-0.4244838101533962,0.13866570611698917,-0.8069629170061089,-0.9024442784946366,0.5466420069177396,-0.08606974526884476,0.7892114230951197,-0.9247741887085036,0.38269706355576505,0.5609751405536139,-0.7729425177783438,0.2423153870004766,0.15153065656848752,-0.7139187919506425,-0.999126011505316,0.8055779905084417,-0.7848380411904482,0.7794135332943004
Weights[5]:-0.37941808131496335,-0.1739408155781873,-0.7315268571169706,-0.3564704569785252,0.7348914135875606,0.880713181514625,-0.49609686690200905,0.8253863369232912,-0.377748645552317,-0.75040390237719,0.6747803118428124,0.2552228389565008,0.3682601420992333,0.5827080987313333,-0.7302788857977274,-0.7744659091227064,0.4438693017903106,0.6096214212522011,0.25044141116106955,0.4435170560346531,-0.8968069208305361,-0.19727711714677376,-0.5014530604246319,-0.6043338568901335,-0.47250298944884117,0.5442296124735053,-0.30461723325057755,-0.2434424987265107,0.4576971053414498,0.551027128263855,-0.6087754162069295,0.9523440152184777,0.6076751675492502,0.9747617831336157,0.9168021557465205,0.7487768641434502,-0.6930991279394827,-0.5053458295321771,-0.5401019048122345,-0.7802819729907385,0.04641220953614078,0.09599845831617627,0.179759545723923,0.8376664822887658,0.7154961396346369,-0.6930103595208177,-0.1408953437534326,0.6596072882691433,-0.11819045763378522,-0.9394528828279362,-0.4429953132956267,-0.8040434307437592,-0.03527945235151775,-0.6641035227403527,0.8631454444784417,0.8178590358318105,-0.6724877551535553,0.8728069997731629,-0.883967467529684,-0.8093381988859447,0.18533041476520262,0.7473456318245015,-0.6323107684181588,0.07122422618382807,0.8583715138297396,0.7224362966243347,0.6462364754774835,0.3924392990078938,0.6698066188305004,-0.46757737498189816,0.9454771763024473,-0.01652755845208972,0.21010095175118934,0.09177636930459326,-0.56408907059888,0.039741597851861564,0.6398252946955405,-0.32405339159402047,-0.30623069403429015,-0.7772630517970417,-0.3145677276489175,0.03577547848027929,0.8747479589072744,0.39714998816938607,-0.0059775584405183935,-0.8047319854631703,-0.012376532430004583,0.2717786902896029,-0.888383661344826,-0.9010568800852898,0.4212646810104009,-0.5657687849286995,-0.6213847265948377,-0.7307015121319873,0.030654858950390544,0.3014108839534087,-0.2518382093739421,-0.8570348541163524,1.0308162071343832,1.056361267394945,-0.2759344847118886,0.5138229447723452,1.0556069470393679,-0.5335752077696302,-0.7610014893075622,0.650944808105984,0.053022575661941046,0.9357933426907769,0.9387916307611353,-0.14426975750563187,-0.8063563461445069,0.6602970406693858,0.18396355918793184,0.8936045867826812,0.5052295287629727,-0.8504450637150766,0.8726020261055717,-0.029468212048298092,-0.9225710052635259,0.6635721596123006,-0.2666939639315762,-0.6277101940075096,0.2639445464957326,0.5595943571471609,0.12296789371582231,0.5196242723945093,-0.37162981203529016,-0.050527202602581985,1.0199416985772887,0.08980229363297625,-0.7122973340129629,0.5063992416072448,-0.29776412314347883,-0.29484632857566334,0.5465393021080296,0.20939458215412113,0.040669910095257035,0.5138826665998821,0.2552360898140986,0.3862328861775961,0.1487851530075004,0.05207867038067371,0.33298705952846763,0.25584035971046,0.9067477857303491,0.7631023673686708,0.2458639497230418,-0.5222465740080555,-0.25268067807109046,-0.14334461615579489,0.421583034322841,0.7983186859471512,-0.9581933133998944,-0.7387945728538825,0.2633750952362316,-0.703925406936271,-0.8284858250867748,-0.5734305500484121,0.23889672491000724,-0.37462575825547767,-0.01457006834147351,-0.87976372576216,0.8893816065664726,-0.20551997909270972,-0.4416389668126978,-0.3237287251682613,-0.03396575322581304,-0.5204934754969988,-0.6713019654486803,-0.7149037624313048,0.10748080308897467,-0.6431980353688489,0.7094185336214057,-0.3164753866856383,-0.5052528511169986,0.6637830476033392,-0.012506359775476249,-1.0352412990059134,0.6203085680194398,0.30154264915002005,-0.8704488684494398,-1.0460423424133853,-0.882597806187436,0.15767065093780036,0.692205151388939,-0.4766593983576946,0.4038239288997411,-0.7300911671275502,0.39859500677634824,0.19862196006366376,-0.02322989813096528,-0.3986590644680496,-0.7365164291087515,-0.4035040480605534,-0.6524161338186282,-0.027463591364724725,0.10977437771380627,-0.5077663024457946,-0.32060220884067375,0.21773033126759123,-0.21957474006232003,-0.24355123813597915,-0.8679072893770524,-0.5683592539187837,0.6751256811213147,-0.04100111362106429,-1.0586782442693645,0.25214114806797105,0.7230069904014625,0.631267193022446,0.39251977081993544,-0.8506978997637022,-0.25264201418568416,0.8924048736843763,-0.7535126113142021,-0.09636372462446054,-0.9783722161881744,-0.22489204869222154,0.16030509493629283,-0.940354907436184,0.18987029251732743,-0.4100903320842005,0.024972766416176472,0.03268630999047302,0.24837990722077885,-0.5078548078927467,-0.8940478195340145,0.10504071993807794,-0.6756825585387858,0.4986159626761599,-0.4742314278256977,-0.5476421193547166,0.22115822664345494,-0.6326663362928171,-0.45295556957200866,0.5178849886959196,0.9312264040480533,0.594601996387087,0.28060307925813216,-0.44618422667417273,-0.5157908232510179,-0.8271263656572768,-0.4825717495152654,0.8866190983787059,-0.977301999209411,-0.2379500634434192,0.7694345469263854,-0.7336683077566243,-0.8606925938689907,0.37867114562277243,-0.07660602486422247,-0.7256697200823901,0.3230496995724037,-0.38077965839969485,-0.9616651061999869,-0.7988599409655178,0.7236071543609377,0.05979733869386173,0.16894507984760948,0.24474769825641993,0.0004324920641797539,-0.02209397089484944,0.11490197362531844,-0.7271264935974372,-0.03986168151123309,-0.4066247732256876,-0.26350858883935285,-0.6398073049661538,0.39031533596900575,-0.11049135265615541,-0.04114987221688579,-0.665895871618253,0.43336094622546495,-0.5299617890958808,0.45315808336929725,-0.047505915588244164,0.9504940889997509,0.12878413990187967,-0.0012685885594046794,-0.6309153864304141,-0.35811525367112607,0.7751443514060047,-0.059730072482105975,-0.06762003389471974,-0.4176260582233916,-0.7308414616693363,0.2198945063140211,-0.25451333037677804,-0.5280039258954302,-0.5619438071779956,0.7580742616123303,-0.06305133032247905,-0.651090837221573,-1.0914689517436895,0.49672026415028503,0.5206818414193075,0.1745371233262954,-0.7037511229061779,-0.1144424860050942,0.32392506545262956,-0.9720697083079491,0.4520285313396504,-0.15747041183620136,0.11457968694975082,-0.6673585463880636,-0.49364939851508016,-0.2330177272886071,-0.24231883289400435,0.049760251794830124,-0.003395913636030534,-0.7815170028050394,-0.3946268653761582,-0.8957711640873374,-0.14299159715857662,-0.3165316927749911,0.23564225764779193,1.11403624898817,-0.7548078860482864,0.8045722420694108,-0.25435997810274397,0.5434800811652352,-0.877701614819169,0.9624381075562248,0.13745562637830924,0.2581731435016628,-0.8950533931173509,-1.0458100330790678,0.5114457683146608,-0.05299566779687529,-1.0077746536324483,0.8210122012643218,0.6079064595623341,-0.7736265393175946,0.6454308013401336,-0.6995873235809182,0.12362402822991081,-0.17574171217891466,0.7268298499876773,-0.43142709805540513,-0.9176319663054228,0.527963214154311,-0.5381783111584573,0.7007615334797909,0.536365242558036,-0.6911614724524446,0.255283891780941,-0.2960868586076514,0.5077270434139619,0.3730842328101327,-0.6200559886126128,0.5391631385631274,0.1290310688161516,-0.37168043956264785,-0.8760299227747035,0.84854919227436,1.0249500507254046,0.6217535207734936,0.8869211415338655,0.9127579437926496,-0.844843889697218,-0.4876426742224013,0.30088295079615374,0.8341656557789642,0.02939089808119033,0.1050386908953258,-0.4469363360884303,-0.6330269909748378,-0.5361906427818698,-0.4379693016999006,0.49998115907129537,-0.6512292341955159,-0.6032230625528514,0.6981078686971189,0.7680415408420066,0.1477291436020061,-0.06713137373364568,-0.6221966255683378,-0.5066806430477097,-0.052095847676743794,-0.8252636289849917,0.5178879746134344,-0.6184413053411316,-0.9753549631987375,-0.47315740642934273,-0.5129852024672777,-0.2050472053667159,-0.03584049295786141,-0.9503812870386419,0.7549368990142423,-0.6775147421023566,0.5429883999922939,-0.0790957608628533,0.7525098546186975,-0.6017152581371903,0.5742351028948254,-0.7689722527812072,-0.373139751594,-0.36533620042907516,-0.6935708594393601,0.6675657981325908,-0.12560469954779693,-0.6722810965927211,-0.019898612715692054,0.8466046587802069,-0.9381198953515004,0.28364634672771327,0.5101760284777836,0.17384271620410793,0.027959358928636022,-0.21476108059288096,0.4854246313246374,0.017595435202322155,0.029047696981925112,0.8472109812878919,-0.3526479104618541,-0.9521656060886232,0.22778994395288107,0.3669696742302102,-0.4190277233272553,-0.6886348434205329,0.5479709969591213,-0.6764932878671648,-0.2869452095064079,-0.7605544628385936,0.9860458885315141,0.41173059574432974,-0.46580903056793593,0.15915066799142352,-0.8970751321634983,-0.051955628799722854,-0.6005307201018636,0.8410177318619055,-0.7287610027541241,0.3498351084612787,0.3037262269072117,0.3299126746324458,0.6170922562856557,-0.8838903361282635,-0.6673279531095797,0.09102968029975711,0.17813711251961842,0.8925779408712499,-0.017078928870386596,-0.16375472099223573,-0.24962538725389685,-0.5047001421672894,0.9470805419051193,0.9112227819446581,0.7219220873536178,0.5296083826243916,0.0004972487431846977,0.27131189210963536,-0.9108211254008929,0.9922178948896128,-0.9015136058010056,-0.5409942229375128,0.5138992608840675,-0.2555206747449346,1.0114447525669894,-0.2784445397562954,-0.1575528890495591,-0.5163452206477386,0.026100569469365634,-0.9028396877227017,-0.4400880312886815,0.7650526073511542,-0.24942429425928675,0.5527480209959466,-0.5938941117293394,0.4152089239626526,-0.43195411822046764,0.03954608640205831,-0.010329754396762463,0.4460104543012615,0.12796755281338917,0.6253793032958075,0.31545311460059744,0.8660248228656244,0.4798323799738958,0.49542133451003917,0.51490520909122,-0.36709924013562606,0.4359371851686472,-0.4922717332030214,0.8625565801156077,0.07124581830657205,0.8459326243429496,-0.5677383308429421,0.541929053046913,0.031183505010098287,0.6819680028362037,-0.30481425698147757,-0.6952738422943866,0.7888887467522799,-0.6028491290264205,-0.3511413224459018,-0.23709364452103512,-0.13245144936436773,-0.7050350219800805,-0.03151932886566023,0.7079049641002093,-0.6321205225291943,0.4616128743913084,-0.7048795165982468,-0.033808995519675755,0.9648025501355542,-0.7264377233581221,-0.35455404516514044,-0.1296830241941494,-0.5965448047660845,0.20558807532468035,0.6991804411684672,0.19975793139232786,-0.5500209024417856,0.2759707165774105,-0.6853720763300397,0.24335347912888675,-0.4108528301061019,-0.8476165572688803,0.48125280942297455,-0.8120768360446626,-0.2915556571692429,-0.6706063882306285,0.4652310677780807,0.6275543447009108,0.8224182641319109,-0.24548811023563627,0.2790640875270596,0.129415884497087,-0.5196958867129483,-0.22031681948356185,-0.5894084319422992,0.5670448800395451,-0.4931679617116078,0.766382155310362,0.14969102083490526,0.13606373500170338,0.1150015989974775,0.6657513237419369,1.0538383423894384,-0.21590438117919808,0.004479164600280141,0.35932949261906233,0.020941580866385232,0.8834031588268374,-0.9621302389657973,0.5098458656039874,0.9399748494189737,-0.2227519525943661,-0.7475196428285845,0.5830533785435752,-0.7983040138970219,-0.31791862708073704,-0.13653759419048206,-0.09290254024686334,0.17832567001297128,-0.841325510660781,0.9858559602276317,-0.41431669304814034,0.1403261745070694,0.22701055706805118,-0.0018896567644037798,0.47676694695401606,-0.597776147421691,0.630651001996141,-0.2781571431248708,-0.7695234541393755,-0.0445007370945653,-0.3176572713061246,-1.0368960446024087,0.04705103275850247,-0.8945424424867983,0.16265297674074838,-0.7107716496412255,-0.3330797101233969,0.10048533366303042,0.20993388868122043,0.3012004946642459,0.6645165537831622,0.6106840582887603,-0.6971402527381629,-0.15001832727612927,-0.2732682843873884,0.04436388532756894,0.0027733801930076188,-0.4650575297964267,0.6770619826553897,-0.2713826295320795,0.6071088833767497,-0.41406219332202443,-0.04664326556346627,0.15725148062754807,-0.49971559966832574,-0.622457235354091,-0.2372902132244117,0.9218044881586576,0.6916490133297225,0.049297198656805284,0.36117009852070053,0.19224621837774367,1.062198049693747,-0.24789051631403922,0.16115644023552778,-0.5535159824466227,-0.061634341629974755,0.39960348243799204,0.14139473383579965,-0.5133561775125364,-0.8704905251077102,0.8987886181699618,-0.9250337560875371,-0.05252888959517632,-0.6154375282958515,-0.07235816380090426,-0.21238036551371922,-0.6337342269875734,-0.7270211492325278,-0.5630425324491424,0.3650958085409913,0.07193921255890773,0.01700788437610924,0.3684040044071152,0.10771496314484878,-0.9664948080862926,0.06233484519593184,0.8926346633056141,0.5163432704488697,-0.41513369061674776,0.3406481484863121,-0.44836963299843696,0.08057947007249626,-1.095173252285691,0.7936794877499382,-0.5581432645348685,0.6808734411398306,0.5817621282898013,0.5566273804990045,-0.7940885348254545,-0.9621752175666617,0.618784557292625,0.3809963203916724,0.1484799125605871,-0.4633037114305758,0.6770614691437509,-0.4844898467345582,-0.9838873594924283,-0.23723242491046714,0.5421399871434488,0.5472598517372211,-0.6809201412102389,0.45737230087779085,0.09197630291812041,0.5688542699171337,-0.8440695927043826,-0.9904799191869733,-0.5480834462394093,0.3465795793249214,-0.13578423647582974,0.23991290809986654,-0.02786100179298277,0.7746404901046277,-0.5854252533004529,0.0536329437393782,0.34358314114780036,-0.4376886263507807,-0.9946868228911524,0.10158681847089712,0.9592470796648331,0.22131707077581564,0.15212401615088988,-0.2712651655409789,-0.9571054549688033,-0.6006140055137752,0.7479784925226023,0.6878436727858352,0.8353674233488518,-0.2203820885807428,0.3954260028199439,0.4835798516420204,0.04382276653552222,0.13429557523796914,-1.0131838626912648,0.08783707336868864,0.10217045367935529,0.21358776948155916,-0.8911356533937468,-0.6394005127452826,0.5607653049266076,-0.5948875509768561,0.14791855541335583,-0.8961968212005662,-0.5168528925647736,-0.18217874805310408,-0.02016160724752268,0.8505455686190065,-0.050770040213257796,-0.9152329741295787,0.17608978002150066,0.08976811873250079,-0.4952652535844898,-0.08269405881068392,-0.1939886124776623,-0.666503506557319,-0.5713835735572538,0.640192548879054,0.484198494632285,-0.24322395770691282,0.905187800507761,-0.39763258505417,-0.7847865239537016,0.8346799040616923,-0.8306723033944906,0.6111220227342629,-0.6478345129784383,0.9309805734926381,0.8445525433054669,0.3649916675754587,1.008147433378664,-0.8867405122846264,-0.5794750164532356,0.6231682394533212,0.5752982550526022,0.6973314835058113,-0.9031495126215949,0.0826252619504951,-0.753477815423849,0.2056922312852425,0.4157133183515227,0.8977246721730217,-0.2612445593165441,0.7813279022375716,0.6597481335588289,-0.6006016313944851,0.05642532202123881,-0.8361892787023892,-0.6262949651619094,0.7087555557893821,-0.29737255494310727,0.4573420679182801,0.7911243565119515,0.35110715022758326,-0.5519897373043366,-0.08022723821819543,0.9847599442419185,0.43966612486188017,0.9963145302611569,-0.08597417606363744,-0.4594394947574011,0.11509896671730689,-0.854683786473646,0.6571520928559602,-0.8880309815928484,0.10346912923430507,-0.34473537716303737,-0.13237014093081012,0.34103076222400674,0.10889942902554739,-0.7631407379001103,0.34675392012426354,0.3983356195494232,-0.705815916743975,0.37486382831979537,-0.9598821725060488,0.8888716985445284,-0.4823222427663924,-0.9096118842368657,0.710143740431274,-0.4447146304346493,-0.861914725613396,0.48924963081922845,0.9760865760318969,-0.4309464063682189,-0.4952834303982154,-0.7253116116753923,0.10074580444574212,0.2158388434666583,-0.3183675535574404,0.7365455132613636,-0.28005660478028316,0.10639881580434674,0.3672424197975743,-0.3246806447043459,-0.699375359201513,0.7524111586401292
