LayerCount: 4
784,128,64,10
Layer[0]:Size=784
Biases: null
Weights: null
Layer[1]:Size=128
Biases: 0.9645746429971942,-0.184063768503992,-0.6275198924577364,-0.4188381980143041,0.8352501892917249,0.7457194065134627,0.5254140066522496,0.9165454419434172,-0.40807215490010995,-0.8540959160412139,-0.0007226953926816725,0.3048654393990229,0.9769285582982054,0.38761674792821865,0.49664444815671765,-0.28481616814176475,0.7830891210054259,0.7649358256760281,-0.24678863260736614,-0.4570753529747141,0.5174360443751237,-0.23119853549959735,-0.542620086197508,0.1438763924294107,-0.26812651018400885,-0.15789683252505887,-0.40132234808974815,-0.9444223110705872,-0.3315796642930092,0.9353175069062268,0.3040917281408804,-0.941457163198636,-0.3202621433262455,-0.7035147127539217,-0.8040312175257233,-0.7239077255544235,-0.6065359782579531,-0.11407831164475288,0.9353814251835677,-0.6759279221768371,0.7033408238237425,-0.1570736098142721,-0.30407516372401455,0.36124372209647043,-0.46328264725883306,0.4580123721305981,0.3763540756870518,-0.6689620656067803,0.20564569692999346,-0.2637414001313528,0.2576568842235339,0.7197259167219404,-0.15106470814097372,-0.8794907238482788,-0.039345399857422136,0.639797182618613,0.754842269034372,-0.018675832844985224,0.6278136522077394,0.6097360505180472,-0.8047685453116044,-0.2658482387343474,0.35908734329136166,0.2031619671566199,0.6855080768080432,0.14495489451982888,0.8365691297990717,0.7022748405194842,-0.40080628319293754,-0.665233997095446,-0.5023629317725133,0.1905902997904212,0.4478327453148241,-0.5844433692954141,0.7980097419272746,-0.44710272897156395,-0.6333441894887394,-0.5450076397334398,0.26936283713064907,0.729765232997048,-0.5361783036618144,0.4640157306300925,0.0783017414803594,-0.45354856259322673,0.20353641551413634,0.33475721128373076,0.018738096425736653,0.20679961652955942,-0.04341945435465488,0.49136001311853644,0.7212200586695257,0.20262224285978442,-0.16222809659251844,0.11150992578161946,0.5227539087622058,0.8661044522386271,0.5247328346490029,0.5147329663504323,-0.9919686339863223,-0.5344251129321436,-0.19836940884393725,0.8993866942870535,-0.7505896606661753,-0.25880847025003373,0.8806116702872112,-0.9974918133678511,0.7987188809599347,-0.527505043047834,0.08359838895202304,0.4611410595694572,0.7974713847819562,0.115981916192582,-0.03510193132649463,0.8365371275793015,0.1557673265244432,0.6755634237015264,-0.3481661667411805,-0.08813273472506239,-0.18882444574186902,0.12934282512928758,0.82354584015395,0.8412288589423361,-0.3549038259159719,-0.547538637281527,0.1959756041207224,0.7724073050883796,-0.24949108537678533,-0.2580120802561735
Weights[0]: 0.6634535061490971,0.4792560690451675,0.2813968645787783,-0.35775936551287746,-0.20770374462367214,-0.6917488499040477,-0.9928841982003693,0.9753134986270748,-0.3641986713577987,-0.5400318119395673,-0.6327389216202959,0.09320944039766177,-0.6123246762958936,0.03280829686336606,0.762783255317613,0.7848623813059472,-0.5758699046335509,0.4706578233608314,-0.18383683878175772,0.5382472358356449,-0.19117511864340642,-0.05571476605521275,0.11007490992083913,-0.07007211962252491,-0.30780750480844055,0.7844508503491296,-0.7046546375866303,-0.1659296113839045,-0.9908673474522621,0.651637798012997,-0.6901528032916378,0.13062276464450306,-0.6909620806998397,0.3309012275798717,-0.8589593814029169,0.866180074338885,-0.20834888108463445,0.5629451831630177,0.9338867729221876,-0.4237234245164895,-0.5341605132139104,-0.5655677446935176,0.13383718446541448,-0.34224099355854143,-0.7150613096147129,0.14408774540949976,0.04627273652994668,0.7603758972884975,0.5691103793536827,0.5797755166794059,0.09383235829595127,0.7752781900462127,-0.5154328884163093,0.9771893536565777,0.20222867708756986,-0.2808317277956902,-0.6308188408756716,-0.6485310157986968,0.9500481392955631,0.007845405027198327,-0.9870942123174175,0.17304541318353528,0.9661808460793369,-0.015836469370795636,-0.8498790086479294,0.23663831373520128,-0.21582847890249846,0.056774096124234674,-0.108232321733717,0.896603180978728,-0.006788737609418449,-0.13881508779656848,0.5367710504386438,-0.7601134142652682,0.07240774904955538,-0.6256073739498889,0.8104480494793729,-0.5476840965206196,-0.3550108100078119,0.5481047497820597,-0.26182188618081714,-0.4650305348751277,0.2649600092624127,-0.5706428641316681,-0.44219456028295423,-0.46543099333785054,-0.35394434693918764,-0.6681514343564172,-0.8713274495076981,0.42187234639277316,0.49699891521455664,-0.5598178652859376,0.6128970438674544,-0.07395863210501086,-0.436629212199072,0.2927940736025545,-0.5317485907728544,-0.8503263461637899,-0.492361984910612,0.0483003766500858,-0.6400837756880018,0.989498640405712,-0.13139178097778548,0.6725071983749547,-0.4134357457111756,-0.7673525539074804,-0.7614928603924311,-0.7553194741510412,-0.09521839539297783,-0.17216394896254128,-0.09127977727506298,0.9168652556449479,0.7064797942091152,-0.5980566104864965,-0.7303327087919846,0.47793632255771024,0.9080854039211224,0.536823710211005,-0.5736419090878413,0.6155519846899211,-0.4094173393256112,-0.5476770445460812,-0.07189845436806719,0.46989533187350974,-0.597523227757864,-0.4419192230001639,0.25246786052115266,-0.3886573395117163,0.6765122309403616,0.7796079996649828,0.9061376498295236,0.6607732739471138,0.9446778883899924,0.5966888133421022,0.19359354581223417,-0.24588690825312798,0.6663612461026578,0.5924528108874583,0.8427928815795076,-0.6748420063754739,-0.7039381329454193,-0.5986248727881465,0.4270669610365605,0.30083649945484314,-0.48684787633216375,0.5801336595696087,-0.2662976594950527,0.21095365435395097,-0.3436259233130263,0.08543446524321774,0.38470866968143214,-0.06794987444305008,0.7281049358095698,-0.10158136655514897,-0.5331395155925752,0.9089178572982858,0.06131480997381325,0.39863059276596885,0.27328641285846095,-0.9655964510062097,-0.014642176737138466,0.6324241262764098,-0.4247174226751156,0.1295433979728872,-0.07830516578550695,0.24794582708177426,0.9721873672549555,-0.8902090191329871,0.2137548640434419,0.5209878177945446,0.8115750764550524,-0.6843674069663358,0.6941169799400958,-0.8986873501962963,0.3194901176353404,-0.8107924665374646,0.02525598878466123,0.6272520195572823,-0.0432988968997029,-0.1803793328253558,0.8231544674395713,-0.9522789075840394,0.964203289136392,-0.4070789879608107,-0.6051770234130961,-0.025007612598141663,0.9382937781711579,0.05345269230927607,0.14389989001485567,0.2880939487958204,0.69425300883225,-0.7298922258168243,-0.680450121723325,0.8092577549672024,0.34079841586798354,-0.33171559000933337,0.8332103992966984,-0.6981009681234607,-0.6208583347596499,0.265206296586062,0.6081213740063203,-0.37586214579268445,0.9971987903105088,0.13538624969235766,0.2738593441021015,0.06902213297834867,0.23732052044354773,0.6220388872466713,0.5757601467221823,-0.7212146114046549,-0.10745343654660328,0.43630256928599875,-0.5582966901812912,-0.5462538582291264,-0.7849904440137988,-0.05221885167735349,0.6799535425150883,0.9847357340487286,-0.2643515425387711,0.9469813164076681,0.3104869943626629,-0.08040449073557021,-0.02918011649939234,0.9331596074314601,0.8337054391548528,0.5439267175010996,0.9960827147569893,0.8847730736642951,-0.23929262038854748,-0.348567797785945,-0.644002865834163,-0.27664304083879815,0.24812333981805199,0.6915038587435509,0.21144794832293742,0.19558897192678618,-0.9541228019828476,-0.16550489033999352,0.3279724767843436,0.3280824336100554,0.7373733947929287,-0.684016683804852,0.4806766864464377,-0.12642867315641362,-0.5947278972356089,-0.7404687991373909,0.8270049211388094,0.8661175518604542,0.595049415526469,-0.6062269479065328,-0.005137441216566341,0.8561270040721292,0.5716361084820871,-0.567839651167318,0.9547193022233988,-0.31164921694977643,0.6533999534035969,-0.9357343225515701,0.30168081973757643,0.7299326712870657,0.0729933468702534,0.35261963190681794,-0.13833771851092144,-0.07828524617170002,0.9233010042539451,-0.8234641325574719,-0.8018824676669613,-0.2456679951383915,0.24336414916252652,0.01959375238052292,-0.09242034694100235,-0.13913978524855078,-0.33265966852919093,0.40686827537958337,-0.7903374505267005,-0.004856372720029367,0.4395995640380306,-0.899641031352636,0.5349016252601992,0.5805551091118506,0.7182480374901778,-0.870034837103465,-0.7102763418621739,-0.6333074519609867,0.6566835854839288,-0.499903375336911,0.1517208540587318,-0.18403696789594226,0.7368176093962127,-0.4768975154869082,0.5421349718513745,0.9759069184458855,0.5259462737642594,0.6049461590865273,-0.7347754088510186,-0.6074160338836541,0.45664970672199845,-0.4406537399965343,-0.04022670205812259,-0.7537667570519883,-0.9253673889460831,0.07781989515567521,-0.3757915823719073,-0.4237434963806269,0.4868831119904682,-0.8595899454595475,0.19626555274998103,-0.8327978857945642,-0.7775043201528045,-0.040424325056571675,0.248751219012193,0.5528992519582201,-0.4705094999233413,0.7213522051951066,-0.9883153662031122,-0.056971801005756384,0.06280310722973469,-0.5051028921997792,0.2648577531314801,0.4162776162917196,0.014766096023470713,0.3862489397789598,0.024735474661032875,-0.2722532835737484,0.47936801971266846,-0.06824983787274493,0.3419597757889583,0.07996596567686604,0.15750318939457505,0.8251452124471593,0.5415103428170781,-0.11900617606891606,0.14241110214144515,0.29562395498884086,0.5134134467287983,-0.35699787519732396,0.5057556235723921,0.713467154518453,-0.1202544826642864,0.5161540307412319,0.3039575198015358,-0.01531451567844739,-0.4065326477431379,-0.2228500296819147,0.27423397575728803,0.989405819502527,0.4476544022931443,0.8027893980424207,0.5826678807336415,0.32060120122567054,0.3329938059743022,-0.03254455082098165,0.2963877410125788,0.5498930763814642,0.23928107948045038,-0.2961642130255687,-0.9381365557838646,0.9054889117780924,0.09978316849398874,-0.4439105873200626,-0.196753922475853,-0.8763066259568122,0.015603687155807178,-0.6024761384364572,0.4180616305293803,-0.632242604918891,-0.5896785946514824,0.23373453905044905,-0.7919347936452624,0.3687756079889894,0.4372609173777567,0.3492626636911882,0.6151503700122746,0.7502572905110025,-0.8847379607799997,-0.9701110262013947,-0.21939064850562007,-0.754487831885687,0.4554765260144284,0.4956492456373272,0.48984261971712295,0.5482262812537604,0.5044387347031839,0.8450586901199784,-0.49670860008619827,-0.4170360369093855,0.5874307654677442,0.5971061538891429,-0.9363942574413466,-0.18368258009836202,-0.4186286299576185,0.6002805659548756,-0.38632038859013484,-0.6763438953442238,-0.2873129832033594,0.1801321397209792,0.9692679951552988,-0.8039383986416625,0.35916427411277213,-0.09340874740957004,0.5818125303037546,-0.7793476595182355,0.5957187945151347,-0.7858444066622944,0.8785351298661074,0.9855397005150135,0.3548663059372901,0.5544320519576106,0.44430661131759414,0.21654326430342935,0.9253174831186899,0.8256076910734467,-0.538787251432059,0.6129043507221325,0.07224999949450514,0.2622449171087913,-0.37327416584513806,0.1738126283389576,0.8943447553992014,-0.16490798590933342,-0.2196777450012405,-0.18678474854062532,0.1699078600713555,0.3916032745806086,-0.21233730812759544,0.8373213297917855,-0.2639723561601429,0.2944283505436579,0.043718379646328964,-0.06356899825215905,-0.9388463432127342,-0.4129521019213951,-0.11457679206068057,-0.4453288611190274,0.9246781277564275,0.28748920986435794,0.961690738980189,0.29658181510598325,0.9695033710601435,-0.4688556609432509,0.2397591496198202,-0.9570152351770542,-0.8391637736735786,-0.14567175188365944,-0.10420032362649234,-0.24388616124349005,0.13911767822649224,0.0007695849057145487,0.2514017081127511,0.4504420996878493,-0.4468146308543228,-0.20489757564146893,-0.6982359097748588,-0.47566576207658434,-0.8709252718181167,-0.22656689750362047,0.050670477058456384,-0.7962865231976937,0.4214106539818501,-0.9625558024426993,0.24291028206713278,-0.9328826911463113,-0.47352146987014604,-0.4755117866490224,0.16587875343101366,0.34712640387595656,-0.0451672346665061,0.9247967666094654,0.705296863737494,0.8018602875212647,0.3096940401904063,0.3366804240907917,0.2045563623330353,0.36352537729010237,0.5953271880724129,-0.2626681631722805,-0.34762429508735626,-0.6844203880449852,-0.5044048323782183,-0.9688026998046798,-0.3021256687595163,0.7349837877484895,-0.9542864642772172,0.5922993342969612,-0.6212606570498004,0.2587232150423781,-0.7207836576145266,-0.646065224255354,-0.5865514555541566,0.15484928064591247,-0.755035691435527,0.7727972589816894,0.8832147957050185,0.9419105251230045,0.2991195331867874,0.18840580283751315,0.5349675558623895,0.6536984651018489,0.6988764121838374,0.5559167204170223,0.8080492219875919,0.215602043650859,0.29546703644817085,0.4495372471630281,-0.859252209709609,0.2165049450548855,0.5905460620254959,-0.06192664199598441,-0.07123889823967544,0.38901082460169645,-0.8831484616432136,-0.2712187289747129,0.7014572634090167,0.3884136797870853,0.33854743024298806,0.5025654050516734,-0.9860446598547046,-0.06580008454385314,-0.8512902735904397,0.9092772578840714,0.06781348420568233,-0.4008314260086473,0.5128823527680212,-0.4361972724708038,0.5750117287071872,0.5541993856354748,0.46624597900966996,0.2708428537815876,-0.9306876683280938,-0.5929163804244793,0.20235919542720504,-0.001324371901026189,-0.3832968070093993,-0.06032155782930626,-0.7768519268263373,0.4822722875896246,-0.5604832486996815,-0.4092554331639632,0.4452335860185863,0.15940841370551898,0.6681693971462639,0.34096269745832936,0.4252938705059457,0.023665556307646465,0.03304891647317306,0.508623990025642,-0.9303296939290631,-0.50775053399176,-0.3958367838962729,0.7955959572136565,0.177277094546656,-0.3870035267380261,0.5225023755442828,0.802147821600834,-0.504930186652225,0.2130892265126012,0.7033909966891206,-0.26828282106122137,0.8745255013343531,-0.41345162010446734,0.7502589401557385,-0.6802968176455688,-0.13123899657802607,-0.4783225178151962,-0.8133483705173006,0.11498496032005584,-0.8888029273504028,-0.2382998820408501,0.1652512295600248,0.8559901225339782,0.06306257182470458,0.4249048642206194,0.4849509457253662,-0.021577776336842085,-0.7634553440146576,0.7298078732271365,0.17570355830993015,-0.5048763288711622,0.5368490960785288,-0.9237724254595828,0.5001650524792098,-0.01577472361539245,-0.3252021508874382,-0.7232781004734701,0.2300794838136433,-0.41058051465571876,0.4761732525546911,-0.1854446377537421,-0.555391389669567,0.010058828168576062,0.7788812870992725,0.7077995723615398,-0.2837809237110339,-0.14137432579000683,0.40909964804160087,0.3483920148756667,-0.5276681938598985,-0.09652377743510038,-0.1625667443677332,0.9200726666071184,0.39529839420941243,0.2958270488052781,0.32304641299176295,-0.24947137879717748,-0.2645747459826436,0.761699216570218,0.13716500865952685,-0.44912510674171136,0.5735964214306308,-0.22481436246298925,-0.9575272090535272,0.2134737238350668,0.19584093019172588,0.7984088621094865,0.08638332741632282,-0.2339663362288691,0.6449053332418695,-0.407960896104556,0.2915979983711605,0.5972321441384183,0.638830201532147,0.2966360721541511,-0.6829034549367134,-0.844874024251722,-0.9233267271667921,0.35516707573768597,-0.28862153538128443,-0.3739417172657548,0.567076669914908,-0.12003694164204791,0.2519541163249119,-0.721858944533728,0.6609659584765296,0.6282505321090166,-0.31047774576188103,-0.7918746073231526,0.6674701653735107,0.9341489830679022,0.5462372608232486,0.473570203163461,0.453275651416404,-0.07456824512899307,0.2409589408156272,0.6694229727934222,-0.032413962777896765,-0.4345924367357942,-0.4880413578301861,-0.08218978582052039,0.7723053375240724,-0.3568706493975113,0.7035210832466265,0.8800856812010366,0.6112292306741604,0.23927082699403499,-0.7216027676021701,-0.9011072786671764,-0.02264508733794683,0.1614848125526258,-0.3305177112478939,0.3854632985245902,0.05804356480473744,-0.47671650662305304,-0.010793801296206851,-0.3062683921341263,0.5275031391193639,0.7745223826610121,0.5591985842023037,0.5728348361201747,0.10993291396178906,-0.12152946606349646,0.09856349839762024,0.7107563501739671,0.04580184307219537,0.8180277952076997,-0.8560435072779858,-0.28660155333885995,-0.9442599130701385,-0.35224953171001083,0.18761858509816692,0.5110760795400761,-0.15763344125227968,0.7871142074471955,-0.15329990114107625,-0.07976602364050593,0.17650148255280163,0.36751990642748766,-0.33958126587849896,-0.5798320317670083,0.34949388246434787,-0.40236289644023754,0.23318696552406404,-0.49386555710569274,0.2700149944378132,-0.8299411338893423,-0.5786632986639921,-0.06476098162343769,0.9372732517948714,-0.4525600678532199,-0.8580801663259418,0.1930636545610911,0.006208979061901987,-0.0608761939503607,0.8078773002176904,-0.10616518608581516,0.544580721084299,0.9928123131360915,-0.16563925108203625,0.793040252194293,0.09445350016208987,0.5606415064822143,-0.9647984746679656,-0.6726717453788369,0.9739275695634668,0.15302667447972418,-0.46617940789686985,0.2656338696771038,0.6720511658079891,-0.9314041387680086,0.5170022443118071,-0.8400167673081238,0.11764002177754418,0.14333343745364502,-0.7761313048080222,-0.4876013963891199,0.6456365108702502,-0.4073583452996604,-0.5592586442638462,-0.12425702303846231,0.3966910938716919,0.20871747434545185,-0.22387480513373148,0.5083001803179739,-0.4941693178816555,0.9945570975516722,-0.4951016649115373,0.9032237957712375,0.978588264425559,0.9519670391231623,0.37485805404133066,0.18369643631563348,-0.46684084249047597,-0.136157891310825,0.32141164658656884,0.7883144336574003,-0.437774323261253,-0.09467784574941485,-0.46803632823193747,-0.8830116800419109,0.6362280732189436,0.15556876415180443,0.2630042383740676,0.8685535238443658,0.03042967292965848,0.9819366009821819,-0.9245763672164531,0.862875541608257,-0.28474488914233864,0.2954786966068106,0.24819830304393475,-0.04806093361604069,0.5520709573999378,0.958617771956426,-0.6036508416773988,0.885736025816638,-0.21548368838405407,-0.4730986549859395,0.8214975725028186,0.9793704720117946,-0.35187166060873853,-0.36939300287952326,0.2871796727586442,0.7202677408793325,-0.3061383260908249,-0.6666861770985117,0.6268240751823522,-0.7462020869116308,0.8219217908670762,-0.5644559392540045,0.9500658185920052,-0.25986925757484014,-0.939352619433474,-0.6762469642219353,0.2395149037425941,-0.7588776702801128
Weights[1]: -0.09242832897809727,-0.5221294926116846,-0.4761059188638376,0.9191334647681255,-0.35797720651979426,0.187968684913576,-0.31689043218125146,-0.2962312639207725,-0.5770810123426285,0.6316254789156959,-0.42545861444690203,-0.5325070496334261,0.4356756207699308,0.0038083228300365146,-0.9645685599951859,0.0840081959422716,-0.4473761978779809,0.46885998056682765,0.005621076098466737,0.8683890913931602,0.5427364974947351,0.1746918499351906,-0.3028841499718298,-0.6448874742001702,0.8216257196951777,-0.9590462492588192,-0.7202889498883341,0.34541287801480514,-0.4919324393812252,-0.10870831418256666,0.22831792162187292,-0.28089713178616815,-0.8447731713972861,0.9400227898452538,0.8769446405940431,-0.9509691623742549,0.2976034913666563,-0.9397629927563309,-0.9938944540889442,0.44263831220690086,-0.39592989506010423,0.01649900480010502,-0.7290573137481964,-0.2983116560142076,0.05228268962925431,0.7863049627217953,-0.6137538299028547,0.431735737915959,0.9146343785871911,0.6561225464828884,0.5080235784445069,-0.14510694478876285,-0.7661061723558726,-0.627266761673273,-0.5970232615233507,0.732879821086712,0.7807546573601452,-0.8312184446636673,-0.9024922549270523,-0.39893095726097516,-0.09174236519808987,0.3376966898039433,-0.8042988245395473,0.531627301839938,-0.5966924427061773,0.8554385173392662,-0.6877338782361401,0.49565283092467705,0.1268636822359932,0.986400602379069,0.7864047045756153,-0.50761320512165,0.4627544346557717,0.5629827638915659,0.26431898645326446,-0.47376250730536995,-0.09625083631661291,0.9954275060423778,0.30282983617057546,-0.9646792430266176,0.6547075806440354,-0.15202468780429323,0.43077849942761404,-0.1480549858641136,0.3832681073729265,-0.6265751335893641,-0.5147909594302955,0.7824935902759869,0.5370460513686044,-0.8559351804926689,-0.7317238197344,0.12882193603032355,0.9627292621707215,0.4050365031720309,-0.46561932259500927,0.2663734151359525,-0.17920217066034771,-0.2606846155881345,-0.7016192133080303,0.19684417228998807,0.47403884095793547,-0.10940666082753181,-0.6951279443200342,0.9282337762081221,0.8697178419072731,0.01563678356615683,0.39213862055546533,-0.3290889362474386,0.10841425187346254,0.8767392457820191,-0.17086934259667497,0.7853271513177673,-0.1340482808342428,-0.9378130119004348,-0.05363853790501061,-0.9397176773937967,0.9069181903763293,0.3437561613245663,-0.8516408055329885,-0.970117309116813,0.3702294767695615,-0.47022746851212693,0.9586067795560727,-0.017201137271337763,0.7289063964952657,-0.32345582823154845,-0.4546528356057561,-0.9399777925930491,0.028599480628777416,0.9979414248894961,0.7054370574971803,-0.8355670401806136,0.6970467193504082,-0.8940143361194126,-0.4182461192513916,-0.215305476521551,-0.456896743484259,0.502544723219492,-0.017772827771386557,-0.6323686761932301,-0.018713754144829564,0.8142979768171432,-0.3259206615974757,0.6603068055865853,0.31493416210400604,-0.5170509710521675,-0.7371297831354335,0.9005422740711562,-0.5413249589229585,-0.5259016452012126,0.359455224759623,0.4774076602200825,-0.39381557308975185,-0.7197899862961495,0.8268951327324924,-0.06380294989701998,-0.08097509376366144,0.30912166451983525,-0.8043647915277379,0.19543804705679474,-0.5180384084163645,0.3773985389668578,0.6746190740335833,0.12750155661934975,-0.8287004175729586,-0.33530312186819644,-0.9117195680326408,-0.2400339447148302,0.5009050720841182,-0.817752779376578,0.5171790660904623,-0.5956265328431626,-0.6310621118752139,0.7904072387462981,0.04859644502801652,0.5559314999524185,0.8558019332075478,-0.7038479472035102,0.6608403290828296,0.22468261237631748,-0.6041421379177241,-0.3709806213246147,0.5993861911991121,-0.4533393651997242,-0.3740370492318126,-0.7854114973021485,0.5575898097934381,0.41241184205554177,-0.7073739295673809,0.6569567639203646,0.8629659016902191,0.23057732803175238,0.2924353691248387,0.7700920988666322,0.8816520729482415,0.6468655567834458,-0.828011000448843,0.5636106578463738,0.4890072231595437,-0.3497627160277975,-0.590274608218996,0.5223823961229399,-0.600362798012962,-0.7233945706801244,-0.042218039655567245,-0.05343275555803542,0.10307718227800752,-0.20222127285163896,0.2108967885952908,-0.7475566442353453,0.0626337918059562,-0.40566861745722055,0.6108048744981124,-0.05307689527307991,-0.20965564277201568,0.8225423496719301,0.7512908095603067,0.12621614183291935,-0.5059712283312436,0.9429015870871496,0.09121928880513619,-0.34026819157426624,-0.5194049130749911,0.8838894655387335,-0.6498804612317497,-0.7038509974739752,0.11193809803199861,-0.40856310977067944,0.9253654394272111,0.42120912278811423,0.38394250040126154,-0.707852220687706,-0.18991344629800724,0.012763731303937379,-0.17198164055381937,-0.13014415277310595,-0.7897965396320006,0.31807282144070126,0.5744789934169312,0.6579803253047831,0.08022661411526108,-0.27982484524519347,-0.8389115093673404,-1.0255933232805803,-0.4499429717877506,0.22784254631006357,0.5687862935710596,-0.6824985918041777,-0.04733042281462363,-0.9752119192738141,0.9114877581184206,0.08418375397295863,0.09163232384791242,0.5461056360723944,0.5590179951670664,0.7349367885547395,0.04883771311246632,-0.46477402900815185,0.9263082816853692,-0.33922971381769973,0.8434336332299781,-0.4760924593760559,-0.09704334535088706,0.7898497467212874,-0.10514871278662384,-0.18629701173555482,0.8351965548811457,-0.3570721245953111,-0.8676264425053254,0.899842824868236,0.5812058993519523,-0.5879889787520522,0.5206555206761377,-0.1968356499937144,-0.170354633176341,-0.6720299812369188,-0.5489151643351257,-0.5280926858671442,0.355446975378062,0.15167844255998664,-0.27067256871176537,-0.20556331016382356,0.6387673130439442,0.8797846420717227,0.5195202311271774,-0.6807630190281537,0.20045021139106267,0.2631871147375493,0.4586094214853875,0.09383734670668084,0.83864737520284,0.6834327251336421,0.405902076441499,-0.024981877974356144,0.8598974954432812,-0.3972708352607128,0.8455147931079627,-0.6481981007822516,0.08089443283672242,0.7409172957679419,0.4158628778588796,-0.06106136272005679,-0.8169265760001662,0.027055445605449036,-0.6025978548464355,0.49872502940647534,0.5939629513742231,-0.6969374211956456,-0.28391063459399657,0.23104797640398522,0.2838519528898653,-0.4352584349065337,0.19065334741417012,-0.20589192633107342,0.9314428548940656,0.04870696973461053,-0.1308065684398354,0.005967070689371216,-0.7028849903658703,-0.4161722052367915,0.6220178978966184,-0.4024091749742457,0.19226405519869041,0.040578745893197654,-0.9701169432890452,0.8708949896031031,-0.007792403025684497,-0.41477782185923817,-0.01338167724690373,-0.7555321556486417,-0.524129433898413,-0.9393913745597896,0.34996023650744945,0.6234950663631293,0.7776311811886873,0.799086935724638,-0.38863755361579244,-0.38828813256150485,0.4768855718322498,1.0105183417774881,-0.2638516186019925,-0.0882725628413582,-0.45290225066845413,-0.7878206172484248,0.7908291633286287,0.28893992441986605,-0.4649190683709202,-0.3542534461417563,0.03281404456082091,-0.18669507362499724,0.7075701267956785,-0.19372735474415115,-0.9757703659414901,-0.49443855403990183,-0.8465027651208941,-0.14576747597130918,0.7672462480669388,0.1556480538734631,-0.029062566390874216,-0.5162534702179271,-0.5177309110377594,0.040556305572649665,0.35475776314491303,-0.5251173775294411,-0.24482529388965357,0.2232433274496548,0.20044152401408244,0.5558059357649268,0.02735124428062253,-0.8596376899445801,-0.5646087398377272,-0.7547266421959616,0.5292112075027152,-0.6819017765243349,0.8982833212135285,-0.28427765866122123,-0.9805011444209452,-0.05047980178071917,0.17889404748178683,-0.29316715043992814,0.3448735590120292,-0.5912302690460823,0.5909255247870353,-0.8072160455869533,-0.452908764018342,0.6606371963722222,0.9980568517622558,-0.18500489237951345,0.48758352710287256,-0.03520936008319697,-0.9531819056501528,0.4571453600456683,0.6407712379660324,-0.006860957949823221,0.509249011757434,0.6842397305392438,0.5729824557857206,-0.9176275115672218,0.4697010020873756,-0.431859143857739,-0.9040979342985198,0.0342161252956042,0.6421128580813671,-0.11361692860514015,-0.6454483703354573,0.42955516345771655,0.25022527507252124,0.7266366288239718,-0.3319285722982552,0.46331892999598995,-0.1647225547059232,-0.16803996828566345,0.9518537396170739,-0.7660807781629307,0.12351726128908892,-0.9125099023396661,0.4925209616741728,0.1980109071349776,0.9371769316201921,0.09453337969935194,0.22518327982406294,-0.614553583606404,-0.9507778323957593,-0.94986722626519,-0.884229087207927,0.008520277334304535,-0.3443929756274534,-0.4266627262099171,-0.1539615127514808,-0.7692468489526348,0.16953124265006175,0.9505886596014699,0.48636555703569234,-0.3705480771606206,-0.3751083496818054,-0.6540050404013104,-0.23200316986533737,-0.3119375087625824,0.8174342612469597,0.1338119725167877,-0.5946176208856213,-0.7280831285374276,-0.8387862931604403,-0.9496752749894165,-0.8339409305872121,0.24495946208246022,0.5100673760800005,0.40684786970114706,0.8696185685087081,0.4217589140971001,-0.8272814721927426,-0.6553810376931826,-0.8507414985587048,-0.6009954289846945,0.40386486895548745,0.7748278999764862,-0.013412214012584902,0.6060260480000971,-0.22686719037172345,0.3642427273525936,-0.19328092831822777,-0.2768183643134397,-0.09050305475058243,-0.5556860012136052,-0.7036121772933117,-0.1163126942343652,0.3662523891354789,0.3651612034968191,0.6155276903005975,-0.22008720466813678,0.31738920089554956,-0.18249899949063497,0.3954774874241451,-0.1706243153524698,-0.3108552355835471,-0.04673772167728174,-0.7757697160242916,0.9988974425936572,0.8661489486071043,-0.15942163726287972,0.47013178722473414,0.22597750054019383,-0.28220123031667477,0.42928857412342086,-0.9462481946458613,-0.18868386369025086,0.806151801489895,0.09721255395057188,0.23656954699228883,-0.08784559800763672,0.38227577791612566,0.1865671645426026,0.918600747502134,-0.5333616603578658,-0.6538757397731211,0.7302370321310311,0.3730829975931662,0.7233185724145695,0.7690658034967127,0.30920427659989996,0.9211072337356657,-0.8283462328036997,0.7912857317325126,0.08970028678406972,-0.8956304834669597,0.35521752729789235,-0.05085852511732769,0.30566251059326466,0.6887085948552512,-0.5799718757262333,0.5209537874003747,-0.02844644398461024,0.7262350102491245,0.9468622764245135,0.9007509344317813,0.5677488669770727,0.9945354037034049,0.5171794165734764,-0.5967895327568984,0.46126051895568804,0.0658225838766815,-0.7533209833605974,-0.877534793296957,-0.2659766594682098,0.40366826477967344,-0.8603249672647846,-0.0701291718509596,-0.03312942840192378,-0.4814241573849663,-0.02783133044272257,0.5803198030126839,-0.49915353744251356,-0.7701913480508101,-0.4430723942085506,-0.08054593721430092,0.2984780200284338,0.43469176880768123,0.607484764949257,0.30067797941928043,-0.31605179328201405,0.8617512171024946,-0.4988131311492919,0.40805666992192513,-0.1864433978622555,0.3889069149982183,-0.5575345445658753,0.4581175273685115,0.9178693688135892,-0.4749135724411431,-0.24191620211888934,0.7436887572967732,0.8829156687205987,0.32877964681423255,-0.7007742361227491,-0.7408234273365382,0.6973965564638787,-0.9313998008066166,0.060875209542399,0.6859825000567281,0.9646105458795142,-0.574741069960753,0.9821831341749909,-0.21299100071796728,-0.2834600747020264,-0.16029063386856146,0.004820250909309435,-0.2710900460758169,0.15595171933129812,0.02583305041136664,-0.3967969835130067,-0.866997895096096,-0.6062784998997467,-0.7828267468233843,0.7224503548310647,0.5883014677860109,-0.4810431164482065,-0.18419007407294868,0.3142268343031268,0.374719011771626,0.0038102857595254122,-0.31155013167837176,-0.010684610815106299,-0.5576783202391482,0.7790329110711034,0.24638347292616203,0.7009542480581228,0.1720668157432539,0.9305518902514838,-0.70231165909316,0.2219948141006729,0.22986493410070663,-0.6261834407347178,0.9215388353548659,0.3253283046135159,-0.7506900214580357,0.8666348588749825,0.7057454714170205,-0.31507672547973314,0.9692189537767667,-0.6175487846710976,0.6881184528520656,-0.7270036088671477,-0.1208305377149051,0.8884639721093418,-0.3937264762588651,0.3711693767729022,0.7153779959367145,0.6336579249655739,-0.308312836712372,0.7104503250263865,-0.11474428657197588,-0.21908383686984134,0.7066369725887836,-0.3100390458991933,0.276160677557886,0.4359435408543533,0.5398614544141394,0.00797608821092921,0.4701564523718118,0.13875511807331598,0.8360660522412817,-0.20288195850177332,-0.14161476625878888,0.7926645317424873,0.36207964977782664,0.7467929015515122,-0.5300772605858811,-0.1319590129502518,0.44873302356303973,0.7093472031407659,-0.207877845928171,-0.9134806113087526,0.3180445672245571,0.024782840702950587,0.35997603934554795,-0.5751822643938654,-0.923882686497589,-0.47691051544477725,0.17582211511946388,0.9042678391115124,-0.9858664758437623,0.549880734435227,0.23886472696385574,-0.41276198411954657,-0.6632608993273512,-0.551051229029452,-0.3328204133235013,0.2315778812540592,-0.9395397772439071,-0.1751647453276655,-0.6672818257950492,-0.3062278557873304,0.2114726706276132,-0.1789130585327455,-0.4706309915732564,-0.1272579961467737,0.4080737733381493,0.09681886588324329,-0.4942016621167731,-0.1831237349756752,-0.10913061857930988,-0.13029465262023135,-0.7885811748838472,-0.017519887931542053,-0.12415447604104624,-0.23202623111755882,0.46885363267215596,-0.2795618471128688,0.3629400466396193,-0.13037380721903113,0.35982622735194214,0.01677196985891638,0.8321539730914653,0.5658886132602992,0.12462159391707806,-0.7138146821939455,0.5697719402819812,-0.7146155963029007,0.46925735547242264,-0.07794978274732453,0.08340973920292644,0.2151116612040208,-0.21615217988576457,-0.39130446901644966,0.38600078978289565,-0.8716032495124281,-0.12347598591591706,-0.5608967194710686,-0.5696359762592207,-0.5274914912196393,0.02667706545647998,-0.013347193060259631,0.9793968209900878,-0.6647954358089694,0.02428293275846305,0.1834360878837462,0.3715365395748693,-0.7253321342753862,0.7113924919214996,0.5687653317902075,-0.0199048617016081,0.9467414337893676,0.8686378346144399,0.19063467308442794,0.4669819108522413,0.3234458720886362,-0.12594592251160452,0.6588765250793083,0.712257680349172,-0.7542119527953732,0.29157794140818427,0.12574264366447108,0.6390365397739395,0.6171019028951887,0.743494787292113,0.6269695334820047,-0.9959288807045665,0.5405570252429807,0.5755815326965649,-0.25255122652861817,0.8754569626764659,-0.006329623519596428,-0.73378730180384,-0.10322393435203658,0.873301713668416,-0.6085433287585822,0.037375148868828534,0.4969494089004347,-0.4583943194981638,0.9411855060333318,-0.08535122176881471,0.2946111193367331,-0.42692512992160636,0.8999458858277396,0.9464956223715542,0.1486722245573402,0.36191501159310113,0.605227748679569,0.15005183739124428,-0.9361734119878027,0.25434267299917646,0.2336402811266669,-0.23707442415741942,-0.793271697803268,0.15664043404251962,0.8398179402350202,0.32420570046774033,-0.637705081905101,-0.40999932839069486,0.37485087261295447,0.14860107337525164,0.8102260929579967,-0.3022565354137945,-0.036056281549882274,0.6933083691137416,0.9864247618179884,0.6805287355932075,-0.028138231033523642,0.3173329594160117,0.07552523961082347,-0.7139292767801924,0.37710466858796066,0.11727084457747217,0.7710721743158402,0.33113926897344137,0.9969668220714512,-0.44733222641392245,0.7390906539461997,0.6706062805236346,-0.4034683319756148,-0.7124829514475925,-0.5703927341710742,-0.5887413907743717,0.5130978131262109,0.49310610047220527,-0.358183318450201,-0.769255199362177,-0.9422247092901844,0.7221900260644918,-0.9972801217796654,0.06212365490483296,-0.32491976922607035,-0.09305126270887032,0.16675480788888164
Weights[2]: 0.10442268527318843,-0.4031323452494724,0.609131151628276,-0.793362483286002,0.9600708605535659,0.4681434889641327,-0.6099467573733752,-0.712105210736443,-0.9254734022195793,0.7777558647923897,0.8772380044112158,-0.8836305634508052,-0.008146598473259492,-0.12270186148709705,0.17761921751202037,0.317914061862004,0.5902423623903852,-0.3083113624287357,0.9934690035849201,0.08733382406054702,-0.2810061924536741,0.39896748373236846,0.18464565145999456,0.47083761797791235,0.05149168756394262,0.7556799611801654,0.622753444883392,0.24967174290198457,0.3146130811956771,-0.9865984152940095,0.610990492445878,-0.529844068703169,0.9505160366885905,-0.02151225834224013,-0.7732834162997471,0.40009916732092354,-0.056463378042198475,0.5324531372322017,0.7105354199700689,0.12838817906025257,0.8974638059257827,-0.8582875234346313,-0.6632679885547925,0.7353419483338213,0.6158680960609895,-0.47455275499939586,0.2388913991110826,0.18047715219691263,-0.4554291914475286,-0.3151941836416694,0.47188129251444777,0.9833915932026653,-0.08652026629379028,-0.9205790161716654,-0.9264093748882456,0.70545520154082,0.41222200329053305,-0.8617064663496364,0.15514582915005537,-0.7956091006265995,0.8453900440807407,0.1403814997246402,-0.026718291932120164,-0.9388749869255698,-0.8332346276534882,0.40708207311438493,-0.8341466001393956,-0.9866343401310194,-0.34941844518735,0.777520050191097,-0.6256225600957975,-0.9422107748418165,-0.01884678239880444,-0.1349191754753325,0.18987001813476434,-0.42271866901904287,0.062235472287160976,0.4493037031261733,0.8549695219169229,-0.4739555574366616,-0.48321143793091714,-0.5577237073135207,-0.29489906565048685,-0.3701927351626534,-0.45847970780845715,0.6275988992432127,0.5566761975906214,0.8710950528602559,-0.09510288345399442,-0.4787386178405669,0.9878771640303905,-0.19475691169256204,-0.6226926919178537,0.5061445205966684,0.28299813497951165,-0.24291769379885764,0.16843076849748884,-0.7243930016292226,0.5685765759873096,-0.7912139770533955,-0.6404061548600002,0.22552573924210195,-0.4701044026157374,-0.23294924163862563,-0.6895716235458719,0.41409206735626425,0.0022383756014696665,-0.9516010908184578,-0.11044903430642983,0.49630929413079716,-0.3567802707463411,0.9629183001643598,-0.7166759882665593,-0.370898613413283,0.6876023373043176,0.40311375139426153,-0.5647194346248728,-0.6565255567694668,0.5196047208828873,-0.460833526896701,0.8504058755237636,-0.7052416529996515,0.10846854332297506,-0.8706798273467831,0.8025617298334362,0.5918536973660455,0.6992810620066987,0.47732039234805346,0.5806789242553738,-0.5694459523325088,0.40744679719368593,-0.21381296170933423,0.8807271271388639,0.6461834989703183,-0.8339911911106691,0.29081869678750133,0.9123806953022167,0.9380501759881388,-0.6806211116167815,0.1274282248352785,-0.374639476358257,0.5082772884090792,-0.01845591283331438,0.4085878224152084,0.8780416529057742,-0.9750411361339694,-0.4780809234260027,0.7482059214954293,0.8185421832923507,0.8798843835852501,-0.6781982591739848,-0.17221728900636601,-0.22291469245714446,0.05161019810180066,-0.6210240604375755,-0.9308899188784637,-0.8839325532985067,-0.6001919083149145,-0.022181528555417288,-0.25919580298581923,0.7288721348323147,0.5026400695623718,-0.5361943519820688,-0.5422223765846317,-0.9125412683526712,0.8565912553372752,-0.917808826974504,-0.36285948723687766,-0.5373492108366216,-0.6036604855226635,0.4907330560920449,-0.5027696106130115,-0.9832198112651755,-0.6173806758090343,0.913805949461556,-0.6578714128853154,0.3135383562098397,0.7002417211530395,-0.747796216447207,0.7671823474452376,0.06434844517058928,0.955076100233971,0.6780075094846162,0.7089992220962865,-0.8882849185419743,-0.4147020951595926,-0.9673566532736554,-0.1475269864509415,0.27686832068944234,-0.9173800648037138,0.17113588702783308,0.5122956507031743,-0.03935769621252905,0.5780848635258549,0.39381807455505147,0.09813084504480041,0.04196106877269279,-0.4752191665932626,0.32112909076787965,-0.978549602431501,0.9279009790635353,0.8655462303215825,0.2855551323320509,0.4227320262294346,-0.6082775079224684,0.8271890074139315,-0.19656961407183732,-0.633631885351659,0.11875576596794268,-0.9938841283902664,-0.2721426857890384,-0.6304188301276851,-0.9043035009261209,0.19030412783756315,0.6773583745105834,0.7696563230117985,0.8404853178782782,-0.26152318377868095,-0.6589963991560254,0.503564494430816,0.8259650589087815,0.2308741487706425,0.34933716121564484,-0.6389643101203089,0.2221338875694825,0.9789277855208738,0.5365880855995175,-0.5539893086785401,-0.027599329229189135,-0.20355722907253807,0.30016751834199185,-0.21137211574736978,-0.6188824663140328,-0.7674865505479729,0.8247177652964671,0.14668948067029763,-0.3855925925056541,-0.7987769096652179,0.279490675292101,-0.7481936070566666,0.738774922932372,0.6144167803647145,0.6824774090075869,0.2136536814907872,0.2812996555410745,-0.2641837740902117,0.3623602002964264,0.7479184538814792,0.8840061136912583,0.5924839198554326,0.2273676801600344,-0.7221568449037881,-0.820996449245604,0.8175645963370635,-0.8045146613402826,-0.2881064579301078,-0.49075232767853133,-0.0947128910369343,-0.7999312187544682,-0.5897764580276685,-0.7111524771573543,-0.6441790944801694,0.3543079172500807,-0.7486835024308773,-0.31808306752238513,0.9428499055772113,-0.9563224640468685,0.928408537696723,0.39055497043705334,-0.506248444123102,0.1018273156222414,0.5601962136223244,0.3932916600700496,-0.9571702822873493,0.7205264832655004,-0.8408353560794309,0.4951612779382435,-0.9222146300236762,0.011041828901992012,-0.5348952643270117,-0.38358058006669427,0.7886696317180384,-0.4379954223697984,0.4004469719407595,0.5593999291347789,0.0030920297564859603,-0.3905701243274706,-0.43881296619717636,-0.9656572164807735,0.08942735422893275,-0.4287830318536239,0.6679523698692017,-0.9937207362811286,-0.08046607287364389,1.0187800276920391,0.450075936851183,-0.7083783031427792,0.38306369514646704,-0.49738804082708715,0.3148203440960705,-0.31876825929980546,0.4339852560477685,-0.6433305001960892,0.35236407506855394,-0.5621293715956293,0.5908683601724303,-0.17322778011356843,-0.8803591122293655,-0.9029664312968806,-0.9636793052608517,0.21673226413164848,-0.5565027405020501,0.8835082104443494,0.715731712083251,0.7938041220390257,-0.5006863658785291,0.7641864558448539,0.9038889609989081,-0.34448906457808415,0.6616589111179025,0.350978909648339,0.49882144334300854,0.9057829549311844,-0.6963487621099607,0.869542451565708,0.3797140363182942,0.545733472213255,-0.49632767604143874,-0.9718043368221001,-0.713319675386832,0.856374851315209,-0.9406225438884565,0.522317620703167,0.624235779803356,0.7465004286479673,0.17337983715039673,0.4315586962884099,0.20964050256164768,-0.03199612676724606,0.9786786896990287,-0.8344172597466699,-0.5243697852190615,-0.5358465349002959,0.9709241675425186,0.8374322015421812,-0.8858849381411035,0.7687723891869581,-0.7037504378871875,0.11032681544869129,0.5230419515403754,0.6561707380018494,-0.6521784742873236,-0.3174824749338705,-0.192125817479988,-1.0142323762430088,0.21108954974554714,0.53015319897037,-0.9277923083671417,0.4459957461222128,0.00545875774950666,0.9885641038364563,-0.72147527882898,-0.9412904213840563,0.8046859287678665,-0.8215108941409321,0.15735480802010504,-0.0646615880842607,-0.7295185406382507,0.958494213818558,-0.3874810301039034,0.06432177970608119,-0.4670790305481897,-0.06470809097569659,-0.3259329762876272,0.49705826333803815,-0.13674539780392597,0.013002900395585484,0.9038524803959066,-0.6311524120870406,0.7042008469243503,0.5710804713261604,0.2454690331139794,0.40724719408763,-0.46816692126285325,-0.3559745822902287,0.5138665565965745,0.3334936600935223,-0.33939044984960487,0.5911876669112535,-0.49486606730840454,0.6154662536529201,0.35523248992638323,0.7619231574991361,0.9625451154832472,-0.9911250397521654,0.8982670478030661,-0.598889993820067,-0.3505615946288366,0.8148123904964127,-0.3198939583671539,0.1774413449936258,0.5050863168773353,-0.7004791002472905,-0.5513000527749429,-0.627790120401002,0.006154779700955171,0.2922582973906473,-1.047488339611446,0.29427531798247913,0.1323603853726228,-0.8000198116827295,0.6411296286597209,0.6818610898155433,0.7101762267880943,0.38004026668765983,-0.3145091344204308,-0.1607034630890486,0.49689598916885247,0.1476761750633251,-0.33760228629112354,0.8221395489862839,-0.7252711382346559,-0.30194583316424206,0.4656312178317905,-0.024893382094299515,0.6845588709927971,-0.20724618250451712,-0.04733314827916747,-0.376023998843047,0.4954016056982454,-0.6515615375507042,-0.7300534349456103,-1.0137262885738345,0.6019935464017113,-0.5421184305663528,-0.9373207902730484,-0.0485775406049003,-0.047543461241927355,-0.8952322719532535,0.5758015077625473,-0.8362843330442841,0.32301078706717024,0.2958023655065352,-0.5778914976762102,-0.7231482172958312,0.9446565806607978,0.6664004873793574,-0.9504867335550891,-0.4192255788572252,0.32338409466826556,0.07773088527737682,-0.06581657988290146,0.4977505779235673,0.13625107885872856,-0.1080418256468844,-0.07621606780134503,-0.25236990200184023,-0.248129762556107,0.42566433467950143,-0.31645290708450663,-0.7770777632404932,-0.66131532951156,0.2850044872483554,0.7491064833954778,-0.2786408518505752,0.8649868120158033,0.5756308734762958,-0.987601432964185,0.20900232235551422,0.27593313974690553,0.6930790839270202,0.8886633822175969,0.36644518159630013,0.5427993086831642,-0.503542466789271,-0.5030960736345016,-0.022380153193315544,-0.7240543354880318,0.20647790152881207,0.060301450574910875,-0.9538780394726796,-0.22823142503771532,-0.552917492548293,0.37938797276920727,-0.49836432013600557,0.4990904492971049,-0.15762013791492757,-0.08825127025641405,-0.26087225494861344,0.5516940155081792,0.24935363522433138,-0.8689896463457524,0.4656077746425525,0.3974845022024529,0.3453546415065708,0.8294696934253811,-0.9803471376931038,0.5144423765446648,0.6860195347157427,-0.5977388267359122,-0.6585074338367419,0.6291269714148375,-0.16159003468304411,0.3032098167125181,0.630199066191073,0.18906750305977993,0.5677382385207983,0.9689920525853486,-0.3393222639985952,-0.5831031827574349,0.980849668242926,-0.4564261506656647,0.6200472061468668,-0.576502789458494,-0.32589122598267417,0.4605460728997727,0.8742374016040085,0.9210923248472486,0.2455143962024749,0.2055712458202471,0.05200237298171007,-0.31329273419678055,0.2698752010891619,0.6631139622345893,0.9950565222687717,0.528684462365074,-0.5779484437492374,0.9552190383871239,-0.8308864098821903,-0.34837530522997273,-0.5236596602591033,0.46283125386705204,-0.4099732122430453,-0.19570854082503752,-0.28111638467810884,-0.5830050108875171,0.9333586096453288,0.14521976940410364,0.7513462546993359,0.3124684500968926,0.9291097879199413,-0.12713915204564494,-0.7486554797123824,-0.6774421136766963,0.5622935379543934,-0.2510816688871601,-0.48735743688430644,0.011863530158472965,-0.24379972927107865,0.908168776804242,0.9431324961726408,-0.9069922166396952,-0.7640826011840639,-0.5514288941772508,0.3696210720832077,0.6488892699285361,-0.6703277967505591,0.1693412517985986,0.3084234955294167,-0.8981178421052721,-0.2325997227954677,0.6129035305291897,0.8002185643651609,-0.9909469587686225,0.9405519021398163,-0.4808663964194961,0.9549704414509617,-0.1853464220485563,0.7025474060753815,-0.7443090393778734,0.5274306168839955,-0.2696694482218361,-0.8260682967738753,0.9502347613052313,0.27120954540757736,-0.8729680051830698,-0.5383782342104492,-0.018046351736829457,-0.9180922817143164,0.24635694343533526,-0.015591396491784315,0.37800661724899265,0.21594260782745778,-0.746169861287889,-0.32037025006505204,-0.6214747166361076,0.22691385505111605,-0.8584085823308716,0.43494490880283765,0.07026886710443936,-0.9126207846741289,-0.23598264215326992,0.8366361362098884,0.6500229489682744,-0.45354825980108116,-0.6839397525703943,0.07120726041651008,-0.7591801171613468,-0.6178152358630404,0.04341018073622158,-0.21745328612374687,0.7046230774574082,0.29978946900751,-0.5499868423526048,-0.5932855787381398,0.2467171233181429,0.8998860209312773,-0.7398990889689737,0.1419197438014297,0.20934005417364654,0.20556958355268917,0.350974652613967,0.06065497037985135,-0.9490666845576217,0.11747355438651219,0.38939365995553965,-0.6030390772982682,0.54638842565305,0.32942329129642967,0.562026618775924,0.29190704659181965,0.8137487306307699,0.3816489402437203,-0.36567200413203516,-0.8311206313340427,-0.23645003686318716,-0.10754708445837845,-0.47777962403842167,0.4174788007366785,-0.02131854163192908,0.037531291012020816,-0.8314308002411023,-0.3844386400493338,0.06972044007486963,-0.551201668144729,0.23911621920862686,-0.9612020589230592,-0.26722610800863533,0.8646106505136055,0.43541306696618576,-0.5482656823230282,-0.044514074476675214,-0.00032832613230138197,-0.774395145370809,0.8646992835517504,-0.26359543728809587,0.7033623874668788,0.7857028207675101,-0.467037096034073,0.15941412965313137,0.9234430294915363,0.5285753034606998,-0.08690568050979146,-0.17990006256038107,0.7511805235515527,-0.03108181200165379,-0.654624070911654,-0.29531659964957835,-0.7309912608676957,0.5903783591767198,-0.6367861681508468,0.40821003933635025,-0.1730491434351841,-0.8645839683625814,-0.8780516106067465,0.0032293000273542205,-0.24734829424291305,0.993530219417778,0.5752839220572654,0.8603048994486708,0.35059571887859886,0.664187030710367,0.6817777751394445,0.8940102243302437,0.11029230109895227,-0.6635788789315051,-0.1843385002373602,0.15885180555814027,-0.22778754981801433,0.43460595192705814,0.06062178211643148,0.10785954042283749,0.9916027082934037,-0.7386909433953054,0.06733226859312749,0.5611652590153577,0.2692134731781571,0.7244087294234098,0.27668611991268477,0.487333484828115,-0.11831724932363194,0.3157198945054391,-0.5820506548425419,-0.7629023342220589,0.08233850965385248,0.046125161017349425,-0.8984339823473403,-0.1537967934989356,-0.8963435347640624,-0.13853001647560392,0.9837528569548171,0.7098321680491009,-0.7895811012897552,-0.32793617217239746,0.8069920687968806,-0.7430836035604977,0.844448630625591,0.017271365512754544,0.7079992544408884,0.41323336279635936,-0.8462154128803944,0.18939790836973014,0.935541829064275,-0.1171150594563759,-0.4338351446214025,0.2081539339631507,0.36272383440867334,-0.4424776312101405,0.08376032186940938,-0.43921686962210427,0.7121706063450177,-0.027379685559952516,-0.32394004767944107,-0.9323886213509313,-0.05134725433371368,-0.9831766113560538,0.24623768555290892,0.4446801093615034,-0.1883282853236088,-0.9358328599183974,-0.7651448965841647,0.9679890563562461,0.05246212754978896,0.9080137982536172,0.44818674933546543,0.34851194794686147,-0.10497959382132604,0.31674925392342224,-0.5470718348152339,-0.18956854715457583,0.7167166283897668,-0.7262126718304178,-0.9279678631238489,0.9012328909397543,0.3223458159969686,0.6681820049127256,0.38921846108705843,0.535064404613834,0.6679287970382388,0.834703257230438,0.6293290861087522,0.5075663437636413,0.7600825884193567,0.5428733348580419,0.14929937717937825,0.011132542514769694,0.03377221572854183,-0.857192479938824,0.7234110821613162,0.7901686801529344,0.010678710886593334,-0.6002314787359124,-0.7944003491636367,0.6438321143592858,0.1783782593805241,-0.8142044692366405,-0.8630642191800588,-0.9724719691893421,0.43469819120815867,0.22065692079284083,-0.6473851537552593,-0.8999531790148249,-0.8589284912957477,-0.7243108347637164,-0.15593349801187095,0.43838327817543554,-0.09941182243610347,-0.22817695198030075,-0.2862765776395223,0.22639850025363195,-0.3814071125264312,0.7111732809390747,0.7767513123232646,-0.023031542554046713
Weights[3]: -0.272711240347806,-0.7920935320631105,0.5095887926917471,-0.2412855789257612,-0.5629457931793043,-0.6852602677816806,-0.24778711388250207,0.593338171762106,-0.3372405149681682,0.7997527419588308,0.316948107125679,-0.9318123226667812,-0.5717999774831347,-0.27414135507966453,0.1680924255252314,0.5853184645927132,0.3707024703597195,-0.8996337865943247,-0.552728123754602,0.4820884109856973,0.5292822651235769,0.36649483505938885,0.4843934231830731,-0.30119316713008715,0.7109160990039427,-0.8894556350491268,-0.7380508322911574,0.42908409770069844,-0.5029874180923157,0.17157579267936574,0.2995054299475184,-0.37698279105917676,0.22863119339040994,0.2089940603864351,-0.5489105002716699,0.97788906282647,-0.3726530118718059,0.2688136097364191,-0.0023560156125370657,-0.09408281142547859,0.6004019601272428,-0.493291350776931,0.47831202367242054,-0.5240635767225472,0.5271183948624498,0.3701956008422167,-0.5276118449529688,-0.9540355969006361,0.5456309968352462,0.6410800356609188,0.24789041711384918,0.6108070675333994,0.32947943607786634,0.4948800464602561,-0.09444421115072643,0.3607939245928051,-0.2764869552461835,-0.1892180401781658,0.047798322070295995,-0.6734901581301773,-0.9472094354905232,0.3231287884167995,0.09632558985442174,0.4911836923524662,-0.49975268798868766,-0.30606910181514413,-0.1604435160571912,0.2192059621304301,-0.7252308548079947,0.19020336269876137,-0.04202852353548092,-0.8981111393766995,0.10272222901821237,0.5413546876708766,0.8816864508584545,0.022573615900507882,0.8881828113869683,0.008456999905620322,0.17168843800746303,-0.659279501838274,0.638156209903842,-0.7840152353905212,0.883453100865452,-0.1440674537532346,0.9236853755655166,0.688698362414119,0.2935377728629567,0.7337511469301541,-0.6965617284628385,0.09029557513552522,0.25437601807265353,0.8165650283063599,-0.778984712333877,-0.32886585748235964,-0.14687337593495542,-0.7227268282895567,0.4103830593686473,0.9871283313199544,0.9756891112661403,-0.16681250332240594,-0.469360883100592,0.25318219291660116,0.7711952579073587,-0.6445723658635152,-0.3168914408036002,0.14600155649054858,-0.49191516148481296,0.7881247484069898,0.6131935956018015,0.8829821729487657,0.4726111132058366,0.7150560448481962,0.6390935218143712,-0.2929221760914299,-0.31164636803401935,0.836805799899998,0.43967568755134745,-0.7596069563923435,0.5674983167869496,-0.18845105040280663,0.4003931253218991,0.10580533701265482,-0.08423230940673143,0.18447357005648013,0.9358272658921406,0.1414063096949807,0.8808734583856834,-0.56684721383976,-0.3068937026236126,0.6121755001791485,0.6170687903024177,0.9025885158439167,0.03276788863947977,-0.661499058670131,0.8009813952986111,-0.6241741170503485,-0.5552104932978799,0.5280254667289674,-0.8271760129496344,-0.22231618092503225,0.18061352389893193,0.5054130244559669,-0.8794424486716476,-0.5795439014116042,0.6176844619296884,0.5393199732244573,-0.8225284935080113,0.5139374637575529,0.9827805105516596,0.016320824165046544,-0.16240251584090415,0.16978109914109482,-0.5806974857573318,0.16295467214662615,0.43200431626783287,0.4303456479680765,-0.6594970291208979,-0.40994202315873157,-0.5779879256958735,0.5468902396017692,0.2593790741639954,-0.9382112511762803,0.08114640323446029,-1.0020389954231899,-0.7292083835830951,0.5715566331388227,-0.3177118437912836,0.3005925804845022,-0.10300355735374778,-0.6966203850212602,0.3920162931978779,0.91165022082238,-0.9326577967965025,-0.21048187521797188,0.6309354256982613,0.8949801008659322,-0.015567802482553465,-0.5059034997821306,0.5634694670916873,-0.6089107265651019,-0.041966927594412284,-0.639920948969393,-0.5518843317756847,0.67280196920961,-0.23196998799157648,-0.5569970050386482,0.48278414269947995,0.8712757830195716,-0.10782932952310767,-0.634575494024277,-0.9696133032569121,0.8521871630747628,0.10842517721859046,-0.368878123987875,0.5125558355415964,0.104116771884317,-0.594483660345191,-0.888222765125438,-0.850335517828509,-0.9538721712091343,-0.1434292075419656,-0.12371747877748278,-0.38305897888869933,0.6780687682337234,0.617834198176776,-0.08190939157537601,0.09415750050041527,0.6221360296234658,0.5280784560322875,0.5383908433469627,-0.5586117896713454,0.8445563260927782,0.022244906438043523,-0.9768965900811443,-0.4214126062751581,-0.09536885217686243,0.6225565737334428,0.4159147007144227,0.23142986646632363,0.8285910756460348,-0.9098678323951865,-0.1863395707618164,-0.6051139894896718,-0.4882511587293126,-0.7441798996851685,0.5339484743466361,-0.19677495639621045,0.43644718054516574,0.2764536986569294,-0.4737777509710254,0.4894637612111232,-0.12701880209037292,-0.6603066837846658,0.5132878781037588,0.5322653202139462,-0.9141061106267959,0.749492128571955,-0.23681881561567167,-0.9490890891598149,0.845328615959994,0.34134863253235087,0.8532612473468035,-0.6600176026960413,0.3709315306300826,0.9410157721903604,-0.8018470020087284,-0.16445206390854983,0.0853322591098642,-0.9466452933599452,-0.38563603879215014,0.4764275958186144,-0.02247310570556349,-0.1301872865903132,-0.6789265934745439,0.9559956611860523,-0.9566286122224427,-0.5188193658664191,-0.8954042249443552,0.42358079525808834,-0.9096439433794673,-0.8794526820453554,0.6623963540872412,-0.6469095365781707,0.009632609166193584,-0.9583019911445051,0.5583605029960846,0.5004537702663218,0.5028797783977355,-0.5097588248624372,-0.505405165756427,0.1513957685499358,-0.14853041890976704,0.37462604487910667,0.40094744645888564,-0.5112269873608442,-0.761476781108173,-0.5217625617616636,0.026993711025916856,-0.43391276590242644,-0.9496365040306172,-0.304186764780519,0.7178927844939254,0.3830924739051109,-0.3372736095902775,0.04949462135534607,-0.48865953786828326,-0.9963421625999465,-0.9754262966920744,0.5646656181498737,0.49894069421965676,0.6153710771218381,0.6513809155745912,0.33918204407350744,0.9489080642581779,0.7149692665936657,0.6758822509467268,0.5032002330165669,0.3310004556217222,0.3189025563948642,-0.6313202108912129,-0.29721013860952683,0.3410376560475547,-0.39675106883604766,0.5626435529266687,0.466167174962427,-0.38185489987109555,0.5971401574076807,0.4687167235970109,0.8322619124465911,0.7174724422942254,0.5651339495392209,0.45456013346390195,0.5381755787775057,0.37262089450373553,0.39454282140105157,-0.595170564760999,-0.7152786760180297,0.6961967533193046,0.9659311886409477,0.5346235008838593,0.5500696770205683,0.4586357555948221,0.9330584916733358,-0.012790578654652617,-0.11377148458641487,0.5037735674780071,0.5059706700122697,0.41092583208437183,0.679327776100299,-0.177686580589772,-0.2554665571067384,0.14920052939523032,0.7074519208201449,-0.8134589296828298,0.34136269210901227,0.3569492964804868,0.1161778891068781,0.8204489209784422,0.19672752600010845,-0.5683358112182983,-0.08613265745652854,-0.4654979572042966,-0.8076882091386655,0.8480514496280582,0.9377235091746023,-0.8409430825288876,-0.887436090524634,0.9633634794089417,-0.45377120192502995,0.3039244442212141,0.38805546362761695,0.8083190887418288,0.37290148449950583,0.7767392065209777,-0.19462152763689963,0.22566867859806916,0.4105244371441154,0.6218252196504356,-0.31702176109526514,0.9627732969647149,0.10568848955709886,-0.8259999276259914,0.7857670457036081,0.017256221276361616,-0.021998682535252834,-0.5840665798560095,0.7475472836510964,0.3519821063411446,-0.9690747597858408,-0.9626516230585318,0.2887332615306812,-0.5346339421602654,-0.49804681446912924,0.5300368975170746,-0.3876817788145237,0.014322189305119257,0.2706726239564684,-0.9196040329054629,0.05038742982670874,-0.2683736094485831,0.3895752522543589,0.528056128711318,-0.15211052765815367,-0.6354722998130928,0.43137731343303304,-0.06218727522917059,0.7821413842434612,0.9243237729763256,0.3694525125294237,-0.8957560145742055,0.9526910399797797,0.501976190834295,0.14345342160363383,0.23395422903539353,0.32655746830932686,-0.2597851319497275,-0.2517552988661004,0.17474456095477345,-0.13069578293608175,0.5222060038334351,-0.5933037451789013,-0.25445720414028067,0.9270932504127127,-0.4879059232562721,-0.98464083122651,-0.0789023217541289,0.3098533483287529,0.8416589526617649,0.1457456272947308,0.7744059211885278,0.9489863530558247,0.31616621980920884,-0.4346640563129834,0.9491735625443702,-0.42890919828286356,0.5658404648144917,0.31356381779236897,0.4161342444904774,0.5931750282613444,-0.9520798669904842,-0.36022522456954476,0.8232235106747707,0.9831113628964459,0.9270617829947277,-0.9160232230996881,0.7858081900583361,0.3206350144631385,0.26252060045683584,-0.806893291417442,0.8716379010900243,-0.7332993095300007,-0.9052101073193788,0.2067551206120656,0.5296218750683219,-0.6778862663322905,-0.3706583716499465,0.5815151683519441,-0.6823373712865042,-0.6597532047632853,-0.5056557800470983,0.6214296674526658,0.9345973666424204,-0.23264669611491068,0.5798804469312915,-0.8533044149416054,-0.3641547101382887,-0.05568252739295476,0.2020420800904008,-0.3311231524362802,0.760717003494835,0.42723281934262847,0.3330398236089571,0.5814451292413515,-0.17937590435444006,-0.1269666298481404,-0.42538568326511345,-0.23372024982908293,-0.9949916176760545,-0.561102152236662,-0.7632612722174912,0.6007608397552954,-0.9550246584029484,0.6403185490014337,0.270102995257911,0.4982582572057067,0.8340851497120617,-0.9195364358977537,0.014059784314640384,0.6167088491839924,0.9262706699088264,0.9671145873078447,-0.02176213125780324,0.07116677382549597,0.09758594962655853,-0.5657057387594626,-0.2870910508963703,0.06041095268931751,-0.5967690840348457,0.7809150366955042,0.4490571950790738,-0.1576421173092174,-0.8830631179190535,-0.4164020765841789,-0.5654991598390873,-0.5425430998929298,-0.052951264111582144,-0.476125021779733,-0.6029699396648686,-0.33581182097009354,0.744609194720992,0.8646125829693686,0.5763523658457778,0.8851119466501971,-0.9128202939203773,-0.12569897766106317,0.5579511751486399,-0.7183260190935816,0.48557492552733933,-0.9308918733985864,-0.7059985522489834,-0.46244028593544256,0.9281649374999874,0.5936982843995553,-0.25163870549371403,0.7939705847734448,-0.5510050493995682,-0.7381269502165387,-0.51570540830293,-0.613022535859152,-0.8376261402826671,0.5170879320861136,-0.6251268102025902,-0.761653060836021,-0.008114888959968243,0.3957184106862916,0.4925425066353827,0.46471966163574263,0.2056922806599983,-0.18372281243801433,-0.439428138972392,0.324887926714934,0.6958343832471153,-0.6521299773833962,0.8541330899806061,-0.952948478991236,-0.617534355265253,0.08486587568990253,-0.03406458618196896,-0.7869447855461523,-0.12185669649478825,-0.5618556568221449,0.5782893139767877,-0.6654198894581851,0.48725311527366433,-0.08816299265630678,-0.08580705480920481,-0.47676140231860864,0.8424698130022584,-0.35313880008179827,-0.9863807100140928,-0.3091070028721697,-0.9615356723321986,-0.989556749115478,-0.4956869468773541,-0.7716369447240257,0.49327636933798913,0.3387620212237993,-0.09894281898004954,-0.2897367613655424,0.3923799820995087,-0.9153613961444034,0.053574715950275936,-0.34498180418507285,0.5033404550761325,-0.03549030723093026,-0.16320875220402903,0.5785129410425098,0.7391289331666795,-0.29761515431926355,0.41317485524954956,0.36587521031772496,0.29768377137262547,-0.7272154315035861,0.5088341606356364,0.7242087292132009,0.9418581205612647,-0.9644403208776067,-0.24698095494154768,-0.9117858394749283,-0.5126061686999667,-0.02813028989009835,0.619305798021835,-0.4406989008843686,-0.18890954815153507,0.8817099242412637,0.29246260088506854,0.6903750931154836,0.8436726943960451,0.6170057456982659,-0.4624721137993061,0.027073360526502777,-0.8208477626651748,-0.7471561244442855,-0.18198963309730853,-0.21063629128534178,0.3790063631623082,-0.07672888183813953,-0.16814365385479468,-0.47600933791883726,-0.9237070008757091,0.33593638117235924,-0.21589033548528813,0.13935741090185827,0.22962003148671925,-0.35831402014437097,0.3938381232184584,0.7735928596778916,-0.49194663474010164,-0.22011231826383934,-0.7165891297923933,0.46379781622209904,-0.39715848094634026,-0.17486299301037123,-0.7700141435892212,-0.5753335991012338,-0.5385558813521782,-0.5153703020755409,0.8321560218863403,0.6202262740676414,0.6712025886733097,0.14383928717292815,0.7322392797713351,-0.8805481222833265,-0.8358443071301301,-0.6138985052769531,0.18672297298289964,0.044839895816910946,0.4547742015937224,-0.280529548079022,-0.6547976339491073,0.01732171653645187,0.19930198144988168,-0.7793866747346777,-0.9959172403923492,0.14672499420624954,-0.8151783044469642,-0.5247182801899345,0.3310986352196039,-0.8244420085432701,-0.502556512631381,0.5284186098581795,0.18987146318958975,0.0654463450470497,0.3247151198646819,0.061764168501285216,-0.5822336190788094,0.35449835255485884,-0.9770623799306631,-0.6061516169487273,-0.6737867797137176,-0.1070090006603901,0.09076383946964706,0.2116300720775639,-0.147211926592147,-0.06754628804863727,0.6036971014010242,-0.33534221320196156,-0.024798281968011704,-0.15826758522778683,0.4470489335730064,-0.6661012977345746,-0.6967156071948255,0.7773219097804585,-0.566085687909892,0.2705684093379765,-0.7372699032462451,-0.6166682387791055,-0.17866854792889533,0.08428059918894305,-0.7604921856084967,0.9770892456482326,0.1416034063851492,0.6477806321313203,0.12291474752945165,-0.8553022406321495,0.9532718639603219,-0.33409564445451634,-0.20592571664877501,0.1014621383983001,0.9677752982674983,0.832224620428041,0.021902275747573974,0.06092581854244972,-0.6067427683653044,0.4522113667112828,0.926557877066805,0.9850279464295378,0.36131834256360595,0.06365029877873697,0.534361311022995,0.5135116261351278,0.5059885372780347,-0.5040023624253923,-0.2692315415623744,-0.8442861088691018,0.21572399568544887,0.40907412929265863,-0.36725209235571493,-0.9506933331821367,-0.2126234462222028,-0.9703657917356641,-0.4676947287158397,-0.06146586922065633,-0.8450855928683121,-0.6506655726817742,0.7507690972419312,0.4420501624429831,-0.911844490986245,-0.29190968595999744,-0.0208181520089592,-0.0622072541444596,0.8705835034468135,0.8737395796336884,-0.12454763852271611,0.6197697220462233,0.31900360776065084,0.2498550150775607,0.3884096142781943,-0.017731372740925955,0.3504198674813006,-0.7135450326435012,0.01956615178825616,0.7510663586440804,0.5425978244946328,-0.28156474424047173,-0.5332514573768588,-0.3570568823552758,-0.08221735605494722,-0.0323150850952902,-0.07102623631759841,-0.45562871333939425,-0.9659505747100108,-0.25432556646611804,-0.6860511692641541,0.9372117230376282,0.29935953360952405,-0.9166318550317697,-0.09398858858923831,-0.9560771956835301,0.7014422694693516,-0.5154922853761783,0.900569770438862,-0.3398938446025801,-0.9086149408987793,-0.39598708106018,0.6499867176869822,0.6373303977946427,0.6251134405029535,0.11202953714506214,-0.16315778026504335,0.9658689806078882,-0.9795090369784781,0.6495863029964204,-0.3019485166902184,-0.4981908994697975,0.01228444096889605,-0.21798676890434984,0.395936306284711,0.43655065234589885,0.8835256117785004,0.10911299712448996,-0.4748642553923951,0.12052677344555351,0.779116550357601,-0.5651894386695648,-0.09625667943444882,0.12490906991293138,0.5597907488978424,-0.06175936156034445,-0.6795898115633008,0.23563546279242042,-0.6561563963332011,0.3444868099617244,0.28082635778972254,-0.1340878471425212,-0.6141148030823631,-0.6405400036091637,0.6596812995428598,-0.061415094445187224,0.06837703709880683,-0.1715215822549172,0.016542659614487754,0.8048848806903162,-0.8692134841667551,-0.036895216925486585,-0.47611967636091623,-0.6155368777064313,-0.9523055488021605,0.8128904904298906,-0.07378570040398547,-0.48243919456491213,-0.3125681613164806,0.46946075906486295,-0.8396028074620305
Weights[4]: 0.9593719700162169,-0.21995700300669163,-0.11901039496018107,0.6565744977707857,0.7002695983742688,-0.47492235222594925,-0.9224603511031998,-0.3131271979367022,-0.20838065129163708,0.6012067569425361,0.6220253769410893,-0.32399584694020256,-0.6312400547933019,0.8320678294785637,-0.8848268566116816,-0.34846257294922256,0.12211742863157649,-0.5426485992701019,-0.631826384752908,0.0550471940334174,-0.907429662489998,-0.27974913608271124,-0.01025974238769134,-0.18398823271691256,0.9109302376913513,-0.48071980172801754,0.07721461871509194,0.7469002584679518,-0.987973661156359,0.8028493830016112,-0.4517963758910989,-0.12561715539806395,0.18408961742375496,-0.31150291455513934,-0.09345981715873808,0.6058421999243284,0.4784703913510173,-0.9968931982279258,0.23831530718054394,-0.4567006106752439,-0.2490612311517174,-0.67033014244881,0.013265531981953238,-0.47042024110929126,0.34107940613342413,0.8478761705792863,-0.9842968229131293,-0.7843733782807241,0.6977173470415721,-0.7253231274547629,0.3954433768035115,-0.7699195620463787,0.10128714381777093,0.10534999850455207,-0.5002410651651402,0.239121106098928,0.7903027393809998,-0.9350221622432685,0.7456442600794342,0.18098940010228626,0.4478630290589589,-0.6693606095711517,-0.3251535367803432,-0.011230034293248314,0.053003132833635114,-0.2523574676608469,0.4919145356360426,0.6802628597618374,-0.07447235336269831,-0.49066905653601,0.17306703569976012,0.11901062685950214,0.21903609354935405,0.8248742259223361,-0.6958915748148652,0.7629004799588119,0.7069853319353356,-0.5398395012784002,0.4749323611496632,-0.936945932887935,-0.4964229788148883,-0.138412003004184,-0.9508170885736202,0.7373494662984039,-0.5925939938019003,-0.6818768138447202,0.7730957007841652,-0.9212603810807971,-0.8112618493899991,0.6674190767423338,0.8155394605433286,0.41349255359428594,-0.7425374583073601,-0.9426740929217423,0.09543636026579727,-0.5797006215805656,0.6548233943315331,-0.9755044337247984,0.47657662605707385,-0.4065631262057289,-0.644038365056756,-0.6645596826749667,0.29009897508197424,0.18838640357758218,0.10160983684547698,-0.7235672500559908,0.011044344404267381,0.2764129178954349,-0.19875842668058274,-0.26314154512395227,0.5321357741635926,0.3301422406593999,-0.4099545233929318,0.6825901929673692,-0.32258762108282546,-0.4137249679368571,-0.7185435209975315,-0.06250300307874712,-0.41863604049134817,-0.2651200533216447,-0.02545316844501211,0.4131749167168397,0.49152470915183644,0.2581085698949679,-0.3107860968570601,0.7515242555998246,-0.14511308264761566,0.1607248983028671,-0.2705828142615315,0.883776140984116,-0.8919435942907911,0.6824832625412451,-0.01641612733547393,-0.11850451264460782,0.7259190367186089,-0.8129370799258474,0.5714890219138418,-0.13920349215120242,-0.36426037054707316,-0.8690267437459094,0.3070788417510124,-0.5033172171112696,0.27749804559978575,0.45187969573395304,-0.8647166974212587,-0.5146027801160713,-0.17655292301278236,-0.4251276512747294,0.37991352816108304,-0.49083867179734575,-0.8611571005830342,-0.28528080903584674,0.43438302062044126,-0.26545487087400355,0.6136024692522344,-0.07075489125847659,-0.1607646201475504,-0.9837666515748579,-0.5161869310029757,0.3432907070765312,0.43633549895182827,0.9021243729823046,-0.40625380250787824,-0.05730766428505216,-0.37121863075123107,0.8496460085034585,-0.6534416320051261,0.708549989251676,0.9754977607985482,-0.49072432494290374,0.014786010149301143,0.42065997115367093,-0.693980759136355,-0.5440413653741378,0.4278011049273429,-0.5221359513337426,-0.8619563829320008,-0.9593220025875164,0.12439947945007106,-0.7892174940527817,-0.06426823720856335,-0.701735914056175,0.773224917501055,-0.8040780579324872,0.7144335182864278,0.36438417850865473,-0.7827963726575103,-0.7673771532044336,0.30473805519364555,-0.18357660990758767,0.3658034612017282,0.5531142778840031,-0.6337984128081232,0.29370427471292415,-0.2839114085230564,0.4577446838178414,0.9497077306498343,-0.6399344809539311,-0.17690167351481578,-0.7143627059247171,-0.8524999215333681,0.1261016903716131,-0.4006254120732776,-0.12549646184279498,0.5131515025975584,-0.2693381138468972,-0.5750619243739188,-0.004219748098648167,0.3013515227083703,0.13393815038296908,-0.19508784752837546,-0.20056780536429014,-0.09176033501573401,-0.7212422652389562,-0.6176794292431168,0.11310398128818915,-0.8968542400178492,-0.6372628950891193,0.19444060130493265,0.2380306810317705,0.610287849609874,-0.8953288252909336,-0.5540554558644329,0.21119204685613147,0.18505457937021497,0.4752873934224655,0.054458383961794254,0.008053092755402114,0.7494248883416418,0.9812610237455742,-0.47184368198357696,0.777031399641553,0.23382393237463206,-0.14980643461827906,-0.9451234505179523,0.8009186798669462,0.68214200101957,-0.06337754707818899,-0.2694594913270738,0.020871432182357236,0.008031112364570337,0.2871160050773256,-0.08651426898380206,-0.8838527804559927,0.9961114123539374,-0.45756310171679343,-0.367464297518986,-0.9199990704283114,-0.11220367490882222,0.5878796631413883,0.3902071841946837,0.6230092158648228,0.18759913984108678,0.5850676454534138,-0.3246505555345912,-0.9658323228200116,-0.31578720004905786,0.39938714370666184,0.6855832737337719,-0.9809120753691122,0.67003586683737,0.40486482049787764,0.23145825532367745,0.34594191442531075,-0.3672488693092032,0.059326297345066635,0.5741594454546985,-0.9299764153402346,-0.7698892814255737,-0.3806448911945278,0.42750093691501173,0.1688610300815433,0.6350856624083602,-0.8449061034549383,-0.7374451581275905,-0.6363294057717218,0.17667955587463435,-0.6756349074075161,0.253996180023065,-0.33489592156135284,-0.15504608543359022,-0.02554254560989444,-0.8797432323357757,-0.8504155162640203,-0.40330948918433784,-0.08364829521232783,-0.4119877877701017,0.6314790414792855,-0.8381614712244652,-0.9825965887774459,0.1375345750125839,-0.703556007849324,0.2466964805439277,-0.2785882017174239,0.37256323365930305,0.5729868989399647,1.004883596794721,0.6044481420992919,0.4966864398403496,-0.06465465707207044,-0.0431379218776163,-0.43501213982466125,0.8633491799802895,-0.6968813071478537,-0.8530281166792978,-0.7661715102224478,-0.9777880795196574,0.04191597972154426,0.32221862269668766,-0.6883211497628694,-0.142511878694646,-0.6471637617757686,-0.8483537060103743,0.03168379793119664,0.17413401006447793,-0.3107329100886047,0.30039019854645765,0.13305870347576249,-0.23121609513039826,0.7370603251071721,-0.512693851982405,0.9988767825099832,0.9207346771032685,-0.8070335880966947,0.45757603323042545,0.1543929627383751,0.9265007257621423,-0.10763267560626598,-0.20040809648184502,-0.3029463205874798,-0.6245293297112825,0.5925270903820763,-0.18434468339399657,-0.6717011917716363,0.7328774853296938,-0.7134023996598098,0.11110177129092702,0.817138074812078,0.9994505653155272,-0.6430496098005516,-0.09960488538664243,0.5543450197250948,-0.6907395812174024,0.862697649887406,0.20305374006518734,-0.16776226404669722,-0.8146956017836798,-0.770039550875723,0.5722702856209648,-0.2958228557972479,-0.7007592286746205,-0.11330786286407737,-0.15835793677430668,0.8114414094166921,-0.5191041532506835,-0.03450551502673314,-0.3550332769119335,0.6827870006051646,-0.12930652776781598,0.005182710944294344,-0.696974673167325,0.12822791986550564,-0.7407085056140592,-0.37296467897154606,0.9361867196560776,0.2649610309232777,0.5289321344014872,0.8168171958813453,0.305061642907529,-0.10785801741303234,0.5797575575773762,0.493201146029874,0.1376107656347015,-0.5614112799103786,-0.1586590777948868,-0.08561879753929766,0.6558791319237387,-0.9355991548302194,0.029702128182157,-0.3548109194509006,0.002759960782427128,0.7377445246626132,0.3546779640793946,-0.8984265247707856,-0.5806521786610931,0.4992972343127635,-0.22766082084709632,0.014668114024525503,0.8460877192421294,-0.24310424143593024,0.638379921968272,0.4290036006965692,-0.05358075958377717,-0.005732145628767116,-0.9570045796954094,0.7656369048679348,0.3042646710645114,0.6880679886993392,0.9161622874480743,0.9383890396166779,0.3114746031070137,-0.6188917807897933,-0.06371942705310688,-0.32881490649487766,0.10961185610699369,-0.17425506725546783,0.792678607654254,-0.5742485850790425,0.0042152957934544705,0.5884615171615675,0.3197640899673801,-0.3999761728759393,-0.31854329941555454,-0.754023607066771,-0.9716997072614091,-0.42268149993507265,0.7669232039558345,-0.8495414060771193,-0.7877414290736157,-0.5631432903758917,-0.507403510393297,-0.48573597962303827,0.959799833577033,-0.4589830645777142,0.26654768080464286,-0.834546927323039,-0.4604866335409044,-0.8353526909301447,-0.5633321782257671,0.11982107593264113,0.6317785709710705,0.9795245240401403,-0.8254190672248592,0.11872204225669587,0.3826850471945493,-0.3489628915966107,-0.1757243799668674,-0.2910260443378161,-0.0061222693062202415,0.6021858655018921,0.734751501983268,-0.6298616141783431,-0.9615509460551201,-0.738733319443992,0.42789847935917713,0.05014120091225083,-0.2497366700553041,-0.29959005829859064,-0.03405793059340578,0.4656769202396631,0.9877840578499175,0.13634614419953262,0.47814657415102824,0.48928321040291023,0.4411642127676931,-0.19384505692855716,-0.5529683759521978,-0.5940317427349362,0.38575431839360236,-0.046582880994787176,-0.6907054422417913,0.6806442583569722,-0.9149327779143943,0.9311930021625394,0.969660002127512,0.36567318139317195,-0.5481962604225906,0.5786864842361089,-0.11373921713344995,0.4093818915428766,0.7691047387603462,0.050761363027040485,0.1372519597118962,-0.3922327223197709,-0.29887695764139155,-0.8775746719341607,-0.5242042827998308,0.698533153021025,0.1028074720421841,-0.8009847131562349,0.3988983879792032,0.8232919125926177,0.17047996533287452,-0.09008010793136012,0.05216011224048772,-0.56562973104906,-0.5316027477690903,-0.32405474795122474,0.685149161332544,-0.3882267533680155,-0.7481307011662414,-0.5612926158032242,0.3103446848814964,-0.9092211625235767,0.33348640515107886,-0.9235149822430361,-0.6918975742831904,-0.8967712368583225,-0.7234109004595446,-0.9440917359610886,-0.39984380763216054,0.1619423772962496,0.8003519902938754,0.5554285168440214,0.6965706207307849,-0.06297730517712297,0.9990941844876362,-0.13780075085246968,-0.22400679310039007,0.29744213431619226,-0.7217722584512551,-0.3363012295026493,0.24583375378066546,0.18020084920297533,0.5550273863374894,-0.5258200645692115,-0.4983783915915949,0.1257525288529362,-0.15413748429795562,0.5167161852780693,-0.12939479281035224,0.7939452804737381,0.9442195540495328,-0.6756740339182636,0.1663157467901817,0.3095541838204609,0.6907170102958813,0.030640974801859386,0.2545787755551991,-0.38931220555180324,0.7794737973154866,-0.656552905056883,0.41150219897343887,0.03914692208131165,0.5911068085539652,-0.7630439893170464,-0.9770600777012576,0.5803152958994188,0.1726359944199468,-0.8961982664321649,-0.5391849857862064,0.6297457953293537,0.8923222227406905,-0.6423528035213579,-0.7171369496673093,0.5152841592330057,0.18751487447291482,-0.8330009487084405,-0.4678166607023288,-0.12897682764755874,0.624063916486044,0.2401952491967512,0.3085250134153874,-0.22704628707561766,0.16573765852194564,-0.19391228017674936,0.2378448836982093,0.4817512181968202,-0.6365176633170422,-0.6511121530323811,0.20643678549976863,-0.07141568934145182,0.5723396621515693,-0.8346945875485868,0.5184429667510293,0.9061412888009059,0.241638824843795,-0.8045504364777204,0.5721801239783415,0.28331515330995116,-0.5865682142725892,-0.1118357922651053,0.918828811995431,-0.2904672386035709,0.07027529021206524,0.27846907979670754,0.8843753201071167,0.5548950458827981,-0.9618002399216922,0.6778203850854102,-0.7897595492143927,0.6073815560002724,-0.4486660517047467,-0.5647564137190377,0.013195111888085975,-0.445554931389892,0.034922081527729576,-0.3755321965438929,0.8449314785399156,-0.24345869628873595,-0.00674263993592128,-0.4588112958980777,0.23344500047780814,-0.17765246657362127,-0.11163387440945989,0.49606848625000194,-0.9819288421368492,0.6971553513170143,-0.14923825472553534,-0.6238159408073417,-0.7316784277361932,-0.07288373772706641,-0.44496290302971797,0.24527617085051115,-0.5956971469089155,-0.3026356660793959,0.3326989897962256,-0.363426188397685,0.762182820477608,0.9573639109532182,-0.04588092632865581,0.6976153858460559,0.45590917461361236,-0.3106081780561284,-0.8613526038179885,0.5990552294994962,-0.6227496376367052,0.13709607587060701,0.15211030056332708,-0.03600210185907882,-0.08967072567421508,-0.34605639921647513,-0.6239848261246828,-0.1704269723112324,-0.6923603667452577,0.9157487509092281,0.7036474553171602,0.08534012442555716,0.76498777608149,0.487532106585643,0.2040794585455176,-0.8234445157477724,-0.31494714801968404,0.6816284187206113,0.4617993572155044,0.32814961219623334,0.090041494504568,0.3427681724274383,-0.9790206467635094,-0.6882823424824898,0.23461293393495164,-0.5950527003011912,-0.13771501702150102,0.8875675675866974,0.8024222300399197,0.29564197421802296,0.08527952948830997,-0.4559468214660636,-0.2704700008914711,0.3512914395178008,0.18054173965560205,-0.06747637006619331,-0.4123904873438583,0.9099441124390447,0.46964186566931243,0.6071763205230792,-0.49777197587820915,0.6601807189127706,-0.08023120676455844,-0.45336441156031526,0.038955150075376685,-0.717896143785259,-0.09331511821633856,-0.7055908780287894,-0.21923370995523117,-0.19873622767568389,0.005249616226763232,0.7775745036907376,0.24394746462067007,-0.17898501231287844,-0.4909862650050718,0.0344821899358565,0.11611672263411643,-0.15960735695418315,0.7293849642059695,-0.4946180253730239,0.813185969882457,-0.46770520792009446,0.06656613471130318,0.03734171132001837,-0.17822642660894925,0.12694913067161123,-0.6696724898945227,-0.5935906374234713,-0.6920280284357614,-0.7465602149006725,0.5971364469361503,-0.1595761525618216,-0.7381513858381475,0.8923185614925765,-0.1576128987068018,0.4325416248260739,-0.5484448138384357,0.5058781837606234,0.27281043085866163,-0.043860967757115565,0.5146861577009252,-0.42160693529136806,0.1068012775419287,0.0011584577156036335,-0.7096076420087403,0.3077050257975724,0.30010571391326635,0.9041759771779998,-0.16923237273899483,-0.8651718794671688,0.8070411131750053,0.7350881862151848,-0.8396653671933643,-0.06820387629242797,0.7614477312944121,0.9803700055835629,-0.3788836846961098,0.8695021708819559,0.7026108444828647,0.9387009254854916,0.9873843971453898,-0.4927535966600786,0.9760059908136887,-0.4726734950545586,0.22388930023828957,-0.7973965563799239,0.5364179311024109,0.3624075601633674,0.9960878193360232,0.08698931387019782,-0.4170729962257077,0.610238538873493,0.5675822121871552,-0.22675406803691478,-0.009304183073949202,0.2240636568628549,0.40553395701829986,-0.9542576996396565,-0.2686815426073417,0.5061785082827222,0.8184113352645241,-0.5880087090600323,0.5691646503140986,-0.8258475287937781,-0.5536013280756777,0.8422862858708418,-0.3576884601999486,0.3107536579680483,-0.8652791314205214,-0.13036507366117225,-0.19491226691727778,-0.4179469847203917,0.8046605483650511,0.3524202533776035,-0.006167601331215189,0.024357293278145287,-0.39651826182218186,-0.42052522740351284,0.7772691574773143,-0.9122110856288165,0.7712870946951615,0.9376981537498992,0.9080881578419768,0.7437783133908074,0.551901116758539,-0.8031974256984877,-0.8324940259719705,0.3870887008435506,0.9411003067815211,-0.4626159255684428,-0.42516395143473706,-0.4246259850564533,0.1381837134892976,-0.8049608728871498,-0.898021157783466,0.5503153426341318,-0.07883578589131857,0.8007588553245919,-0.9190721669788808,0.3816030143674478,0.5602919038200247,-0.7729425177783438,0.2423153870004766,0.15153065656848752,-0.7139187919506425,-0.999126011505316,0.8055779905084417,-0.7848380411904482
Weights[5]: 0.9663385236479056,-0.37941808131496335,-0.1739408155781873,-0.7315268571169706,-0.3564704569785252,0.7348914135875606,0.880713181514625,-0.49609686690200905,0.8253863369232912,-0.377748645552317,-0.75040390237719,0.6747803118428124,0.2552228389565008,0.3682601420992333,0.5827080987313333,-0.7302788857977274,-0.7744659091227064,0.4438693017903106,0.6096214212522011,0.25044141116106955,0.4435170560346531,-0.8968069208305361,-0.19727711714677376,-0.5014530604246319,-0.6043338568901335,-0.47250298944884117,0.5442296124735053,-0.30461723325057755,-0.2434424987265107,0.4576971053414498,0.551027128263855,-0.6087754162069295,0.9523440152184777,0.6076751675492502,0.9747617831336157,0.9168021557465205,0.7487768641434502,-0.6930991279394827,-0.5053458295321771,-0.5398522864747104,-0.778734339298091,0.04641220953614078,0.09577787718539033,0.1785075008769088,0.8313317353983092,0.7068227025246354,-0.6949309351364761,-0.14120265987757719,0.6596072882691433,-0.11819045763378522,-0.9394528828279362,-0.4429953132956267,-0.8040434307437592,-0.03527945235151775,-0.6641035227403527,0.8631454444784417,0.8178590358318105,-0.6724877551535553,0.8728069997731629,-0.883967467529684,-0.8093381988859447,0.18533041476520262,0.7473456318245015,-0.6323107684181588,0.07122422618382807,0.8583715138297396,0.7224362966243347,0.6475476714072506,0.3934983589656178,0.6659059429848129,-0.4790557499411775,0.9186332188167763,-0.050784868677512196,0.1494737077269115,0.029175750459160543,-0.6028951535014879,0.007415201984073638,0.6242153819763174,-0.3327847958229412,-0.31115655941476883,-0.7775720543123652,-0.3145677276489175,0.03577547848027929,0.8747479589072744,0.39714998816938607,-0.0059775584405183935,-0.8047319854631703,-0.012376532430004583,0.2717786902896029,-0.888383661344826,-0.9010568800852898,0.42126461929700554,-0.5659061277126456,-0.6213783620024931,-0.7305140875887657,0.035935245936706384,0.29906657771163925,-0.271911354396451,-0.8927167253069191,0.9729602215685695,0.9843864059003007,-0.3424786065437265,0.4652989811568051,0.9937013452843304,-0.6391347076926077,-0.8580861016447126,0.6077895553818855,0.046482861529329345,0.9355447971893218,0.9387916307611353,-0.14426975750563187,-0.8063563461445069,0.6602970406693858,0.18396355918793184,0.8936045867826812,0.5052295287629727,-0.8504450637150766,0.8725976729172271,-0.029460756587544767,-0.9227982153756535,0.6631034992929099,-0.2651871709456608,-0.6242310188823523,0.28188202031044374,0.5591839896802699,0.08599961342108028,0.47321980276904924,-0.43129022883873436,-0.12070014852556393,0.9921458517436281,0.09735032494563173,-0.7208897781607466,0.5169321072832365,-0.30574501739151083,-0.2957092647202576,0.5647393729351391,0.2201332911942775,0.04207413319594888,0.5138826665998821,0.2552360898140986,0.3862328861775961,0.1487851530075004,0.05207867038067371,0.33298705952846763,0.2558860961608058,0.9052994660592171,0.7609675786276198,0.2501303130994226,-0.5149829487851741,-0.23574361635173835,-0.11361969034821717,0.4247523681626803,0.7448124301166636,-0.9842168560425714,-0.7069879560538685,0.24508575865581353,-0.7166387152636493,-0.8150364831943857,-0.5714182295571488,0.2597227683062334,-0.3399437965902823,0.04246835313318922,-0.8282489633327713,0.9449845442296763,-0.15924663802573769,-0.4235963138861565,-0.32328845342774337,-0.0339579419391034,-0.5204934754969988,-0.6713019654486803,-0.7149037624313048,0.10748080308897467,-0.6412870534473587,0.7153004626154396,-0.30903110155324964,-0.4856816537145906,0.6833990897502366,0.043580032863925824,-0.9719199980828952,0.6644875619908963,0.3327356068163063,-0.778449488616752,-0.9279951172362393,-0.8847795734835694,0.1104244849858616,0.6748148638043685,-0.47615017067135446,0.48804035750879304,-0.6113516701327312,0.45975646319286856,0.2872620257592961,0.038059179349119905,-0.3846643890182787,-0.7473029949456933,-0.40213846201176684,-0.6509631758793086,-0.017709913206151673,0.10977437771380627,-0.5077663024457946,-0.3205175899530377,0.22858373351352923,-0.20507989462112747,-0.22937621140357867,-0.8425949292447583,-0.5155647340462979,0.7845078949740443,0.07336262071927346,-0.9523397414763275,0.3377853405870291,0.7864773906292571,0.5599143021801913,0.24697528702382857,-0.8297939113882091,-0.22745843558411136,0.9253722394303904,-0.5728332599730808,-0.0469887972891103,-0.9489927809703099,-0.1638570941453078,0.16918399798180173,-0.9453734680755872,0.18986092935775445,-0.4183562022719328,0.024623066664032134,0.045543894658583994,0.24837990722077885,-0.5078548078927467,-0.8939819987369617,0.11743430676762379,-0.6580733408617921,0.5320282594915611,-0.42664126039419586,-0.4445977791060531,0.3520647992129582,-0.5618913327653332,-0.44993891595476004,0.46504931054512927,0.9236284571842223,0.6299420191173827,0.3322256525035909,-0.38461708470853484,-0.5082002852036478,-0.845532148830246,-0.4046995874082493,0.8924386393740975,-0.9567653428217198,-0.12074579506481652,0.8502604457783793,-0.6697766043570714,-0.8251039804076329,0.39741720417394166,-0.06847356775238811,-0.7256697200823901,0.3230496995724037,-0.3751441218774505,-0.9612730098707941,-0.786725652447864,0.7459953067445382,0.11077512200492201,0.2307802388587874,0.28852746399307916,-0.03502580539047544,-0.07194489520141342,0.0081280063197812,-0.736255457219412,-0.015111629690377652,-0.32874366046006565,-0.1974199339274059,-0.670263311545185,0.38655017086671417,-0.03387801030199052,0.02962232619915331,-0.5831906642112629,0.5066818774360332,-0.43463143595498516,0.5750956263277194,0.04212290376523642,0.9927839133854881,0.13657902699735902,0.001360245515294567,-0.6309153864304141,-0.35811525367112607,0.7757946056201097,-0.05745593219476625,-0.05549326924066665,-0.3995035879439023,-0.7013704989577506,0.22749852446257068,-0.27834236401987367,-0.6027756617729219,-0.6623781620195679,0.7282321269717568,-0.17848481336091515,-0.6114469618049514,-0.9770739764801571,0.6257017952680716,0.5507349283699704,0.1582658426718959,-0.6673051080510083,-0.09890207536293558,0.35496620783123184,-0.9327431359309621,0.518044383557692,-0.04846368220097552,0.21571574603007915,-0.6249449903261592,-0.4826659567107754,-0.2331531295707231,-0.24231883289400435,0.049760251794830124,-0.003395913636030534,-0.7795061771881973,-0.3905867434558557,-0.8905905386982235,-0.13830437471079848,-0.35513043187331894,0.19053239909095296,0.9905614434844715,-0.9398349075868216,0.6700060513213717,-0.3001277325538558,0.4467442032695979,-0.9288574085269045,0.9205901277529646,0.049153946354966734,0.2491689742942402,-0.7883998988544836,-0.9899349060917186,0.46477457465811656,-0.07780666165924499,-0.9803445502725532,0.8915653954686436,0.6674341455415982,-0.7575853754568777,0.6455988630864764,-0.6993031574875597,0.12362402822991081,-0.17574171217891466,0.7268298499876773,-0.43054542182153027,-0.9168406544361617,0.5317786439716073,-0.530182642643425,0.6764064590184439,0.4060889600815937,-0.8821847368740602,0.11363960099264192,-0.2908758546354826,0.5480070913807049,0.3847840530789799,-0.5609311148798469,0.5581634734044174,0.09994505607549013,-0.3297639175334134,-0.797618408944619,0.8936773772034035,0.9778098078962023,0.579518620775139,0.9025103439729834,0.9743199953689798,-0.8288248813845334,-0.4910673189401009,0.30056983479325194,0.8343922029409521,0.02939089808119033,0.1050386908953258,-0.4469363360884303,-0.6329982119079001,-0.536192424987735,-0.43900344309799894,0.5218219667753605,-0.6302054278646007,-0.736582415772974,0.4884167055049257,0.5793757915455047,0.16324664368422015,-0.008242815932432913,-0.5935822695940415,-0.4673572956447632,-0.06672209703696881,-0.8625692232169374,0.4998758689643852,-0.5364807496970118,-0.9308928873161115,-0.5339582206150676,-0.5531882080235908,-0.20717017039509805,0.005092666952448255,-0.9564996417409273,0.750761222909559,-0.678441041930784,0.5430145904156447,-0.0790957608628533,0.7525098546186975,-0.6017152581371903,0.5742298205950175,-0.7687956425711656,-0.364577669455344,-0.3567009269378265,-0.6990758108742829,0.5648431393892833,-0.2586086856581284,-0.7542187241058586,-0.013042200941173398,0.8810186471766326,-0.9138251127610821,0.31146575109512464,0.6112119287623557,0.09012612558707533,0.03967570017461577,-0.09672410508545698,0.561644495340096,0.03959788351938358,-0.035915873934327346,0.8404390412722542,-0.32363734549080825,-0.9553732797295662,0.23062960488285378,0.36724151548335393,-0.41851121998322716,-0.6886348434205329,0.5479709969591213,-0.6764932878671648,-0.28695019280811246,-0.7605685804613304,0.9782230758644309,0.44101948605519664,-0.48991069745623456,0.09266210488590863,-0.9861980199485563,-0.05975592906793209,-0.6365172651653868,0.7817877648481762,-0.7634869595841591,0.3705407729677662,0.38533444271669626,0.25652128187762646,0.48566054190216995,-0.8027075771256567,-0.6271570969837972,0.12974669980309297,0.1778971337406011,0.9219513434211496,0.008053597532237777,-0.15297003237203233,-0.2402264239453834,-0.49768792814467466,0.9557254602926437,0.9112227819446581,0.7219220873536178,0.5296083826243916,0.000583190936866762,0.26817968551291477,-0.9389881742086761,0.980890314019948,-0.9903859700435611,-0.5751983555860632,0.5400401044870167,-0.24953941633556426,0.900724968278252,-0.3461804202574689,-0.20191671740767403,-0.4826967590089093,0.06730798697272411,-0.8998900524798152,-0.4475417646585143,0.7913555214021784,-0.20392997401236013,0.5825227978387595,-0.5512213598856991,0.4267496836619593,-0.43658262185593255,0.0357806408013126,-0.005453899039632559,0.45062471062439724,0.13237769675086142,0.6253793032958075,0.31545311460059744,0.8660248228656244,0.4796662486529286,0.4759188776258001,0.4850533043430436,-0.4088573282779332,0.36120304720767815,-0.5260081676334903,0.9307174127616157,0.08662856859184911,0.7129043649950821,-0.7351567860929648,0.35820577764913414,-0.03670235010428912,0.7074043817070461,-0.2737500585783816,-0.6994905121482489,0.7232548498618959,-0.6797843686972469,-0.35128666170063744,-0.15530772112311778,-0.09538833837208237,-0.7012055777926182,-0.027351310254160134,0.7088108024135282,-0.6282213840765047,0.4616128743913084,-0.7048795165982468,-0.033808995519675755,0.9648025501355542,-0.7263624620280985,-0.3896070045370641,-0.15104854160013062,-0.6173873158858968,0.10032598187385267,0.6646319714668646,0.26358921498462773,-0.5800370789541265,0.16764263772372998,-0.7788136187354456,0.15818653882670458,-0.4082448695348457,-0.835325001508803,0.45067704492842814,-0.9297618824973902,-0.4679148327229683,-0.7847474063348059,0.4752089765952184,0.7085247178967115,0.8249107239342431,-0.26316211297150865,0.2746828866144813,0.13387935754558034,-0.5168447333932131,-0.22031681948356185,-0.5894084319422992,0.5670448800395451,-0.4931679617116078,0.7671080752122719,0.11327468841954813,0.1296861318395951,0.06655229515350106,0.5077954561755909,0.9655623239437776,-0.18620809685582465,0.10217054740484213,0.4152605111970026,-0.012503635702617541,0.8673405693731209,-0.9526265439268788,0.46959069964757627,0.8661849148307551,-0.4528210290513682,-0.9008439459909743,0.4864887132828368,-0.7552024283237766,-0.26699595166753076,-0.16225399474195507,-0.10095834940193726,0.18103018153650408,-0.8399086323752574,0.9858310865172331,-0.41431669304814034,0.1403261745070694,0.22701055706805118,-0.0018896567644037798,0.47651363791735557,-0.6341924498016911,0.603035532575275,-0.3095166864210911,-0.9028898722015185,-0.24469486586611214,-0.3482372940287874,-0.9462775195866985,0.09269080157137853,-0.8987460630228377,0.0976941043565095,-0.7959018155350833,-0.3575913924143122,-0.038639416113479125,0.10079060093607664,0.22262218862727273,0.6043467693964577,0.6582445491376541,-0.6476971728949329,-0.1392552159443755,-0.27486850753187597,0.03955617036649772,0.0006989086981392667,-0.46511439115978515,0.6772505537035178,-0.2713826295320795,0.6071088833767497,-0.41406219332202443,-0.04681667920519439,0.14425258950528352,-0.5185876245294287,-0.6318408971359795,-0.2621848837002095,0.8140282032136604,0.6254499840535365,0.05313158333418038,0.38783607049257574,0.18324160700003236,0.9602428067461738,-0.2819231557414577,0.21802921827321367,-0.5165170640638581,-0.011548463455590754,0.3816830463227933,0.15370184656046096,-0.4713105491694578,-0.8082648701072972,0.9300474142329989,-0.9295723465874662,-0.06292931971276616,-0.6185185125183865,-0.0725612421857944,-0.2119766525979977,-0.6337342269875734,-0.7270211492325278,-0.5630425324491424,0.36510864150016964,0.06902424575249855,0.014505527659315096,0.37043638725286887,0.15243843881367977,-0.9290477827677012,0.10561594355684265,0.9513970572708222,0.6201296342640076,-0.27400969140177156,0.46972942238784016,-0.16521140191688738,0.3340143173451587,-0.9545739366575762,0.8246856794518108,-0.577164314849529,0.7061737590078591,0.6358993312511125,0.6375309385534054,-0.7699156942637244,-0.9624285269353672,0.6171301489775676,0.3811805729666635,0.14856110287297564,-0.4631177594247823,0.6770614691437509,-0.4844898467345582,-0.9838873594924283,-0.23722889797632996,0.555975449588334,0.5852689859473181,-0.621397505708901,0.5482714145440364,0.19476909026658362,0.6895195569810377,-0.680849196135483,-0.8316882591758077,-0.41617721694838733,0.5664385265418068,0.1574023576734221,0.38623044328322464,0.04168289418808927,0.7532979910209817,-0.5697937801875346,0.06389121593618546,0.36079246055371716,-0.41270664958875003,-0.9892245931500684,0.0988066993182557,0.9567597145013325,0.22125991583860483,0.15212401615088988,-0.2712651655409789,-0.9571054549688033,-0.6006140055137752,0.7479784925226023,0.6878436727858352,0.8690070604204124,-0.16076510548053174,0.4785957714847598,0.5579934536352783,0.09065870132627976,0.18755414381622837,-0.9361258850292445,0.1396518357394664,0.09120062161152678,0.28817180976652157,-0.8467517318107117,-0.6209830836346004,0.5287869641924249,-0.7388423127522428,0.1246142461049275,-0.9304596239331007,-0.51778735011713,-0.16279768625404578,-0.016327323865297894,0.8502538203495804,-0.05091176789762064,-0.9153351960309479,0.17608978002150066,0.08976811873250079,-0.4952652535844898,-0.08269405881068392,-0.1939886124776623,-0.666503506557319,-0.5706675227594876,0.6448578041255744,0.49987631454126746,-0.20942178518018773,0.9380032345363885,-0.37211121216980336,-0.7009186892308847,0.7479288483727391,-0.9066342822772611,0.6029328851042934,-0.6926661887248673,0.8752129076854971,0.714019030154542,0.2980606748314777,0.9730920790409303,-0.9273793492128045,-0.5654965041044617,0.6371048873463203,0.5762751789653093,0.6971119584967904,-0.9033627686572088,0.08257855711624895,-0.753477815423849,0.2056922312852425,0.4157133183515227,0.8977246721730217,-0.2612445593165441,0.7813279022375716,0.6575375290855474,-0.6167799642387684,0.0476506571507318,-0.8312533869553607,-0.6206965891740734,0.728439528368618,-0.28917627562264736,0.4463427092164489,0.7882954952252541,0.3622116396958994,-0.5643327150327772,-0.10485289395848021,0.9658623671825095,0.38577255946092787,0.9776928618682088,-0.12072023522142328,-0.4696271240104116,0.11508867755303553,-0.8546864864671074,0.6571520928559602,-0.8880309815928484,0.10346912923430507,-0.34473537716303737,-0.13237014093081012,0.34103076222400674,0.10889942902554739,-0.7631407379001103,0.34675392012426354,0.3983356195494232,-0.705815916743975,0.3748648964682897,-0.9597214376366331,0.8891333471467409,-0.4822465914684565,-0.9096086807128082,0.7101456819615073,-0.44471777204643836,-0.8619171752882736,0.48928058775574,0.9765007784480699,-0.4188875851309335,-0.4736469236545483,-0.7156748444380587,0.07229185619963885,0.20143760237909736,-0.3183675535574404,0.7365455132613636,-0.28005660478028316,0.10639881580434674,0.3672424197975743,-0.3246806447043459,-0.699375359201513
