LayerCount: 4
784,128,64,10
Layer[0]:Size=784
Biases: null
Weights: null
Layer[1]:Size=128
Biases: 0.9642148597627868,-0.18466718129998286,-0.6275428283226349,-0.41819843373253957,0.8347196614881885,0.7453731309956036,0.5257636073380486,0.9163137618174307,-0.40856025631578,-0.8536423659409925,-0.0003892488360606317,0.30557701285709693,0.9768453184780417,0.38740691510507147,0.4962618918334339,-0.28578284057949366,0.783730989168269,0.7644818575766354,-0.2463184795810916,-0.4571283446721946,0.5179801023609667,-0.23207662544696117,-0.5442999587827178,0.14287611424047425,-0.26812238137423405,-0.15789126307556922,-0.40175359304823055,-0.9444369362486511,-0.3319343452523327,0.9341195570276244,0.3031260568110592,-0.942360047050947,-0.32074822840421185,-0.7027815647015336,-0.8040070376007896,-0.7238425440927422,-0.6055250574488762,-0.11456196316164398,0.9346988343286515,-0.6762148814729219,0.7021327809267912,-0.1571005071275253,-0.3023430611957998,0.36202123013859056,-0.46345337229408584,0.4582043229211971,0.37636928475458553,-0.6682366922605629,0.20564468868631494,-0.2637737181368054,0.2579497220390588,0.7201121270157436,-0.14964483227318062,-0.8794998956305029,-0.039458921898949124,0.63908031692934,0.7552363991146153,-0.01879265914209518,0.6282181218830035,0.6094546687399385,-0.804822376171612,-0.26598756235877863,0.35851427652740403,0.2028534286958933,0.6859165360717663,0.14465923837133382,0.8366899291674313,0.7021198868037862,-0.4013933571333383,-0.6662793066647296,-0.5024523434034799,0.1902299184818244,0.44758891177656607,-0.5845915961513203,0.7981512790054647,-0.4464912187332718,-0.6337022283728752,-0.5455185699723719,0.26920684656847776,0.7299785171796592,-0.5367177584625834,0.4630681766884774,0.0784004321228028,-0.45458573679106223,0.20369543544486218,0.3356290307510352,0.018261912878473004,0.20741752579961575,-0.04274693068023078,0.49052996724443915,0.7205602838342688,0.20281220365935135,-0.1601357418173859,0.11201397895005104,0.5227908835609425,0.867313551476621,0.5249557928895695,0.5150191353297635,-0.9921470064233257,-0.5352974177929669,-0.19748275388739567,0.8991982749954164,-0.750352010794643,-0.25863561490713927,0.8806406431739515,-0.9972160679099481,0.7993142304867765,-0.5279798023124129,0.0830933770404076,0.4607137411091549,0.7975001526596653,0.11539640584909112,-0.03574578883527185,0.8376307554343957,0.15681398879398828,0.6759616081706489,-0.34828351534057256,-0.08892530173415412,-0.1880421802709792,0.12958808712859543,0.8230906633062286,0.8417617892640363,-0.35549672634730867,-0.5471093067507197,0.19539416884530172,0.7717861567416325,-0.24907039742719295,-0.2580427145297443
Weights[0]: 0.6634535061490971,0.4792560690451675,0.2813968645787783,-0.35775936551287746,-0.20770374462367214,-0.6917488499040477,-0.9928841982003693,0.9753134986270748,-0.3641986713577987,-0.5400318119395673,-0.6327389216202959,0.09320944039766177,-0.6123246762958936,0.03280829686336606,0.762783255317613,0.7848623813059472,-0.5758699046335509,0.4706578233608314,-0.18383683878175772,0.5382472358356449,-0.19117511864340642,-0.05571476605521275,0.11007490992083913,-0.07007211962252491,-0.30780750480844055,0.7844508503491296,-0.7046546375866303,-0.1659296113839045,-0.9908673474522621,0.651637798012997,-0.6901528032916378,0.13062276464450306,-0.6909620806998397,0.3309012275798717,-0.8589593814029169,0.866180074338885,-0.20834888108463445,0.5629451831630177,0.9338867729221876,-0.4237234245164895,-0.5341605132139104,-0.5655677446935176,0.13383718446541448,-0.34224099355854143,-0.7150613096147129,0.14408774540949976,0.04627273652994668,0.7603758972884975,0.5691103793536827,0.5797755166794059,0.09383235829595127,0.7752781900462127,-0.5154328884163093,0.9771893536565777,0.20222867708756986,-0.2808317277956902,-0.6308188408756716,-0.6485310157986968,0.9500481392955631,0.007845405027198327,-0.9870942123174175,0.17304541318353528,0.9661808460793369,-0.015836469370795636,-0.8498790086479294,0.23663831373520128,-0.21582847890249846,0.056774096124234674,-0.108232321733717,0.896603180978728,-0.006788737609418449,-0.13881508779656848,0.5367710504386438,-0.7601134142652682,0.07240774904955538,-0.6256073739498889,0.8104480494793729,-0.5476840965206196,-0.3550108100078119,0.5481047497820597,-0.26182188618081714,-0.4650305348751277,0.2649600092624127,-0.5706428641316681,-0.44219456028295423,-0.46543099333785054,-0.35394434693918764,-0.6681514343564172,-0.8713274495076981,0.42187234639277316,0.49699891521455664,-0.5598178652859376,0.6128970438674544,-0.07395863210501086,-0.436629212199072,0.2927940736025545,-0.5317485907728544,-0.8503263461637899,-0.492361984910612,0.0483003766500858,-0.6400837756880018,0.989498640405712,-0.13139178097778548,0.6725071983749547,-0.4134357457111756,-0.7673525539074804,-0.7614928603924311,-0.7553194741510412,-0.09521839539297783,-0.17216394896254128,-0.09127977727506298,0.9168652556449479,0.7064797942091152,-0.5980566104864965,-0.7303327087919846,0.47793632255771024,0.9080854039211224,0.536823710211005,-0.5736419090878413,0.6155519846899211,-0.4094173393256112,-0.5476770445460812,-0.07189845436806719,0.46989533187350974,-0.597543180191506,-0.44195431176277583,0.2524388262901296,-0.3886616256291798,0.6765121672631905,0.7796078983421878,0.9061375861523525,0.660773253922845,0.9446778883899924,0.5966888133421022,0.1935130793633245,-0.24596780045044453,0.6663612461026578,0.5924528108874583,0.8427928815795076,-0.6748420063754739,-0.7039381329454193,-0.5986248727881465,0.4270669610365605,0.30083649945484314,-0.48684787633216375,0.5801336595696087,-0.2662976594950527,0.21095365435395097,-0.3436259233130263,0.08543446524321774,0.38470866968143214,-0.06795404073259491,0.7280689672752617,-0.10166119807600196,-0.5333154389171182,0.908909569661246,0.061316286841921606,0.3986320661611342,0.2732719013627673,-0.9656275809286125,-0.014675279407590147,0.6323505968845268,-0.42482334808229305,0.12947825948748953,-0.07830516578550695,0.24794582708177426,0.9721873672549555,-0.8902090191329871,0.2137548640434419,0.5209878177945446,0.8115750764550524,-0.6843674069663358,0.6941157597544623,-0.8986889443097864,0.3194901176353404,-0.8107924665374646,0.025255989025809972,0.6272522880378374,-0.043298029200534605,-0.18037944813143839,0.8231172984823605,-0.9524963124853159,0.9640033524365161,-0.40710469442772135,-0.6051755625158641,-0.0250185213297316,0.9382637937465774,0.05342180253975362,0.14380856466619843,0.2879782393728655,0.6941492990671729,-0.7299288396653694,-0.680450121723325,0.8092577549672024,0.34079841586798354,-0.33171559000933337,0.8332103992966984,-0.6981009681234607,-0.6208583347596499,0.265206296586062,0.6081188942742245,-0.3758653537000787,0.9971987903105088,0.1353862500862338,0.2738593460152153,0.06902324519876488,0.237322094202267,0.6220404551054299,0.575728485654044,-0.7214291058679457,-0.10766654681612212,0.43626457020013254,-0.5582901192085031,-0.5462664644836017,-0.7850195153953594,-0.052246797088440176,0.6798387546348121,0.9846178437982952,-0.26443157641066967,0.9469813164076681,0.3104869943626629,-0.08040449073557021,-0.02918011649939234,0.9331596074314601,0.8337054391548528,0.5439267175010996,0.9960827147569893,0.8847730736642951,-0.2392969500795087,-0.3485710056933392,-0.644002865834163,-0.2766430406941089,0.2481233415784376,0.691504539900022,0.21144951488024852,0.19559002419875765,-0.9541839715328065,-0.16579680825256418,0.3277510974781388,0.3280423949341964,0.737369592627269,-0.684040938662539,0.4806509413043064,-0.12648770214907468,-0.5948325087947345,-0.7405639011609587,0.8269852789469255,0.8661175518604542,0.595049415526469,-0.6062269479065328,-0.005137441216566341,0.8561270040721292,0.5716361084820871,-0.567839651167318,0.9547193022233988,-0.31164921694977643,0.6533955843518088,-0.9357375304589645,0.30168081973757643,0.7299326712870657,0.0729933475133165,0.35261973433128563,-0.13833641815866313,-0.07828386156788303,0.9231692599899475,-0.8237870773789662,-0.8021256041990203,-0.2457340614324096,0.24333063457143508,0.01956506790358966,-0.09244623462145773,-0.13923912555605716,-0.3327694240880631,0.40683233519010203,-0.7903374068676735,-0.004856372720029367,0.4395995640380306,-0.899641031352636,0.5349016252601992,0.5805551091118506,0.7182480374901778,-0.870034837103465,-0.7102763418621739,-0.6333083572600059,0.6566787637826313,-0.4999065832443052,0.1517208540587318,-0.18403696789594226,0.7368176093962127,-0.4768956046753927,0.5421399531610156,0.9759118953785901,0.5258304558047312,0.604620118839718,-0.7350231838371808,-0.6075490166379786,0.4566040420204305,-0.44068074619991837,-0.0402649087292064,-0.7538675817486419,-0.9254782105121228,0.0777817022549525,-0.3757916023961751,-0.4237434963806269,0.4868831119904682,-0.8595899454595475,0.19626555274998103,-0.8327978857945642,-0.7775043201528045,-0.040424325056571675,0.248751219012193,0.552896890308605,-0.47051449874835966,0.7213489972877122,-0.9883153662031122,-0.056971801005756384,0.06280575744554162,-0.5050978507627026,0.26486273430063706,0.4162246964385628,0.01464783407070123,0.385950568055334,0.02450513800257636,-0.27242424282161376,0.4793256938353518,-0.06827855105808528,0.34188636379848814,0.0798572859106786,0.157415785692966,0.8251424993688811,0.5415102767369936,-0.11900617606891606,0.14241110214144515,0.29562395498884086,0.5134134467287983,-0.35699787519732396,0.5057556235723921,0.713467154518453,-0.1202544826642864,0.5161509015554897,0.3039525209765174,-0.015316877328062719,-0.4065326477431379,-0.22284748820716405,0.27423901321987465,0.9894107061730972,0.44764551338519326,0.8026907778001269,0.5825627147951811,0.3204061118552574,0.3327491547463119,-0.0327127503976418,0.29634701259942486,0.5498183679398075,0.2391747476165642,-0.29626387120469977,-0.9381396385697908,0.9054885521022042,0.0997830903993442,-0.4439105873200626,-0.196753922475853,-0.8763066259568122,0.015603687155807178,-0.6024761384364572,0.4180616305293803,-0.632242604918891,-0.5896785946514824,0.23373140986470886,-0.7919397924702816,0.3687742894012878,0.43726124046069625,0.3492673255661443,0.6151553576462615,0.7502417844068447,-0.8848304452861829,-0.9702171110581501,-0.21945032650468002,-0.7546631684428433,0.45523098587678495,0.49548466665104896,0.4897596162461311,0.5481198079451715,0.5043282599494172,0.8450104661921909,-0.4967103178326375,-0.4170361378316949,0.5874306873731008,0.5971061538891429,-0.9363942574413466,-0.18368258009836202,-0.4186286299576185,0.6002805659548756,-0.38632038859013484,-0.6763438953442238,-0.2873129832033594,0.180129010535239,0.9692629963302797,-0.8039400714768071,0.359164718351814,-0.09340544114300221,0.5817769263553757,-0.779454384541418,0.5956112798214024,-0.7859504317938343,0.8784423750456914,0.9852964389960207,0.35461408646742787,0.5542462767696456,0.44420523487958835,0.21643641993936752,0.9252465652393176,0.8256027299510337,-0.538788140772361,0.6129042493993374,0.07224992099937515,0.2622449171087913,-0.37327416584513806,0.1738126283389576,0.8943447553992014,-0.16490798590933342,-0.2196777450012405,-0.18678474854062532,0.1699078600713555,0.3916003225185898,-0.21234228727220103,0.8373166655337947,-0.26397613735967723,0.2943896738351739,0.043612285264478926,-0.06367481380717291,-0.938952400621108,-0.4130468797949518,-0.1147147617996567,-0.44563038646959663,0.92434489954459,0.2871682664726907,0.9615742707735615,0.29648493687846195,0.9695003537473397,-0.46886012483446826,0.2397590480127583,-0.9570153360993642,-0.8391638329454106,-0.14567175188365944,-0.10420032362649234,-0.24388616124349005,0.13911767822649224,0.0007695849057145487,0.2514017081127511,0.4504420996878493,-0.4468146308543228,-0.20489757564146893,-0.6982382517440616,-0.47566924550976636,-0.8709658294039548,-0.2266762343959141,0.05056648324234417,-0.7963830743680798,0.42138618867957417,-0.9625937000614561,0.24279858030614818,-0.9331385858951142,-0.4738759184060503,-0.47582798093024686,0.1657518405778,0.3470190954351468,-0.04526731936375358,0.9247779327610256,0.7052967582928408,0.8018602126993417,0.3096940353845816,0.3366804240907917,0.2045563623330353,0.36352537729010237,0.5953271880724129,-0.2626681631722805,-0.34762429508735626,-0.6844203880449852,-0.5044048323782183,-0.9688026998046798,-0.3021256687595163,0.7349837877484895,-0.9543673907526778,0.5922051365807345,-0.6213024816410888,0.2587232031032006,-0.7207898535600754,-0.6460937129151063,-0.5866016920249338,0.15463974395766944,-0.7553788299643435,0.772482348243306,0.8830526399950452,0.94179569602042,0.29904707621864407,0.18840345729921965,0.5349674543284575,0.6536984279498925,0.6988764090569081,0.5559167180955136,0.8080492196660831,0.215602043650859,0.29546703644817085,0.4495372471630281,-0.859252209709609,0.2165049450548855,0.5905460620254959,-0.06192664199598441,-0.07123889823967544,0.3890108244595632,-0.8831957602010038,-0.2712311885400006,0.7014571939206183,0.3884136747650514,0.33851726577693375,0.5025330500139862,-0.986103413804642,-0.06600345482706908,-0.8516128297311465,0.9090327047667509,0.06773431762558407,-0.4008709405836299,0.5128728656384283,-0.43619800374730217,0.5750117210006999,0.5541993742174521,0.4662459670704925,0.27084284184241014,-0.9306876788933173,-0.5929163804244793,0.20235919542720504,-0.001324371901026189,-0.3832968070093993,-0.06032155782930626,-0.7768519268263373,0.4822722875896246,-0.5604832486996815,-0.4092554381386208,0.44523357082268705,0.15940876869263015,0.6681693590008587,0.3409626966055306,0.42526125420062233,0.023626806989647874,0.03295353942459739,0.5084897936997955,-0.9306072216023803,-0.5079636970719893,-0.3959783649550153,0.7955742888290563,0.17727360457761374,-0.3870041855203225,0.5225023755442828,0.8021478173842218,-0.5049301951802081,0.213089217984618,0.7033909949361463,-0.26828282106122137,0.8745255013343531,-0.41345162010446734,0.7502589401557385,-0.6802968176455688,-0.13123899657802607,-0.4783225178151962,-0.8133483705173006,0.11498532983305987,-0.8888018319590865,-0.23829842284566174,0.16525130099986357,0.8559695580088494,0.06302967019933087,0.42482071317974307,0.4848110000760982,-0.021678649440275626,-0.7635960635019375,0.7296048222541142,0.1756648535048286,-0.5049132371639785,0.536840755260229,-0.92377387001318,0.5001650524792098,-0.01577472361539245,-0.3252021508874382,-0.7232781004734701,0.2300794838136433,-0.41058051465571876,0.4761732525546911,-0.1854446377537421,-0.555391389669567,0.010058828168576062,0.7788812870992725,0.7077995723615398,-0.2837809237110339,-0.1413730383003366,0.40910117378619926,0.3483934737392107,-0.5276735771144697,-0.0965524442409491,-0.16261181808877234,0.9199474829817039,0.39517421988903595,0.2957744034826949,0.32292452487515844,-0.24967346373243543,-0.26460892751321813,0.7616622495965573,0.1371557114011753,-0.44912699606140394,0.5735964214306308,-0.22481436246298925,-0.9575272090535272,0.2134737238350668,0.19584093019172588,0.7984088621094865,0.08638332741632282,-0.2339663362288691,0.6449053332418695,-0.407960896104556,0.2915979983711605,0.5972321441384183,0.638830201532147,0.29663736883509295,-0.6829018986867104,-0.8448725376237415,-0.9233335102264767,0.3551361924467218,-0.28874548922909077,-0.3740758920250677,0.5670100230062091,-0.12003455299187102,0.25184634556002655,-0.722071219068795,0.6608732134414127,0.6282124424585448,-0.3104875606915718,-0.7918776184264121,0.6674701653735107,0.9341489830679022,0.5462372608232486,0.473570203163461,0.453275651416404,-0.07456824512899307,0.2409589408156272,0.6694229727934222,-0.032413962777896765,-0.4345924367357942,-0.4880413578301861,-0.08218978582052039,0.772305337966181,-0.3568703424017235,0.7035220642729215,0.8800872449476226,0.611222503280665,0.23923994479275626,-0.7216858493186463,-0.901241453498837,-0.022678700676769387,0.1614860888829362,-0.33068340701071236,0.38526056637850226,0.05798102091481925,-0.47675464616955837,-0.010803635906311629,-0.3062714032373854,0.5275031391193639,0.7745223826610121,0.5591985842023037,0.5728348361201747,0.10993291396178906,-0.12152946606349646,0.09856349839762024,0.7107563501739671,0.04580184307219537,0.8180277952076997,-0.8560435072779858,-0.28660155333885995,-0.9442599119769306,-0.35224952967632295,0.18761863079088306,0.5110767239851867,-0.15763506756098358,0.7870909016825977,-0.1533314401620714,-0.07979374009764834,0.17650163224089999,0.36751990642748766,-0.33970112203244024,-0.5799784615570194,0.3494752248684805,-0.402363937667214,0.23318196669904478,-0.4938685682089518,0.2700149944378132,-0.8299411338893423,-0.5786632986639921,-0.06476098162343769,0.9372732517948714,-0.4525600678532199,-0.8580801663259418,0.1930636545610911,0.006208979061901987,-0.0608761939503607,0.8078773002176904,-0.10616518608581516,0.544580721084299,0.9928123131360915,-0.16563925108203625,0.793040252194293,0.09445350016208987,0.5606415064822143,-0.9647984746679656,-0.6726717453788369,0.9739275695634668,0.15302667447972418,-0.46617912519929705,0.2656375851309079,0.672056254364286,-0.931400706011777,0.5170024664313284,-0.8400167673081238,0.11764002177754418,0.14333343745364502,-0.7761313048080222,-0.4876013963891199,0.6456365108702502,-0.4073583452996604,-0.5592586442638462,-0.12425702303846231,0.3966910938716919,0.20871747434545185,-0.22387480513373148,0.5083001803179739,-0.4941693178816555,0.9945570975516722,-0.4951016649115373,0.9032237957712375,0.978588264425559,0.9519670391231623,0.37485805404133066,0.18369643631563348,-0.46684084249047597,-0.136157891310825,0.32141164658656884,0.7883147163549704,-0.43777135493674707,-0.0946727571931184,-0.46803548013922136,-0.8830116800419109,0.6362280732189436,0.15556876415180443,0.2630042383740676,0.8685535238443658,0.03042967292965848,0.9819366009821819,-0.9245763672164531,0.862875541608257,-0.28474488914233864,0.2954786966068106,0.24819830304393475,-0.04806093361604069,0.5520709573999378,0.958617771956426,-0.6036508416773988,0.885736025816638,-0.21548368838405407,-0.4730986549859395,0.8214975725028186,0.9793704720117946,-0.35187166060873853,-0.36939300287952326,0.2871796727586442,0.7202677408793325,-0.3061383260908249,-0.6666861770985117,0.6268240751823522,-0.7462020869116308,0.8219217908670762,-0.5644559392540045,0.9500658185920052,-0.25986925757484014,-0.939352619433474,-0.6762469642219353,0.2395149037425941,-0.7588776702801128
Weights[1]: -0.09242832897809727,-0.5221294926116846,-0.4761059188638376,0.9191334647681255,-0.35797720651979426,0.187968684913576,-0.31689043218125146,-0.2962312639207725,-0.5770810123426285,0.6316254789156959,-0.42545861444690203,-0.5325070496334261,0.4356756207699308,0.0038083228300365146,-0.9645685599951859,0.0840081959422716,-0.4473761978779809,0.46885998056682765,0.005621076098466737,0.8683890913931602,0.5427364974947351,0.1746918499351906,-0.3028841499718298,-0.6448874742001702,0.8216257196951777,-0.9590462492588192,-0.7202889498883341,0.34541287801480514,-0.4919324393812252,-0.10870831418256666,0.22831792162187292,-0.28089713178616815,-0.8447731713972861,0.9400227898452538,0.8769446405940431,-0.9509691623742549,0.2976034913666563,-0.9397629927563309,-0.9938944540889442,0.44263831220690086,-0.39592989506010423,0.01649900480010502,-0.7290573137481964,-0.2983116560142076,0.05228268962925431,0.7863049627217953,-0.6137538299028547,0.431735737915959,0.9146343785871911,0.6561225464828884,0.5080235784445069,-0.14510694478876285,-0.7661061723558726,-0.627266761673273,-0.5970232615233507,0.732879821086712,0.7807546573601452,-0.8312184446636673,-0.9024922549270523,-0.39893095726097516,-0.09174236519808987,0.3376966898039433,-0.8042988245395473,0.531627301839938,-0.5966924427061773,0.8554385173392662,-0.6877338782361401,0.49565283092467705,0.1268636822359932,0.986400602379069,0.7864047045756153,-0.50761320512165,0.4627544346557717,0.5629827638915659,0.26431898645326446,-0.47376250730536995,-0.09625083631661291,0.9954275060423778,0.30282983617057546,-0.9646792430266176,0.6547075806440354,-0.15202468780429323,0.43077849942761404,-0.1480549858641136,0.3832681073729265,-0.6265751335893641,-0.5147909594302955,0.7824935902759869,0.5370460513686044,-0.8559351804926689,-0.7317238197344,0.12882193603032355,0.9627292621707215,0.4050365031720309,-0.46561932259500927,0.2663734151359525,-0.17920217066034771,-0.2606846155881345,-0.7016192133080303,0.19684417228998807,0.47403884095793547,-0.10940666082753181,-0.6951279443200342,0.9282337762081221,0.8697178419072731,0.01563678356615683,0.39213862055546533,-0.3290889362474386,0.10841425187346254,0.8767392457820191,-0.17086934259667497,0.7853271513177673,-0.1340482808342428,-0.9378130119004348,-0.05363853790501061,-0.9397176773937967,0.9069181903763293,0.3437561613245663,-0.8516408055329885,-0.970117309116813,0.3702294767695615,-0.47022746851212693,0.9586067795560727,-0.017201137271337763,0.7288242217820312,-0.3236003423824076,-0.45477241398156554,-0.939996252028131,0.02859670265524911,0.9979370045919952,0.7054342795236535,-0.8355679137571963,0.6970467193504082,-0.8940143361194126,-0.4190710077724061,-0.21613472953209487,-0.456896743484259,0.502544723219492,-0.017772827771386557,-0.6323686761932301,-0.018713754144829564,0.8142979768171432,-0.3259206615974757,0.6603068055865853,0.31493416210400604,-0.5170509710521675,-0.7371297831354335,0.9005422740711562,-0.5413249589229585,-0.5259016452012126,0.359455224759623,0.4774226547525867,-0.3939098046184594,-0.7198202797721225,0.827019656709406,-0.06362014211741772,-0.08069482885418894,0.30938744934168605,-0.8040299711397328,0.19577538787198917,-0.517768118323099,0.3766600056816632,0.673631097941362,0.12690514518697213,-0.8287004175729586,-0.33530312186819644,-0.9117195680326408,-0.2400339447148302,0.5009050720841182,-0.817752779376578,0.5171790660904623,-0.5956265328431626,-0.6311395723403086,0.7903060403967381,0.04859644502801652,0.5559314999524185,0.8558187888293397,-0.7037902316523561,0.661014328106206,0.22495819447684823,-0.603945135896832,-0.37072584937009073,0.5996034024625617,-0.45307355722589854,-0.3737471325375072,-0.7850803066221137,0.5579686539583901,0.41279197505734533,-0.7076483930224373,0.6559539726289718,0.8619827372919834,0.23023794059206584,0.2924353691248387,0.7700920988666322,0.8816520729482415,0.6468655567834458,-0.828011000448843,0.5636106578463738,0.4890072231595437,-0.3497627160277975,-0.5904320278738654,0.5221787500614821,-0.600362798012962,-0.7233670398311964,-0.042084318389350804,-0.05313542026485685,0.10343903318910108,-0.201870315924245,0.2112520136547028,-0.747056951586146,0.06325982353274374,-0.4048900945477976,0.6116227139636139,-0.05248949965727335,-0.20916640867515396,0.823150805652431,0.7507336196284017,0.1251294679423034,-0.5067640119306842,0.9429015870871496,0.09121928880513619,-0.34026819157426624,-0.5194049130749911,0.8838894655387335,-0.6498804612317497,-0.7038509974739752,0.11193809803199861,-0.40856310977067944,0.9250905797123598,0.42100547672665534,0.38394250040126154,-0.7078421073146312,-0.18979040025892568,0.012996890416929478,-0.17166052286258388,-0.12967930649514264,-0.7894237940897944,0.3178717578438327,0.5749795745974164,0.6584926044125408,0.08092880715338595,-0.27891971104652963,-0.8381353334759818,-1.0252559904563383,-0.45073229714322066,0.2269132600426318,0.5686326006909832,-0.6824985918041777,-0.04733042281462363,-0.9752119192738141,0.9114877581184206,0.08418375397295863,0.09163232384791242,0.5461056360723944,0.5590179951670664,0.7349367885547395,0.04856035467293419,-0.46497767506961074,0.9263082816853692,-0.33922971381769973,0.8434785815547597,-0.4760188210833017,-0.09690911764462641,0.7904285469124132,-0.10560357543490721,-0.18706446257915818,0.8349163734657332,-0.35710587939703947,-0.8675021012640747,0.9004093504086141,0.5819602636988201,-0.5884314826520196,0.5196630167155293,-0.19719832393540168,-0.17034853034761938,-0.6720299812369188,-0.5489151643351257,-0.5280926858671442,0.355446975378062,0.15167844255998664,-0.27067256871176537,-0.20556331016382356,0.6387673130439442,0.879727171404071,0.5192141373538215,-0.6809666650896116,0.20045021139106267,0.2631871147375493,0.4586094214853875,0.0939933406891766,0.8390946097316656,0.6839656787321655,0.4053910003861249,-0.026147537012435836,0.8594957356703433,-0.3973290893092407,0.8457488920030318,-0.6475184586406628,0.08142843457592469,0.7402287094749931,0.4146837234649913,-0.061398468256259435,-0.8169274495767489,0.027055445605449036,-0.6025978548464355,0.49872502940647534,0.5939629513742231,-0.6969374211956456,-0.28391063459399657,0.23104797640398522,0.2838519528898653,-0.435408358387362,0.19033600937975037,-0.20609557239253146,0.9314428548940656,0.04870696973461053,-0.13053570925369284,0.006477639645529945,-0.7024053500320879,-0.4163851484474861,0.6210867315501923,-0.40332917595743845,0.19208535067970794,0.04057005500078354,-0.9695518540407104,0.8716037999954017,-0.007851255664230825,-0.4158516030140581,-0.01435961708466722,-0.7555824067726773,-0.5241323167011318,-0.9393913745597896,0.34996023650744945,0.6234950663631293,0.7776311811886873,0.799086935724638,-0.38863755361579244,-0.38828813256150485,0.4768855718322498,1.0103196931653915,-0.26416895663641254,-0.08842248632218622,-0.45290225066845413,-0.7875615584040898,0.7913464726793275,0.2894435989179352,-0.4646878009290643,-0.35524255485768086,0.031842435959362404,-0.18692691014008467,0.7076956093415513,-0.19339133836097624,-0.9750049455014591,-0.49435439895070005,-0.8473887399758379,-0.1469190181961596,0.7671337404669768,0.15563150774412096,-0.029065973339541022,-0.5162534702179271,-0.5177309110377594,0.040556305572649665,0.35475776314491303,-0.5251173775294411,-0.24482529388965357,0.2232433274496548,0.20044152401408244,0.555607287152829,0.027033906246202877,-0.8597213972213745,-0.5645758279462909,-0.7542504156474464,0.529725166966857,-0.6817126519277401,0.8974353763844611,-0.2852092463163895,-0.9809373378253434,-0.05019817244125475,0.1796326632110138,-0.2923980654000266,0.3450436187880886,-0.5920192366281937,0.5896784232763876,-0.807945987561737,-0.45300326891904646,0.6606327935462522,0.9980534448135892,-0.18500489237951345,0.48758352710287256,-0.03520936008319697,-0.9531819056501528,0.4571453600456683,0.6407712379660324,-0.006860957949823221,0.509249011757434,0.6840410819271461,0.5726651177513025,-0.9177337073661418,0.469746255938099,-0.4313616988890062,-0.9039637508303527,0.033305126473909534,0.6412009703643636,-0.11441578949156427,-0.6458900099338375,0.4295199741387874,0.25071226092344434,0.7270049017981396,-0.33233920049653654,0.4623813233268874,-0.165605979470433,-0.16836418695523858,0.9517993098829013,-0.7660851984604317,0.12351383686889043,-0.9125099023396661,0.4925209616741728,0.1980109071349776,0.9371769316201921,0.09453337969935194,0.22518327982406294,-0.614553583606404,-0.9507778323957593,-0.9500546306162254,-0.884545175880005,0.008224178459668899,-0.3446200095768503,-0.42685200981520766,-0.15476813009131363,-0.7699643788401793,0.16878779287344867,0.9500143116398038,0.48574785068196535,-0.3712738547839244,-0.3754794748758269,-0.6543621640966029,-0.23242885257996987,-0.31265676130257397,0.8173861078223824,0.133547963749234,-0.5946236490733788,-0.7280875313633977,-0.8387888789471204,-0.9496752749894165,-0.8339409305872121,0.24495946208246022,0.5100673760800005,0.40684786970114706,0.8696185685087081,0.4217589140971001,-0.8272814721927426,-0.6553810376931826,-0.8508901726771925,-0.6012165661189156,0.4032625361520406,0.7736183998810237,-0.014252907680674446,0.6052761917017654,-0.22678724814471865,0.3643235334967856,-0.19388955298229218,-0.27784717693818967,-0.09116439812012818,-0.5563634017966403,-0.7044048282830009,-0.11724185839867743,0.3652385091974878,0.3648332789279442,0.6154999555943615,-0.220092330244986,0.31738899123716985,-0.18249899949063497,0.3954774874241451,-0.1706243153524698,-0.3108552355835471,-0.04673772167728174,-0.7757697160242916,0.9988974425936572,0.8661489486071043,-0.15942163726287972,0.47013178722473414,0.22597750054019383,-0.2830333083159545,0.42828344158070775,-0.9467473421620929,-0.1887513950810689,0.8061240882100771,0.0973027595258921,0.23649355885718187,-0.08860013182236237,0.38162287644554393,0.18581721016628108,0.9175348054123796,-0.5343715447318484,-0.6545869238065728,0.7301983525524193,0.3730474937675556,0.7232680233012584,0.7690481167038801,0.30919114549612936,0.9210941026318951,-0.8283462328036997,0.7912857317325126,0.08970028678406972,-0.8956304834669597,0.35521752729789235,-0.05085852511732769,0.30566251059326466,0.6887085948552512,-0.5799726796713619,0.5204313984699427,-0.028644948397744157,0.7261678932850233,0.9468338703632975,0.9008464304537861,0.5678561874021932,0.9943579227471057,0.5162424507938946,-0.5975022454573022,0.46132051513976463,0.06570609279412698,-0.7534380740390214,-0.8775595378435953,-0.2658893709713837,0.4036257074691273,-0.8603895508567991,-0.07019670324177824,-0.03319695979274214,-0.48148391730620715,-0.02783133044272257,0.5803198030126839,-0.49915353744251356,-0.7701913480508101,-0.4430723942085506,-0.08054593721430092,0.2984780200284338,0.43469176880768123,0.6074566268697505,0.3006133046401149,-0.31605567770264786,0.8617315501115083,-0.49881795482006464,0.4081452828250739,-0.1864471016707068,0.38832481574420613,-0.5586468562662812,0.45767740339478746,0.9185088311834455,-0.47463699752565414,-0.24185152173186994,0.7437287542231457,0.8830112281239928,0.32877964681423255,-0.7007980864949028,-0.7408716640442657,0.6973483197561511,-0.9314097161298729,0.060875209542399,0.6859825000567281,0.9646105458795142,-0.574741069960753,0.9821831341749909,-0.21299100071796728,-0.2834600747020264,-0.16029063386856146,0.0048115289275387245,-0.27099951716738285,0.15610136282045928,0.025799046897086016,-0.3967894345509417,-0.8669437499122182,-0.6067024142672532,-0.7837632693405935,0.7217229613825653,0.5888198875502506,-0.48027830833253876,-0.18393085155270228,0.3142008946709743,0.37463529065005663,0.0037495148233876435,-0.31155013167837176,-0.010684610815106299,-0.5576783202391482,0.7790329110711034,0.24638347292616203,0.7009542480581228,0.1720668157432539,0.9305518902514838,-0.70231165909316,0.2219948141006729,0.22986493410070663,-0.6261834407347178,0.9215388353548659,0.32545417359593093,-0.7505393360950604,0.8667826264921753,0.7058351426746723,-0.3148972654676146,0.9693766289373739,-0.6181835943196987,0.6873277504663001,-0.7270315098070977,-0.12002484591658745,0.8892105932247407,-0.39356278976959264,0.37097988208179244,0.7151131847386752,0.6335379861809118,-0.308312836712372,0.7104503250263865,-0.11474428657197588,-0.21908383686984134,0.7066369725887836,-0.3100390458991933,0.276160677557886,0.4359435408543533,0.5398614544141394,0.00797608821092921,0.4701564523718118,0.13875511807331598,0.8360660522412817,-0.20270410106769632,-0.14141036255360978,0.7929385124014154,0.362412933608607,0.7472515064824355,-0.5305647210119583,-0.13260735051522063,0.4483921533234943,0.7097649603441922,-0.20710556578152947,-0.9128513391990323,0.31809321949667735,0.024435292422307422,0.359638866035521,-0.5753734168319206,-0.923882686497589,-0.47691051544477725,0.17582211511946388,0.9042678391115124,-0.9858664758437623,0.549880734435227,0.23886472696385574,-0.41276198411954657,-0.6632608993273512,-0.551051229029452,-0.3328204133235013,0.2315778812540592,-0.9395088752706208,-0.17502538662833955,-0.6670179690476501,-0.30586644166452903,0.21185964975320778,-0.17844829002250226,-0.47069785311427526,-0.12791139039828012,0.40797733599111635,0.09700486919485751,-0.4936017846325594,-0.1826409001404435,-0.10915098289498848,-0.13064917556227099,-0.7889195975562139,-0.017711040369598,-0.12415447604104624,-0.23202623111755882,0.46885363267215596,-0.2795618471128688,0.3629400466396193,-0.13037380721903113,0.35982622735194214,0.01677196985891638,0.8321539730914653,0.5658886132602992,0.12462159391707806,-0.7138146821939455,0.5698483524341044,-0.7144734472257889,0.46940560737825704,-0.07771783490473555,0.08374399465605946,0.21548973461912527,-0.21581988436191285,-0.39111161487475893,0.38602171376708455,-0.8716032495124281,-0.12324803076286286,-0.5603404338766239,-0.5692415795539132,-0.5275250362892828,0.026359727422060327,-0.013538345498315563,0.9793968209900878,-0.6647954358089694,0.02428293275846305,0.1834360878837462,0.3715365395748693,-0.7253321342753862,0.7113924919214996,0.5687653317902075,-0.0199048617016081,0.9467414337893676,0.8686378346144399,0.19063467308442794,0.4669819108522413,0.3234458720886362,-0.12594592251160452,0.6588765250793083,0.712257680349172,-0.7542119527953732,0.29157794140818427,0.12574264366447108,0.6390365397739395,0.6171019028951887,0.7435235851971175,0.6273480202335144,-0.9954105184144547,0.5409067140894849,0.5756041596219275,-0.25255122652861817,0.8754569626764659,-0.006329623519596428,-0.73378730180384,-0.10322393435203658,0.873301713668416,-0.6085433287585822,0.037375148868828534,0.4969494089004347,-0.4583943194981638,0.9411855060333318,-0.08535122176881471,0.2946111193367331,-0.42692512992160636,0.8999458858277396,0.9464956223715542,0.1486722245573402,0.36191501159310113,0.605227748679569,0.15005183739124428,-0.9361734119878027,0.25434267299917646,0.2336402811266669,-0.23707442415741942,-0.7932428998982636,0.1569428120450849,0.840336302525132,0.324292094182759,-0.637705081905101,-0.40999932839069486,0.37485087261295447,0.14860107337525164,0.8102260929579967,-0.3022565354137945,-0.036056281549882274,0.6933083691137416,0.9864247618179884,0.6805287355932075,-0.028138231033523642,0.3173329594160117,0.07552523961082347,-0.7139292767801924,0.37710466858796066,0.11727084457747217,0.7710721743158402,0.33113926897344137,0.9969668220714512,-0.44733222641392245,0.7390906539461997,0.6706062805236346,-0.4034683319756148,-0.7124829514475925,-0.5703927341710742,-0.5887413907743717,0.5130978131262109,0.49310610047220527,-0.358183318450201,-0.769255199362177,-0.9422247092901844,0.7221900260644918,-0.9972801217796654,0.06212365490483296,-0.32491976922607035,-0.09305126270887032,0.16675480788888164
Weights[2]: 0.10442268527318843,-0.4031323452494724,0.609131151628276,-0.793362483286002,0.9600708605535659,0.4681434889641327,-0.6099467573733752,-0.712105210736443,-0.9254734022195793,0.7777558647923897,0.8772380044112158,-0.8836305634508052,-0.008146598473259492,-0.12270186148709705,0.17761921751202037,0.317914061862004,0.5902423623903852,-0.3083113624287357,0.9934690035849201,0.08733382406054702,-0.2810061924536741,0.39896748373236846,0.18464565145999456,0.47083761797791235,0.05149168756394262,0.7556799611801654,0.622753444883392,0.24967174290198457,0.3146130811956771,-0.9865984152940095,0.610990492445878,-0.529844068703169,0.9505160366885905,-0.02151225834224013,-0.7732834162997471,0.40009916732092354,-0.056463378042198475,0.5324531372322017,0.7105354199700689,0.12838817906025257,0.8974638059257827,-0.8582875234346313,-0.6632679885547925,0.7353419483338213,0.6158680960609895,-0.47455275499939586,0.2388913991110826,0.18047715219691263,-0.4554291914475286,-0.3151941836416694,0.47188129251444777,0.9833915932026653,-0.08652026629379028,-0.9205790161716654,-0.9264093748882456,0.70545520154082,0.41222200329053305,-0.8617064663496364,0.15514582915005537,-0.7956091006265995,0.8453900440807407,0.1403814997246402,-0.026718291932120164,-0.9388749869255698,-0.8332346276534882,0.40708207311438493,-0.8341466001393956,-0.9866343401310194,-0.34941844518735,0.777520050191097,-0.6256225600957975,-0.9422107748418165,-0.01884678239880444,-0.1349191754753325,0.18987001813476434,-0.42271866901904287,0.062235472287160976,0.4493037031261733,0.8549695219169229,-0.4739555574366616,-0.48321143793091714,-0.5577237073135207,-0.29489906565048685,-0.3701927351626534,-0.45847970780845715,0.6275988992432127,0.5566761975906214,0.8710950528602559,-0.09510288345399442,-0.4787386178405669,0.9878771640303905,-0.19475691169256204,-0.6226926919178537,0.5061445205966684,0.28299813497951165,-0.24291769379885764,0.16843076849748884,-0.7243930016292226,0.5685765759873096,-0.7912139770533955,-0.6404061548600002,0.22552573924210195,-0.4701044026157374,-0.23294924163862563,-0.6895716235458719,0.41409206735626425,0.0022383756014696665,-0.9516010908184578,-0.11044903430642983,0.49630929413079716,-0.3567802707463411,0.9629183001643598,-0.7166759882665593,-0.370898613413283,0.6876023373043176,0.40311375139426153,-0.5647194346248728,-0.6565255567694668,0.5196047208828873,-0.460833526896701,0.8504058755237636,-0.7052416529996515,0.10846854332297506,-0.8706798273467831,0.8019468547546355,0.5907723653309122,0.6983863127540973,0.4771893535714431,0.5806802251706771,-0.569443882322627,0.4074480981089884,-0.21381255261647125,0.8807271271388639,0.6461834989703183,-0.8339689461147304,0.29084105948183137,0.9123806953022167,0.9380501759881388,-0.6806211116167815,0.1274282248352785,-0.374639476358257,0.5082772884090792,-0.01845591283331438,0.4085878224152084,0.8780416529057742,-0.9750411361339694,-0.4780809234260027,0.7482059214954293,0.8185421832923507,0.8798843835852501,-0.6781982591739848,-0.17235299053116004,-0.22393256507923673,0.05040885461953421,-0.6224290708743304,-0.9312200402054791,-0.8841451901755794,-0.6004238459248354,-0.022581148663832564,-0.2594439067799952,0.7286415222781424,0.5030678673436099,-0.5364341125719082,-0.5424199568903064,-0.9125412683526712,0.8565912553372752,-0.917808826974504,-0.36285948723687766,-0.5373492108366216,-0.6036604855226635,0.4907330560920449,-0.5027696106130115,-0.9829806161957324,-0.6170681790247603,0.913805949461556,-0.6578714128853154,0.3134874298729427,0.7001806039410202,-0.7479558037635047,0.7668742506744411,0.0632866558466264,0.9531783556746232,0.6761490663171945,0.7082269509132779,-0.8887201813174764,-0.4152155000486129,-0.9679428811196733,-0.14802549268060905,0.2767125838824565,-0.9171177313891873,0.17098380843754968,0.5121971299127729,-0.03935769621252905,0.5780848635258549,0.39381807455505147,0.09813084504480041,0.04196106877269279,-0.4752191665932626,0.32112909076787965,-0.978549602431501,0.9283870851724056,0.8661750818751219,0.2855551323320509,0.4226488465458356,-0.6086815235285175,0.8267595054259861,-0.196999125710315,-0.6340625553247454,0.11791475401181982,-0.995156160181129,-0.27314621540839695,-0.6301513646255924,-0.9036594597418218,0.19025156035209276,0.6773601588737878,0.769946509094252,0.8409885718737017,-0.26082784219705163,-0.6588862820895365,0.503564494430816,0.8259650589087815,0.2308741487706425,0.34933716121564484,-0.6389643101203089,0.2221338875694825,0.9789277855208738,0.5365880855995175,-0.5539893086785401,-0.026750572531160546,-0.20292837751899892,0.30016751834199185,-0.21140267154950748,-0.6192542285733806,-0.7679165085948905,0.8242835410758951,0.14655689000505867,-0.38587265925712727,-0.7995838609433522,0.2787643819801596,-0.7480772590067438,0.7391965819811785,0.6148908975397093,0.6833404909273957,0.21466894256277383,0.28299845392803213,-0.26353840944370516,0.36236572442646925,0.7479184538814792,0.8840061136912583,0.5924839198554326,0.2273676801600344,-0.7221568449037881,-0.820996449245604,0.8175645963370635,-0.8045146613402826,-0.2881064579301078,-0.48989585501052096,-0.09408403948339503,-0.7999312187544682,-0.5897764580276685,-0.7112882807224149,-0.6444298379521128,0.35436184827077,-0.7481975567955318,-0.3183869373622459,0.9418681846022712,-0.9575255910090578,0.9277666907417688,0.390218406182252,-0.5059373886604981,0.10269000002177546,0.5619220033202844,0.39479625533448465,-0.9566771484727323,0.720526482352612,-0.8408353560794309,0.4951612779382435,-0.9222146300236762,0.011041828901992012,-0.5348952643270117,-0.38358058006669427,0.7886696317180384,-0.4379954223697984,0.40062443925034685,0.5603451354575835,0.00372088131002532,-0.3905701243274706,-0.43881296619717636,-0.9656572164807735,0.08980757850209878,-0.427716421820943,0.668759370129706,-0.9939118251958484,-0.08200088029938823,1.0173237881530421,0.44871407681022557,-0.708648787281469,0.3839299851312876,-0.4964696955809391,0.3165639455740355,-0.3176688620646179,0.43421374777597666,-0.6433300911032285,0.35236407506855394,-0.5621293715956293,0.5908683601724303,-0.17322778011356843,-0.8803591122293655,-0.9029664312968806,-0.9636793052608517,0.21673226413164848,-0.556039782303124,0.8844881386320745,0.7163605636367905,0.7938041220390257,-0.5006863658785291,0.7647494289393783,0.9049679407583557,-0.3434167897981176,0.6620608175396719,0.35061479987423727,0.4970802125931145,0.9043023629634845,-0.697845298943944,0.8697968905439862,0.3805953542184327,0.5468545393529228,-0.49507792255104316,-0.9708010451351781,-0.7132051453278889,0.8563762013216552,-0.9406225438884565,0.522317620703167,0.624235779803356,0.7465004286479673,0.17337983715039673,0.4315586962884099,0.20964050256164768,-0.03199612676724606,0.9792921093126045,-0.8334373315589447,-0.5239068270201355,-0.5358465349002959,0.9714613114456508,0.8385120937653419,-0.884830016014325,0.7695279823313046,-0.7037028606080347,0.11003350893959392,0.521236101607653,0.654451708298695,-0.653346797086959,-0.31710017892212133,-0.19113669615984016,-1.0130318361168755,0.21208823194065393,0.5309867069043662,-0.9277285199529728,0.4459973415843765,0.00545875774950666,0.9885641038364563,-0.72147527882898,-0.9412904213840563,0.8046859287678665,-0.8215108941409321,0.15735480802010504,-0.0646615880842607,-0.728905121024675,0.9594741420062832,-0.3872225451095029,0.06438998118292366,-0.4660896427681132,-0.06363185588740365,-0.3251754059599352,0.49708453844114464,-0.136715762978976,0.012960292036180321,0.902159328862837,-0.6323488050854321,0.7035570726792068,0.5717054207284544,0.24688525317298793,0.4082726788720701,-0.46718089818585756,-0.35562153230920185,0.5138686184246011,0.333495255555686,-0.33939044984960487,0.5911876669112535,-0.49486606730840454,0.6154662536529201,0.35523248992638323,0.7619231574991361,0.9625451154832472,-0.9911250397521654,0.8988804674166418,-0.5979100656323418,-0.3502336659045988,0.8149061675270715,-0.31881769430558715,0.1785288814407636,0.5054268232352487,-0.7001666117645863,-0.5503171764059384,-0.6264419125410458,0.006085131785511593,0.2921846017896268,-1.0473884479736961,0.29535762692190654,0.13319872425524135,-0.7991209715243351,0.6421007557434267,0.6820174955887838,0.7101782967979762,0.3800418703316801,-0.3145091344204308,-0.1607034630890486,0.49689598916885247,0.1476761750633251,-0.33760228629112354,0.8221395489862839,-0.7252711382346559,-0.30194583316424206,0.46620991558044667,-0.02391731189156661,0.6854732134356727,-0.20637875631337924,-0.04553704557523724,-0.37411966175473976,0.49748498482733394,-0.649484729273437,-0.7280230827625894,-1.0119097625606077,0.6021881524060424,-0.5423263518047801,-0.9377629991967724,-0.048350498863356885,-0.04793430772254222,-0.8945951880138435,0.576716533208511,-0.8362824490573791,0.32301284889519555,0.29580357642140775,-0.5778914976762102,-0.7231482172958312,0.9446565806607978,0.6664004873793574,-0.9504867335550891,-0.4192255788572252,0.32338409466826556,0.07773088527737682,-0.06581657988290146,0.4982096781375012,0.13693394220214256,-0.10734802708556962,-0.0752673437800427,-0.2506567944362148,-0.2463488874931641,0.42696722112792485,-0.31576959865540605,-0.7770823553016674,-0.6626443756885022,0.2841803185734562,0.7486992261268646,-0.2788882324385665,0.8649742417221163,0.5762002518682972,-0.9870727157206461,0.2090016950322254,0.27593444454554716,0.6930791821093083,0.8886633822175969,0.36644518159630013,0.5427993086831642,-0.503542466789271,-0.5030960736345016,-0.022380153193315544,-0.7240543354880318,0.20647790152881207,0.060301450574910875,-0.9538780394726796,-0.22823142503771532,-0.5528945894152455,0.3794118604246985,-0.49835877410454804,0.499082636332056,-0.15766473647893722,-0.08843141111572855,-0.2610713425859034,0.5505748224160597,0.24886073733072508,-0.8693386988679123,0.4649776024871994,0.397561396232323,0.3459198333559781,0.8295697879853539,-0.9804617525923208,0.5144372527518901,0.6860174884629932,-0.5977403459235591,-0.6585089530243888,0.6291269714148375,-0.16159003468304411,0.3032098167125181,0.630199066191073,0.18906750305977993,0.5677382385207983,0.9689920525853486,-0.3393222639985952,-0.5831032757689237,0.9808592117013958,-0.4564284885493433,0.6200409205932412,-0.5765060758644266,-0.3260819651868792,0.46034204193005174,0.8740390247315749,0.9205029455947472,0.2450634264689981,0.20497718708979776,0.050656871221417495,-0.3136745875939125,0.2704288931902973,0.66298164918953,0.9950480735554282,0.5286769904421473,-0.5779562567142885,0.9552112254220727,-0.8308933237361834,-0.34837530522997273,-0.5236596602591033,0.46283125386705204,-0.4099732122430453,-0.19570854082503752,-0.28111638467810884,-0.5830050108875171,0.9333586096453288,0.14521651400199984,0.7513391447219459,0.31246300739907445,0.9291088993271076,-0.1271397101145774,-0.7488633997064392,-0.6776496498215753,0.5620331571741931,-0.2518455028357881,-0.4880472247417268,0.011044834387473402,-0.2454395383364478,0.907782700078116,0.9436893308164508,-0.9070812742562466,-0.7640826011840639,-0.5514316535180812,0.3696154913938862,0.6488836892392158,-0.6703289438922518,0.1693412517985986,0.3084234955294167,-0.8981178421052721,-0.2325997227954677,0.6129035305291897,0.8002185643651609,-0.9909469587686225,0.9405519021398163,-0.4808735662592944,0.9549633000782677,-0.18535198902275374,0.7025430837908108,-0.7444437883638018,0.5271751731192958,-0.2700619592023975,-0.8266265683494505,0.950107525416819,0.27071527710110316,-0.873768717140118,-0.539801692521015,-0.018815557259506024,-0.9173888956462645,0.2467195855476727,-0.015591396491784315,0.37800661724899265,0.21594260782745778,-0.746169861287889,-0.32037025006505204,-0.6214747166361076,0.22691385505111605,-0.8584085823308716,0.43494490880283765,0.07026886710443936,-0.9126207846741289,-0.23598264215326992,0.8366361362098884,0.6500165040497294,-0.45355541017224343,-0.683945536571399,0.07112342870918979,-0.7594832586196038,-0.6183824834310253,0.04280407900580529,-0.2179660965216861,0.7046560249192898,0.29947454033603316,-0.5506888625689892,-0.5944042537799823,0.24629285217536753,0.9007175201722851,-0.7395287224098326,0.1419197438014297,0.20934005417364654,0.20556958355268917,0.350974652613967,0.06065497037985135,-0.9490666845576217,0.11747355438651219,0.38939365995553965,-0.6030390772982682,0.54638842565305,0.32942329129642967,0.562026618775924,0.29190704659181965,0.8137483004551624,0.381615697313457,-0.3659651224743619,-0.8315461399256387,-0.23708223073144077,-0.10815471057516626,-0.47835624577994046,0.4170701826688205,-0.02145587265938153,0.03795022008991778,-0.8318310833815068,-0.3855452113626117,0.06929958749549074,-0.5503701580794734,0.2397064909122557,-0.9612020589230592,-0.26722610800863533,0.8646106505136055,0.43541306696618576,-0.5482656823230282,-0.044514074476675214,-0.00032832613230138197,-0.774395145370809,0.8646992835517504,-0.26359543728809587,0.7033623874668788,0.7857028207675101,-0.4671304609850503,0.1591221455980364,0.9230593639454651,0.5281459963686549,-0.08738616870345846,-0.18053154334055468,0.750561784412184,-0.03164315584210322,-0.654839067728152,-0.29533499690646847,-0.7305509874573769,0.5901738570325117,-0.6376782467889082,0.4077891878002725,-0.17221377538493832,-0.8639936966589514,-0.8780516106067465,0.0032293000273542205,-0.24734829424291305,0.993530219417778,0.5752839220572654,0.8603048994486708,0.35059571887859886,0.664187030710367,0.6817777751394445,0.8940102243302437,0.11029230109895227,-0.6635788789315051,-0.18456936629795975,0.1584223267836425,-0.22821702950540043,0.43417645972006075,0.0602423630847173,0.10747345467168119,0.9911729532655849,-0.7388969494664712,0.06733226546322472,0.5611652590153577,0.2693615540732378,0.7251580470593406,0.27744356553082866,0.48788288026396515,-0.1173373211359079,0.3163101662090679,-0.5820506548425419,-0.7629023342220589,0.08233850965385248,0.046125161017349425,-0.8984339823473403,-0.1537967934989356,-0.8963435347640624,-0.13853001647560392,0.9837528569548171,0.7098321680491009,-0.7895811012897552,-0.32793617217239746,0.8069920687968806,-0.7430836035604977,0.844448630625591,0.017271365512754544,0.7079992544408884,0.41323336279635936,-0.8462154128803944,0.18939790836973014,0.935541829064275,-0.1171150594563759,-0.43377546832916497,0.20893825094683782,0.3637980076689405,-0.44175299051868955,0.08380721038473851,-0.43921686962210427,0.7121706063450177,-0.027379685559952516,-0.32394004767944107,-0.9323886213509313,-0.05134725433371368,-0.9831766113560538,0.24623768555290892,0.4446801093615034,-0.1883282853236088,-0.9358328599183974,-0.7651448965841647,0.9679890563562461,0.05246212754978896,0.9080137982536172,0.44818674933546543,0.34851194794686147,-0.10497959382132604,0.31674925392342224,-0.5470718348152339,-0.18956854715457583,0.7167166283897668,-0.7262126718304178,-0.9279678631238489,0.9012925672319902,0.3229724170654571,0.6692561781729928,0.38939748996376916,0.535064404613834,0.6679287970382388,0.834703257230438,0.6293290861087522,0.5075663437636413,0.7600825884193567,0.5428733348580419,0.14929937717937825,0.011132542514769694,0.03377221572854183,-0.857192479938824,0.7234110821613162,0.7901686801529344,0.010678710886593334,-0.6002314787359124,-0.7944003491636367,0.6438321143592858,0.1783782593805241,-0.8142044692366405,-0.8630642191800588,-0.9724719691893421,0.43469819120815867,0.22065692079284083,-0.6473851537552593,-0.8999531790148249,-0.8589284912957477,-0.7243108347637164,-0.15593349801187095,0.43838327817543554,-0.09941182243610347,-0.22817695198030075,-0.2862765776395223,0.22639850025363195,-0.3814071125264312,0.7111732809390747,0.7767513123232646,-0.023031542554046713
Weights[3]: -0.272711240347806,-0.7920935320631105,0.5095887926917471,-0.2412855789257612,-0.5629457931793043,-0.6852602677816806,-0.24778711388250207,0.593338171762106,-0.3372405149681682,0.7997527419588308,0.316948107125679,-0.9318123226667812,-0.5717999774831347,-0.27414135507966453,0.1680924255252314,0.5853184645927132,0.3707024703597195,-0.8996337865943247,-0.552728123754602,0.4820884109856973,0.5292822651235769,0.36649483505938885,0.4843934231830731,-0.30119316713008715,0.7109160990039427,-0.8894556350491268,-0.7380508322911574,0.42908409770069844,-0.5029874180923157,0.17157579267936574,0.2995054299475184,-0.37698279105917676,0.22863119339040994,0.2089940603864351,-0.5489105002716699,0.97788906282647,-0.3726530118718059,0.2688136097364191,-0.0023560156125370657,-0.09408281142547859,0.6004019601272428,-0.493291350776931,0.47831202367242054,-0.5240635767225472,0.5271183948624498,0.3701956008422167,-0.5276118449529688,-0.9540355969006361,0.5456309968352462,0.6410800356609188,0.24789041711384918,0.6108070675333994,0.32947943607786634,0.4948800464602561,-0.09444421115072643,0.3607939245928051,-0.2764869552461835,-0.1892180401781658,0.047798322070295995,-0.6734901581301773,-0.9472094354905232,0.3231287884167995,0.09632558985442174,0.4911836923524662,-0.49975268798868766,-0.30606910181514413,-0.1604435160571912,0.2192059621304301,-0.7252308548079947,0.19020336269876137,-0.04202852353548092,-0.8981111393766995,0.10272222901821237,0.5413546876708766,0.8816864508584545,0.022573615900507882,0.8881828113869683,0.008456999905620322,0.17168843800746303,-0.659279501838274,0.638156209903842,-0.7840152353905212,0.883453100865452,-0.1440674537532346,0.9236853755655166,0.688698362414119,0.2935377728629567,0.7337511469301541,-0.6965617284628385,0.09029557513552522,0.25437601807265353,0.8165650283063599,-0.778984712333877,-0.32886585748235964,-0.14687337593495542,-0.7227268282895567,0.4103830593686473,0.9871283313199544,0.9756891112661403,-0.16681250332240594,-0.469360883100592,0.25318219291660116,0.7711952579073587,-0.6445723658635152,-0.3168914408036002,0.14600155649054858,-0.49191516148481296,0.7881247484069898,0.6131935956018015,0.8829821729487657,0.4726111132058366,0.7150560448481962,0.6390935218143712,-0.2929221760914299,-0.31164636803401935,0.836805799899998,0.43967568755134745,-0.7596069563923435,0.5674983167869496,-0.18845105040280663,0.4003931253218991,0.10580533701265482,-0.08423230940673143,0.18447357005648013,0.9358272655705259,0.141406309129378,0.8808734579176751,-0.5669143824207034,-0.30710311033806775,0.611842291677531,0.6168593825879612,0.9025226643613823,0.03276788863947977,-0.661499058670131,0.8012916508274093,-0.6238622199579045,-0.5552104932978799,0.5280254667289674,-0.8271760129496344,-0.22231618092503225,0.18061352389893193,0.5054130244559669,-0.8794424486716476,-0.5795439014116042,0.6176844619296884,0.5393199732244573,-0.8225284935080113,0.5139374637575529,0.9827805105516596,0.016320824165046544,-0.16240251584090415,0.1697914359686144,-0.5806789988448461,0.16302737711820872,0.43206841554292846,0.43013847884582074,-0.6594969041218094,-0.40992207144642295,-0.5778865233809888,0.5467016025934356,0.2597810890181453,-0.9374169445595743,0.08207263555392547,-1.0015221864363664,-0.7292083835830951,0.5715566331388227,-0.3177118437912836,0.3005925804845022,-0.10300355735374778,-0.6966203850212602,0.3920162931978779,0.91165022082238,-0.9326512649963368,-0.2104733417371099,0.6309354256982613,0.8949801008659322,-0.015505050573288538,-0.5058165004742909,0.5637039010273278,-0.6085276668255342,-0.0415477955643112,-0.6393686175544419,-0.551563763432312,0.6730659668143355,-0.2317077861189168,-0.5567175323403546,0.4830131795139682,0.871370486828028,-0.10707035379996017,-0.6336096917071539,-0.9688002404007047,0.8524622082879486,0.10842517721859046,-0.368878123987875,0.5125558355415964,0.104116771884317,-0.594483660345191,-0.888222765125438,-0.850335517828509,-0.9538721712091343,-0.14341593323840268,-0.12370030646414296,-0.38305897888869933,0.6781712630188559,0.6183320299902795,-0.0813317635984909,0.09475525822700585,0.6227200354056188,0.5285764272543667,0.5386607382599493,-0.558401854693978,0.8447273131464407,0.02241268616063902,-0.9766142808906948,-0.4212960388330291,-0.09551891720454025,0.6227739332157148,0.4163756043439123,0.23183867980953665,0.8285910756460348,-0.9098678323951865,-0.1863395707618164,-0.6051139894896718,-0.4882511587293126,-0.7441798996851685,0.5339484743466361,-0.19677495639621045,0.43644718054516574,0.2764768760123575,-0.47376057865768656,0.4894637612111232,-0.12698115094481408,-0.6598485948470318,0.5138465183311878,0.5328608676783998,-0.9137591134013611,0.749765225272213,-0.23635384864134473,-0.9490133082285087,0.8453429737891468,0.3414902485738799,0.853390250213304,-0.6601732157264503,0.37080194041401243,0.9411014881063137,-0.8016250972760148,-0.16435886102222624,0.0853322591098642,-0.9466452933599452,-0.38563603879215014,0.4764275958186144,-0.02247310570556349,-0.1301872865903132,-0.6789265934745439,0.9559956611860523,-0.9566286122224427,-0.5187959778077604,-0.8953870526310143,0.42358079525808834,-0.9096439433794673,-0.8792853436206488,0.6627208568774358,-0.6467700303483465,0.009761881833117039,-0.9578409439976397,0.5588227078943385,0.5003236919361728,0.5027333079788517,-0.5100062319416978,-0.5054478781462359,0.15129761735764546,-0.14829697081418125,0.37475975879614004,0.4009191091516053,-0.5112250831953317,-0.761476781108173,-0.5217625617616636,0.026993711025916856,-0.43391276590242644,-0.9496365040306172,-0.304186764780519,0.7178927844939254,0.3830924739051109,-0.337268763415961,0.04952043250116341,-0.4886423655549444,-0.9963421625999465,-0.9754262966920744,0.5646656181498737,0.4988681464032008,0.6149615969290907,0.6512730317039878,0.33964779211473295,0.9492927430144827,0.7150908254809907,0.67579484342674,0.5030067826432855,0.33090073968948686,0.31894962853959963,-0.6309215416538042,-0.2970414659192026,0.3409087881021038,-0.3968169203185808,0.5626435529266687,0.466167174962427,-0.38185489987109555,0.5971401574076807,0.4687167235970109,0.8322619124465911,0.7174724422942254,0.5651339495392209,0.4545727756577721,0.5382023380878622,0.3726380668170744,0.39454282140105157,-0.595170564760999,-0.7153781993031644,0.695884236052172,0.9655016643817151,0.5347668613063503,0.5507330564560592,0.4592951928129575,0.933123352255115,-0.012775449783716128,-0.11382774218854316,0.5037474943599762,0.5062177680604276,0.4113991171912932,0.679412392433553,-0.17800340071563864,-0.25568386699909684,0.14920052939523032,0.7074519208201449,-0.8134589296828298,0.34136269210901227,0.3569492964804868,0.1161778891068781,0.8204489209784422,0.19672752600010845,-0.5683190603114198,-0.08610589814617091,-0.46548531501042645,-0.8076882091386655,0.8479950031783868,0.9373942485931679,-0.8413675543881792,-0.8877705405063153,0.9636704487282143,-0.4529933305095403,0.3045385851228838,0.38825013261192837,0.8083626507114269,0.3728772340754239,0.7769619995855191,-0.19417414740893235,0.22613131686856167,0.4102686049430785,0.6214974620171199,-0.3172785818771441,0.9627732969647149,0.10568848955709886,-0.8259999276259914,0.7857670457036081,0.017256221276361616,-0.021998682535252834,-0.5840665798560095,0.7475472836510964,0.3519988572480218,-0.9690480004754842,-0.9626445645002885,0.2887272644205713,-0.5347959709469466,-0.49847316042532924,0.5297216129545247,-0.38737124628879993,0.014788363906938728,0.2710330786818537,-0.9190440148284529,0.05087635682259976,-0.26805000735758044,0.38997326292609424,0.5284880138875611,-0.151613772186826,-0.6352515340280674,0.4310612649668906,-0.06251916670113704,0.7818845634615825,0.9243237729763256,0.3694525125294237,-0.8957560145742055,0.9526910399797797,0.501976190834295,0.14345342160363383,0.23395422903539353,0.32655746830932686,-0.25976838104285027,-0.2517285395557429,0.17475351584209833,-0.13070402896248318,0.5218573437329493,-0.5935615769908781,-0.2542380279782697,0.9275771698912816,-0.48745521109831613,-0.9843051156657625,-0.07852356328225565,0.3103891219181154,0.8422421807790489,0.14660026856771108,0.775120095888462,0.949368235900624,0.3161922594743955,-0.43499568480927925,0.9488403540427528,-0.42916733609439217,0.5658404648144917,0.31356381779236897,0.4161342444904774,0.5931750282613444,-0.9520798669904842,-0.36022522456954476,0.8232235106747707,0.9831113628964459,0.9270775857370646,-0.9159965691409477,0.785833158391229,0.3205507308840034,0.262282859525273,-0.8068719871927991,0.8718957685107246,-0.7328861679717444,-0.9048567971753465,0.20716530686202056,0.5300559416175222,-0.6774403834440933,-0.3698912613242072,0.5824395740870869,-0.6813632779582909,-0.6593494353252334,-0.5055545369953571,0.6210963717038582,0.9342654751704544,-0.23284161650320853,0.5798804469312915,-0.8533044149416054,-0.3641547101382887,-0.05568252739295476,0.2020420800904008,-0.3311231524362802,0.760717003494835,0.42723281934262847,0.3330398236089571,0.5814576660836048,-0.17935725711848227,-0.12691711409542247,-0.4253075973395616,-0.23368826996080674,-0.9947167559320926,-0.5610366674209806,-0.7632157399101008,0.6010668547035156,-0.9545959766214959,0.6406985288901405,0.27049105974545407,0.4988480976133727,0.8350999296659241,-0.9185521675030353,0.014370236330276202,0.6163743755981251,0.9260256006054159,0.9670987829520372,-0.02176213125780324,0.07116677382549597,0.09758594962655853,-0.5657057387594626,-0.2870910508963703,0.06041095268931751,-0.5967690840348457,0.7809150366955042,0.4490571950790738,-0.1576421173092174,-0.8830631179190535,-0.4162021997180344,-0.5654702288073997,-0.542679588649836,-0.05295492849354718,-0.4761275644753343,-0.6029698283003015,-0.33574248457323363,0.7449163400176533,0.8649541671003806,0.5766944189573708,0.8854884479249171,-0.9118105197688813,-0.12498357382525314,0.5581710230626502,-0.7184921444071785,0.4854787408416599,-0.9308928331176721,-0.7059992647676997,-0.4624409984541581,0.9281649374999874,0.5936982843995553,-0.25163870549371403,0.7939705847734448,-0.5510050493995682,-0.7381269502165387,-0.51570540830293,-0.613022535859152,-0.8376261839062613,0.5171562205273776,-0.6254147607108296,-0.7618475345641534,-0.008116430326985237,0.39571852774635047,0.49254289735917667,0.46482105862198275,0.20606353937393898,-0.18328522065971098,-0.43908728615945075,0.32529493445279006,0.6963015808580476,-0.6518145735041666,0.8543633198504874,-0.9529466657459374,-0.6175378596940381,0.0848622113079373,-0.034068250563934,-0.786948028233367,-0.12185669649478825,-0.5618556568221449,0.5782893139767877,-0.6654198894581851,0.48725311527366433,-0.08816299265630678,-0.08580705480920481,-0.47676140231860864,0.8424682861764403,-0.3532543688954979,-0.9866970357123419,-0.30940216595621484,-0.9615359340737668,-0.9895574167858232,-0.4956644047026004,-0.7713155731511855,0.49399773494550314,0.33952427815154396,-0.09860579730263894,-0.2894475917827467,0.3926623354281164,-0.9149565131017918,0.05398154565827681,-0.34498180418507285,0.503339160909486,-0.035492924646619656,-0.16321136961971863,0.5785124030181731,0.7391289331666795,-0.29761515431926355,0.41317485524954956,0.36587521031772496,0.29768377137262547,-0.7272154315035861,0.5088341606356364,0.7242087292132009,0.941871354986789,-0.9645061524528991,-0.24724785904863458,-0.9121088721178929,-0.512801348417497,-0.028146573217414955,0.6197014200733156,-0.439938172512858,-0.18825904106172578,0.881933755523462,0.29265399286812555,0.690672105830616,0.8439595420523478,0.6171881133319164,-0.46244452921053925,0.027073360526502777,-0.8208477626651748,-0.7471561244442855,-0.18198963309730853,-0.21063629128534178,0.3790063631623082,-0.07672888183813953,-0.16814365385479468,-0.47600933791883726,-0.9237070008757091,0.33593638117235924,-0.21589033548528813,0.13935741090185827,0.22967360237676804,-0.35836108208818623,0.39357111732298383,0.7733454758169216,-0.4921073303048457,-0.21988323435285834,-0.7159451489472259,0.46444331061185745,-0.3967339587060966,-0.17467684578501905,-0.7698592928195701,-0.5752744985161086,-0.5384827535844962,-0.5153209648803088,0.8321661356414356,0.6202262740676414,0.6712025886733097,0.14383928717292815,0.7322392797713351,-0.8805481222833265,-0.8358443071301301,-0.6138985052769531,0.18672297298289964,0.044839895816910946,0.4547742015937224,-0.280529548079022,-0.6547976339491073,0.01732171653645187,0.19935837333239562,-0.7793187027923211,-0.9957551728429167,0.14691808177216645,-0.8149123819161045,-0.5240955635005344,0.3317785179796973,-0.8239134921055359,-0.5024038100434912,0.5283830605001972,0.18988419804828555,0.06548854267917638,0.3247350999157065,0.061790927734011146,-0.5822175002816276,0.35449835255485884,-0.9770623799306631,-0.6061516169487273,-0.6737867797137176,-0.1070090006603901,0.09076383946964706,0.2116300720775639,-0.147211926592147,-0.06754628804863727,0.6036971014010242,-0.33534221320196156,-0.024798281968011704,-0.1581525400608013,0.4474220403447146,-0.665585858972565,-0.6961507752095006,0.777751187338549,-0.5658194309314717,0.2710336231647033,-0.7366088460589311,-0.6163821024790385,-0.17863796009812632,0.08426230455078519,-0.7605489471092479,0.9770723770480291,0.14162121024701618,0.6478074967156615,0.12293086632663575,-0.8553022406321495,0.9532718639603219,-0.33409564445451634,-0.20592571664877501,0.1014621383983001,0.9677752982674983,0.832224620428041,0.021902275747573974,0.06092581854244972,-0.6067427683653044,0.4522113667112828,0.926557877066805,0.9853124217515385,0.3618475503317395,0.06418141071238381,0.5349185372265282,0.514019035877142,0.5063397712652078,-0.5036790721206134,-0.26916971297496184,-0.8442795803016304,0.21572399568544887,0.40905545837733,-0.36732501020438457,-0.9507609796161127,-0.21262907488114638,-0.9703390324253075,-0.4676786099186564,-0.06146586922065633,-0.8450855928683121,-0.6506655726817742,0.7507690972419312,0.4420501624429831,-0.911844490986245,-0.29190968595999744,-0.0208181520089592,-0.0622072541444596,0.8705835034468135,0.8737395796336884,-0.12454763852271611,0.6197697220462233,0.31900360776065084,0.2498550150775607,0.3884096142781943,-0.017731372740925955,0.3504198674813006,-0.7135450326435012,0.01956615178825616,0.7510663586440804,0.5425978244946328,-0.28156999171181885,-0.5333204241431236,-0.3571513368395096,-0.08228107534986677,-0.03231920810849091,-0.07102623631759841,-0.45562871333939425,-0.9659505747100108,-0.25432556646611804,-0.6860511692641541,0.9372117230376282,0.29935953360952405,-0.9166318550317697,-0.09398858858923831,-0.9560771956835301,0.7014422694693516,-0.5154922853761783,0.900569770438862,-0.3398938446025801,-0.9086149408987793,-0.39598708106018,0.6499867176869822,0.6373303977946427,0.6251134405029535,0.11202953714506214,-0.16315778026504335,0.9658689806078882,-0.9795090369784781,0.6495863029964204,-0.3019537641615655,-0.4982459979189328,0.012189986484662569,-0.21800251131838883,0.395936306284711,0.43655065234589885,0.8835256117785004,0.10911299712448996,-0.4748642553923951,0.12052677344555351,0.779116550357601,-0.5651894386695648,-0.09625667943444882,0.12490906991293138,0.5597907488978424,-0.06175936156034445,-0.6795898115633008,0.23563546279242042,-0.6561563963332011,0.3444868099617244,0.28082635778972254,-0.1340878471425212,-0.6141148030823631,-0.6405400036091637,0.6596812995428598,-0.061415094445187224,0.06837703709880683,-0.1715215822549172,0.016542659614487754,0.8048848806903162,-0.8692134841667551,-0.036895216925486585,-0.47611967636091623,-0.6155368777064313,-0.9523055488021605,0.8128904904298906,-0.07378570040398547,-0.48243919456491213,-0.3125681613164806,0.46946075906486295,-0.8396028074620305
Weights[4]: 0.9593719700162169,-0.21995700300669163,-0.11901039496018107,0.6565744977707857,0.7002695983742688,-0.47492235222594925,-0.9224603511031998,-0.3131271979367022,-0.20838065129163708,0.6012067569425361,0.6220253769410893,-0.32399584694020256,-0.6312400547933019,0.8320678294785637,-0.8848268566116816,-0.34846257294922256,0.12211742863157649,-0.5426485992701019,-0.631826384752908,0.0550471940334174,-0.907429662489998,-0.27974913608271124,-0.01025974238769134,-0.18398823271691256,0.9109302376913513,-0.48071980172801754,0.07721461871509194,0.7469002584679518,-0.987973661156359,0.8028493830016112,-0.4517963758910989,-0.12561715539806395,0.18408961742375496,-0.31150291455513934,-0.09345981715873808,0.6058421999243284,0.4784703913510173,-0.9968931982279258,0.23831530718054394,-0.4567006106752439,-0.2490612311517174,-0.67033014244881,0.013265531981953238,-0.47042024110929126,0.34107940613342413,0.8478761705792863,-0.9842968229131293,-0.7843733782807241,0.6977173470415721,-0.7253231274547629,0.3954433768035115,-0.7699195620463787,0.10128714381777093,0.10534999850455207,-0.5002410651651402,0.239121106098928,0.7903027393809998,-0.9350221622432685,0.7456442600794342,0.18098940010228626,0.4478630290589589,-0.6693606095711517,-0.3251535367803432,-0.011230034293248314,0.053003132833635114,-0.2523574676608469,0.4919145356360426,0.6802628597618374,-0.07447235336269831,-0.49066905653601,0.17306703569976012,0.11901062685950214,0.21903609354935405,0.8248742259223361,-0.6958915748148652,0.7629004799588119,0.7069853319353356,-0.5398395012784002,0.4749323611496632,-0.936945932887935,-0.4964229788148883,-0.138412003004184,-0.9508170885736202,0.7373494662984039,-0.5925939938019003,-0.6818768138447202,0.7730957007841652,-0.9212603810807971,-0.8112618493899991,0.6674190767423338,0.8155394605433286,0.41349255359428594,-0.7425374583073601,-0.9426740929217423,0.09543636026579727,-0.5797006215805656,0.6548233943315331,-0.9755044337247984,0.47657662605707385,-0.4065631262057289,-0.644038365056756,-0.6645596826749667,0.29009897508197424,0.18838640357758218,0.10160983684547698,-0.7235672500559908,0.011044344404267381,0.2764129178954349,-0.19875842668058274,-0.26314154512395227,0.5321357741635926,0.3301422406593999,-0.4099545233929318,0.6825901929673692,-0.32258762108282546,-0.4137249679368571,-0.7185435209975315,-0.06250300307874712,-0.41863604049134817,-0.2651200533216447,-0.02545316844501211,0.4131749167168397,0.49152470915183644,0.2581085698949679,-0.31070404674171226,0.751668550630264,-0.14499368558321288,0.1607428705819111,-0.27058147202017746,0.8837782767518055,-0.8919422520494366,0.6824836846297215,-0.01641612733547393,-0.11850451264460782,0.7256483345898256,-0.8132092143410282,0.5714890219138418,-0.13920349215120242,-0.36426037054707316,-0.8690267437459094,0.3070788417510124,-0.5033172171112696,0.27749804559978575,0.45187969573395304,-0.8647166974212587,-0.5146027801160713,-0.17655292301278236,-0.4251276512747294,0.37991352816108304,-0.49083867179734575,-0.8611571005830342,-0.28513299759046273,0.43465520829966503,-0.26501864462854335,0.6144970148271982,-0.0698622845120068,-0.16012814500465605,-0.9829965002335764,-0.5154865484019878,0.3440546717441267,0.436388195011704,0.9009681104943149,-0.4072241101220805,-0.05781024055117255,-0.37121863075123107,0.8496460085034585,-0.6534416320051261,0.708549989251676,0.9754977607985482,-0.49072432494290374,0.014786010149301143,0.42065997115367093,-0.6940845415097265,-0.5441769520232199,0.4278011049273429,-0.5221359513337426,-0.862023336423555,-0.9592555766497541,0.12466413481391093,-0.7887903941840619,-0.06378520423385711,-0.7013295846072085,0.7738905690485678,-0.8033172060312922,0.7152552856504559,0.3651837813298688,-0.7819683317111665,-0.7666527470860688,0.3045802528289219,-0.18424667799717584,0.36500415336114916,0.55284826713866,-0.6337984128081232,0.29370427471292415,-0.2839114085230564,0.4577446838178414,0.9497077306498343,-0.6399344809539311,-0.17690167351481578,-0.7143627059247171,-0.8527108340986048,0.12582884316420265,-0.4006254120732776,-0.12560581921233396,0.5126203382312254,-0.2692951948957943,-0.5747664242729418,-0.0038409667645578297,0.3019172228695864,0.13446199765655806,-0.19467949597493106,-0.20027472085740908,-0.09154858556313,-0.7207773570518429,-0.61674940149809,0.11388199273834437,-0.8968009553262916,-0.6372534046697066,0.19422015010814558,0.2380306810317705,0.610287849609874,-0.8953288252909336,-0.5540554558644329,0.21119204685613147,0.18505457937021497,0.4752873934224655,0.054458383961794254,0.008053092755402114,0.7490566283071007,0.9809881765381627,-0.47184368198357696,0.7769912275466211,0.2333351718862845,-0.1499678317173586,-0.9445118025183868,0.8015319681763026,0.6823939881404435,-0.06373820682295793,-0.26945794404879597,0.020976005924843517,0.007523395491793079,0.28669851841083965,-0.08573644072717435,-0.8832398276029619,0.9959617706960765,-0.4572853680742088,-0.3673302327114395,-0.9199990704283114,-0.11220367490882222,0.5878796631413883,0.3902071841946837,0.6230092158648228,0.18759913984108678,0.5850676454534138,-0.3246505555345912,-0.9658323228200116,-0.3161588079020953,0.39911429649925145,0.6855832737337719,-0.9809120753691122,0.6698573241932235,0.40472126393723484,0.2317186954063613,0.3454893296309004,-0.3679472202581219,0.05866004484310425,0.5744013138778794,-0.9298924185065605,-0.7700441221199366,-0.3813165152452388,0.4281896067965982,0.1690626325578518,0.6350293554119277,-0.844642858581179,-0.7374212653161175,-0.6363294057717218,0.17667955587463435,-0.6756349074075161,0.253996180023065,-0.33489592156135284,-0.15504608543359022,-0.02554254560989444,-0.8797432323357757,-0.8504925160894242,-0.4037195969500785,-0.08392114241973861,-0.4119877877701017,0.6314790414792855,-0.8381614712244652,-0.9824603340660286,0.13750889311635023,-0.7039230343677131,0.245960131012005,-0.2787899377513846,0.37256950735404526,0.5730513936827258,1.00468696052733,0.604290877464149,0.49737823233594863,-0.06443913682449914,-0.042984191013416,-0.4347397916171473,0.8633496020687659,-0.6968813071478537,-0.8530281166792978,-0.7661715102224478,-0.9777880795196574,0.04191597972154426,0.32221862269668766,-0.6883211497628694,-0.142511878694646,-0.6473646308855197,-0.8487788789593439,0.03141095072378604,0.17413401006447793,-0.3107329100886047,0.30010263404293447,0.13256239415712134,-0.23149732874483292,0.7363666614806104,-0.5136074052457194,0.998197534036997,0.920736711029744,-0.807006216948364,0.45741094500852714,0.1546267180328848,0.9270425533052467,-0.10716829864865311,-0.20012835764686504,-0.30295211243877906,-0.6245279368193134,0.5925270903820763,-0.18434468339399657,-0.6717011917716363,0.7328774853296938,-0.7134023996598098,0.11110177129092702,0.817138074812078,0.9994505653155272,-0.6433157613709722,-0.10003005833561358,0.5541441506153437,-0.6907395812174024,0.862422909384062,0.20250346255952842,-0.1682988311663762,-0.8151189591188275,-0.7704154201100082,0.5714926324950075,-0.2964116300456584,-0.7006276545998368,-0.11272642902653053,-0.1580457453250262,0.8118282312463703,-0.5186349979228352,-0.03387010355091039,-0.3545716055271227,0.6827930647121525,-0.12930488162275963,0.005182710944294344,-0.696974673167325,0.12822791986550564,-0.7407085056140592,-0.37296467897154606,0.9361867196560776,0.2649610309232777,0.5289321344014872,0.8165510443109246,0.3046364699585578,-0.10797016933264307,0.579722662390617,0.492695647002725,0.13706329376916043,-0.5617482282455931,-0.15854555933630174,-0.08532097476606773,0.6562549615072854,-0.9352797868170807,0.029860337195186628,-0.35459977601167886,0.002789880673601161,0.7379959563792411,0.3552144035005696,-0.8982475662679615,-0.5807005576279093,0.49929936163868227,-0.22765917470203997,0.014668114024525503,0.8460877192421294,-0.24310424143593024,0.638379921968272,0.4290036006965692,-0.05358075958377717,-0.005732145628767116,-0.9570045796954094,0.7653707532975141,0.3038394981155402,0.6879257064132647,0.9161143065662791,0.9378353827500012,0.3109432368344506,-0.6186389040718933,-0.06333372210200855,-0.3286606043837538,0.10986877687142016,-0.17398396727832316,0.7925510419218978,-0.5743813032530547,0.0038658424070242676,0.5887566616084327,0.3201569506641299,-0.4003252007929238,-0.31860810313424304,-0.7540214712990815,-0.9716980526745841,-0.42268149993507265,0.7669232039558345,-0.8495414060771193,-0.7877414290736157,-0.5631432903758917,-0.507403510393297,-0.48573597962303827,0.959799833577033,-0.45923415096490144,0.26612418176492014,-0.8349436438147946,-0.46086738636749863,-0.8363326830764026,-0.5644230892302202,0.11935927846797863,0.6317771267718953,0.9796259841979006,-0.8254204892690006,0.11888851468495672,0.3827707293182838,-0.3490279295145157,-0.17575181837010637,-0.29054221874456776,-0.005503041537850572,0.6022030618824861,0.7347661172732715,-0.6298594868524241,-0.9615496966732315,-0.738733319443992,0.42789847935917713,0.05014120091225083,-0.2497366700553041,-0.29959005829859064,-0.03405793059340578,0.4656769202396631,0.9877840578499175,0.13634614419953262,0.47794737895052636,0.48898692846602826,0.44074403946479607,-0.19460618810701,-0.5539667802872862,-0.594580500966238,0.38596788146849376,-0.04664355150281599,-0.6908525096586725,0.6804226705922334,-0.9155407623661594,0.9308664996427832,0.969888067030249,0.365964810585727,-0.548126863252885,0.5786286114729235,-0.11355612829222729,0.40939802115470625,0.7691048400615806,0.050761363027040485,0.1372519597118962,-0.3922327223197709,-0.29887695764139155,-0.8775746719341607,-0.5242042827998308,0.698533153021025,0.1028074720421841,-0.8009847131562349,0.3988983879792032,0.8232919125926177,0.17021894807003068,-0.09011372664685201,0.05254577062544636,-0.5651055911119278,-0.5312393894996162,-0.3240722412121223,0.6850313411919194,-0.3885466663584193,-0.7486239001314946,-0.561635780410965,0.3104411830003647,-0.9092684270625853,0.3334856340054741,-0.9235211733769805,-0.6915143690632316,-0.8963879321417629,-0.7232736257141051,-0.9439898198622025,-0.39974189153327333,0.1619423772962496,0.8003519902938754,0.5554285168440214,0.6965706207307849,-0.06297730517712297,0.9990941844876362,-0.13780075085246968,-0.22400679310039007,0.29744837407734925,-0.7216476555183476,-0.3358164985450723,0.24633623865013884,0.18042132076383308,0.5550089864095032,-0.525877728681217,-0.49841462167970374,0.12567908785695245,-0.15459030928667916,0.5162469052769622,-0.1293526014887653,0.7939806110276504,0.9441010754033168,-0.675827629993365,0.16665031024690552,0.3100554446333536,0.6912411502330135,0.031165114738992188,0.255042597801154,-0.38931220555180324,0.7794737973154866,-0.656552905056883,0.41150219897343887,0.03914692208131165,0.5911068085539652,-0.7630439893170464,-0.9770600777012576,0.5805336875398912,0.1731779266431682,-0.8954367955225395,-0.5389693340651064,0.629783233896291,0.8924159333418248,-0.6420783654637722,-0.7169861311308452,0.5151568592352636,0.18645899058961102,-0.8336782393416127,-0.4675163844826982,-0.128880598189308,0.6239423065538685,0.23994623300406376,0.3085250134153874,-0.22686117416131313,0.16611204419132616,-0.19353789450736883,0.23792184075247128,0.4817512181968202,-0.6365176633170422,-0.6511121530323811,0.20643678549976863,-0.07141568934145182,0.5723396621515693,-0.8346945875485868,0.5184429667510293,0.9068299591956529,0.24278830868845896,-0.8031785874442802,0.5727075941626486,0.28372912034937187,-0.5861558149857626,-0.11179726102544185,0.9184413856698068,-0.29120385570591956,0.06950677998581005,0.2782196713845986,0.8847668715377772,0.5551694128455216,-0.9615514660345538,0.677884899436941,-0.7897595492143927,0.6073815560002724,-0.4486660517047467,-0.5647564137190377,0.013195111888085975,-0.445554931389892,0.034922081527729576,-0.3755321965438929,0.8449314785399156,-0.24345869628873595,-0.00674263993592128,-0.4588112958980777,0.23344500047780814,-0.17651196522715973,-0.11024887570883132,0.4974548947261391,-0.9809631842429306,0.6979393174258972,-0.14898661331020932,-0.6240533999529514,-0.7321003548467457,-0.0731628237562592,-0.4451721185095279,0.24519323514631686,-0.594920683823015,-0.3021381643526558,0.33257692252642507,-0.36358688368548503,0.762182820477608,0.9573639109532182,-0.04588092632865581,0.6976153858460559,0.45590917461361236,-0.3106081780561284,-0.8613526038179885,0.5990552294994962,-0.6227496376367052,0.13709607587060701,0.15211030056332708,-0.03600210185907882,-0.08967072567421508,-0.34531940242479053,-0.6229711880411349,-0.16964935747275278,-0.6917498915278327,0.9160365523929829,0.7035872086868807,0.08522627343117468,0.7650562376850768,0.48786087432316366,0.20419335835381,-0.8231901621591383,-0.314360866126131,0.6815159974326802,0.46139398946679044,0.3278935040813015,0.090041494504568,0.3427681724274383,-0.9790206467635094,-0.6882823424824898,0.23461293393495164,-0.5950527003011912,-0.13771501702150102,0.8875675675866974,0.8024222300399197,0.29564197421802296,0.08527952948830997,-0.4559468214660636,-0.27059274895932134,0.35107482251321126,0.18057323831467928,-0.06718065892097798,-0.4121086098962562,0.9101840757539352,0.4697066390107028,0.6070825555761639,-0.4974443830633311,0.6608630262125642,-0.08028261966714455,-0.4537396489897915,0.03895964157852609,-0.7180358711434457,-0.09372215987430137,-0.7058469861437204,-0.21923370995523117,-0.19873622767568389,0.005249616226763232,0.7775745036907376,0.24394746462067007,-0.17898501231287844,-0.4909862650050718,0.0344821899358565,0.11611672263411643,-0.15960735695418315,0.7293849642059695,-0.4946180253730239,0.812882447387409,-0.46826984903220337,0.066025386410669,0.037128635862464565,-0.17790296250209586,0.12746364183558273,-0.6694381283338445,-0.5933253225473097,-0.6919461102249909,-0.7465602149006725,0.5968599901184306,-0.16020920955510917,-0.7385759641401487,0.8920662663395342,-0.15803807165577316,0.43228551671114207,-0.5484448138384357,0.5058781837606234,0.27281043085866163,-0.043860967757115565,0.5146861577009252,-0.42160693529136806,0.1068012775419287,0.0011584577156036335,-0.7096076420087403,0.3077050257975724,0.30010571391326635,0.9041759771779998,-0.16923237273899483,-0.8651718794671688,0.8070411131750053,0.7350881862151848,-0.8396653671933643,-0.06820387629242797,0.7614477312944121,0.9803700055835629,-0.3788836846961098,0.8695021708819559,0.7025803111944511,0.9382996308377595,0.9868347979539289,-0.49312435801939714,0.9759820003727914,-0.4726734950545586,0.22388930023828957,-0.7973965563799239,0.5364179311024109,0.3624075601633674,0.9960878193360232,0.08698931387019782,-0.4170729962257077,0.610238538873493,0.5675822121871552,-0.22675406803691478,-0.009304183073949202,0.2240636568628549,0.40553395701829986,-0.9542576996396565,-0.2686815426073417,0.5061785082827222,0.8184113352645241,-0.5880087090600323,0.5691646503140986,-0.8258475287937781,-0.5536013280756777,0.8422862858708418,-0.3576884601999486,0.31072312467963364,-0.8655997309488742,-0.13091467285263259,-0.1950038667825214,-0.4179469847203917,0.8046605483650511,0.3524202533776035,-0.006167601331215189,0.024357293278145287,-0.39651826182218186,-0.42052522740351284,0.7772691574773143,-0.9122110856288165,0.7712870946951615,0.9376981537498992,0.9080881578419768,0.7437783133908074,0.551901116758539,-0.8031974256984877,-0.8324940259719705,0.3870887008435506,0.9411003067815211,-0.4626159255684428,-0.42516395143473706,-0.4246259850564533,0.1381837134892976,-0.8049608728871498,-0.898021157783466,0.5503153426341318,-0.07883578589131857,0.8007588553245919,-0.9190721669788808,0.3816030143674478,0.5602919038200247,-0.7729425177783438,0.2423153870004766,0.15153065656848752,-0.7139187919506425,-0.999126011505316,0.8055779905084417,-0.7848380411904482
Weights[5]: 0.9663385236479056,-0.37941808131496335,-0.1739408155781873,-0.7315268571169706,-0.3564704569785252,0.7348914135875606,0.880713181514625,-0.49609686690200905,0.8253863369232912,-0.377748645552317,-0.75040390237719,0.6747803118428124,0.2552228389565008,0.3682601420992333,0.5827080987313333,-0.7302788857977274,-0.7744659091227064,0.4438693017903106,0.6096214212522011,0.25044141116106955,0.4435170560346531,-0.8968069208305361,-0.19727711714677376,-0.5014530604246319,-0.6043338568901335,-0.47250298944884117,0.5442296124735053,-0.30461723325057755,-0.2434424987265107,0.4576971053414498,0.551027128263855,-0.6087754162069295,0.9523440152184777,0.6076751675492502,0.9747617831336157,0.9168021557465205,0.7487768641434502,-0.6930991279394827,-0.5053458295321771,-0.5398522864747104,-0.778734339298091,0.04641220953614078,0.09577787718539033,0.1785075008769088,0.8313317353983092,0.7068227025246354,-0.6949309351364761,-0.14120265987757719,0.6596072882691433,-0.11819045763378522,-0.9394528828279362,-0.4429953132956267,-0.8040434307437592,-0.03527945235151775,-0.6641035227403527,0.8631454444784417,0.8178590358318105,-0.6724877551535553,0.8728069997731629,-0.883967467529684,-0.8093381988859447,0.18533041476520262,0.7473456318245015,-0.6323107684181588,0.07122422618382807,0.8583715138297396,0.7224362966243347,0.6475476714072506,0.3934983589656178,0.6659059429848129,-0.4790557499411775,0.9186332188167763,-0.050784868677512196,0.1494737077269115,0.029175750459160543,-0.6028951535014879,0.007415201984073638,0.6242153819763174,-0.3327847958229412,-0.31115655941476883,-0.7775720543123652,-0.3145677276489175,0.03577547848027929,0.8747479589072744,0.39714998816938607,-0.0059775584405183935,-0.8047319854631703,-0.012376532430004583,0.2717786902896029,-0.888383661344826,-0.9010568800852898,0.42126461929700554,-0.5659061277126456,-0.6213783620024931,-0.7305140875887657,0.035935245936706384,0.29906657771163925,-0.271911354396451,-0.8927167253069191,0.9729602215685695,0.9843864059003007,-0.3424786065437265,0.4652989811568051,0.9937013452843304,-0.6391347076926077,-0.8580861016447126,0.6077895553818855,0.046482861529329345,0.9355447971893218,0.9387916307611353,-0.14426975750563187,-0.8063563461445069,0.6602970406693858,0.18396355918793184,0.8936045867826812,0.5052295287629727,-0.8504450637150766,0.8725976729172271,-0.029460756587544767,-0.9227982153756535,0.6631034992929099,-0.2651871709456608,-0.6242310188823523,0.28188202031044374,0.5593142196789831,0.08622863859123227,0.47340930987062574,-0.43125737162654054,-0.12068451372319933,0.992170729762484,0.09736595974799633,-0.7208848615562289,0.5169321072832365,-0.30574501739151083,-0.2957024152396417,0.5647462586563937,0.2201332911942775,0.04207413319594888,0.5138826665998821,0.2552360898140986,0.3862328861775961,0.1487851530075004,0.05207867038067371,0.33298705952846763,0.2558860961608058,0.9052994660592171,0.7609675786276198,0.2501303130994226,-0.5149829487851741,-0.23574361635173835,-0.11361969034821717,0.42478110166204097,0.7450228895262273,-0.9839970490875368,-0.7067361500656428,0.24515349955771687,-0.7167561636554186,-0.8151580306886272,-0.5716302736650931,0.2596191552352051,-0.34023285028456285,0.042156559275333454,-0.8285235422250752,0.9448442989030816,-0.15924663802573769,-0.4235963138861565,-0.32328845342774337,-0.0339579419391034,-0.5204934754969988,-0.6713019654486803,-0.7149037624313048,0.10748080308897467,-0.6412870307437558,0.7153004922765963,-0.30903110155324964,-0.4856816537145906,0.6833646511334865,0.043538698699922475,-0.9720279310399357,0.6643206158516461,0.33270179730048893,-0.7784507182781529,-0.9279736734356562,-0.8849558858916952,0.11018358475277751,0.6745356080876973,-0.4764550343031566,0.48778506918273906,-0.611729284502954,0.4594642912766744,0.287046956718848,0.03798882699493925,-0.3846643890182787,-0.7473029949456933,-0.40213846201176684,-0.6509631758793086,-0.017709913206151673,0.10977437771380627,-0.5077663024457946,-0.3205175899530377,0.22858377965310797,-0.20507983493262502,-0.22937621140357867,-0.842651178985449,-0.5158379470725035,0.7842174302521367,0.07307214253297069,-0.9526253001089572,0.3375851561937312,0.7863411394947271,0.559708429105374,0.2465135700167408,-0.8303324514015047,-0.2278867484232937,0.9251001477455286,-0.5731492703724077,-0.047208965969577556,-0.9490598518548025,-0.1638950834353822,0.16918399798180173,-0.9453734680755872,0.18986092935775445,-0.4183562022719328,0.024623066664032134,0.045543894658583994,0.24837990722077885,-0.5078548078927467,-0.8939819987369617,0.11743438732879306,-0.6580732811732912,0.5320282594915611,-0.4266619235642455,-0.44484918100831805,0.35177582313297706,-0.562166853267111,-0.45027687975468866,0.4647160073629547,0.9233812556371259,0.6297500494583369,0.33191641630926055,-0.38514385178489285,-0.5088334226785521,-0.8458886167424079,-0.405029391863878,0.8922702362800667,-0.9567441334374241,-0.12074410248994791,0.8502604457783793,-0.6697766043570714,-0.8251039804076329,0.39741720417394166,-0.06847356775238811,-0.7256697200823901,0.3230496995724037,-0.3751441218774505,-0.9612730098707941,-0.7867255711543198,0.7459953664330391,0.11077512200492201,0.2307802388587874,0.2884356276817491,-0.03520010217095086,-0.07210435475155962,0.007627058242893342,-0.7365794104127157,-0.015228878572123176,-0.32851004411124163,-0.1973115047357397,-0.6703619981509904,0.3860903725183813,-0.03423929175584731,0.029331407733841932,-0.5832856005790716,0.5067013471966773,-0.43463143722864506,0.5750956263277194,0.04212290376523642,0.9927839133854881,0.13657902699735902,0.001360245515294567,-0.6309153864304141,-0.35811525367112607,0.7757946056201097,-0.05745591535015801,-0.055493179524818956,-0.3995035282553996,-0.7013704989577506,0.22749852446257068,-0.27834236401987367,-0.6028810946352008,-0.6626248275357175,0.7278112011594533,-0.17881817012971202,-0.6112427363131963,-0.9767875868950336,0.6258983687602818,0.5506388809689853,0.1578840367794834,-0.6676453289856725,-0.0991307291964056,0.3549817296683294,-0.9327160215107134,0.5180493001622097,-0.04846368220097552,0.21571574603007915,-0.6249449903261592,-0.4826659567107754,-0.2331531295707231,-0.24231883289400435,0.049760251794830124,-0.003395913636030534,-0.7795061332457406,-0.39058665044432406,-0.8905904790097225,-0.13830437471079848,-0.35513043187331894,0.19038228297094023,0.9902853424134094,-0.9400911524893121,0.6697096817143694,-0.300399400495933,0.4468195689182822,-0.928586874728893,0.9207488435841665,0.0489033944203692,0.24879469845456337,-0.7886882952489962,-0.9899930149803998,0.46481254359166074,-0.07778169269717825,-0.9803283254776461,0.8915653954686436,0.6674341455415982,-0.7575853754568777,0.6455988630864764,-0.6993031574875597,0.12362402822991081,-0.17574171217891466,0.7268298499876773,-0.4305453635977755,-0.916840561424629,0.531778687914064,-0.530182642643425,0.67626028790997,0.4058115787764036,-0.8824478482982265,0.11345911468690369,-0.29088358268132536,0.5477997998886447,0.3847527890280946,-0.5608192966174012,0.5582321358174706,0.09965950867894695,-0.33008651705206055,-0.7977348202868443,0.8937104130138933,0.9778406322425716,0.5795434046833382,0.9025295187305995,0.9743199953689798,-0.8288248813845334,-0.4910673189401009,0.30056983479325194,0.8343922029409521,0.02939089808119033,0.1050386908953258,-0.4469363360884303,-0.6329981536841445,-0.5361923319762023,-0.4390034185634614,0.5218033179584569,-0.6304702307805372,-0.7368513549524206,0.4882379732120408,0.5793899004230476,0.16325574120844366,-0.008277847023977188,-0.5936655691221238,-0.4676551482415477,-0.06702880790979511,-0.8629448901182761,0.49970087079869224,-0.5364595923413545,-0.9308699893489379,-0.5339330191503581,-0.5531634283368251,-0.207150995637481,0.005092666952448255,-0.9564996417409273,0.750761222909559,-0.678441041930784,0.5430145904156447,-0.0790957608628533,0.7525098546186975,-0.6017152581371903,0.5742298788187731,-0.7687955495596329,-0.3645776383294365,-0.3567265690610673,-0.6993499150240556,0.5645777694553844,-0.25861582339358713,-0.7542341687167243,-0.013166520501021252,0.8807830056283473,-0.9139976660358711,0.31110340203873943,0.6108397084022419,0.08966347663842279,0.039483322757759357,-0.09672458533940269,0.5616480318229278,0.039622972849906624,-0.035890995915470444,0.8404583143619608,-0.32363734549080825,-0.9553732797295662,0.23062960488285378,0.36724151548335393,-0.41851121998322716,-0.6886348434205329,0.5479709969591213,-0.6764932878671648,-0.2869501378800412,-0.7605684878159849,0.9782231626507815,0.4410083862778969,-0.49015234011659103,0.09240285798930696,-0.9864673925464412,-0.060018093953858806,-0.6367906350890242,0.7814294193057807,-0.7635517976616479,0.37043059731667755,0.38507466981305566,0.2560925012714508,0.48540323521872214,-0.8028569991772236,-0.6271765001756273,0.12977216825686488,0.1779219134273678,0.9219658965705216,0.008053597532237777,-0.15297003237203233,-0.2402264239453834,-0.49768792814467466,0.9557254602926437,0.9112227819446581,0.7219220873536178,0.5296083826243916,0.000583190936866762,0.26817972908918414,-0.9389881093935538,0.9809018899982673,-0.9904155440146777,-0.575432951796888,0.5397809074005072,-0.24976517350053934,0.9005198542625193,-0.3463136673250936,-0.20177969775768162,-0.48272589901339413,0.06728821199012466,-0.8999768976577951,-0.4477971628732022,0.7910988494433581,-0.2041052327723334,0.5825562371638903,-0.5512023812761621,0.42675086364704323,-0.43658262185593255,0.0357806408013126,-0.005453899039632559,0.45062471062439724,0.13237769675086142,0.6253793032958075,0.31545311460059744,0.8660248228656244,0.4796662486529286,0.4759188776258001,0.4850533043430436,-0.40884159229990485,0.361249120861082,-0.5259578897283513,0.9307422110280672,0.08662774305610837,0.7128205847613422,-0.7352522053275127,0.3582904406899091,-0.03675709346263642,0.7074214615719039,-0.27361081181116476,-0.6997160995244923,0.7230002413810772,-0.6800205945597996,-0.3513132077629211,-0.15528263287396044,-0.09538184358801169,-0.7012007559074755,-0.027346488369016674,0.7088108024135282,-0.6282213840765047,0.4616128743913084,-0.7048795165982468,-0.033808995519675755,0.9648025501355542,-0.7263624620280985,-0.3896070045370641,-0.15104824638267256,-0.6173615517559646,0.10037661080557839,0.6646699454224057,0.26359964600146973,-0.5801257816483317,0.1675456963823786,-0.7789030976488093,0.15820687875367298,-0.4082834705075941,-0.8354654728191659,0.45068944462574306,-0.9299052200355651,-0.46817855316056867,-0.784960928711484,0.475222720835974,0.7085484336991533,0.8249355222006947,-0.2631373147050564,0.2747048311121748,0.13387935754558034,-0.5168447333932131,-0.22031681948356185,-0.5894084319422992,0.5670448800395451,-0.4931679617116078,0.7671080752122719,0.11327468841954813,0.1296964644506169,0.06658554906996636,0.5078441347563603,0.9655931067386379,-0.18620632555107844,0.10208001724732924,0.415180842454497,-0.012615972611393918,0.8672681627555543,-0.9528926363916559,0.46930038730467816,0.8661512679134301,-0.45295723547239664,-0.9011149575054341,0.4862797930828328,-0.7552024283237766,-0.2669871935496177,-0.16223628169448925,-0.1009406363544714,0.1810338225518168,-0.8399086323752574,0.9858310865172331,-0.41431669304814034,0.1403261745070694,0.22701055706805118,-0.0018896567644037798,0.47651363791735557,-0.6341924498016911,0.6030582532204966,-0.3094835632240443,-0.9028410289407578,-0.2446502132592565,-0.34826309094350955,-0.9463740384965926,0.09249425605970657,-0.8990551854802561,0.0973470188079015,-0.7962376109451131,-0.35787275414235936,-0.03870353006936507,0.10080532486700329,0.2225696388116198,0.6043467919912144,0.6582445491376541,-0.6476971728949329,-0.1392552159443755,-0.27486850753187597,0.03955617036649772,0.0006989086981392667,-0.46511439115978515,0.6772505537035178,-0.2713826295320795,0.6071088833767497,-0.41406219332202443,-0.04681667920519439,0.14425258950528352,-0.5185672923707095,-0.6318077864935718,-0.26213535159871215,0.8140328128973237,0.625335714398205,0.05283048873577487,0.38749078297260064,0.18293449811273746,0.9598555476520052,-0.2822962553651859,0.21780427809524847,-0.5163950358618191,-0.01132350279028122,0.38171455905964446,0.1537018817144257,-0.4713105491694578,-0.8082648701072972,0.9300474142329989,-0.9295723465874662,-0.06292931971276616,-0.6185185125183865,-0.0725612421857944,-0.2119766525979977,-0.6337342269875734,-0.7270211492325278,-0.5630425324491424,0.36510864150016964,0.06902424575249855,0.014506769089099349,0.3704275832708179,0.15227573296462232,-0.929287261841733,0.10525556704979787,0.9510422342150956,0.619788099898926,-0.27426959139919865,0.46947598710676497,-0.1654903682212045,0.3339888525561331,-0.9543548508274105,0.8249129687761334,-0.5771327870107202,0.7061738150344911,0.6358993312511125,0.6375309385534054,-0.7699156942637244,-0.9624285269353672,0.6171301489775676,0.3811805729666635,0.14856110287297564,-0.4631177594247823,0.6770614691437509,-0.4844898467345582,-0.9838873594924283,-0.23722889797632996,0.5559123121242936,0.5850715289623484,-0.6216569718547581,0.547983394659993,0.19446648047690301,0.6891569171401485,-0.6812080887273905,-0.8320194619558656,-0.41631309774233227,0.5664294996724271,0.15722449400306263,0.3861782122658288,0.04185237334605253,0.7535252818009153,-0.56976225198254,0.06389127196281681,0.36079246055371716,-0.41270664958875003,-0.9892245931500684,0.0988066993182557,0.9567597145013325,0.22125991583860483,0.15212401615088988,-0.2712651655409789,-0.9571054549688033,-0.6006140055137752,0.7479784925226023,0.6878436727858352,0.8688509386911532,-0.1610555378151115,0.4783053378765192,0.5577030025597183,0.09040602305110189,0.1873245836358263,-0.9363751600208761,0.13954848122985522,0.09120061724469587,0.28817180976652157,-0.8468282638170318,-0.6212328118634635,0.5285731999698348,-0.7388912307426461,0.12461433911645954,-0.9304595679064687,-0.51778735011713,-0.16279768625404578,-0.016327323865297894,0.8502538203495804,-0.05091176789762064,-0.9153351960309479,0.17608978002150066,0.08976811873250079,-0.4952652535844898,-0.08269405881068392,-0.1939886124776623,-0.666503506557319,-0.5706675227594876,0.6448578041255744,0.49987631454126746,-0.20942178518018773,0.9380032345363885,-0.37211121216980336,-0.7009186892308847,0.7479288483727391,-0.9066342822772611,0.6029328851042934,-0.692682506439657,0.8749984462911171,0.7137253112883297,0.29786253115188965,0.97307925797931,-0.9273793492128045,-0.5654965041044617,0.6371048873463203,0.5762751789653093,0.6971119584967904,-0.9033627686572088,0.08257855711624895,-0.753477815423849,0.2056922312852425,0.4157133183515227,0.8977246721730217,-0.2612445593165441,0.7813279022375716,0.6575375290855474,-0.6167799642387684,0.0476506571507318,-0.8312533869553607,-0.6206965891740734,0.728439528368618,-0.28917627562264736,0.4463427092164489,0.7882954952252541,0.3622116396958994,-0.5643327150327772,-0.10486921167327005,0.9656910311772179,0.38547884059471293,0.9776439087238399,-0.12072023522142328,-0.4696271240104116,0.11508867755303553,-0.8546864864671074,0.6571520928559602,-0.8880309815928484,0.10346912923430507,-0.34473537716303737,-0.13237014093081012,0.34103076222400674,0.10889942902554739,-0.7631407379001103,0.34675392012426354,0.3983356195494232,-0.705815916743975,0.3748648964682897,-0.9597214376366331,0.8891333471467409,-0.4822465914684565,-0.9096086807128082,0.7101456819615073,-0.44471777204643836,-0.8619171752882736,0.48928058775574,0.9765007784480699,-0.4188875851309335,-0.4736469236545483,-0.7156748444380587,0.07229185619963885,0.20143760237909736,-0.3183675535574404,0.7365455132613636,-0.28005660478028316,0.10639881580434674,0.3672424197975743,-0.3246806447043459,-0.699375359201513
