LayerCount: 4
784,128,64,10
Layer[0]:Size=784
Biases: null
Weights: null
Layer[1]:Size=128
Biases: 0.8520184800987667,-0.15664099921306443,-0.6431576046682239,-0.4666411809330721,0.8423645314976277,0.7760336942700171,0.5256379704238832,0.809683671726882,-0.41158535182385053,-0.7512432291480255,0.05922983925280714,0.32928400444455935,0.9976787866196951,0.39769950252357267,0.49145217588939943,-0.23225933885401645,0.7367340617840252,0.7272560187616292,-0.16271035947469412,-0.4037701524334459,0.47219265819870493,-0.34271046460558185,-0.5480911596649197,0.2005081552885924,-0.29549404048128525,-0.09196314132430734,-0.4273702911029216,-0.8868473977416123,-0.3396128291359252,0.937250923773973,0.2641967658384797,-0.9005942405686838,-0.30263984519858944,-0.6853328722015427,-0.8692126926079903,-0.7213233892715014,-0.6460594974707591,-0.14310057210748137,0.9588866520676183,-0.6125991143035008,0.6968167648175454,-0.19112961736025566,-0.23586173517083162,0.37935538887882764,-0.42912533736382247,0.4449168335936029,0.41321395116354237,-0.5976945422683543,0.15873917853528832,-0.21562757306110528,0.15679844179568556,0.7191633379563724,-0.2086405471631069,-0.8908524068488243,-0.017461965806056353,0.6650618795300064,0.7777940091535738,-0.01696145582763115,0.6048367614777831,0.5918066154844079,-0.7560434828941046,-0.28674489548384513,0.38616018210147635,0.22537428220668546,0.6420949123120616,0.1060026912845045,0.773893551734003,0.6938786996587142,-0.38056010575300164,-0.7359789939017037,-0.46083043837450816,0.24526968518743922,0.3369502040942123,-0.5872628010414627,0.7833817049276082,-0.3516950204452347,-0.6149999962517246,-0.5148352173257684,0.24321698831163463,0.7409337036810978,-0.5856817596688334,0.43192716603267545,0.115000559621408,-0.4343642666758553,0.15623039551059914,0.3939187894534378,-0.02013308731225363,0.26702397083808543,-0.19497961371580064,0.46232431782477684,0.7109505364866715,0.204396073377978,-0.17620542010020257,0.059971070391259505,0.6004897007472674,0.8901664521274654,0.5081847583568126,0.49240632967975484,-0.9704633969859657,-0.437842639512837,-0.18607621858758722,0.8734300365945866,-0.7829313613873865,-0.2877476760263722,0.9101431911202362,-0.9667150270990307,0.8344340534689114,-0.5448474830589662,0.030175314675881575,0.3714918090440316,0.8630394392050637,0.07094296647750517,-0.03611252180739489,0.8313188525384047,0.1519000097674135,0.6656821049980861,-0.24002027092736272,-0.12038720314645052,-0.08212416026035065,0.15089072982159618,0.7998016406463503,0.7718052758602054,-0.37434132866652525,-0.497097566472273,0.3149650088804503,0.8277340307758941,-0.2400722461614135,-0.24798414428742213
Weights[0]: 0.6634535061490971,0.4792560690451675,0.2813968645787783,-0.35775936551287746,-0.20770374462367214,-0.6917488499040477,-0.9928841982003693,0.9753134986270748,-0.3641986713577987,-0.5400318119395673,-0.6327389216202959,0.09320944039766177,-0.6123246762958936,0.03280829686336606,0.762783255317613,0.7848623813059472,-0.5758699046335509,0.4706578233608314,-0.18383683878175772,0.5382472358356449,-0.19117511864340642,-0.05571476605521275,0.11007490992083913,-0.07007211962252491,-0.30780750480844055,0.7844508503491296,-0.7046546375866303,-0.1659296113839045,-0.9908673474522621,0.651637798012997,-0.6901528032916378,0.13062276464450306,-0.6909620806998397,0.3309012275798717,-0.8589593814029169,0.866180074338885,-0.20834888108463445,0.5629451831630177,0.9338867729221876,-0.4237234245164895,-0.5341605132139104,-0.5655677446935176,0.13383718446541448,-0.34224099355854143,-0.7150613096147129,0.14408774540949976,0.04627273652994668,0.7603758972884975,0.5691103793536827,0.5797755166794059,0.09383235829595127,0.7752781900462127,-0.5154328884163093,0.9771893536565777,0.20222867708756986,-0.2808317277956902,-0.6308188408756716,-0.6485310157986968,0.9500481392955631,0.007845405027198327,-0.9870942123174175,0.17304541318353528,0.9661808460793369,-0.015836469370795636,-0.8498790086479294,0.23663831373520128,-0.21582847890249846,0.056774096124234674,-0.108232321733717,0.896603180978728,-0.00678716412763826,-0.13863033755965262,0.5371265786553694,-0.7598348502024376,0.07242090665061542,-0.6256072010408414,0.8104481189894135,-0.5476840965206196,-0.3550108100078119,0.5481047497820597,-0.26182188618081714,-0.4650305348751277,0.2649600092624127,-0.5706428641316681,-0.44219456028295423,-0.46543099333785054,-0.35394434693918764,-0.6681514343564172,-0.8713274495076981,0.42187234639277316,0.49699891521455664,-0.5598178652859376,0.6128970438674544,-0.07395863210501086,-0.4366316866146246,0.2927699480509214,-0.5317968418761206,-0.8508121328970776,-0.49351180064968403,0.04816245578449273,-0.6398048597330845,0.989676349940903,-0.13134039054762991,0.6725075397839245,-0.4134356993711501,-0.7673525539074804,-0.7614928603924311,-0.7553194741510412,-0.09521839539297783,-0.17216394896254128,-0.09127977727506298,0.9168652556449479,0.7064797942091152,-0.5980566104864965,-0.7303327087919846,0.47793632255771024,0.9080854039211224,0.536823710211005,-0.5736419090878413,0.6155519846899211,-0.4094173393256112,-0.5477129235715881,-0.07193978468547886,0.4698702725494871,-0.5990208640070147,-0.4398401454599918,0.2584645333214147,-0.3804658078488762,0.6802895238809898,0.778075633334203,0.9017580319716033,0.6545491474935752,0.9392733570215646,0.596691389399031,0.19610575075160985,-0.24336141122412688,0.6663612461026578,0.5924528108874583,0.8427928815795076,-0.6748420063754739,-0.7039381329454193,-0.5986248727881465,0.4270669610365605,0.3008365047491379,-0.4868478659239256,0.580138774435453,-0.2662855853988148,0.2109698808100515,-0.34359127992759153,0.08486466210025789,0.38636841675110256,-0.05995906609637565,0.7363255151099013,-0.09307115350640655,-0.5299461791587635,0.9175577173229484,0.07202438349994339,0.395036900597816,0.2485748982637443,-1.0017838393094705,-0.04220082704990623,0.6298747146112718,-0.42152982547558265,0.13157706651134243,-0.07830516578550695,0.24794582708177426,0.9721873672549555,-0.8902090191329871,0.2137548640434419,0.5209878177945446,0.8115750764550524,-0.6843673534573516,0.6940596467449794,-0.898753561087282,0.31935146510700857,-0.8110190722175357,0.024707834769548055,0.6321841892696077,-0.03378551718591596,-0.17195504734916986,0.8268760815993351,-0.9567429704757636,0.955786774569372,-0.40886613008348904,-0.610557131017634,-0.04709390496761127,0.8767319445271964,0.002433512424624126,0.09536190402042227,0.259376066547684,0.6645211746838477,-0.7628474916365631,-0.7137189332496203,0.801926727564799,0.34079841586798354,-0.33171559000933337,0.8332103992966984,-0.6981009681234607,-0.6208583347596499,0.26521125204639007,0.6080284544497795,-0.37619230760023875,0.9962640866366148,0.13552907090330227,0.2822474995629738,0.07839139760737956,0.24422508756818678,0.625697337786423,0.5768943581987568,-0.7298648262573911,-0.12607288324533944,0.41428444227256217,-0.5904926013689699,-0.60074020671888,-0.8516198181900766,-0.11313520238621738,0.631362994228492,0.9454316952785937,-0.31090303385663287,0.8857297236094764,0.24919669192161656,-0.12957519575665882,-0.02918011649939234,0.9331596074314601,0.8337054391548528,0.5439267175010996,0.9960827147569893,0.8847904013049422,-0.2394680121618825,-0.35001357971669084,-0.6443099458832058,-0.2673704576878505,0.2577406732917499,0.6966131718241173,0.21327640342849946,0.1981817897417155,-0.955265116848768,-0.1762984646264888,0.30520548674559556,0.30426061319327113,0.6877367505190914,-0.7519159630334233,0.3998421120609142,-0.2017544835489834,-0.6491419397602075,-0.7982290637532491,0.7619124992763165,0.8066735981774368,0.5399361110988374,-0.6569654720228539,-0.005137441216566341,0.8561270040721292,0.5716361084820871,-0.5685152713858133,0.9547193022233988,-0.31164688021466413,0.6531861720700123,-0.9367578849314067,0.3102424373560223,0.7398574013829734,0.08042843339221481,0.35589330562790356,-0.13319691491198618,-0.0728445766296514,0.9214169332632087,-0.8354717123337402,-0.8203948378815118,-0.2988450199639379,0.1561406544846435,-0.06294161798657313,-0.18963175001974347,-0.21665930274190093,-0.37322999934559214,0.3811223480903753,-0.8058549687318837,-0.024679627538857007,0.4273541348433767,-0.9080560174747911,0.5349016252601992,0.5805551091118506,0.7182480374901778,-0.8701127932825239,-0.7102763418621739,-0.6333519015091974,0.6564383693073954,-0.49765498006086784,0.1623834180972775,-0.17458720959100252,0.7456325735341082,-0.4661003751548284,0.5499223695445764,0.9691844730912927,0.5030406868154028,0.5947960054272968,-0.7544158361858863,-0.6820903196471697,0.38499412897363117,-0.5135444370347964,-0.10929700362053503,-0.7892987626833454,-0.9379752860312056,0.07437717179945504,-0.36929284197827633,-0.4198125461652181,0.48455556263753036,-0.8595899454595475,0.19626555274998103,-0.8327978857945642,-0.7775043201528045,-0.040424325056571675,0.248751219012193,0.5527781949148315,-0.47076540178495674,0.7306636489041486,-0.9776564860778808,-0.05394029263616369,0.06768119801268695,-0.5024353055817155,0.24320950368789068,0.3753774878912764,-0.027378050184271453,0.371236104541846,-0.024600505781634845,-0.35675697275885365,0.4278265986587846,-0.11487296444841257,0.3142452420513254,0.07101787770723098,0.15598636237343577,0.8283895892586847,0.5516768706505253,-0.10795177201099673,0.14480014899561278,0.29562395498884086,0.5134134467287983,-0.35699787519732396,0.5057556235723921,0.713467154518453,-0.1202544826642864,0.5159936301587371,0.3037020447180772,-0.0047456115523403074,-0.3970801522346744,-0.223588222580433,0.2685306619951842,0.9756579148296971,0.4100027406679411,0.758789629385573,0.547486264712284,0.27146494718998904,0.27424811535318633,-0.07961380750234953,0.2614922789869045,0.516481985223862,0.22178788541413502,-0.3019160031581201,-0.941620778536513,0.9073147181687564,0.10248721578359406,-0.4325099929500687,-0.18962869501605545,-0.8763066259568122,0.015603687155807178,-0.6024761384364572,0.4180616305293803,-0.632242604918891,-0.5896785946514824,0.23357413846795858,-0.7921895516263461,0.3793979559197244,0.4443260752204156,0.347683568168627,0.6109617070165059,0.7168909883724691,-0.9227857781740072,-1.0202854147759512,-0.2592972174497974,-0.8086211788747456,0.4128320030830825,0.46192726775002974,0.45610846918978065,0.5298263929353947,0.4913861625154798,0.8399338359321026,-0.4989742147988433,-0.4161459100286575,0.5903394883356322,0.6027188221995052,-0.9280954631058181,-0.18368258009836202,-0.4186286299576185,0.6002805659548756,-0.38632038859013484,-0.6763438953442238,-0.2873129832033594,0.1799717391384887,0.9690133986837589,-0.7933302164907308,0.36890243091656544,-0.09473291411855221,0.5804979163999718,-0.8056244848094983,0.5489223570276327,-0.8579197684990368,0.813808332908191,0.9192585282721422,0.30700587224564213,0.5166418251333599,0.4194780595855768,0.20433737260352747,0.9237736808457538,0.8263041694650665,-0.540086299636122,0.6145215489658913,0.07448391192910815,0.26610034519531167,-0.36244437368469606,0.17390336853600522,0.8943447553992014,-0.16490798590933342,-0.2196777450012405,-0.18678474854062532,0.1699078600713555,0.3914519532763733,-0.2125908957904406,0.8454117786530938,-0.2525284041761643,0.2959431415590054,0.04684028245562893,-0.07888434798679164,-0.9821699581914074,-0.47169820926936556,-0.20091149631246655,-0.5483561987133443,0.8291887284103813,0.23908735772333373,0.9524340019768395,0.30028638537731084,0.9777827661565902,-0.4670150094100421,0.2384321521793307,-0.955347879425657,-0.8359434934796843,-0.14096897612597925,-0.0931477515619913,-0.2435138937684237,0.13911767822649224,0.0007695849057145487,0.2514017081127511,0.4504420996878493,-0.4468146308543228,-0.20489757564146893,-0.6983548403635101,-0.47010331263285715,-0.8565128528495423,-0.2223405049573916,0.044800125778101385,-0.7966364487526418,0.4092580195983745,-1.0072553986820352,0.1724154414228994,-1.048745678187889,-0.5843268296377203,-0.5307040819229589,0.15007630861461477,0.3525351892527295,-0.03735255508315803,0.922978813523816,0.7035103556406532,0.8030899367262688,0.3128742374613043,0.3415791106515174,0.21532098368946467,0.36352537729010237,0.5953271880724129,-0.2626681631722805,-0.34762429508735626,-0.6844203880449852,-0.5044048323782183,-0.9688026998046798,-0.30139107007804783,0.7388981320864692,-0.9413321027507567,0.5805885757222935,-0.6459823533354707,0.24971057421692805,-0.7291353595539425,-0.68649063731397,-0.6270072625669062,0.07028286272540428,-0.8515625278413232,0.7146038271427558,0.8451874802658498,0.9422608377421775,0.29980936296537514,0.18623318443651052,0.5328592679107805,0.6559992849624731,0.7004938678872976,0.5621201321718194,0.8187378850871975,0.215602043650859,0.29546703644817085,0.4495372471630281,-0.859252209709609,0.2165049450548855,0.5905460620254959,-0.06192664199598441,-0.07038825051803575,0.3900847257937349,-0.9060646615951993,-0.2914889689910708,0.6966269088676317,0.388551721211858,0.31307654884020986,0.4736292725647472,-1.0336284285968356,-0.13866300836130063,-0.9165903022339609,0.8628343502553616,0.03852457025155249,-0.40330349571209945,0.5100633448735926,-0.4382271117491938,0.5729945819824989,0.5558327405161507,0.4662959912379014,0.2803970377649314,-0.9223626760201957,-0.5929163804244793,0.20235919542720504,-0.001324371901026189,-0.3832968070093993,-0.06032155782930626,-0.7768519268263373,0.4822722875896246,-0.5596320470529,-0.4116619177575265,0.41972340047478796,0.12993453793149543,0.6451497437711392,0.31235560383436267,0.36269097358229174,-0.030701235150754017,-0.04222114635036518,0.43047641635687084,-0.975178893915973,-0.5443974887517556,-0.4257348648713224,0.7897568223229607,0.17402570532851083,-0.38891848923198225,0.5222180680154281,0.802322917966753,-0.5036765676687027,0.2238187438138918,0.7081697110233015,-0.26828282106122137,0.8745255013343531,-0.41345162010446734,0.7502589401557385,-0.6802968176455688,-0.13123899657802607,-0.4783225178151962,-0.8124971695872178,0.11369195333392997,-0.8974091274923456,-0.2807960558000212,0.11625400619847262,0.7987476914209467,-0.004651436993389772,0.35317620483903983,0.39967520205592444,-0.08013673601840446,-0.7950514849794786,0.6975083175465354,0.15427968974208517,-0.512672530976013,0.5331913728825064,-0.925486423931226,0.5001575226701105,-0.01380430174557076,-0.3161658675286456,-0.714273871734432,0.229563878970532,-0.41058051465571876,0.4761732525546911,-0.1854446377537421,-0.555391389669567,0.010058828168576062,0.7788812870992725,0.7077995723615398,-0.28292972293297675,-0.13973934165719037,0.39511848218793094,0.30872184593479934,-0.5760731504905945,-0.163876404681082,-0.22607101498821336,0.8577545137615762,0.32914035055045127,0.25910537789124266,0.2943110336634917,-0.280018265889452,-0.2738828636556047,0.753683407107333,0.13691725073565586,-0.4463478680443216,0.582286524838503,-0.21519899049014288,-0.949084172057025,0.2136384801617208,0.19478749615881727,0.7984088621094865,0.08638332741632282,-0.2339663362288691,0.6449053332418695,-0.407960896104556,0.2915979983711605,0.5972321441384183,0.6395531390483593,0.3007412820879209,-0.7060458093722173,-0.8714511123838562,-0.9558942522368163,0.2984118954410518,-0.3393058029498563,-0.4385143044779339,0.5265211012403701,-0.13844219588611564,0.24979284578791278,-0.7229278236996918,0.6618940807155708,0.6331591890464797,-0.301488876295474,-0.7824266559703191,0.6774151491141891,0.9393782966263886,0.5472965842162335,0.4735744193663342,0.453275651416404,-0.07456824512899307,0.2409589408156272,0.6694229727934222,-0.032413962777896765,-0.4345924367357942,-0.4880413578301861,-0.08218978582052039,0.7723052344417891,-0.3553643348693932,0.6936381004339868,0.8564301952727537,0.5785037717579555,0.19876327331535787,-0.7807440444740343,-0.955953806578689,-0.026047469867363792,0.17335485615785878,-0.3205123610026086,0.38447571332202174,0.05940674944237383,-0.4738074905096001,-0.0046874331929069426,-0.3031427304240501,0.5274608055753925,0.7745371177526669,0.5592114286939809,0.5728498483576714,0.10993291396178906,-0.12152946606349646,0.09856349839762024,0.7107563501739671,0.04580184307219537,0.8180277952076997,-0.8560435072779858,-0.28660155333885995,-0.9442601666487994,-0.3522500034408988,0.18865194056403134,0.5171916450195849,-0.15238925644669737,0.773545348754214,-0.18764852375790878,-0.1106045782023457,0.17657161332288782,0.3745041426111674,-0.33583856558178515,-0.5838438135980202,0.3478616369751709,-0.402546825238019,0.23304777897681497,-0.4940111158632391,0.27001747730948955,-0.8299374959298536,-0.5786618933054263,-0.06475465731913005,0.9372732517948714,-0.4525600678532199,-0.8580801663259418,0.1930636545610911,0.006208979061901987,-0.0608761939503607,0.8078773002176904,-0.10616518608581516,0.544580721084299,0.9928123131360915,-0.16566371860163379,0.79288990837778,0.0942281303826952,0.5652216060359562,-0.9776461319341764,-0.6809245849454725,0.9785287369882097,0.1627413463937965,-0.46012108542936514,0.2647128266655761,0.6707107922819894,-0.9323279255126503,0.516942437562396,-0.8400167680287977,0.11764002165036609,0.14333343745364502,-0.7761313048080222,-0.4876013963891199,0.6456365108702502,-0.4073583452996604,-0.5592586442638462,-0.12425702303846231,0.3966910938716919,0.20871747434545185,-0.22387480513373148,0.5083001803179739,-0.4941693178816555,0.9945538810270106,-0.49522925692726694,0.9029934644299001,0.9740885199052781,0.946578302951291,0.3698316355156127,0.18298568310526392,-0.4617276694960552,-0.1265165752132487,0.32412176327647063,0.7882754973351824,-0.43857095059466533,-0.0960478387267237,-0.46826466039482073,-0.8830116800419109,0.6362280732189436,0.15556876415180443,0.2630042383740676,0.8685535238443658,0.03042967292965848,0.9819366009821819,-0.9245763672164531,0.862875541608257,-0.28474488914233864,0.2954786966068106,0.24819830304393475,-0.04806093361604069,0.5520709573999378,0.9586180831796118,-0.603635523611389,0.8857587004319575,-0.2154794554627113,-0.4730986549859395,0.8214975725028186,0.9793704720117946,-0.35187166060873853,-0.36939300287952326,0.2871796727586442,0.7202677408793325,-0.3061383260908249,-0.6666861770985117,0.6268240751823522,-0.7462020869116308,0.8219217908670762,-0.5644559392540045,0.9500658185920052,-0.25986925757484014,-0.939352619433474,-0.6762469642219353,0.2395149037425941,-0.7588776702801128
Weights[1]: -0.09242832897809727,-0.5221294926116846,-0.4761059188638376,0.9191334647681255,-0.35797720651979426,0.187968684913576,-0.31689043218125146,-0.2962312639207725,-0.5770810123426285,0.6316254789156959,-0.42545861444690203,-0.5325070496334261,0.4356756207699308,0.0038083228300365146,-0.9645685599951859,0.0840081959422716,-0.4473761978779809,0.46885998056682765,0.005621076098466737,0.8683890913931602,0.5427364974947351,0.1746918499351906,-0.3028841499718298,-0.6448874742001702,0.8216257196951777,-0.9590462492588192,-0.7202889498883341,0.34541287801480514,-0.4919324393812252,-0.10870831418256666,0.22831792162187292,-0.28089713178616815,-0.8447731713972861,0.9400227898452538,0.8769446405940431,-0.9509691623742549,0.2976034913666563,-0.9397629927563309,-0.9938944540889442,0.44263831220690086,-0.39592989506010423,0.01649900480010502,-0.7290573137481964,-0.2983116560142076,0.05228268962925431,0.7863049627217953,-0.6137538299028547,0.431735737915959,0.9146343785871911,0.6561225464828884,0.5080235784445069,-0.14510694478876285,-0.7661061723558726,-0.627266761673273,-0.5970232615233507,0.732879821086712,0.7807546573601452,-0.8312184446636673,-0.9024922549270523,-0.39893095726097516,-0.09174236519808987,0.3376966898039433,-0.8042988245395473,0.531627301839938,-0.5966924427061773,0.8554385173392662,-0.6877338782361401,0.49565283092467705,0.1268636822359932,0.986400602379069,0.7864634529605867,-0.5033449477025443,0.47936368223990594,0.5699795203363964,0.26015848857135704,-0.4743056413031128,-0.0961850636397438,0.9954275060423778,0.30282983617057546,-0.9646792430266176,0.6547075806440354,-0.15202468780429323,0.43077849942761404,-0.1480549858641136,0.3832681073729265,-0.6265751335893641,-0.5147909594302955,0.7824935902759869,0.5370460513686044,-0.8559351804926689,-0.7317238197344,0.12882193603032355,0.9627292621707215,0.4050365031720309,-0.4660553340128277,0.2621223038122187,-0.18770439330781458,-0.2715664596863565,-0.7056507566526937,0.19693380278649816,0.47847340457156873,-0.10765834792895299,-0.6981385350761711,0.9273253062857185,0.8697616903585202,0.01563678356615683,0.39213862055546533,-0.3290889362474386,0.10841425187346254,0.8767392457820191,-0.17086934259667497,0.7853271513177673,-0.1340482808342428,-0.9378130119004348,-0.05363853790501061,-0.9397176773937967,0.9069181903763293,0.3437561613245663,-0.8516408055329885,-0.970117309116813,0.3702294767695615,-0.4765496340704992,0.9493987385352866,-0.03504413442416336,0.685556304722562,-0.37650801072441525,-0.5058403707892035,-0.9825199709400622,-0.01648237939558928,0.9729724169676617,0.7125351112758569,-0.8420156266040539,0.6858006398487295,-0.8971471275997688,-0.43148958897154305,-0.22861901751006275,-0.456896743484259,0.502544723219492,-0.017772827771386557,-0.6323686761932301,-0.018713754144829564,0.8142979768171432,-0.3259206615974757,0.6608326517817391,0.31325913491886875,-0.5200432945873343,-0.7433439551272689,0.8934588824971474,-0.5528862811203792,-0.554816563501149,0.31585428395097565,0.41421857037182014,-0.46666117179495514,-0.7819642574665059,0.7631056285139565,-0.130371858123006,-0.1310919538893264,0.26621323872228414,-0.7879412114615479,0.19860819432254007,-0.5291425805380491,0.35546640373228167,0.6705350149862784,0.125100704782213,-0.8287004175729586,-0.33530312186819644,-0.9117195680326408,-0.2400339447148302,0.5009050720841182,-0.817752779376578,0.5171790660904623,-0.5913543308568527,-0.6282886819699266,0.7753065863014045,0.02659241715374473,0.5237135822046014,0.8173786173712574,-0.7524629170175504,0.6028386422318239,0.15686834614028783,-0.6536716553225729,-0.3959982608059775,0.570228418661777,-0.4998934044738522,-0.46318247134830504,-0.8859780654406948,0.569854051766268,0.44042061351636613,-0.6785293890815456,0.6892136139209475,0.8914947731878954,0.2625170823673545,0.30617915700838905,0.7700899447561386,0.8816520729482415,0.6468655567834458,-0.828011000448843,0.5636106578463738,0.4890072231595437,-0.36542874963854094,-0.6058427423118405,0.5006414424164657,-0.6280004119445626,-0.7522591482801044,-0.05146422808408464,-0.06923728576708113,0.08543430129562071,-0.23202450787476298,0.19547444511771073,-0.7729313534734231,-0.01750365956077707,-0.504757996938214,0.4627972335025041,-0.11499151624811607,-0.16408256497363416,0.8344303983471827,0.7942335060100923,0.14273914944615765,-0.4862839538960987,0.9745408224978905,0.10021943401152258,-0.3408944387689833,-0.5194049130749911,0.8838894655387335,-0.6498804612317497,-0.7038509974739752,0.11193809803199861,-0.41653699853398907,0.9067183811036778,0.4134011700147801,0.3937553248933076,-0.6912471571671064,-0.16739489540824248,0.056527264001403836,-0.11190676260713124,-0.10459793535111386,-0.7818145967264407,0.2765161978818648,0.4736806503634898,0.5834042809502576,0.05965589346704583,-0.22043301153718917,-0.7891867817514595,-1.052037567803058,-0.4416187694703465,0.2559243414123525,0.5913199352726344,-0.6644122537811915,-0.053526780783776165,-0.9814979486063172,0.9114877581184206,0.08418375397295863,0.09163232384791242,0.5493202709626012,0.5590179951670664,0.739505512202735,0.043564348685108015,-0.4614527747900344,0.9566785701582092,-0.3108584537519973,0.866305815719493,-0.38833783289691487,-0.05287550724430875,0.8091724717263262,-0.0900281489331339,-0.18877233739476895,0.8228105996477986,-0.3864361973628011,-0.8222680196475683,1.03563331644785,0.5804240030308604,-0.639275704007194,0.5076973674483976,-0.16420227683856206,-0.14971291698836595,-0.6652452946569418,-0.5556853583996408,-0.5331375300659561,0.355446975378062,0.15167844255998664,-0.27067256871176537,-0.2051923907534155,0.6387673130439442,0.8735303100893886,0.5040790482448269,-0.6641704936900509,0.2338980758163214,0.2988702045546197,0.49623331670145093,0.18421724867676617,0.901426235014978,0.7162425420204814,0.42794539671012044,0.00623403640895647,0.8520433200257888,-0.4444276277592043,0.8986174720925753,-0.5584085642722248,0.07344137242148482,0.6955478686901533,0.4156702523473906,-0.04076447251845704,-0.8022777623312057,0.03033528177472273,-0.6039932372844041,0.49872502940647534,0.5939629513742231,-0.6969374211956456,-0.28391063459399657,0.23104797640398522,0.2838519528898653,-0.4462209370287151,0.17192119039449538,-0.18828408954155856,0.9636069144090125,0.09325511040679856,-0.08157338162369418,0.14231725039123375,-0.6079545764569688,-0.401000632607802,0.6288724783642896,-0.40660203887447705,0.13213720491960645,-0.06789067483066498,-0.9487044595643832,0.8977712666330047,-0.03287257920007554,-0.4083057673690566,-0.0007654584920954465,-0.7102311139963124,-0.5070872797694066,-0.9341783510840367,0.34995676213966814,0.6234950663631293,0.7776311811886873,0.799086935724638,-0.38863755361579244,-0.38828813256150485,0.4768855718322498,0.9959930264655957,-0.2792463808637305,-0.06932912620411853,-0.4124025883875754,-0.7291289315573054,0.849379325606251,0.4277147515246219,-0.322682491479984,-0.3595876080650627,0.022641795366635766,-0.2653312930452705,0.5683119067482589,-0.3164055319364597,-0.9866956605601558,-0.49204439318169263,-0.8548179589152953,-0.11313688932724006,0.8138557888396545,0.18607007368661077,-0.014492659282946569,-0.516402956460139,-0.5177412731872785,0.040556305572649665,0.35475776314491303,-0.5251173775294411,-0.24482529388965357,0.2232433274496548,0.20044152401408244,0.5412806204530344,0.019302424921883773,-0.8400197243673835,-0.5106130865558658,-0.6850573966644073,0.5863798711327614,-0.563776950925839,1.0075788916259576,-0.238393784011052,-0.9867251280722839,-0.14154566096836319,0.08840956932432012,-0.36008745394400177,0.34618533443973576,-0.5690589601791674,0.6389751482906891,-0.774313367037879,-0.43146295008197394,0.6833576730063758,1.0118728653783857,-0.18376832607131033,0.4875714582463724,-0.03520936008319697,-0.9531819056501528,0.4571453600456683,0.6407712379660324,-0.006860957949823221,0.509249011757434,0.6697144152273514,0.5665881280718028,-0.906910799325098,0.5140064440839067,-0.38634103117624335,-0.8582903121128558,0.08174295488466857,0.7054945792360456,-0.04224531348367327,-0.5992240690777207,0.41135888355220995,0.27019986994665185,0.7627352122639919,-0.292724405557149,0.5369120660196183,-0.10106725140257952,-0.15670202145823564,0.9685471297212036,-0.7332702196482815,0.14511346787659934,-0.8954567757797651,0.49664821689425825,0.19836862949879686,0.9371769316201921,0.09453337969935194,0.22518327982406294,-0.614553583606404,-0.9507778323957593,-0.9635703539179172,-0.8905320607374936,0.015620163291874793,-0.3213833176341043,-0.4017506192796625,-0.13754720742465826,-0.7510334405874927,0.15928478113826758,0.9868123676180899,0.5176675976908571,-0.34551737005965144,-0.3148645582295148,-0.5376122090607648,-0.0928894613648394,-0.17867455395202633,0.9339596520034638,0.15666172602758086,-0.582843738700177,-0.701254854213231,-0.8138841844088303,-0.9254658207860033,-0.8277266300383898,0.24642704101094884,0.5100673760800005,0.40684786970114706,0.8696185685087081,0.4217589140971001,-0.8272814721927426,-0.6553810376931826,-0.8501635643143853,-0.5870124823344608,0.4284627297868256,0.7926187801117611,0.0026882202325848098,0.6218521617890098,-0.22349328614701827,0.35491165784501605,-0.20900523965934692,-0.2907915366349846,-0.05985682767793,-0.49470785858813593,-0.6031352405973961,-0.025940994296110312,0.42946527636809534,0.36179488659420017,0.6053923804498162,-0.22727850372486522,0.3236023700270159,-0.17475209275254344,0.3957646323538644,-0.1706243153524698,-0.3108552355835471,-0.04673772167728174,-0.7757697160242916,0.9988974425936572,0.8661489486071043,-0.15942163726287972,0.4701336019717394,0.240680263412503,-0.26308678063506197,0.4542489054045056,-0.924294469722235,-0.15193784996248003,0.8192461478633668,0.07070619220263911,0.2373430683850459,-0.07099435859669694,0.3815191983680412,0.1906630779947662,0.9859110924256907,-0.5086619918630015,-0.6335904107688868,0.738783568358533,0.3588201813486805,0.6968504451245396,0.7649243840062107,0.31118938829707055,0.920997877063927,-0.8283462328036997,0.7912857317325126,0.08970028678406972,-0.8956304834669597,0.35521752729789235,-0.05085852511732769,0.30566251059326466,0.6885013573084746,-0.5787108321874446,0.5123009623189445,-0.018367910073187475,0.7422258017046794,0.9405579053972275,0.8896373351388369,0.5727218033283853,1.0279680387911263,0.5129353348432456,-0.6213802741066696,0.5260696966360597,0.13550794304673897,-0.7148996839298195,-0.8488441065218779,-0.2713044348714816,0.36808279630879337,-0.9039981597245338,-0.0972555003420379,-0.037522798438886805,-0.48306878189211305,-0.02783133044272257,0.5803198030126839,-0.49915353744251356,-0.7701913480508101,-0.4430723942085506,-0.08054593721430092,0.2984780200284338,0.4346938716097677,0.6115444056547171,0.29531205915492453,-0.3241377498535126,0.837709120741427,-0.5501014147401383,0.3793042938577137,-0.16383630444023428,0.41285914064161905,-0.5983791536059708,0.43062421470518103,0.9996014911502111,-0.4080558453393847,-0.21060425393780063,0.7341031323538375,0.8513060768770372,0.2960571356601124,-0.7403588933043569,-0.7669932452120782,0.6951728653661731,-0.9314775882678119,0.060875209542399,0.6859825000567281,0.9646105458795142,-0.574741069960753,0.9821831341749909,-0.21299100071796728,-0.2834600747020264,-0.16038857997813205,0.009630116637097055,-0.2694043100305272,0.13357231341087136,-0.02007467027807965,-0.4545341262368118,-0.8911871948881547,-0.5998193004526879,-0.8234788441496486,0.6740680178603236,0.5979600300781535,-0.40541256765665284,-0.16239298404487632,0.30293175055896315,0.32532130632289097,-0.04589997728467771,-0.32443981256833265,-0.02740037968522816,-0.5788576092926024,0.7711653325093589,0.24105623579315047,0.7009542480581228,0.1720668157432539,0.9305518902514838,-0.70231165909316,0.2219948141006729,0.22986493410070663,-0.6261834407347178,0.9214196667488818,0.3296080693744645,-0.7479752416817154,0.84509241314886,0.6662016474965055,-0.34259250172799954,0.9664588856249604,-0.6249830198259868,0.6133194604423352,-0.7768068749592754,-0.1052115369051645,0.9252537093502352,-0.44000358586015026,0.2937108295953542,0.6518221965278964,0.5951857972828168,-0.3151914200136213,0.7058579420396042,-0.13563519355362505,-0.23011520558958862,0.695752876032544,-0.3100390458991933,0.276160677557886,0.4359435408543533,0.5398614544141394,0.00797608821092921,0.4701564523718118,0.13875511807331598,0.8359465667747099,-0.1996292870053894,-0.1379751082547012,0.7966040248751877,0.3441042542165546,0.7603972552277206,-0.5172286582191603,-0.20951172310465643,0.33482162758643985,0.6422705674185776,-0.2095601673192638,-0.9200856034530731,0.2452642820222369,-0.054350427607112194,0.30766523710108623,-0.5987656024997651,-0.9284338931954161,-0.4834027660987049,0.17190616201097897,0.9038522822895491,-0.9858664758437623,0.549880734435227,0.23886472696385574,-0.41276198411954657,-0.6632608993273512,-0.551051229029452,-0.3328204133235013,0.2315778812540592,-0.9362472282023003,-0.1638321793035684,-0.6508006395292345,-0.28740720835370276,0.2286227101723872,-0.123196325436841,-0.45971962497245483,-0.2056040397378304,0.3237921413236055,0.04087295004124663,-0.4671721963697352,-0.18021535665500488,-0.14876958504542878,-0.16916991384491908,-0.8215288783530666,-0.04742068121684275,-0.1288652636233056,-0.24180989149924437,0.46803826901703527,-0.2810414812516768,0.3629400466396193,-0.13037380721903113,0.35982622735194214,0.01677196985891638,0.8321539730914653,0.5658886132602992,0.12462159391707806,-0.7138146821939455,0.5780971871538048,-0.6991281885192826,0.4847356544854505,-0.05623958824031185,0.10567284509028518,0.2990071225967307,-0.2086572762970374,-0.4481562914619363,0.3527678113812538,-0.8805489214069229,-0.08371488826764999,-0.5711790350879492,-0.5778537169944277,-0.5385667941252363,-0.004249360992310433,-0.0459651543104327,0.9649201029032631,-0.6706768661849524,0.02407361201789352,0.18281275265080152,0.3715365395748693,-0.7253321342753862,0.7113924919214996,0.5687653317902075,-0.0199048617016081,0.9467414337893676,0.8686378346144399,0.19063467308442794,0.4669819108522413,0.3234458720886362,-0.12845698609975686,0.6471890838942305,0.7341406837055375,-0.6779098970064136,0.2893053210528739,0.08104657453798024,0.6234766479221128,0.6536139661149852,0.8051748065383544,0.635930208511423,-0.9848904754738445,0.5409083414512799,0.5666989573400303,-0.2537548571271748,0.8752445572767209,-0.006329623519596428,-0.73378730180384,-0.10322393435203658,0.873301713668416,-0.6085433287585822,0.037375148868828534,0.4969494089004347,-0.4583943194981638,0.9411855060333318,-0.08535122176881471,0.2946111193367331,-0.42692512992160636,0.8995254655690439,0.9320502633082192,0.15881745607873626,0.3898280978679188,0.624907343346555,0.13906310141993744,-0.9583076824299451,0.24322789152569665,0.24413291985377328,-0.22963058710128215,-0.7870107737447689,0.1604661744197349,0.8455648422162791,0.32516351746461813,-0.637705081905101,-0.40999932839069486,0.37485087261295447,0.14860107337525164,0.8102260929579967,-0.3022565354137945,-0.036056281549882274,0.6933083691137416,0.9864247618179884,0.6805287355932075,-0.028138231033523642,0.3173329594160117,0.07552523961082347,-0.7139292767801924,0.3783582942254958,0.1342194759580667,0.7946878376828248,0.33552921251901435,0.9969668220714512,-0.44733222641392245,0.7390906539461997,0.6706062805236346,-0.4034683319756148,-0.7124829514475925,-0.5703927341710742,-0.5887413907743717,0.5130978131262109,0.49310610047220527,-0.358183318450201,-0.769255199362177,-0.9422247092901844,0.7221900260644918,-0.9972801217796654,0.06212365490483296,-0.32491976922607035,-0.09305126270887032,0.16675480788888164
Weights[2]: 0.10442268527318843,-0.4031323452494724,0.609131151628276,-0.793362483286002,0.9600708605535659,0.4681434889641327,-0.6099467573733752,-0.712105210736443,-0.9254734022195793,0.7777558647923897,0.8772380044112158,-0.8836305634508052,-0.008146598473259492,-0.12270186148709705,0.17761921751202037,0.317914061862004,0.5902423623903852,-0.3083113624287357,0.9934690035849201,0.08733382406054702,-0.2810061924536741,0.39896748373236846,0.18464565145999456,0.47083761797791235,0.05149168756394262,0.7556799611801654,0.622753444883392,0.24967174290198457,0.3146130811956771,-0.9865984152940095,0.610990492445878,-0.529844068703169,0.9505160366885905,-0.02151225834224013,-0.7732834162997471,0.40009916732092354,-0.056463378042198475,0.5324531372322017,0.7105354199700689,0.12838817906025257,0.8974638059257827,-0.8582875234346313,-0.6632679885547925,0.7353419483338213,0.6158680960609895,-0.47455275499939586,0.2388913991110826,0.18047715219691263,-0.4554291914475286,-0.3151941836416694,0.47188129251444777,0.9833915932026653,-0.08652026629379028,-0.9205790161716654,-0.9264093748882456,0.70545520154082,0.41222200329053305,-0.8617064663496364,0.15514582915005537,-0.7956091006265995,0.8453900440807407,0.1403814997246402,-0.026718291932120164,-0.9388749869255698,-0.8332346276534882,0.40708207311438493,-0.8341466001393956,-0.9866343401310194,-0.34941844518735,0.777520050191097,-0.6256230144381569,-0.9434777335722656,-0.024740642878223775,-0.14112026883892737,0.18694976717109224,-0.42298997826970297,0.0621312154022771,0.4493037031261733,0.8549695219169229,-0.4739555574366616,-0.48321143793091714,-0.5577237073135207,-0.29489906565048685,-0.3701927351626534,-0.45847970780845715,0.6275988992432127,0.5566761975906214,0.8710950528602559,-0.09510288345399442,-0.4787386178405669,0.9878771640303905,-0.19475691169256204,-0.6226926919178537,0.5061445205966684,0.28300033270517616,-0.2428962659736261,0.16847362414795303,-0.7218171405054256,0.5749961533707394,-0.7933419643880932,-0.6483973676145817,0.21924419756841415,-0.47313783422975003,-0.23328196493342282,-0.6896411281357961,0.41409206735626425,0.0022383756014696665,-0.9516010908184578,-0.11044903430642983,0.49630929413079716,-0.3567802707463411,0.9629183001643598,-0.7166759882665593,-0.370898613413283,0.6876023373043176,0.40311375139426153,-0.5647194346248728,-0.6565255567694668,0.5196047208828873,-0.460833526896701,0.8504058755237636,-0.7052097859775097,0.10787758060934402,-0.8739014550729043,0.7842136879290738,0.5702329784295856,0.6743622835929083,0.4628880341903717,0.5652853102322728,-0.578628383447982,0.4068016054873856,-0.2124752984879662,0.8853944782844805,0.646427263299796,-0.8339384330928897,0.29087173394823357,0.9123806953022167,0.9380501759881388,-0.6806211116167815,0.1274282248352785,-0.374639476358257,0.5082772884090792,-0.01845591283331438,0.4082040990441242,0.8748484668659774,-0.9772551361428794,-0.48095906462980687,0.7454968336942128,0.811053991701884,0.8642573751335196,-0.7007060464643727,-0.2151448841859551,-0.28133239065635834,-0.002415494655916898,-0.6674648865381817,-0.9666220222748805,-0.9129996808478423,-0.614405814018003,-0.022049970367851335,-0.2510446398319304,0.7525621704804388,0.5351081510059575,-0.531435655387805,-0.5427338299112484,-0.9125412683526712,0.8565912553372752,-0.917808826974504,-0.36285948723687766,-0.5373492108366216,-0.6036604855226635,0.4907330560920449,-0.5076040267885269,-0.985019914629805,-0.6200707697881483,0.8973946588972748,-0.6808964101817907,0.277575694619215,0.6507581556024364,-0.8151217624083552,0.7099508310649775,0.0030751576529962667,0.9026290402341878,0.6370916558000941,0.6700543043735743,-0.9327184098996967,-0.438456705744105,-0.9679106647425717,-0.14650069308775487,0.3033752931770027,-0.8846034125641277,0.19587117247194427,0.5307092170277414,-0.024408195295574416,0.5816862238364996,0.39381807455505147,0.09813084504480041,0.04196106877269279,-0.4752191665932626,0.32112909076787965,-1.000661761346904,0.922838856314993,0.866483917667133,0.2652393453110397,0.3992494563371698,-0.6440622334965436,0.7809041866670327,-0.25710526473257694,-0.6775341764255299,0.08835567947103247,-1.0322107497200943,-0.33094403244179427,-0.6589164522261048,-0.9284470548007188,0.16903731803533517,0.6678591954187633,0.7892034211822494,0.8734734108485968,-0.22311075226937216,-0.6347051456762509,0.5234840911079457,0.8421080893828062,0.24631360673888397,0.34933716121564484,-0.6389643101203089,0.2221338875694825,0.9789277855208738,0.5365880855995175,-0.5693981939518011,-0.015247838450813343,-0.18697252162124284,0.30102159216918156,-0.21422265531059298,-0.6306422582307513,-0.7940056507192893,0.7855496505417617,0.1420032013444607,-0.382845867506241,-0.8078784211525603,0.2539676752714919,-0.7706857303055993,0.7234820632493767,0.6191113038809288,0.6905093827513393,0.23518386023440477,0.3078206481751233,-0.2395431151232409,0.38801460493234424,0.7608004070394702,0.895122953580188,0.6034394567911326,0.2273676801600344,-0.7221568449037881,-0.820996449245604,0.8244204159059209,-0.8045146613402826,-0.28804650812866517,-0.4679794801161192,-0.07516274638180907,-0.8011163663369653,-0.5957435443673853,-0.7044330084444358,-0.6293828535009731,0.3796548435770522,-0.7032798314472841,-0.31943034902678197,0.912771940035323,-0.9938287764258464,0.908753398309384,0.4009840457759116,-0.45846460839691705,0.12996945265803977,0.5926247548364824,0.41652938084563934,-0.9580346309861216,0.7323317379230868,-0.8373699016716966,0.498035417639016,-0.9201041396574757,0.011041828901992012,-0.5348952643270117,-0.38358058006669427,0.7894606878221379,-0.4379954223697984,0.40493734023603856,0.5832527070400679,0.01818441801810131,-0.3994654971858995,-0.44127833298591207,-0.9122705682622908,0.1290637383545704,-0.38827298368054125,0.6760581324209936,-1.0271521836890414,-0.12288754346255741,0.9667812613598031,0.41653894038114814,-0.7086827521339644,0.44734040586762897,-0.4491336504113106,0.3347823728066817,-0.2899564855758797,0.4289319169188028,-0.6342351536337313,0.35143211942012126,-0.5615456189411502,0.5908683601724303,-0.17322778011356843,-0.8803591122293655,-0.9029664312968806,-0.9636793052608517,0.21673226413164848,-0.544851039261282,0.9060832489550075,0.7222012343516919,0.7843396515664144,-0.5033142635341697,0.7925756109134711,0.9347751615856236,-0.3411456299581068,0.6073503495622503,0.2810952305939441,0.4347643549173755,0.8531324146761943,-0.7601374643997821,0.8740220139961717,0.41275241847269417,0.5811139458182542,-0.48328864615542366,-0.9558270149353025,-0.7262918848880048,0.8506172524797906,-0.9449021557633226,0.5223328341866538,0.624235779803356,0.7465004286479673,0.17337983715039673,0.4315586962884099,0.20964050256164768,-0.03199612676724606,0.9941171938430416,-0.8145965145760492,-0.5224334294940429,-0.5451644301739129,0.977064312556675,0.8412841085833357,-0.8823496305002889,0.7308764792257839,-0.8049207643256479,0.005875743980735625,0.44082286628252687,0.5926518369545987,-0.7372197854821868,-0.3464924646804057,-0.18731287152050474,-1.007513499287319,0.24453604769094167,0.5410713189221188,-0.9437069727853176,0.4303346092391686,0.004539478619105855,0.9886094773836966,-0.72147527882898,-0.9412904213840563,0.8046859287678665,-0.8215108941409321,0.15735480802010504,-0.0646615880842607,-0.7140800364942378,0.9737601751537623,-0.39070987815960495,0.057886501493738994,-0.4467846003614193,-0.0605467428780181,-0.34448292199465097,0.44018456100009273,-0.22130059588751877,-0.05590537679055455,0.8438330560853015,-0.6821909700026122,0.6535043091091991,0.549013472877536,0.25217658648479097,0.38660000441087733,-0.4479371748608682,-0.3583540892305948,0.48508429177707574,0.3145030484548224,-0.34409033749314744,0.5912405137486254,-0.49486606730840454,0.6154662536529201,0.35523248992638323,0.7619231574991361,0.9625451154832472,-0.9911250397521654,0.913705551947079,-0.5846498847000431,-0.35240089501736055,0.8066879342197728,-0.3010259472217984,0.17524923929487182,0.454082223399164,-0.7508060059975898,-0.5952735385812132,-0.6437902623734919,-0.013938215340944476,0.2733188679959935,-1.0352138714170316,0.28606763546544817,0.10163064497148867,-0.8505934713003958,0.621441489708839,0.6513539370692096,0.6665920929997129,0.35722244171893286,-0.3276745273911421,-0.16067837164411267,0.4968768403661488,0.1476761750633251,-0.33760228629112354,0.8221395489862839,-0.7252711382346559,-0.30194583316424206,0.480195844382746,-0.010750370484620448,0.6950244452695461,-0.2014222390399076,-0.007683469055976183,-0.37185924664371495,0.48606532116741247,-0.6516027644648925,-0.7152809414152154,-0.9915020597436276,0.6055473463170176,-0.5310064059228993,-0.9199520607487708,-0.09804806829942503,-0.14714546960048525,-0.9424715234987598,0.5367243063655842,-0.8838336096924952,0.27954165139560855,0.27595683381842945,-0.5918874691158189,-0.7231745288143083,0.9445780214702183,0.6664004873793574,-0.9504867335550891,-0.4192255788572252,0.32338409466826556,0.07773088527737682,-0.06581657988290146,0.5022062843249216,0.13829009409266468,-0.10593240070143432,-0.066076883699984,-0.23233318668637679,-0.2401375343901852,0.4250498194463265,-0.32350148157296976,-0.792262534805881,-0.6722961050239933,0.33084649410688993,0.7830767955543948,-0.33459661702001187,0.7835258968468752,0.5504296760256753,-1.019506992159714,0.15929880409614847,0.23266271912710118,0.6720964719760735,0.8784483403921651,0.3664970390841019,0.5427993086831642,-0.503542466789271,-0.5030960736345016,-0.022380153193315544,-0.7240543354880318,0.20647790152881207,0.060301450574910875,-0.9536826967892783,-0.23990242385600485,-0.5687169188079676,0.3652149510684034,-0.5098385779204317,0.4914695952442975,-0.15366696026971602,-0.07953285795651019,-0.2521012251039673,0.5520080690498452,0.3223424987883447,-0.8426618825282911,0.4293818018811509,0.36556660417698517,0.3430177281739043,0.7978292658764438,-1.023472306073216,0.4670841837333367,0.6663892064774868,-0.6042552705314372,-0.658622920499553,0.6291269714148375,-0.16159003468304411,0.3032098167125181,0.630199066191073,0.18906750305977993,0.5677382385207983,0.9689920525853486,-0.3398795127030907,-0.5901147735279164,0.9767414440524536,-0.459329308038198,0.6197072177786529,-0.5664081928635623,-0.29124879935516357,0.4924076932362955,0.9000956946853006,0.9540054081137471,0.30136779838000444,0.2393788128857756,0.02494009475126033,-0.3333891243111588,0.2609659668011493,0.631061614426063,0.9602187254991844,0.48481606705663266,-0.598280519701366,0.9499797818434116,-0.8316658064768985,-0.34837530522997273,-0.5236596602591033,0.46283125386705204,-0.4099732122430453,-0.19570854082503752,-0.28111638467810884,-0.5830050108875171,0.933584959103875,0.1398553066441473,0.7499882622244788,0.32068026107613157,0.9313656948706972,-0.11781378634072594,-0.7221650478292785,-0.655847378750854,0.5864922137053551,-0.248197177768711,-0.45068363924740207,0.0690569870983865,-0.25897258188128436,0.8788529289757421,0.9217753661936803,-0.9307298229557401,-0.7930231169770889,-0.5934871618538399,0.3501707189140897,0.64484574474676,-0.6704359664855369,0.1693412517985986,0.3084234955294167,-0.8981178421052721,-0.2325997227954677,0.6129035305291897,0.8002185643651609,-0.9909469587686225,0.9405906356889893,-0.4835427555807678,0.9525500929022105,-0.18063152352778572,0.697215688889373,-0.7286579553479215,0.5359175326137712,-0.26175531582864114,-0.8362977914155415,0.9513187678133017,0.3156744982139664,-0.826550045126055,-0.5771934567217715,-0.0682858928319105,-0.9358698881376816,0.2384584951106792,-0.04797154181181537,0.33949201986211186,0.19814016202055307,-0.7464449780370412,-0.3203553445003818,-0.6214747166361076,0.22691385505111605,-0.8584085823308716,0.43494490880283765,0.07026886710443936,-0.9126207846741289,-0.23598264215326992,0.836635072444953,0.64826357666281,-0.44856486658803796,-0.6720700662891536,0.07497615581056871,-0.7510975806375945,-0.6201922705805982,0.0034649324166834542,-0.2636719309454272,0.7064896952230797,0.3680835456541778,-0.5397501442041656,-0.6462043975079128,0.1977281831342775,0.8932922642038291,-0.7479007232470473,0.11433304809877401,0.17899532999324705,0.1957385279600073,0.35101321846022765,0.06068542399042877,-0.9490666845576217,0.11747355438651219,0.38939365995553965,-0.6030390772982682,0.54638842565305,0.32942329129642967,0.562026618775924,0.2918718753742257,0.8159430232295036,0.39727453057393547,-0.34836564745974713,-0.8120827536291706,-0.22468254563382084,-0.13116750418209114,-0.5603556149172468,0.3452169374597558,-0.03542262171090342,0.0668178273810026,-0.8425676882823052,-0.4404938889600233,0.025141249846099382,-0.5507745245893519,0.24297198512186716,-0.9762786187431173,-0.2812588997710535,0.8617952910716447,0.43601159252973565,-0.5482656823230282,-0.044514074476675214,-0.00032832613230138197,-0.774395145370809,0.8646992835517504,-0.26359543728809587,0.7033623874668788,0.7857028207675101,-0.4676678263345721,0.15911433883576145,0.932362027380806,0.5455152892256833,-0.06342283105479884,-0.17178442908517097,0.6893677006003642,-0.1174443574523683,-0.7247116779482445,-0.31719531366518294,-0.7394970510918484,0.5747545685349664,-0.6865815542679861,0.37401338879955065,-0.16559753252808945,-0.8675024249202713,-0.8929681917299659,-0.009667685329683881,-0.24581880478532978,0.9956613331667821,0.5752839220572654,0.8603048994486708,0.35059571887859886,0.664187030710367,0.6817777751394445,0.8940102243302437,0.11029230109895227,-0.6635788789315051,-0.18555369658921247,0.15659118293300306,-0.2295094313331353,0.4353753467218983,0.06429772666071872,0.07614809571223734,0.9082611837926098,-0.8071730548969264,0.06561301799366907,0.5746743432336284,0.27248251250538535,0.7272317935607828,0.27626914660671226,0.4808225793995524,-0.10908385616693123,0.3151234185406188,-0.5936350340647051,-0.7670181032269165,0.08247862487444496,0.04702294936267489,-0.8984339823473403,-0.1537967934989356,-0.8963435347640624,-0.13853001647560392,0.9837528569548171,0.7098321680491009,-0.7895811012897552,-0.32793617217239746,0.8069920687968806,-0.7430836035604977,0.8439713731480146,0.014096465541994941,0.691538019821191,0.3321771059113837,-0.9298579378762911,0.15216919506900184,0.9742437134684758,-0.05705393434255546,-0.3756323994840149,0.24537806313180044,0.4051876699874027,-0.4198902199914861,0.077753931399684,-0.44022655573215186,0.7119924264432465,-0.027379685559952516,-0.32394004767944107,-0.9323886213509313,-0.05134725433371368,-0.9831766113560538,0.24623768555290892,0.4446801093615034,-0.1883282853236088,-0.9358328599183974,-0.7651448965841647,0.9679890563562461,0.05246212754978896,0.9079609538713131,0.44593933187538504,0.340977095340545,-0.15689993948974054,0.26955283991609,-0.5912758976443576,-0.2090885335928221,0.7542725081505539,-0.6571059996620905,-0.8966103002773946,0.9094461609056746,0.3449390408465257,0.706104461025824,0.39553887043923963,0.535064404613834,0.6679287970382388,0.834703257230438,0.6293290861087522,0.5075663437636413,0.7600825884193567,0.5428733348580419,0.14929937717937825,0.011132542514769694,0.03377221572854183,-0.857192479938824,0.7234110821613162,0.7901686801529344,0.010678710886593334,-0.5998289609517156,-0.7937241792548271,0.6442033741011317,0.17843959076999874,-0.8142044692366405,-0.8630642191800588,-0.9724719691893421,0.43469819120815867,0.22065692079284083,-0.6473851537552593,-0.8999531790148249,-0.8589284912957477,-0.7243108347637164,-0.15593349801187095,0.43838327817543554,-0.09941182243610347,-0.22817695198030075,-0.2862765776395223,0.22639850025363195,-0.3814071125264312,0.7111732809390747,0.7767513123232646,-0.023031542554046713
Weights[3]: -0.272711240347806,-0.7920935320631105,0.5095887926917471,-0.2412855789257612,-0.5629457931793043,-0.6852602677816806,-0.24778711388250207,0.593338171762106,-0.3372405149681682,0.7997527419588308,0.316948107125679,-0.9318123226667812,-0.5717999774831347,-0.27414135507966453,0.1680924255252314,0.5853184645927132,0.3707024703597195,-0.8996337865943247,-0.552728123754602,0.4820884109856973,0.5292822651235769,0.36649483505938885,0.4843934231830731,-0.30119316713008715,0.7109160990039427,-0.8894556350491268,-0.7380508322911574,0.42908409770069844,-0.5029874180923157,0.17157579267936574,0.2995054299475184,-0.37698279105917676,0.22863119339040994,0.2089940603864351,-0.5489105002716699,0.97788906282647,-0.3726530118718059,0.2688136097364191,-0.0023560156125370657,-0.09408281142547859,0.6004019601272428,-0.493291350776931,0.47831202367242054,-0.5240635767225472,0.5271183948624498,0.3701956008422167,-0.5276118449529688,-0.9540355969006361,0.5456309968352462,0.6410800356609188,0.24789041711384918,0.6108070675333994,0.32947943607786634,0.4948800464602561,-0.09444421115072643,0.3607939245928051,-0.2764869552461835,-0.1892180401781658,0.047798322070295995,-0.6734901581301773,-0.9472094354905232,0.3231287884167995,0.09632558985442174,0.4911836923524662,-0.49975268798868766,-0.30606910181514413,-0.1604435160571912,0.2192059621304301,-0.7252308548079947,0.19020336269876137,-0.04203045865002592,-0.8978800773478016,0.10546361722898155,0.5458923501715588,0.897793265100603,0.03565170486828896,0.8922187486704943,0.008456999905620322,0.17168843800746303,-0.659279501838274,0.638156209903842,-0.7840152353905212,0.883453100865452,-0.1440674537532346,0.9236853755655166,0.688698362414119,0.2935377728629567,0.7337511469301541,-0.6965617284628385,0.09029557513552522,0.25437601807265353,0.8165650283063599,-0.778984712333877,-0.32886585748235964,-0.14687339753343975,-0.7227270388747778,0.4103826381982028,0.9871329234166673,0.978554046546961,-0.15758926038678356,-0.45300063620647574,0.28416288335090606,0.805082211087026,-0.6263204620423882,-0.3142008159479164,0.14600155649054858,-0.49191516148481296,0.7881247484069898,0.6131935956018015,0.8829821729487657,0.4726111132058366,0.7150560448481962,0.6390935218143712,-0.2929221760914299,-0.31164636803401935,0.836805799899998,0.43967568755134745,-0.7596069563923435,0.5674983167869496,-0.18845105040280663,0.4003931253218991,0.10580502383463228,-0.08464516294393715,0.1836220247936776,0.9379938828504245,0.1477249656274925,0.895152654704593,-0.540310578328668,-0.246940128619194,0.6669945210328029,0.65659253694626,0.9067700013765008,0.020101328123749006,-0.6685649963995621,0.8028948626608637,-0.6222505255221584,-0.5552104932978799,0.5280254667289674,-0.8271760129496344,-0.22231618092503225,0.18061352389893193,0.5054130244559669,-0.8794424486716476,-0.579517693561571,0.617899218735089,0.5393157255663719,-0.8226969495778449,0.513633495891981,0.9814693232957356,0.008772488029696407,-0.16935451615766509,0.1735931576797039,-0.5781392017073151,0.15704830940892678,0.4331582021277415,0.45260466327246207,-0.6472334618767572,-0.40720776431600114,-0.5713749828805971,0.5453310624882677,0.23446917488417673,-0.9598244037892365,0.08582381025618675,-0.9971445253754475,-0.7292083835830951,0.5715566331388227,-0.3177118437912836,0.3005925804845022,-0.10300355735374778,-0.6966203850212602,0.3920162931978779,0.9119545951871849,-0.9320911097263437,-0.21022807994992965,0.6313691640897644,0.8968097218403107,-0.02164142191502362,-0.5166283073490436,0.5617313647059299,-0.5942039057923186,-0.030469737801003736,-0.6286674892494701,-0.5344997308038899,0.6782429985019904,-0.25473158423360576,-0.583018425972782,0.4548742525372176,0.8431699720393964,-0.15673894708461097,-0.7110499895261106,-1.0151871534363774,0.8074103358071778,0.0904226578931774,-0.36878144938835605,0.5125558355415964,0.104116771884317,-0.594483660345191,-0.888222765125438,-0.850335517828509,-0.9533725937101583,-0.14146719450752557,-0.12166820166729501,-0.37937688442757955,0.6809684218366708,0.6246231033446287,-0.07174929434589251,0.11119267870235877,0.6372496326278118,0.5116147463995561,0.5421145426087853,-0.5411827395403976,0.8546693862987153,0.009277710141985559,-1.0137167580512574,-0.473552773808618,-0.16134831013214795,0.5357129995843264,0.34357663244705827,0.18818108371617007,0.7858302742712436,-0.9209840152645642,-0.18577052621587778,-0.6051139894896718,-0.4882511587293126,-0.7441798996851685,0.5339484743466361,-0.19677495639621045,0.4360958044904208,0.2777276873972951,-0.4701343578720168,0.49781680097422265,-0.117292800967307,-0.6425252936616374,0.5253812433372488,0.5416044457630932,-0.9434315273664712,0.717396200087019,-0.23620563645465723,-0.9316425527275947,0.8412841183547377,0.29772961249142293,0.8267116850549399,-0.7246260027402298,0.30190697234241853,0.8424764264742267,-0.8692410311283293,-0.20301635587402395,0.05930764482987604,-0.944938520350488,-0.38391759353249744,0.4764275958186144,-0.02247310570556349,-0.1301872865903132,-0.678891843996103,0.9559956611860523,-0.9567565363052312,-0.5184970335222557,-0.8870589048271509,0.43370157729304487,-0.9005826447379893,-0.8780460647971441,0.6597836610300242,-0.660517771871946,-0.02018347748059066,-0.9662637739115688,0.5613782954129807,0.5074228109497823,0.4700879556983099,-0.5614038152819693,-0.5495962123425515,0.097707947642253,-0.20058402358676294,0.30130315215555253,0.34667136271359494,-0.5425875416341349,-0.7707232045732653,-0.5201738826539561,0.028176057459217592,-0.43391276590242644,-0.9496365040306172,-0.304186764780519,0.7178967940491304,0.3830924739051109,-0.337227739987069,0.05022182122837803,-0.4937320609039663,-0.9870646822517849,-0.969959724938337,0.5537471850821749,0.4873382849057396,0.5798023733122664,0.6301337830773159,0.3219043397672919,0.9374270523016396,0.7017392981370982,0.6418109637946752,0.45669716082943407,0.27440250474895644,0.27814184483527105,-0.67574122434436,-0.35057741927898606,0.32410954683186305,-0.41671836089339626,0.5631308273565224,0.4664942069546169,-0.38185489987109555,0.5971401574076807,0.4687167235970109,0.8322619124465911,0.7174724422942254,0.5651339495392209,0.4549675352082004,0.5374262776511566,0.36768753223391837,0.39906417803608046,-0.5897574357553036,-0.718945109279856,0.6565686074647767,0.9304041281634579,0.5176332527979468,0.5244691513570291,0.43212433641081477,0.9069468240484357,-0.05418685257339704,-0.18216512140632582,0.44409411693200684,0.4673093579267577,0.3763546481187627,0.6500721693059148,-0.21290917334718348,-0.2801990408096893,0.14928872483167188,0.7074507462923066,-0.8134589296828298,0.34136269210901227,0.3569492964804868,0.1161778891068781,0.8204489209784422,0.19672752600010845,-0.5677960039071024,-0.08899981951864101,-0.4730910315393977,-0.8119793678945175,0.8505651598962319,0.9085678532290751,-0.8931859173401548,-0.9262116169703403,0.954595567177655,-0.47164421963117803,0.2793420728799234,0.3550283135039165,0.7372440139020878,0.31357501110975194,0.7428123880900372,-0.2222871554414229,0.21664209985526856,0.3733190840723639,0.5968911264117749,-0.33461345188647745,0.9600536170614126,0.10568498657934017,-0.8259999276259914,0.7857670457036081,0.017256221276361616,-0.021998682535252834,-0.5840665798560095,0.7475472836510964,0.35252191365234076,-0.9754501763286095,-0.9704256435417825,0.2789822981500655,-0.5647884672903463,-0.5348956685991759,0.5038988165640864,-0.36802402714306054,0.02487000167269331,0.25585179676172454,-0.9334223582317104,0.02668904224251779,-0.29889145636251646,0.4020990301636181,0.5422152083834403,-0.14904001684503448,-0.6419961966203037,0.4140232577092647,-0.0720371867168298,0.7618484890809967,0.920191866572704,0.3694484325906222,-0.8957560145742055,0.9526910399797797,0.501976190834295,0.14345342160363383,0.23395422903539353,0.32655746830932686,-0.25924532463853134,-0.258920862814423,0.16506613164667866,-0.16782290566521096,0.4709048009377859,-0.639359670192326,-0.24717903388590615,0.9735647510591603,-0.4638688974523135,-0.9935587309591979,-0.10552595106849776,0.2911701169901001,0.839760685096594,0.17210740559805884,0.7990782778839461,0.9715772074136351,0.3202673301926418,-0.4244154233376787,0.9402100877527634,-0.44419285066410025,0.5591237467649176,0.31481121746972823,0.41635602826195856,0.5931750282613444,-0.9520798669904842,-0.36022522456954476,0.8232235106747707,0.9831113628964459,0.927571035175099,-0.9231921820625492,0.7557107299679623,0.26252418822101,0.20826796696476044,-0.854752384418367,0.8608793692102412,-0.7232829847718122,-0.9355936688955091,0.15763992357454643,0.4588897887585347,-0.7387681869254604,-0.42153229337260467,0.5457394224488996,-0.6944370400370777,-0.6709600187812179,-0.48477597128447775,0.6439562008914814,0.925498737559118,-0.2509658057071502,0.5719252367919443,-0.8512069666774332,-0.36324482799887714,-0.05568252739295476,0.2020420800904008,-0.3311231524362802,0.760717003494835,0.42723281934262847,0.3330398236089571,0.5763813159246843,-0.21783121772525146,-0.19246889320594393,-0.48512170789115244,-0.27708999431964504,-1.0096454877386885,-0.5734513666135823,-0.8274711441016153,0.5250702426112295,-1.018399003928951,0.5761764053137649,0.1822639264997643,0.4374996881490536,0.8065072488693678,-0.90931425227007,0.07026224092913837,0.6447231160047968,0.9166287741174589,0.9485708467605972,-0.02606662177760438,0.07134918255011131,0.09758594962655853,-0.5657057387594626,-0.2870910508963703,0.06041095268931751,-0.5967690840348457,0.7809150366955042,0.4490571950790738,-0.1604681273315479,-0.9092229046997073,-0.4521123665400199,-0.5985558601723164,-0.5562759354542001,-0.048489409964840434,-0.49058298384148286,-0.6432256905168295,-0.37694468143018695,0.7182881184641973,0.8254135816542104,0.5030076822763119,0.8264291155220449,-0.89875631798111,-0.08106341987064303,0.6003629075088944,-0.6931353482413826,0.4727906582099179,-0.9429164352808092,-0.706523829963091,-0.46264453892196045,0.9281649374999874,0.5936982843995553,-0.25163870549371403,0.7939705847734448,-0.5510050493995682,-0.7381269502165387,-0.51570540830293,-0.6164590258915508,-0.8532524334664472,0.5022346531846773,-0.6453431771499998,-0.7654299553464887,0.0018543775082452178,0.3907211550945776,0.4592132508627711,0.4518010270435658,0.18362215441444807,-0.21556521882185292,-0.46909221544688146,0.31179892946478355,0.7197747504700587,-0.6198221055060918,0.9013528728406401,-0.9402400954066263,-0.6237847214587307,0.0810433754400586,-0.03500755037733404,-0.7878536960948971,-0.12185669649478825,-0.5618556568221449,0.5782893139767877,-0.6654198894581851,0.48725311527366433,-0.08816299265630678,-0.08580705480920481,-0.48003598536035774,0.8250381212706852,-0.3705026753780978,-1.0038486296884126,-0.33482861057358404,-0.9580980232523599,-0.9767911985999321,-0.5116869561236491,-0.7768082438545109,0.47446532112962964,0.33393983939988575,-0.06984879640612804,-0.26080721850638366,0.40127808219049427,-0.8800457656710045,0.08740299366738459,-0.3391099587336688,0.4979592138439102,-0.03908982182092867,-0.16387873094069247,0.5783603277983539,0.7391289331666795,-0.29761515431926355,0.41317485524954956,0.36587521031772496,0.29768377137262547,-0.7272154315035861,0.5088341606356364,0.7216673981337322,0.92826517800469,-0.9790206799894693,-0.2691416263646399,-0.9578482105795267,-0.5374793499813055,-0.030127069315042703,0.633048120833939,-0.4283039027905842,-0.1934833081497793,0.9036220175460489,0.3202390478305042,0.7148692241168506,0.854466192064647,0.6354589970963441,-0.4405197614195855,0.029592845501363648,-0.8285110565124301,-0.7499971807059638,-0.18189278642317608,-0.21054323808441572,0.3790063631623082,-0.07672888183813953,-0.16814365385479468,-0.47600933791883726,-0.9237070008757091,0.33593638117235924,-0.21589033548528813,0.13697161811741718,0.21953438753207002,-0.37237387193995847,0.36729582284588924,0.7149396366600962,-0.5474400703089091,-0.24856131291724867,-0.7133826120237564,0.46921000729540324,-0.3711848119242003,-0.14592468455789606,-0.7419504829793766,-0.5553890724142311,-0.5286768180869228,-0.5065907727153787,0.8454622871546897,0.6166248745726148,0.6653119600539915,0.14319884151253248,0.7324288979686172,-0.8803580049676397,-0.8358443071301301,-0.6138985052769531,0.18672297298289964,0.044839895816910946,0.4547742015937224,-0.280529548079022,-0.6547976339491073,0.015429354073369721,0.19174686923951392,-0.7898395707941327,-1.0192654519641249,0.09673142068144468,-0.8928681795318053,-0.6346386572946746,0.27026157762743963,-0.8546408034044302,-0.48833258409314856,0.5476256037835253,0.21509746510684521,0.08056138782992182,0.3264187611500353,0.06247141276788476,-0.5806031572516713,0.3535076613728809,-0.9783327016485456,-0.6065845438432477,-0.6739529514606142,-0.1070090006603901,0.09076383946964706,0.2116300720775639,-0.147211926592147,-0.06754628804863727,0.6036971014010242,-0.33534221320196156,-0.024798281968011704,-0.1562250186289798,0.4498164181431839,-0.6657024340437376,-0.7145199395543607,0.7406866660744003,-0.6588201503313751,0.14341909048914198,-0.8371029386465448,-0.6533806781778172,-0.1929711342787621,0.08557404261262556,-0.760342650164209,0.9764317806901153,0.13135651372558932,0.6445822088361908,0.12277603839759593,-0.8556854415390068,0.9528141678623163,-0.3345991649047255,-0.20651738877787748,0.1014621383983001,0.9677752982674983,0.832224620428041,0.021902275747573974,0.06092581854244972,-0.6067427683653044,0.4522113667112828,0.926557877066805,0.9887325433205203,0.3682099823681557,0.06983704987935796,0.5279015851499336,0.4909720247009335,0.42139438772016413,-0.5809801911777005,-0.32392413002386466,-0.8633833051257604,0.20601170874273256,0.3989864760843302,-0.3688056288491171,-0.9400367938358137,-0.21346536686168913,-0.9727449919765195,-0.46733447329658306,-0.06146946834224398,-0.8451923969937497,-0.6507204926507688,0.7505198396215872,0.4420501624429831,-0.911844490986245,-0.29190968595999744,-0.0208181520089592,-0.0622072541444596,0.8705835034468135,0.8737395796336884,-0.12454763852271611,0.6197697220462233,0.31900360776065084,0.24985818792420428,0.3883244956026295,-0.018911914840909323,0.31293689459564955,-0.7364220216872529,0.028580601107452794,0.767580399553075,0.5624463182899648,-0.2627603857504267,-0.5151132625265394,-0.34568934569994053,-0.07982188879262535,-0.032132794859449525,-0.07101823589141328,-0.45562730149947966,-0.9659505747100108,-0.25432556646611804,-0.6860511692641541,0.9372117230376282,0.29935953360952405,-0.9166318550317697,-0.09398858858923831,-0.9560771956835301,0.7014422694693516,-0.5154922853761783,0.900569770438862,-0.3398938446025801,-0.9086145524431128,-0.39597105034227237,0.6507999114818757,0.6427526274051761,0.6292452888827206,0.11509888060852887,-0.16043864386901222,0.9813319612127172,-0.9625294450303132,0.6663420403145199,-0.2917477478337345,-0.4964573247521738,0.015069753888235483,-0.21752255008446042,0.395936306284711,0.43655065234589885,0.8835256117785004,0.10911299712448996,-0.4748642553923951,0.12052677344555351,0.779116550357601,-0.5651894386695648,-0.09625667943444882,0.12490906991293138,0.5597907488978424,-0.06175936156034445,-0.6795898115633008,0.23563546279242042,-0.6561576595518546,0.3444853110969341,0.2808261355988772,-0.13408786333129294,-0.6141148030823631,-0.6405400036091637,0.6596812995428598,-0.061415094445187224,0.06837703709880683,-0.1715215822549172,0.016542659614487754,0.8048848806903162,-0.8692134841667551,-0.036895216925486585,-0.47611967636091623,-0.6155368777064313,-0.9523055488021605,0.8128904904298906,-0.07378570040398547,-0.48243919456491213,-0.3125681613164806,0.46946075906486295,-0.8396028074620305
Weights[4]: 0.9593719700162169,-0.21995700300669163,-0.11901039496018107,0.6565744977707857,0.7002695983742688,-0.47492235222594925,-0.9224603511031998,-0.3131271979367022,-0.20838065129163708,0.6012067569425361,0.6220253769410893,-0.32399584694020256,-0.6312400547933019,0.8320678294785637,-0.8848268566116816,-0.34846257294922256,0.12211742863157649,-0.5426485992701019,-0.631826384752908,0.0550471940334174,-0.907429662489998,-0.27974913608271124,-0.01025974238769134,-0.18398823271691256,0.9109302376913513,-0.48071980172801754,0.07721461871509194,0.7469002584679518,-0.987973661156359,0.8028493830016112,-0.4517963758910989,-0.12561715539806395,0.18408961742375496,-0.31150291455513934,-0.09345981715873808,0.6058421999243284,0.4784703913510173,-0.9968931982279258,0.23831530718054394,-0.4567006106752439,-0.2490612311517174,-0.67033014244881,0.013265531981953238,-0.47042024110929126,0.34107940613342413,0.8478761705792863,-0.9842968229131293,-0.7843733782807241,0.6977173470415721,-0.7253231274547629,0.3954433768035115,-0.7699195620463787,0.10128714381777093,0.10534999850455207,-0.5002410651651402,0.239121106098928,0.7903027393809998,-0.9350221622432685,0.7456442600794342,0.18098940010228626,0.4478630290589589,-0.6693606095711517,-0.3251535367803432,-0.011230034293248314,0.053003132833635114,-0.2523574676608469,0.4919145356360426,0.6802628597618374,-0.07447235336269831,-0.49066905653601,0.17279036716568488,0.10466403145808406,0.19122017706426478,0.8066516768140128,-0.6967612886181331,0.7627623202792696,0.7070079876729628,-0.5398395012784002,0.4749323611496632,-0.936945932887935,-0.4964229788148883,-0.138412003004184,-0.9508170885736202,0.7373494662984039,-0.5925939938019003,-0.6818768138447202,0.7730957007841652,-0.9212603810807971,-0.8112618493899991,0.6674190767423338,0.8155394605433286,0.41349255359428594,-0.7425374583073601,-0.9426740929217423,0.09543373655161567,-0.5797262027938339,0.6547722319049956,-0.9713589380295854,0.47616129067358454,-0.4041080510365599,-0.6398077159049825,-0.6860419959076248,0.26943710730313997,0.1857074174612152,0.10162494067056277,-0.7235672500559908,0.011044344404267381,0.2764129178954349,-0.19875842668058274,-0.26314154512395227,0.5321357741635926,0.3301422406593999,-0.4099545233929318,0.6825901929673692,-0.32258762108282546,-0.4137249679368571,-0.7185435209975315,-0.06250300307874712,-0.41863604049134817,-0.2651200533216447,-0.02545316844501211,0.4131368728612086,0.4919587750389924,0.263163603618856,-0.2725886612530258,0.8006710238038156,-0.12077683954607459,0.18257809486302642,-0.25100159708088493,0.8992652212081558,-0.9079761823770852,0.6785186043335085,-0.017467094055896665,-0.11850671941070055,0.7093995241993201,-0.8295439972732819,0.5714890219138418,-0.13920349215120242,-0.36426037054707316,-0.8690267437459094,0.3070788417510124,-0.5033172171112696,0.27749804559978575,0.45219085039534024,-0.86356409060348,-0.5140899628082817,-0.17628046443931353,-0.42502308983424403,0.3822557811686202,-0.4834492103779094,-0.8507182389933897,-0.24945490778232052,0.48053580380905,-0.2512876038438671,0.5967482768358215,-0.05892490004524176,-0.1682232253985446,-0.9110921957879028,-0.5055743258892613,0.33480034722118873,0.4062677096456165,0.8380151042884388,-0.4703197905763726,-0.09152677819582955,-0.37121863075123107,0.8496460085034585,-0.6534416320051261,0.708549989251676,0.9754977607985482,-0.49072432494290374,0.014786010149301143,0.42416427141444685,-0.6893368378711983,-0.5406166524027871,0.42759038210476813,-0.5161338391299193,-0.8574658499077226,-0.965430417967551,0.12833768021519104,-0.7609582119495827,-0.0630168307369807,-0.756607603571483,0.6864560769161314,-0.8614552863734992,0.6708460384884022,0.38212311444185604,-0.7910031745877593,-0.8053326067738187,0.21678629938384605,-0.29063188381423544,0.2876062343234042,0.514610815050124,-0.6364511550159538,0.29373944905826566,-0.2839114085230564,0.4577446838178414,0.9497077306498343,-0.6399344809539311,-0.17690167351481578,-0.7014856966421611,-0.8411166261730492,0.13714772038354606,-0.3890085197425699,-0.13425841200350916,0.4516255129960398,-0.3330252933351247,-0.5489947178528534,0.05003989554296084,0.32275773613917663,0.11217869221942255,-0.15453490378429233,-0.10492418762869817,-0.04090573667936338,-0.6659644122915201,-0.634123721214856,0.09698734762895886,-0.9527873498550681,-0.6806634095451383,0.16242228315222693,0.2211183826036396,0.6119600361561022,-0.893720934422907,-0.5540554558644329,0.21119204685613147,0.18505457937021497,0.4752873934224655,0.054458383961794254,0.021592190332002638,0.7571018557556651,1.0054799207011607,-0.43607303440868644,0.7730605394299584,0.18075478128719188,-0.17732271283329237,-0.8735861135613425,0.8723360230334235,0.708340255760859,-0.020422400170867282,-0.12361868065776029,0.1996372933324111,0.10923604470350604,0.29926351496287723,-0.08693236983521573,-0.8170940789804738,1.0245814346876254,-0.438885147781596,-0.3783440611805521,-0.9328413433219436,-0.10484557163436448,0.5951125704370265,0.3902071841946837,0.6230092158648228,0.18759913984108678,0.585150336773214,-0.3246505555345912,-0.9629851825967156,-0.31599354296182197,0.42155367852440534,0.6998940921061305,-0.9778794900201482,0.6528015423278112,0.43381854262916064,0.3958012353116602,0.41935521972718304,-0.38555804124594045,0.0809275466112705,0.7071229932505062,-0.7350512502693471,-0.655518825858346,-0.4336045704685098,0.4818075655668407,0.2686636673871054,0.7139373332040693,-0.8181306234143588,-0.7611360798835066,-0.6405919448378374,0.18316012585814348,-0.6708388914713762,0.253996180023065,-0.33489592156135284,-0.15504608543359022,-0.025533004303763658,-0.8797432323357757,-0.850463644843007,-0.40593648308369196,-0.08943684051106142,-0.41611823022469363,0.6417729349982338,-0.7893848257590143,-0.9114280748521684,0.2538111818371348,-0.6666251935189451,0.1902584780641347,-0.3127539027246095,0.43848551972427147,0.6594240764130491,1.0355354804328543,0.5793144708994427,0.5417431318017083,0.03162821426565563,0.0467014656192016,-0.3942093841105498,0.840770768730358,-0.7141296001439261,-0.8517015590799383,-0.7661715102224478,-0.9777880795196574,0.04191597972154426,0.32221862269668766,-0.6883211497628694,-0.142511878694646,-0.6499650237954052,-0.854015017062178,0.01624102662751211,0.1702671263737756,-0.2667749308276012,0.36545798774057425,0.20020678250066035,-0.1403351529275885,0.7560100062341023,-0.532970701931395,1.0296304293990937,1.0261894808236516,-0.707875008877198,0.5264945824425799,0.20860204944148703,0.9620549951447817,-0.05287828342003472,-0.13098895195241386,-0.29619834766057723,-0.6446599565379783,0.5690914625989308,-0.1885639625787484,-0.6717011917716363,0.7328774853296938,-0.7134023996598098,0.11110177129092702,0.817138074812078,0.9994505653155272,-0.6467612819765731,-0.10551090534665543,0.5366093044855579,-0.6902919681867448,0.9056995659388706,0.267044366782715,-0.1211394302997778,-0.8356538422376396,-0.7943404519922629,0.549099104061949,-0.21993764384088318,-0.6017735524776466,0.02370385886374741,-0.018308349864085853,0.8494284158872984,-0.5135735133966289,-0.01216820657789319,-0.36308434870129885,0.6643349653915134,-0.1306988707415715,-0.013823739931365804,-0.7095584882797423,0.12822791986550564,-0.7407085056140592,-0.37296467897154606,0.9361867196560776,0.2649610309232777,0.5289321344014872,0.8131055237053237,0.29917755765897847,-0.12533671395443297,0.5724666602939914,0.4777221046585479,0.1588944567262185,-0.5990301673941527,-0.267005216637996,-0.17636665323705758,0.6510415876038721,-0.891894800400561,0.038843866594781506,-0.2862209548143474,0.06409469946813966,0.7085402252269838,0.3058596784794993,-0.9163226944631481,-0.6058100563692289,0.47501002015537863,-0.23297449117040783,0.005805877843283112,0.8314312757582554,-0.24310424143593024,0.638379921968272,0.4290036006965692,-0.05358075958377717,-0.005732145628767116,-0.9570045796954094,0.7619252326919133,0.2983855260662899,0.6637673269692921,0.8768631906043474,0.9172967572927442,0.30450028477804575,-0.632282113702264,-0.1940849811476469,-0.4408655959342734,0.06481054938779066,-0.20621868588266296,0.7097489205029119,-0.5830455847489983,0.05698889947161662,0.5419305050778451,0.24187468387612152,-0.43730926448402313,-0.3462105858426583,-0.789166693803895,-0.9745413628101104,-0.43376946811214007,0.7334246318102352,-0.8565733290427294,-0.7877414290736157,-0.5631432903758917,-0.507403510393297,-0.48573597962303827,0.959799833577033,-0.46248464210226026,0.26069187965658325,-0.8682257092601505,-0.5195195729262605,-0.8992835017966037,-0.6065459235641055,0.07008635287194163,0.5330348779257357,0.8737658869875803,-0.9060495729583224,0.042834400785580366,0.3328699450485015,-0.3475071696100366,-0.18047666615272578,-0.363554012874106,-0.08741328497330307,0.5539010723621451,0.7046599700540207,-0.6712171306184694,-0.9841642079905406,-0.7733224036965484,0.3759135559589284,0.021292286181542403,-0.2497366700553041,-0.29959005829859064,-0.03405793059340578,0.4656769202396631,0.9877840578499175,0.13634614419953262,0.47540284251382886,0.46189322524455323,0.383912019360766,-0.2582506145122981,-0.6126660355171214,-0.651695227643682,0.31642207337318723,-0.1018571363444941,-0.7584217669065666,0.6245707063584562,-0.9523614452524619,0.926926329145765,0.9424742415811749,0.324698363643068,-0.6510725123899495,0.49440798282255777,-0.1416148965211397,0.3737496311093446,0.7483204417979322,0.030367479521019463,0.1124261483800621,-0.3922327223197709,-0.29887695764139155,-0.8775746719341607,-0.5242042827998308,0.698533153021025,0.1028074720421841,-0.8009847131562349,0.3988513843578966,0.8157589929760832,0.12705147522306,-0.13514037428552966,0.03084199346628217,-0.6051203844351465,-0.6176092024140035,-0.3673197635962965,0.6374378296012831,-0.4343064314813357,-0.7617588873942573,-0.5081224274630533,0.3338796755952018,-0.949532686886824,0.23621382845957087,-1.0100868287452713,-0.6825080431797456,-0.886830124467804,-0.720118978411578,-0.9548389159137648,-0.4166101868421625,0.1619423772962496,0.8003519902938754,0.5554285168440214,0.6965706207307849,-0.06297730517712297,0.9990941844876362,-0.13780075085246968,-0.22406575788202832,0.299133024968493,-0.7694889053351217,-0.38273799865870983,0.21341908592127434,0.1399402508761334,0.46176700168749757,-0.6014006001334161,-0.5601612533396598,0.1078652028630411,-0.12005975494165655,0.5187874184366149,-0.13744194363845103,0.7341501560620345,0.8580896067377886,-0.7278933688449877,0.247243505710718,0.33905259506009716,0.6987658423185757,0.01810196149114203,0.24756999039766267,-0.38931220555180324,0.7794737973154866,-0.656552905056883,0.41150219897343887,0.03914692208131165,0.5911068085539652,-0.7630439893170464,-0.9771145422148352,0.590274145452463,0.13919953415225078,-0.9346007050027028,-0.5473790263299279,0.6289812316392166,0.8731151287646906,-0.686378567752739,-0.7437216850638674,0.5395029558624663,0.1980479061219167,-0.8493596414857135,-0.5173279893128094,-0.14611879012762954,0.6256481411435209,0.27752017625480946,0.40486874907282133,-0.2004710921891053,0.16820264208778998,-0.20833113428658315,0.23099909487909687,0.4817512181968202,-0.6365176633170422,-0.6511121530323811,0.20643678549976863,-0.07141568934145182,0.5723396621515693,-0.8346945875485868,0.5197388191720679,0.9324047819798071,0.23932900327030135,-0.7676774896810262,0.6238881544570618,0.33643745670150127,-0.5925477534301159,-0.1366371714163804,0.8956516693996339,-0.33035166415006045,0.047739124270044404,0.20830795892727788,0.8468729880768047,0.5675166820638291,-0.9087417882415006,0.7422489805965564,-0.7577616207056574,0.6169695042602846,-0.4660843664189984,-0.583814684845637,0.014985141056994238,-0.445554931389892,0.034922081527729576,-0.3755321965438929,0.8449314785399156,-0.24345869628873595,-0.00674263993592128,-0.4588112958980777,0.23502728376376394,-0.13995300348846493,-0.07881645693715135,0.5412578671266357,-0.9370468217045578,0.7001387688105135,-0.18118186291423583,-0.6880224723764428,-0.769970566201263,-0.08630772728783029,-0.4936803861551773,0.21211322425512893,-0.5465915274946926,-0.2285733985177296,0.374407290359457,-0.3564843738577911,0.7508396775351532,0.9516193229937651,-0.057620666344767056,0.698890362772482,0.4595663893811229,-0.3106081780561284,-0.8613526038179885,0.5990552294994962,-0.6227496376367052,0.13709607587060701,0.15211030056332708,-0.03600210185907882,-0.08808023540676148,-0.320872766879164,-0.5850837780119961,-0.15332673276709158,-0.7178076079602586,0.8303316105879482,0.5970470529488562,0.0850514820264081,0.8094554697694472,0.5608359917070909,0.23278989704763864,-0.8184930383692586,-0.254986157997566,0.7307910993159865,0.4694919023485904,0.3089879778520332,0.08263474995790152,0.34619920003747373,-0.9777738615903453,-0.6885491816064149,0.23461293393495164,-0.5950527003011912,-0.13771501702150102,0.8875675675866974,0.8024222300399197,0.29564197421802296,0.08527952948830997,-0.4559468214660636,-0.27848359224167996,0.3306881723547017,0.1629394933177462,-0.07991135103347495,-0.4274691289180587,0.8526449484838579,0.45442441409543355,0.6370771193779422,-0.43051315771418097,0.746420280597296,-0.045826806189673094,-0.43609181929918683,0.08438160536796559,-0.7043697128273584,-0.11272189641372732,-0.7099406272921758,-0.20828445256263978,-0.1892103174982239,0.004788247882672257,0.7766243946888757,0.24394746462067007,-0.17898501231287844,-0.4909862650050718,0.0344821899358565,0.11611672263411643,-0.15960735695418315,0.7293849642059695,-0.4946180253730239,0.7908916150582858,-0.5091792650562427,0.02789504706835821,0.00813772455250851,-0.18345880638013268,0.11617207513565421,-0.6448452911231705,-0.5321984714493588,-0.674812951131398,-0.7060230860219591,0.6252445829123402,-0.16018677425911593,-0.7318427866625148,0.8938861594696825,-0.1584599504665413,0.43662277990846027,-0.5420854427432136,0.5081767357861268,0.27275390761217516,-0.04426122644300633,0.5146861577009252,-0.42160693529136806,0.1068012775419287,0.0011584577156036335,-0.7096076420087403,0.3077050257975724,0.30010571391326635,0.9041759771779998,-0.16923237273899483,-0.8651718794671688,0.8074149911491361,0.7379915263248231,-0.8185315812172378,-0.05157974794663034,0.8015557769678375,0.9931591103106557,-0.3729361175506365,0.8981863987295386,0.7096838016268514,0.9318959060497801,0.9701441524550217,-0.5050552940770051,0.9792709898415544,-0.47212230187590587,0.22398656962275726,-0.7973965563799239,0.5364179311024109,0.3624075601633674,0.9960878193360232,0.08698931387019782,-0.4170729962257077,0.610238538873493,0.5675822121871552,-0.22675406803691478,-0.009304183073949202,0.2240636568628549,0.40553395701829986,-0.9541861709540456,-0.26612717915699236,0.5135590845115714,0.8735214943361503,-0.5230388786757492,0.615462811480199,-0.8192690229020839,-0.5307831524204409,0.8876084400735391,-0.3405306159361419,0.3142934164704083,-0.8775255697946344,-0.15138610048601167,-0.19841577138808414,-0.4179469847203917,0.8046605483650511,0.3524202533776035,-0.006167601331215189,0.024357293278145287,-0.39651826182218186,-0.42052522740351284,0.7772691574773143,-0.9122110856288165,0.7712870946951615,0.9376981537498992,0.9080881578419768,0.7437783133908074,0.551901116758539,-0.80231876065563,-0.8313441129642294,0.3874056710077581,0.9411419326862059,-0.4626159255684428,-0.42516395143473706,-0.4246259850564533,0.1381837134892976,-0.8049608728871498,-0.898021157783466,0.5503153426341318,-0.07883578589131857,0.8007588553245919,-0.9190721669788808,0.3816030143674478,0.5602919038200247,-0.7729425177783438,0.2423153870004766,0.15153065656848752,-0.7139187919506425,-0.999126011505316,0.8055779905084417,-0.7848380411904482
Weights[5]: 0.9663385236479056,-0.37941808131496335,-0.1739408155781873,-0.7315268571169706,-0.3564704569785252,0.7348914135875606,0.880713181514625,-0.49609686690200905,0.8253863369232912,-0.377748645552317,-0.75040390237719,0.6747803118428124,0.2552228389565008,0.3682601420992333,0.5827080987313333,-0.7302788857977274,-0.7744659091227064,0.4438693017903106,0.6096214212522011,0.25044141116106955,0.4435170560346531,-0.8968069208305361,-0.19727711714677376,-0.5014530604246319,-0.6043338568901335,-0.47250298944884117,0.5442296124735053,-0.30461723325057755,-0.2434424987265107,0.4576971053414498,0.551027128263855,-0.6087754162069295,0.9523440152184777,0.6076751675492502,0.9747617831336157,0.9168021557465205,0.7487768641434502,-0.6930991279394827,-0.5053458295321771,-0.5398522864747104,-0.778734339298091,0.04641220953614078,0.09577787718539033,0.1785075008769088,0.8313317353983092,0.7068227025246354,-0.6949309351364761,-0.14120265987757719,0.6596072882691433,-0.11819045763378522,-0.9394528828279362,-0.4429953132956267,-0.8040434307437592,-0.03527945235151775,-0.6641035227403527,0.8631454444784417,0.8178590358318105,-0.6724877551535553,0.8728069997731629,-0.883967467529684,-0.8093381988859447,0.18533041476520262,0.7473456318245015,-0.6323107684181588,0.07122422618382807,0.8583715138297396,0.7224362966243347,0.6475476714072506,0.3934983589656178,0.6659059429848129,-0.4789961351517847,0.9277390283064905,-0.007345696546992855,0.17855945724308156,0.03269549190500288,-0.602279153356785,0.007557193643552397,0.6242153819763174,-0.3327847958229412,-0.31115655941476883,-0.7775720543123652,-0.3145677276489175,0.03577547848027929,0.8747479589072744,0.39714998816938607,-0.0059775584405183935,-0.8047319854631703,-0.012376532430004583,0.2717786902896029,-0.888383661344826,-0.9010568800852898,0.42126461929700554,-0.5659061277126456,-0.6213783620024931,-0.7305377463090383,0.035704573414026775,0.298605232666281,-0.2723885367014583,-0.8850350150597178,0.9715086652600321,0.9965451057903333,-0.31693045415251964,0.47851354342057534,0.9952655897710041,-0.6390400465862881,-0.8580861016447126,0.6077895553818855,0.046482861529329345,0.9355447971893218,0.9387916307611353,-0.14426975750563187,-0.8063563461445069,0.6602970406693858,0.18396355918793184,0.8936045867826812,0.5052295287629727,-0.8504450637150766,0.8725976729172271,-0.029460756587544767,-0.9227982153756535,0.6631034992929099,-0.26553022238964596,-0.6246072329933371,0.28233545950073113,0.5642606610877551,0.08936635558837352,0.49892164161750346,-0.414252105546787,-0.1077189422002825,0.9947682426858374,0.10711941232540348,-0.7218106351809159,0.5137682347019664,-0.30646488450754894,-0.2956941997933384,0.5647545175706655,0.2201332911942775,0.04207413319594888,0.5138826665998821,0.2552360898140986,0.3862328861775961,0.1487851530075004,0.05207867038067371,0.33321725249825035,0.25778523784815954,0.9070029298034997,0.7635918774478455,0.25296969256587887,-0.509718364877364,-0.23261729928936314,-0.1070070121156605,0.45015535296946263,0.7725800486174655,-0.9664734486953384,-0.6920329958055359,0.2371196368878085,-0.7221748135581878,-0.839305470560481,-0.5654513007858167,0.2626353147208103,-0.3549927589647561,0.02449003669198354,-0.8319079363689246,0.9443301418906073,-0.15924663802573769,-0.4235963138861565,-0.32328845342774337,-0.0339579419391034,-0.5204934754969988,-0.6713019654486803,-0.7149037624313048,0.11031192966961734,-0.6362735214473642,0.7220673752776545,-0.3001677399666739,-0.4745296208153474,0.6952913355359881,0.04957489958745979,-0.9497009444031781,0.6952478958366284,0.36883515778180154,-0.7295688274958827,-0.899918177485403,-0.9020118772390501,0.0628651024057306,0.6354453100632018,-0.49712382285870654,0.47368886140125455,-0.6400751533911209,0.43351225913036345,0.2815640473791971,0.036211016083917746,-0.38217777868492314,-0.7466704360071678,-0.40213846201176684,-0.6509631758793086,-0.017709913206151673,0.10977437771380627,-0.5077663024457946,-0.3096564464278693,0.2396565934705245,-0.193643974777978,-0.21873727963850326,-0.8240474164165345,-0.5014870023698345,0.8054085081710922,0.11590632361160896,-0.9036679754485579,0.374173350910975,0.8488377977635496,0.5866960392942331,0.22054497629246891,-0.9109823703285468,-0.3050209646577107,0.8273527235687451,-0.6311172775190164,-0.07638480747771748,-0.9591051518035763,-0.1433194380103055,0.21208599242820103,-0.895440687605882,0.22576098443730172,-0.4183562022719328,0.024623066664032134,0.045543894658583994,0.24837990722077885,-0.5078548078927467,-0.8750462696911689,0.14446630122060716,-0.6340445882213971,0.5588447483229372,-0.4104453952249836,-0.4309500440708579,0.3776046562279967,-0.5261547145410314,-0.41963136011145474,0.5166726441859554,0.9597378771673892,0.631482174699221,0.30590745598236174,-0.47850525339618644,-0.6126535791679798,-0.9152996099080704,-0.42806967241850913,0.905345090831037,-0.9121022130769999,-0.059278747484007716,0.9019682160475251,-0.5975161311855005,-0.760006501976675,0.39741720417394166,-0.06847356775238811,-0.7256697200823901,0.32303302011052343,-0.3751441218774505,-0.9268459131078037,-0.7526351159589144,0.7737761102609177,0.12658815366239531,0.24556168069265752,0.2908303138283659,-0.031175670657935653,-0.06298961287791273,0.03903252632186265,-0.7157424492996696,-0.04801238144906184,-0.3824307311859989,-0.20640254168425928,-0.7125288087802003,0.35663579487450814,-0.026323699962980958,0.0598454767975314,-0.5380756370935825,0.5594361712015378,-0.39278649498736173,0.5982444431994497,0.06693579296895948,1.010101381284547,0.13657902699735902,0.001360245515294567,-0.6309153864304141,-0.3581171782244184,0.7757946056201097,-0.028159526849147735,-0.027143848529743407,-0.3910053418851765,-0.7095348395547714,0.2184097934884506,-0.29300441613779166,-0.6214406848569226,-0.6493477204237236,0.762033104418155,-0.21879256200951777,-0.6729619014216133,-0.996086512967789,0.6646765886474912,0.541248143950304,0.16520933148594488,-0.6300005887782806,-0.07490601464374767,0.3751195865240941,-0.9214752733313281,0.5235952466324381,-0.06115112923877627,0.22050568395960513,-0.6249449903261592,-0.4826659567107754,-0.2331531295707231,-0.24231883289400435,0.049760251794830124,-0.003395913636030534,-0.779507293812583,-0.3906317531947491,-0.8985541266355727,-0.1477757124584726,-0.36928780010586826,0.15494557668805725,0.9379367615553549,-0.9325860184993054,0.6730441677877027,-0.3181386751619784,0.4604837507883675,-0.8295152741247572,0.9875287743838396,0.008138219577199752,0.2360272692271669,-0.7708064853231311,-0.9634775740745817,0.4901836525004007,-0.060370539985147416,-0.9899333831094846,0.8681945941398814,0.6655216834757094,-0.7575853754568777,0.6455988630864764,-0.6993031574875597,0.12362402822991081,-0.17574171217891466,0.7268298499876773,-0.4305469013488427,-0.9169416686321676,0.5230237047979854,-0.5433640870321576,0.6345897825970823,0.3479110800562012,-0.9575875813733137,0.09725888016020236,-0.24861336434617443,0.6201335246455947,0.49012247087729527,-0.4813650851396682,0.5583531385323086,0.03256808525697939,-0.33221248291903055,-0.7633025710053277,0.9216391107977069,1.0112077581426435,0.5997921432673607,0.9119010406114327,0.9656423005708493,-0.8345287156161301,-0.4910673189401009,0.30056983479325194,0.8343922029409521,0.02939089808119033,0.1050386908953258,-0.4469363360884303,-0.6329996914352113,-0.536386237699476,-0.4477578546625517,0.5148080774478464,-0.6408210824907451,-0.7525833558117903,0.4752004122983607,0.6039633620870473,0.2221612282108294,0.05665077054538062,-0.54921249719191,-0.4634285857559583,-0.09940132736640721,-0.8848827212374419,0.5320980699236177,-0.49936167193159064,-0.8982128407042771,-0.510988373743552,-0.5448504503032904,-0.2031571296764717,0.0005600944719464922,-0.9631429310224343,0.750761222909559,-0.678441041930784,0.5430145904156447,-0.0790957608628533,0.7525098546186975,-0.6017152581371903,0.5742283410677063,-0.7690103558495145,-0.3733498438898842,-0.3674987812977411,-0.7109395291394737,0.5593655422031664,-0.21856836881716307,-0.6945546235236325,0.0417783339336642,0.8927655050535472,-0.9457264890277524,0.2729863144347969,0.5614055856758111,0.06891265075492276,0.030942548371249327,-0.06292012463862973,0.5962017268588559,0.05571583859835464,-0.05059138442489222,0.8335739497941314,-0.32878366485039395,-0.9654153490755866,0.23056157903230254,0.36724151548335393,-0.41851121998322716,-0.6886348434205329,0.5479709969591213,-0.6764932878671648,-0.2869515885885958,-0.7607832844344758,0.9712954531621019,0.42784290076498593,-0.5018863133254589,0.09204108871348958,-0.9494196426437321,-0.009836417100309363,-0.613735627806566,0.7803678202442776,-0.7774617286810593,0.3265098957479675,0.31154965646598654,0.2059574322053817,0.4576002257996119,-0.8194341705067302,-0.6058805938876184,0.1768231098010449,0.2136252247034159,0.9129166465059086,0.000881738690598356,-0.16364462335415966,-0.2405055043578995,-0.49768792814467466,0.9557254602926437,0.9112227819446581,0.7219220873536178,0.5296083826243916,0.000583190936866762,0.26803394627281035,-0.9430724261232243,0.968230120182202,-0.9998288317896299,-0.5438494602992542,0.5828318400843618,-0.23176442299538505,0.8745379735162491,-0.3595199920380161,-0.18794072357731323,-0.4764365274940589,0.023894152053692753,-0.9387620937804264,-0.4474853337857634,0.7958456404741572,-0.16431261424697371,0.6764087124717754,-0.47809851157500605,0.42917181691755923,-0.45395215710731446,0.0271673291188356,-0.005453899039632559,0.45062471062439724,0.13237769675086142,0.6253793032958075,0.31545311460059744,0.8660248228656244,0.4796662486529286,0.4759218922136419,0.48396499238176893,-0.41582419884522975,0.3945667882963424,-0.4546763028867122,0.9861200939754151,0.08973116090179432,0.6805620100318928,-0.7678463491550892,0.36309558731600455,0.012833755528443614,0.6663863787845228,-0.3271829508646951,-0.6866546245392122,0.751884465676464,-0.6055736307607609,-0.2694354944679195,-0.09686776267059923,-0.06561480347873312,-0.7133627816834796,-0.03603947480092065,0.7088108024135282,-0.6282213840765047,0.4616128743913084,-0.7048795165982468,-0.033808995519675755,0.9648025501355542,-0.7263624620280985,-0.3896029152548693,-0.15095616596055336,-0.5707743149720905,0.14817745884330374,0.698906723958747,0.2867293950113468,-0.5892144155142585,0.13544857557581608,-0.7778608570288645,0.16943526764148228,-0.35689250992367594,-0.8427599292598579,0.42144304038934327,-0.8965239404704635,-0.4039702326862526,-0.713120005799067,0.4929850706499672,0.7364610489325093,0.8597661943754363,-0.27157319549190545,0.26741062583363184,0.13387935754558034,-0.5168447333932131,-0.22031681948356185,-0.5894084319422992,0.5670448800395451,-0.4931679617116078,0.7671080752122719,0.11327818151339718,0.1295856497035674,0.10939878793520412,0.563200863882942,1.0179676845628294,-0.14595147745753206,0.1333227939244704,0.4185825884784455,-0.018705143041730685,0.8632567681865093,-0.9450703067203536,0.460380791050452,0.8769364448035487,-0.41894395188027794,-0.8594357047718486,0.4934497150296172,-0.7631239335826413,-0.2484620730876542,-0.12629260402270107,-0.11009026616237301,0.1771052719276572,-0.8399086323752574,0.9858310865172331,-0.41431669304814034,0.1403261745070694,0.22701055706805118,-0.0018896567644037798,0.47651363791735557,-0.6341817074562897,0.6025050841946418,-0.29550435919073315,-0.8908043046314512,-0.21628949395146735,-0.30590710181374803,-0.8944248337259989,0.13635177973789267,-0.8895216120388437,0.09609516476047329,-0.777850427314826,-0.32634707967339655,0.024066065651488788,0.16969967912676587,0.2667819166331308,0.6260879480377227,0.674106924777896,-0.6158964170592719,-0.13191741872298848,-0.2846920593719909,0.03737567751922485,0.0006989086981392667,-0.46511439115978515,0.6772505537035178,-0.2713826295320795,0.6071088833767497,-0.41406219332202443,-0.04681667920519439,0.14426486957071108,-0.519160391115004,-0.6460456336814432,-0.2904988933441217,0.7896551814726742,0.6233262803465633,0.0625354500441497,0.40660392662605804,0.21398583554974426,1.000504233781108,-0.24584454466773872,0.26640779359463707,-0.4415588585422931,0.05876520983753584,0.42815007192464943,0.18636481659047652,-0.4430467300277099,-0.7937920775740133,0.9220432613766325,-0.9350035069946332,-0.06738429216797,-0.6185185125183865,-0.0725612421857944,-0.2119766525979977,-0.6337342269875734,-0.7270211492325278,-0.5630425324491424,0.36510864150016964,0.06903599946131857,0.01425133360316313,0.3670732521386813,0.11203497022919587,-0.9745245270202705,0.07355125328421443,0.9133905332342341,0.6020229861129694,-0.2654691434628386,0.48880402861715033,-0.17424701138614737,0.3273503826397637,-0.9261504936002672,0.8578231660780945,-0.5597130744972479,0.7156860029457773,0.6411797496296104,0.6364684884257106,-0.7696592108364819,-0.9624633582614043,0.6171301489775676,0.3811805729666635,0.14856110287297564,-0.4631177594247823,0.6770614691437509,-0.4844898467345582,-0.9838873594924283,-0.23722889797632996,0.5557765061272663,0.5845530342242711,-0.6214423849612607,0.5401442350014135,0.17812980714441437,0.6557384374384256,-0.7534542989461397,-0.8728801316130343,-0.41793740861137846,0.5729403438476733,0.1524668502362123,0.38614688929077573,0.05276669086706727,0.7667969754254345,-0.57048775904379,0.06628131605719388,0.36702462076043085,-0.40618155280462076,-0.9891993221177897,0.09868267868766288,0.9567597145013325,0.22125991583860483,0.15212401615088988,-0.2712651655409789,-0.9571054549688033,-0.6006140055137752,0.7479784925226023,0.6878436727858352,0.8685018192306402,-0.16170500269386173,0.47757031741412564,0.5529905879915653,0.0765599143699891,0.1326074814496809,-0.9890280707077511,0.12159067225852516,0.08078806202140773,0.26668941796047363,-0.8623748180505494,-0.6053594734314459,0.5488127426945448,-0.7239645609616945,0.13109299101830518,-0.9238998109273073,-0.5125274653843739,-0.16077863145262727,-0.016312663327808563,0.8502015733605217,-0.05091176789762064,-0.9153351960309479,0.17608978002150066,0.08976811873250079,-0.4952652535844898,-0.08269405881068392,-0.1939886124776623,-0.666503506557319,-0.5706675227594876,0.6448578041255744,0.4998534688710208,-0.21005113699635547,0.9282303978084331,-0.431710486657907,-0.7213324684011344,0.7485692487980853,-0.9068716323273589,0.5959484444119263,-0.7043684952902649,0.8701437814090253,0.7063395588089116,0.29476882671849997,0.9761841698049301,-0.9269327425612653,-0.5654176911659553,0.6371048873463203,0.5762751789653093,0.6971119584967904,-0.9033627686572088,0.08257855711624895,-0.753477815423849,0.2056922312852425,0.4157133183515227,0.8977246721730217,-0.2612445593165441,0.7813279022375716,0.6575375290855474,-0.6167754364879741,0.04769249573209605,-0.8322581086372206,-0.6550885582996565,0.7074773560017215,-0.28882243709913497,0.44722383649892744,0.7877911685004928,0.3622667932422006,-0.5645440149214479,-0.1060366840943867,0.9618584171331386,0.3789716386306259,0.9765593750631613,-0.12072023522142328,-0.4696271240104116,0.11508867755303553,-0.8546864864671074,0.6571520928559602,-0.8880309815928484,0.10346912923430507,-0.34473537716303737,-0.13237014093081012,0.34103076222400674,0.10889942902554739,-0.7631407379001103,0.34675392012426354,0.3983356195494232,-0.7058059329300431,0.3743034499194748,-0.9605871640618127,0.8889712935825539,-0.4822465914684565,-0.9096086807128082,0.7101456819615073,-0.44471777204643836,-0.8619171752882736,0.48928058775574,0.9765007784480699,-0.4188875851309335,-0.4736469236545483,-0.7156748444380587,0.07229185619963885,0.20143760237909736,-0.3183675535574404,0.7365455132613636,-0.28005660478028316,0.10639881580434674,0.3672424197975743,-0.3246806447043459,-0.699375359201513
