LayerCount: 4
784,128,64,10
Layer[0]:Size=784
Biases: null
Weights: null
Layer[1]:Size=128
Biases: 0.9454252840309032,-0.15214216447358073,-0.5475506277158513,-0.44308999778443453,0.834022837860391,0.7263711267246585,0.528880372488772,0.8515329088586586,-0.4572170597043414,-0.8394939783402326,0.04002975789852596,0.2965070312146824,0.9883664227507994,0.4529400486406131,0.52111117296803,-0.2886037176667022,0.7392478208445307,0.734556701821877,-0.23611823763364884,-0.4164641676039606,0.5287610245077005,-0.23485002759946372,-0.5038232974879997,0.1532810597025338,-0.2458530241085255,-0.1443487155624527,-0.4064232930788266,-0.9247218146595141,-0.3371916183479317,0.9226025569303399,0.3419886840905404,-0.9471285666781556,-0.3123183711711037,-0.7236670414593878,-0.8255579619428872,-0.7189683584790284,-0.6103497084234666,-0.11199016083054776,0.9346218667280062,-0.6514743133857813,0.7151553879406959,-0.16124008711830268,-0.25422098436862584,0.3593399383603408,-0.4649149866853666,0.4493130925935844,0.3739035052449463,-0.6731838313856336,0.15252606484846348,-0.2010124932372649,0.24879697039312357,0.7369760147688654,-0.1057960511861704,-0.8772143225579639,0.003218000682445862,0.6308662674496082,0.781659581369311,0.00904501831563294,0.633553622468912,0.5505673430021383,-0.8251375299574403,-0.26639836779382225,0.39617211373063194,0.17946487689991564,0.7032248731915778,0.11271497609322392,0.8655266807793037,0.7325380399889354,-0.44233996849162305,-0.7024981680214485,-0.5232807227704618,0.21137519375607952,0.4771874167089362,-0.5571035695228576,0.8127655898248035,-0.4385180244111712,-0.6435286082258799,-0.5865005828859493,0.2720731710492365,0.7380637710651118,-0.5291244978179493,0.436659789176481,0.08373557113415996,-0.42058033215831525,0.19648877823266825,0.3662151504444658,-0.015162712378077176,0.20005504455914422,-0.07253613776654781,0.47606296146091026,0.7308795115480561,0.23213155448951306,-0.17336672056420668,0.13233483239180513,0.5192579380383112,0.9318606671105093,0.4930145135585262,0.505847926147131,-0.9744795715626801,-0.49629582154430657,-0.17844827757346543,0.9129129958755036,-0.7983779510101542,-0.28742530240685005,0.8919794246421471,-0.9980562924360179,0.8288709024755816,-0.5584087733786439,0.08483537370625065,0.4921769511542069,0.8094463060533532,0.07665060585415347,0.012214079598551518,0.8502791311468867,0.20477376960230115,0.6703350922296257,-0.338746981899384,-0.07063180578303245,-0.20573478537996043,0.10964339873500802,0.8299714642432494,0.8567471129705522,-0.33895846590415424,-0.5376598219649494,0.2485332598023535,0.7596918415809735,-0.2554172144297287,-0.2471767378465664
Weights[0]: 0.6634535061490971,0.4792560690451675,0.2813968645787783,-0.35775936551287746,-0.20770374462367214,-0.6917488499040477,-0.9928841982003693,0.9753134986270748,-0.3641986713577987,-0.5400318119395673,-0.6327389216202959,0.09320944039766177,-0.6123246762958936,0.03280829686336606,0.762783255317613,0.7848623813059472,-0.5758699046335509,0.4706578233608314,-0.18383683878175772,0.5382472358356449,-0.19117511864340642,-0.05571476605521275,0.11007490992083913,-0.07007211962252491,-0.30780750480844055,0.7844508503491296,-0.7046546375866303,-0.1659296113839045,-0.9908673474522621,0.651637798012997,-0.6901528032916378,0.13062276464450306,-0.6909620806998397,0.3309012275798717,-0.8589593814029169,0.866180074338885,-0.20834888108463445,0.5629451831630177,0.9338867729221876,-0.4237234245164895,-0.5341605132139104,-0.5655677446935176,0.13383718446541448,-0.34224099355854143,-0.7150613096147129,0.14408774540949976,0.04627273652994668,0.7603758972884975,0.5691103793536827,0.5797755166794059,0.09383235829595127,0.7752781900462127,-0.5154328884163093,0.9771893536565777,0.20222867708756986,-0.2808317277956902,-0.6308188408756716,-0.6485310157986968,0.9500481392955631,0.007845405027198327,-0.9870942123174175,0.17304541318353528,0.9661808460793369,-0.015836469370795636,-0.8498790086479294,0.23663831373520128,-0.21582847890249846,0.056774096124234674,-0.108232321733717,0.896603180978728,-0.006788737609418449,-0.13881508779656848,0.5367710504386438,-0.7601134142652682,0.07240774904955538,-0.6256073739498889,0.8104480494793729,-0.5476840965206196,-0.3550108100078119,0.5481047497820597,-0.26182188618081714,-0.4650305348751277,0.2649600092624127,-0.5706428641316681,-0.44219456028295423,-0.46543099333785054,-0.35394434693918764,-0.6681514343564172,-0.8713274495076981,0.42187234639277316,0.49699891521455664,-0.5598178652859376,0.6128970438674544,-0.07395863210501086,-0.4412229317292714,0.2878439447984607,-0.5385203669768551,-0.8604246089241411,-0.5024602476709638,0.042360222085173434,-0.6437666715182477,0.989498640405712,-0.13139178097778548,0.6725071983749547,-0.4134357457111756,-0.7673525539074804,-0.7614928603924311,-0.7553194741510412,-0.09521839539297783,-0.17216394896254128,-0.09127977727506298,0.9168652556449479,0.7064797942091152,-0.5980566104864965,-0.7303327087919846,0.47793632255771024,0.9080854039211224,0.536823710211005,-0.5736419090878413,0.6155519846899211,-0.4094173393256112,-0.554369618689218,-0.08191751506755239,0.4598762711740241,-0.6043341144974692,-0.4462954895469453,0.24711875712291131,-0.3979928346153226,0.6677376483248575,0.7755866826089061,0.9003806673571718,0.6553984555051191,0.9393065923194007,0.5948602870201988,0.18624657650523332,-0.24816630041741616,0.6609899500320661,0.5924528108874583,0.8427928815795076,-0.6748420063754739,-0.7039381329454193,-0.5986248727881465,0.4270669610365605,0.30083649945484314,-0.48684787633216375,0.5801336595696087,-0.2662976594950527,0.21095365435395097,-0.3503184974561606,0.07541555363632856,0.3747434302490132,-0.07703752623665862,0.7248855957003995,-0.10181593543201338,-0.5351688605782539,0.89179816784638,0.03545954453980662,0.37479438185336805,0.24678658083975988,-0.9945618440562437,-0.04368304310042557,0.6134387906202033,-0.4431626668734612,0.10661659917344925,-0.10721873825061022,0.24794582708177426,0.9721873672549555,-0.8902090191329871,0.2137548640434419,0.5209878177945446,0.8115750764550524,-0.6843674069663358,0.694121742925541,-0.8986811275862765,0.3194901176353404,-0.8128517201199675,0.015355819664746318,0.617220052638252,-0.05153316871254156,-0.18123653500302112,0.822401901915014,-0.9637268509797887,0.9409167451361007,-0.4421270452343526,-0.6386310572352611,-0.0536709868275211,0.9159425006114662,0.02472907986663601,0.12030133216783634,0.2687816117634063,0.6748085832121798,-0.755440445394078,-0.709363694188428,0.8092577549672024,0.34079841586798354,-0.33171559000933337,0.8332103992966984,-0.6981009681234607,-0.6208583347596499,0.265206296586062,0.608131053621903,-0.37584962375030634,0.997200127765032,0.1323400078300405,0.26392308593893454,0.06065412609979353,0.23644149063326783,0.6221693841887522,0.5714088052739357,-0.745809589382608,-0.13706060903485567,0.40014009936526723,-0.5921812547843847,-0.5720053175088736,-0.8099735498633297,-0.0816522020537175,0.6629889306669909,0.9750789776312333,-0.2764785039161923,0.927553224237441,0.29105890219243513,-0.08040449073557021,-0.02918011649939234,0.9331596074314601,0.8337054391548528,0.5439267175010996,0.9960827147569893,0.8847730736642951,-0.23927571947245532,-0.3485552757435669,-0.6439993311329261,-0.27663853827732965,0.2446156136914412,0.6757435191139011,0.2033755654174849,0.19569756001437125,-0.9548694211479999,-0.1814397339555515,0.2986499088588558,0.2967648767276235,0.7133043345780686,-0.6951680175168123,0.4737658554845662,-0.12607241701613686,-0.587102537817525,-0.7320618384538182,0.8288234282774958,0.8661175518604542,0.595049415526469,-0.6062269479065328,-0.005137441216566341,0.8561270040721292,0.5716361084820871,-0.567839651167318,0.9547193022233988,-0.31164921694977643,0.6534170079643836,-0.9357218005091912,0.30168203560937396,0.7286784114288442,0.04950112826359402,0.323919835587642,-0.14725434066720827,-0.078498963803038,0.9357551766322232,-0.8176039474415528,-0.8032982018030113,-0.2505560102077886,0.24180355189961142,0.02512554260439859,-0.09336874623628301,-0.13153252949110097,-0.3228687114524079,0.4099714778464612,-0.7903541897378389,-0.004856372720029367,0.4395995640380306,-0.899641031352636,0.5349016252601992,0.5805551091118506,0.7182480374901778,-0.870034837103465,-0.7102763418621739,-0.6333039181330749,0.6567024069586691,-0.49989085329453264,0.15103626132861467,-0.20426331221327707,0.7080572171705183,-0.49207157342368507,0.540221255164946,0.9750851708183678,0.5331023128244698,0.6098135188751541,-0.7338378092221981,-0.6054969751209603,0.4621539882379331,-0.4367666067400845,-0.03923581726484481,-0.7447839657578867,-0.9153751364049408,0.08123408337329972,-0.3758300969813594,-0.42374640087469434,0.4868831119904682,-0.8595899454595475,0.19626555274998103,-0.8327978857945642,-0.7775043201528045,-0.040424325056571675,0.248751219012193,0.5529084706397239,-0.47048998704748934,0.7199933324960566,-1.0035149998642048,-0.08581264807987375,0.035994415483728316,-0.5074201740459572,0.2640405021343008,0.42093963856549343,0.019416918620040004,0.3894412499380036,0.025264485784921117,-0.267022647377573,0.4868914336327856,-0.06749876298424407,0.34778437782522614,0.08978984187024042,0.16529698455339656,0.8252917547726204,0.5414636203239189,-0.11900908056298337,0.14241110214144515,0.29562395498884086,0.5134134467287983,-0.35699787519732396,0.5057556235723921,0.713467154518453,-0.1202544826642864,0.5161662454942221,0.30397703267738774,-0.02581932334788929,-0.4354550806099542,-0.24856204077808605,0.2704960153055869,0.9887090480289218,0.44823747118832347,0.804867789663264,0.5825901715232538,0.3197240621052994,0.3377106172112112,-0.02236563181905544,0.3038785071053935,0.5549917949743882,0.2489057631866431,-0.2871500004999406,-0.9381692350395431,0.9054356917691977,0.0997472483066849,-0.44391127886626913,-0.196753922475853,-0.8763066259568122,0.015603687155807178,-0.6024761384364572,0.4180616305293803,-0.632242604918891,-0.5896785946514824,0.23374675380344268,-0.7919152807694108,0.351638320818314,0.4083057982475548,0.3288928623967608,0.6145988463042398,0.7514101446592837,-0.8772366858395828,-0.9695990813641754,-0.2239020216327962,-0.7560890155534585,0.4640761992466901,0.505895254241584,0.4992954135563185,0.5574887306430265,0.5144414297499108,0.8492662276654589,-0.4967616668838319,-0.4170842770417758,0.5874119956263707,0.5971061538891429,-0.9363942574413466,-0.18368258009836202,-0.4186286299576185,0.6002805659548756,-0.38632038859013484,-0.6763438953442238,-0.2873129832033594,0.1801443544739728,0.9692875080311505,-0.8306740662001069,0.33020756241046767,-0.12188350409680239,0.5704072378964656,-0.7752851592117399,0.5976500832684333,-0.7864296750718354,0.8756087647913422,0.992808870641253,0.3649143675921886,0.5653515605073965,0.4544243734396533,0.226145576217471,0.9316887398310505,0.8257699192751147,-0.5388241676453791,0.6128846829071647,0.07223723745441529,0.2622449171087913,-0.37327416584513806,0.1738126283389576,0.8943447553992014,-0.16490798590933342,-0.2196777450012405,-0.18678474854062532,0.1699078600713555,0.3916147979324911,-0.21231787207408956,0.8081973984324126,-0.29291320191136466,0.2686459279390666,0.02412058811131401,-0.0863214785198607,-0.9564360274971831,-0.42575948209992304,-0.12539786805814448,-0.43532597080551105,0.9375645559302707,0.30121270396348065,0.9634259420571818,0.3025402789330611,0.9696514847799131,-0.4687679465299687,0.23974073184577488,-0.9570313875654671,-0.8391739767346741,-0.14567175188365944,-0.10420032362649234,-0.24388616124349005,0.13911767822649224,0.0007695849057145487,0.2514017081127511,0.4504420996878493,-0.4468146308543228,-0.20489757564146893,-0.6982267679157005,-0.49153748694290533,-0.8964269458587872,-0.24564665751721726,0.030238946364864926,-0.8246251847411016,0.3844056660593184,-1.0000356298334119,0.217645362116069,-0.9407589208682973,-0.48223064597903387,-0.48613115006126456,0.15027451967214306,0.3305615405388368,-0.05532479550626836,0.9262569700203304,0.7052807298909712,0.8018486569021973,0.3096933860997702,0.3366804240907917,0.2045563623330353,0.36352537729010237,0.5953271880724129,-0.2626681631722805,-0.34762429508735626,-0.6844203880449852,-0.5044048323782183,-0.9688026998046798,-0.3021256687595163,0.7346409390631321,-0.9529147874476227,0.5760601551705521,-0.6479386018746592,0.2202783173241552,-0.7594796258009313,-0.6816753084744733,-0.6102247005364405,0.14482373246894195,-0.7640419130276127,0.7595532941532211,0.8695583290035707,0.9239495117881793,0.27681908285318896,0.17419334500567613,0.5349532780997392,0.6536940135051587,0.6988764700191163,0.5559167633553366,0.8080492649259061,0.215602043650859,0.29546703644817085,0.4495372471630281,-0.859252209709609,0.2165049450548855,0.5905460620254959,-0.06192664199598441,-0.07123889823967544,0.38901082723057195,-0.8788109274188136,-0.2701001143529459,0.6916278045344827,0.3707908280584567,0.32029261717609653,0.47945000228583684,-1.0063691641487924,-0.07662898437716684,-0.8611548941776213,0.8878479422060821,0.04606503791958181,-0.4247440764094605,0.4846677519633091,-0.4562565110316559,0.5750107470246874,0.5541995968218713,0.4662461998352796,0.27084307460719725,-0.9306874729149538,-0.5929163804244793,0.20235919542720504,-0.001324371901026189,-0.3832968070093993,-0.06032155782930626,-0.7768519268263373,0.4822722875896246,-0.5604832486996815,-0.4092553411532918,0.4452260661867832,0.1593669598469929,0.6583311532352104,0.3309452656474517,0.41517194160597526,0.011016175385583925,0.014980110533841842,0.4975080035193681,-0.932496358995799,-0.5103132855880086,-0.4096491740959704,0.7700445784872247,0.14833398904712045,-0.4077987641031732,0.521694462080988,0.8006826614648215,-0.510870183484557,0.2071492296802681,0.6974508745470163,-0.2741041725348352,0.8741294910300259,-0.41345162010446734,0.7502589401557385,-0.6802968176455688,-0.13123899657802607,-0.4783225178151962,-0.8133483705173006,0.11496464016458693,-0.8888702622930097,-0.23840148142033163,0.15540465597056943,0.8458975850432551,0.05293772722731597,0.41637075253040207,0.46163701054755774,-0.04638419192479068,-0.7973844467618589,0.7023862878064473,0.1458004962372808,-0.5336274014493548,0.5023312413663017,-0.9507499671662464,0.4901140799366758,-0.02579857739802344,-0.33522121158692386,-0.7332971611729535,0.22006042311415774,-0.4205995753552044,0.47130232581146186,-0.1854446377537421,-0.555391389669567,0.010058828168576062,0.7788812870992725,0.7077995723615398,-0.2837809237110339,-0.14144412302738243,0.409009099034292,0.3482898988023316,-0.5346439320875631,-0.10669709132574182,-0.17153761368136225,0.9216538520899743,0.38175302524932625,0.26623888597792233,0.2868439997547397,-0.2843349249673226,-0.29795866690123934,0.7289227458581122,0.10817752766068085,-0.4604083459660041,0.563703726876064,-0.23461751198779973,-0.967309798774318,0.20678114969193204,0.19120760963109398,0.7937755415488545,0.08412606868165622,-0.2339663362288691,0.6449053332418695,-0.407960896104556,0.2915979983711605,0.5972321441384183,0.638830201532147,0.2965661049161097,-0.6829901438028589,-0.8449728520836347,-0.9234551113515538,0.35028807984458254,-0.2850995418640152,-0.36429807568460687,0.5715958104937053,-0.14263455247404921,0.21590585087890962,-0.75674420245652,0.63106755324042,0.6133581251350753,-0.3142974005887158,-0.7967364290565658,0.6658190259645647,0.9341169450910897,0.5462314586699668,0.473570203163461,0.453275651416404,-0.07456824512899307,0.2409589408156272,0.6694229727934222,-0.032413962777896765,-0.4345924367357942,-0.4880413578301861,-0.08218978582052039,0.7723052885380662,-0.35688728794042734,0.7034680615505488,0.8799989128781467,0.6111090503479765,0.23905469874244348,-0.7170072729551196,-0.8879443800693116,-0.013390474777541411,0.16563590314532153,-0.3417895394827621,0.3716595665573311,0.06107378542042383,-0.4708569970962383,-0.009883050566594831,-0.30625663831520694,0.5274993551063537,0.7744903446841996,0.559177772130753,0.5728348361201747,0.10993291396178906,-0.12152946606349646,0.09856349839762024,0.7107563501739671,0.04580184307219537,0.8180277952076997,-0.8560435072779858,-0.28660155333885995,-0.9442600341991847,-0.35224975704566186,0.18761600471247064,0.5110412013252253,-0.15772250093470785,0.7869215223349849,-0.15349544256612704,-0.07922958410747032,0.1806589008856294,0.37037342436898396,-0.34032965222855216,-0.5811565326139393,0.34903747771248894,-0.4024102515089909,0.23320647839991532,-0.49385380328677336,0.2700149944378132,-0.8299645947700005,-0.5786940753031355,-0.06476627924165117,0.9372732517948714,-0.4525600678532199,-0.8580801663259418,0.1930636545610911,0.006208979061901987,-0.0608761939503607,0.8078773002176904,-0.10616518608581516,0.544580721084299,0.9928123131360915,-0.16563925108203625,0.793040252194293,0.09445350016208987,0.5606101102844391,-0.9648318169531029,-0.67269992722434,0.9739281560401563,0.15303016141472928,-0.4662201367475629,0.26509020574717884,0.6713065825996122,-0.9319064369641362,0.5169697426638225,-0.8400167673081238,0.11764002177754418,0.14333167158090704,-0.7761594326380588,-0.48761123482294505,0.6456365108702502,-0.4073583452996604,-0.5592586442638462,-0.12425702303846231,0.3966910938716919,0.20871747434545185,-0.22387480513373148,0.5083001803179739,-0.4941693178816555,0.9945570975516722,-0.4951016649115373,0.9032237957712375,0.978588264425559,0.9519514101788957,0.374824711756193,0.18368554312529461,-0.46683754662040144,-0.13615760471342703,0.32141164658656884,0.7882730679236005,-0.4382086634661389,-0.09542242895779096,-0.46816042543333347,-0.8830116800419109,0.6362280732189436,0.15556876415180443,0.2630042383740676,0.8685535238443658,0.03042967292965848,0.9819366009821819,-0.9245763672164531,0.862875541608257,-0.28474488914233864,0.2954786966068106,0.24819830304393475,-0.04806093361604069,0.5520709573999378,0.958617771956426,-0.6036508416773988,0.885736025816638,-0.21548368838405407,-0.4730986549859395,0.8214975725028186,0.9793704720117946,-0.35187166060873853,-0.36939300287952326,0.2871796727586442,0.7202677408793325,-0.3061383260908249,-0.6666861770985117,0.6268240751823522,-0.7462020869116308,0.8219217908670762,-0.5644559392540045,0.9500658185920052,-0.25986925757484014,-0.939352619433474,-0.6762469642219353,0.2395149037425941,-0.7588776702801128
Weights[1]: -0.09242832897809727,-0.5221294926116846,-0.4761059188638376,0.9191334647681255,-0.35797720651979426,0.187968684913576,-0.31689043218125146,-0.2962312639207725,-0.5770810123426285,0.6316254789156959,-0.42545861444690203,-0.5325070496334261,0.4356756207699308,0.0038083228300365146,-0.9645685599951859,0.0840081959422716,-0.4473761978779809,0.46885998056682765,0.005621076098466737,0.8683890913931602,0.5427364974947351,0.1746918499351906,-0.3028841499718298,-0.6448874742001702,0.8216257196951777,-0.9590462492588192,-0.7202889498883341,0.34541287801480514,-0.4919324393812252,-0.10870831418256666,0.22831792162187292,-0.28089713178616815,-0.8447731713972861,0.9400227898452538,0.8769446405940431,-0.9509691623742549,0.2976034913666563,-0.9397629927563309,-0.9938944540889442,0.44263831220690086,-0.39592989506010423,0.01649900480010502,-0.7290573137481964,-0.2983116560142076,0.05228268962925431,0.7863049627217953,-0.6137538299028547,0.431735737915959,0.9146343785871911,0.6561225464828884,0.5080235784445069,-0.14510694478876285,-0.7661061723558726,-0.627266761673273,-0.5970232615233507,0.732879821086712,0.7807546573601452,-0.8312184446636673,-0.9024922549270523,-0.39893095726097516,-0.09174236519808987,0.3376966898039433,-0.8042988245395473,0.531627301839938,-0.5966924427061773,0.8554385173392662,-0.6877338782361401,0.49565283092467705,0.1268636822359932,0.986400602379069,0.7864047045756153,-0.50761320512165,0.4627544346557717,0.5629827638915659,0.26431898645326446,-0.47376250730536995,-0.09625083631661291,0.9954275060423778,0.30282983617057546,-0.9646792430266176,0.6547075806440354,-0.15202468780429323,0.43077849942761404,-0.1480549858641136,0.3832681073729265,-0.6265751335893641,-0.5147909594302955,0.7824935902759869,0.5370460513686044,-0.8559351804926689,-0.7317238197344,0.12882193603032355,0.9627292621707215,0.4050365031720309,-0.46593006837866163,0.2660385597656373,-0.17966025280693904,-0.26136772054357915,-0.7023023182634718,0.19644234584560943,0.4737897085624219,-0.10940666082753181,-0.6951279443200342,0.9282337762081221,0.8697178419072731,0.01563678356615683,0.39213862055546533,-0.3290889362474386,0.10841425187346254,0.8767392457820191,-0.17086934259667497,0.7853271513177673,-0.1340482808342428,-0.9378130119004348,-0.05363853790501061,-0.9397176773937967,0.9069181903763293,0.3437561613245663,-0.8516408055329885,-0.970117309116813,0.3702294767695615,-0.47068019297279345,0.957929032286555,-0.01787888454085617,0.7219324635699792,-0.3453161627181134,-0.4828309410462848,-0.957552320703906,0.02550959196615985,0.9977557179812141,0.7029316995247894,-0.8384598100187458,0.6942540357020267,-0.8949650369358836,-0.43909017749167906,-0.23360483784938968,-0.45968942713264005,0.502544723219492,-0.017772827771386557,-0.6323686761932301,-0.018713754144829564,0.8142979768171432,-0.3259206615974757,0.6603068055865853,0.31493416210400604,-0.5170509710521675,-0.7371297831354335,0.9005422740711562,-0.5417776833836246,-0.5250983450446396,0.3806964906324494,0.5259792747451822,-0.40257455994263236,-0.7437630408633471,0.8129370258859974,-0.0843055641447694,-0.08911747583299102,0.31993723105661925,-0.8020007700863967,0.20981300793417743,-0.5195942819103031,0.34233124251115704,0.6397999022568511,0.0987333936463878,-0.8437333742333929,-0.33530312186819644,-0.9117195680326408,-0.2400339447148302,0.5009050720841182,-0.817752779376578,0.5171790660904623,-0.5956265328431626,-0.6335164486098559,0.7872007665607164,0.04859644502801652,0.5557922001183684,0.855472794093017,-0.6883809945349798,0.7005203333235533,0.27684724945422695,-0.6380659775052314,-0.41321852614692617,0.5685180247561334,-0.4845492224217246,-0.37673399886666803,-0.7732544353922804,0.575433285059697,0.4398340767410859,-0.6946860216259446,0.6330920053959458,0.840933064185519,0.21032348379662572,0.277402412464406,0.7700920988666322,0.8816520729482415,0.6468655567834458,-0.828011000448843,0.5636106578463738,0.4890072231595437,-0.3497627160277975,-0.59526245384101,0.5159298656754131,-0.5878096147268421,-0.6959205374594735,-0.012782904084017794,-0.015121135112767982,0.1412332538957049,-0.18811011001793396,0.1687936878399426,-0.7919630854614201,0.04034761590955891,-0.43182666880076204,0.5944613608091323,-0.07032849881355833,-0.2061474777824083,0.849883308427514,0.786241146905687,0.11751683833675373,-0.5232397190595023,0.9328003909121558,0.08111809263014154,-0.34026819157426624,-0.5194049130749911,0.8838894655387335,-0.6498804612317497,-0.7038509974739752,0.11193809803199861,-0.40856310977067944,0.9166565026268713,0.41475659234059004,0.41711877051458346,-0.6656636863518836,-0.14206266689506183,0.06659449006563384,-0.12805437083042673,-0.10736072012389826,-0.8164092880506861,0.26595795127644345,0.5408564041112276,0.6442831747127363,0.07651562996045624,-0.26957361190132345,-0.8221162616624106,-0.9827506991272047,-0.3986588559333817,0.21430138564880788,0.567249677738198,-0.6824985918041777,-0.04733042281462363,-0.9752119192738141,0.9114877581184206,0.08418375397295863,0.09163232384791242,0.5461056360723944,0.5590179951670664,0.7349367885547395,0.04004960415939463,-0.47122655945567604,0.9378019872087237,-0.3125468459527725,0.864935770206308,-0.4607226391667893,-0.09611233320193242,0.7640736411304657,-0.1520156276733954,-0.23780877351825688,0.8057584809005448,-0.3662714148677186,-0.8518997166968225,0.9169245208965513,0.6095542440669057,-0.5443226246959203,0.5758667334550105,-0.20558853288440376,-0.18579986844363702,-0.6720299812369188,-0.5489151643351257,-0.5280926858671442,0.355446975378062,0.15167844255998664,-0.27067256871176537,-0.20556331016382356,0.6387673130439442,0.8779636825589243,0.5098216424177102,-0.6872155494756805,0.21106691360546673,0.2698366730304888,0.4569043696635595,0.06810271425254652,0.79133880860221,0.6296977912044138,0.3445919917188192,-0.10135198960222751,0.8408596018523533,-0.39619649947391383,0.8616546111331366,-0.63442201047099,0.10453244446755869,0.7949328679432462,0.44692860971349563,-0.07960363454204393,-0.8551106641227133,0.02389432291537511,-0.6025978548464355,0.49872502940647534,0.5939629513742231,-0.6969374211956456,-0.28391063459399657,0.23104797640398522,0.2838519528898653,-0.44000876407035533,0.1805984840174121,-0.21305748239095143,0.9332418118249224,0.044372283858072785,-0.1419259008039537,-0.01689165420753689,-0.7530882017828896,-0.4558244420191136,0.5797733738191283,-0.44171312811453417,0.18603800806349366,0.04327339134650166,-0.9487655449246314,0.8669350187877888,0.04195198997433664,-0.35263777419067055,-0.0207854313005107,-0.8005025965676541,-0.5630811456084833,-0.9425524972498636,0.34996023650744945,0.6234950663631293,0.7776311811886873,0.799086935724638,-0.38863755361579244,-0.38828813256150485,0.4768855718322498,1.004224155635424,-0.27390648199875023,-0.0984894216998832,-0.4678674475832529,-0.7833850374592062,0.8054726150268571,0.26347481893392904,-0.4767941402445677,-0.3804804038642315,0.01296726234831166,-0.1907153347287492,0.7248324451439986,-0.16975960536596585,-0.9408173875161501,-0.47816463721985586,-0.7979794503985335,-0.12060068121519092,0.7319170823025823,0.09697282217343071,-0.05654697603440278,-0.5170061184774682,-0.5177309110377594,0.040556305572649665,0.35475776314491303,-0.5251173775294411,-0.24482529388965357,0.2232433274496548,0.20044152401408244,0.5495117496228623,0.01729638088386512,-0.8712027772154484,-0.5835668097864886,-0.7304682291005925,0.5374907255488048,-0.7291575855941902,0.8581164730790085,-0.30275314876174264,-0.9960645912698806,-0.04662108218028135,0.1991116035695009,-0.28031154018110593,0.32905439383338786,-0.5768170014146338,0.6337383591412089,-0.7955158548493897,-0.5073566879965308,0.6057877186335668,0.9892381189553549,-0.18500489237951345,0.48758352710287256,-0.03520936008319697,-0.9531819056501528,0.4571453600456683,0.6407712379660324,-0.006860957949823221,0.509249011757434,0.6779455443971794,0.5629275923889634,-0.9348963274991405,0.4589661009498494,-0.41046219205975115,-0.9280434950593701,-0.05022861188021398,0.5917824976249451,-0.14491018179645626,-0.6728881535341462,0.419780480399829,0.24464656642114097,0.7064853124810008,-0.3661311232102474,0.47966138804288927,-0.12654782151788932,-0.1916059624238677,0.9042876058594795,-0.7899273779600432,0.1104347444916712,-0.9125099023396661,0.4925209616741728,0.1980109071349776,0.9371769316201921,0.09453337969935194,0.22518327982406294,-0.614553583606404,-0.9507778323957593,-0.9558051377199672,-0.894244364528317,-0.016013417026736806,-0.36492032871407104,-0.4131325543344931,-0.1602130954706515,-0.8424837776164761,0.11225552778119302,0.9038196974535206,0.4532476845163067,-0.39068999213059386,-0.38630303413392436,-0.6657368972224236,-0.2525945030000387,-0.28735870644230527,0.8310700694557932,0.10564176559254657,-0.6169945978733643,-0.748009727033361,-0.8417908181764613,-0.9496752749894165,-0.8339409305872121,0.24495946208246022,0.5100673760800005,0.40684786970114706,0.8696185685087081,0.4217589140971001,-0.8272814721927426,-0.6553810376931826,-0.8554522416461621,-0.6162613778444147,0.3755884912984238,0.7527422974304216,-0.007675415924193454,0.6029569931971182,-0.23150432225161838,0.3564974182382142,-0.20766812969883383,-0.27991267214874,-0.07882043246121381,-0.5480023261145499,-0.6938247704661554,-0.12239804668859594,0.33763949266069493,0.3518971083180545,0.5971097429630131,-0.23812272885775365,0.31504380601483534,-0.18249899949063497,0.3954774874241451,-0.1706243153524698,-0.3108552355835471,-0.04673772167728174,-0.7757697160242916,0.9988974425936572,0.8661489486071043,-0.15942163726287972,0.47013178722473414,0.2257992441371061,-0.29867362324898583,0.39358809973139947,-0.9510983766521625,-0.17480575371472704,0.8351622746414386,0.1222904899119679,0.27319975884055425,-0.06215906727686977,0.40823472003513295,0.22198709462049668,0.9405870320720954,-0.5433159803091754,-0.6826506904078777,0.6853936789199225,0.358640837967589,0.7219785713889099,0.7703292188608547,0.31014226679448686,0.9220452239302527,-0.8283462328036997,0.7912857317325126,0.08970028678406972,-0.8956304834669597,0.35521752729789235,-0.05085852511732769,0.30566251059326466,0.6887085948552512,-0.5799144477551348,0.5156469752885393,-0.04294038180631958,0.7104716234893609,0.9336240651980369,0.9205390673435533,0.5827986238696538,1.004224578121334,0.49770398523343434,-0.6058542519842562,0.46353929421930806,0.06751712390785083,-0.757280346163216,-0.8993349645191996,-0.3201628583294175,0.39122865624507364,-0.855711586919975,-0.06530522227879056,-0.028305478829754514,-0.47715534486673683,-0.02783133044272257,0.5803198030126839,-0.49915353744251356,-0.7701913480508101,-0.4430723942085506,-0.08054593721430092,0.2984780200284338,0.43469176880768123,0.6094947439376623,0.3054796725530552,-0.3265459817655782,0.8430139128878551,-0.5187232329715032,0.4131930748593874,-0.18941922680608403,0.3417446157983677,-0.6259941512633829,0.4492439334476311,0.9301992754838074,-0.46361369811120645,-0.24320287279547143,0.7303163237139719,0.8338861769451771,0.31767989598836827,-0.6991696568364775,-0.7377795755150816,0.7004404082853353,-0.9310933489407984,0.0604814196269081,0.6859557116271021,0.9646105458795142,-0.574741069960753,0.9821831341749909,-0.21299100071796728,-0.2834600747020264,-0.16029063386856146,0.011070884741097067,-0.2609502028543224,0.15894794022805322,0.010041721210015798,-0.40672863676032867,-0.873022813251217,-0.6382447968734946,-0.8458399347063199,0.6901329517983309,0.5842630082263728,-0.45376089788587415,-0.1979967566577666,0.3104643307128193,0.3747920981471602,-0.040287346895076626,-0.3344078949284699,-0.014693743884079381,-0.5583560675086658,0.7783551638015858,0.24570572565664392,0.7002765007886051,0.17173731805886383,0.9305518902514838,-0.70231165909316,0.2219948141006729,0.22986493410070663,-0.6261834407347178,0.9215388353548659,0.3355263338310013,-0.7384816712864796,0.8761101678377656,0.6975018254611156,-0.31953773508429956,0.9561697662464058,-0.6695280418201779,0.6297270857107615,-0.735016143692078,-0.1041762244111314,0.89722082448937,-0.4070268724935303,0.3766063990843245,0.7400596073383628,0.6176706907095679,-0.3312475526379751,0.6947097466697413,-0.11619497320990602,-0.21953656133050792,0.70632354796217,-0.310352470525809,0.2760079835090217,0.4359435408543533,0.5398614544141394,0.00797608821092921,0.4701564523718118,0.13875511807331598,0.8360660522412817,-0.19639760474857787,-0.1328183247664208,0.7979760533451028,0.36332642836604645,0.7443795068429485,-0.5886607738945049,-0.17830702717102528,0.4306665239664941,0.7187783640675459,-0.18053522518441162,-0.9108169061034873,0.32657490948428014,0.05987181177219933,0.40300425928018263,-0.5834094607565673,-0.9431041533822399,-0.49917819947271175,0.17178938494117632,0.9042678391115124,-0.9858664758437623,0.549880734435227,0.23886472696385574,-0.41276198411954657,-0.6632608993273512,-0.551051229029452,-0.3328204133235013,0.2315778812540592,-0.9410135464496834,-0.1783046838530302,-0.6686310746701868,-0.30550269010682746,0.2145378508083029,-0.18039775005227887,-0.5125283177987394,-0.15553538555966787,0.4035807297254888,0.14223948716463192,-0.4506747750676622,-0.15715287715754148,-0.05745218786781554,-0.09366862079677435,-0.7780720600630503,-0.02357655761541568,-0.12678451746166874,-0.25429391514549343,0.4543884048587342,-0.2795618471128688,0.3629400466396193,-0.13037380721903113,0.35982622735194214,0.01677196985891638,0.8321539730914653,0.5658886132602992,0.12462159391707806,-0.7138146821939455,0.5661277109731497,-0.7213949346494772,0.46268786565701087,-0.08164134984960908,0.08572876580373735,0.19526643797604384,-0.23358606176986732,-0.38019286705733707,0.41474081882545316,-0.8222563611446051,-0.08840887337100989,-0.5240164032433737,-0.5200122182695621,-0.5157791966900366,0.016622202059722577,-0.01940386274413321,0.9793968209900878,-0.681101692616825,0.00289192920406925,0.17975402989487507,0.3715365395748693,-0.7253321342753862,0.7113924919214996,0.5687653317902075,-0.0199048617016081,0.9467414337893676,0.8686378346144399,0.19063467308442794,0.4669819108522413,0.3234458720886362,-0.12594592251160452,0.6588765250793083,0.712257680349172,-0.7883821837785534,0.271275441809913,0.12862766994454108,0.6732317336509318,0.6498298450340031,0.7505515618975136,0.6411515737160607,-0.9765056516883612,0.5536599971983615,0.5764293720583871,-0.25255122652861817,0.8754569626764659,-0.007556976182553445,-0.7533372763637973,-0.11006204204565428,0.873301713668416,-0.6085433287585822,0.037375148868828534,0.4969494089004347,-0.4583943194981638,0.9411855060333318,-0.08535122176881471,0.2946111193367331,-0.42692512992160636,0.8999458858277396,0.9464956223715542,0.1486722245573402,0.36191501159310113,0.5882178980139325,0.12974933779297357,-0.9144721792191967,0.285277303239976,0.23633024897369276,-0.23707442415741942,-0.792192629524592,0.16797065096864003,0.8592411692512255,0.327442905303775,-0.637705081905101,-0.40999932839069486,0.37485087261295447,0.14860107337525164,0.8102260929579967,-0.3022565354137945,-0.036056281549882274,0.6933083691137416,0.9864247618179884,0.6805287355932075,-0.028138231033523642,0.3173329594160117,0.07552523961082347,-0.7139292767801924,0.37710466858796066,0.11727084457747217,0.7710721743158402,0.33113926897344137,0.9969668220714512,-0.44733222641392245,0.7390906539461997,0.6706062805236346,-0.4034683319756148,-0.7124829514475925,-0.5703927341710742,-0.5887413907743717,0.5130978131262109,0.49310610047220527,-0.358183318450201,-0.769255199362177,-0.9422247092901844,0.7221900260644918,-0.9972801217796654,0.06212365490483296,-0.32491976922607035,-0.09305126270887032,0.16675480788888164
Weights[2]: 0.10442268527318843,-0.4031323452494724,0.609131151628276,-0.793362483286002,0.9600708605535659,0.4681434889641327,-0.6099467573733752,-0.712105210736443,-0.9254734022195793,0.7777558647923897,0.8772380044112158,-0.8836305634508052,-0.008146598473259492,-0.12270186148709705,0.17761921751202037,0.317914061862004,0.5902423623903852,-0.3083113624287357,0.9934690035849201,0.08733382406054702,-0.2810061924536741,0.39896748373236846,0.18464565145999456,0.47083761797791235,0.05149168756394262,0.7556799611801654,0.622753444883392,0.24967174290198457,0.3146130811956771,-0.9865984152940095,0.610990492445878,-0.529844068703169,0.9505160366885905,-0.02151225834224013,-0.7732834162997471,0.40009916732092354,-0.056463378042198475,0.5324531372322017,0.7105354199700689,0.12838817906025257,0.8974638059257827,-0.8582875234346313,-0.6632679885547925,0.7353419483338213,0.6158680960609895,-0.47455275499939586,0.2388913991110826,0.18047715219691263,-0.4554291914475286,-0.3151941836416694,0.47188129251444777,0.9833915932026653,-0.08652026629379028,-0.9205790161716654,-0.9264093748882456,0.70545520154082,0.41222200329053305,-0.8617064663496364,0.15514582915005537,-0.7956091006265995,0.8453900440807407,0.1403814997246402,-0.026718291932120164,-0.9388749869255698,-0.8332346276534882,0.40708207311438493,-0.8341466001393956,-0.9866343401310194,-0.34941844518735,0.777520050191097,-0.6256225600957975,-0.9422107748418165,-0.01884678239880444,-0.1349191754753325,0.18987001813476434,-0.42271866901904287,0.062235472287160976,0.4493037031261733,0.8549695219169229,-0.4739555574366616,-0.48321143793091714,-0.5577237073135207,-0.29489906565048685,-0.3701927351626534,-0.45847970780845715,0.6275988992432127,0.5566761975906214,0.8710950528602559,-0.09510288345399442,-0.4787386178405669,0.9878771640303905,-0.19475691169256204,-0.6226926919178537,0.5061445205966684,0.2829761690359407,-0.24294136399667068,0.16839838766688053,-0.7244412888327603,0.5685282887837719,-0.7912423812907707,-0.6404237654871725,0.22552573924210195,-0.4701044026157374,-0.23294924163862563,-0.6895716235458719,0.41409206735626425,0.0022383756014696665,-0.9516010908184578,-0.11044903430642983,0.49630929413079716,-0.3567802707463411,0.9629183001643598,-0.7166759882665593,-0.370898613413283,0.6876023373043176,0.40311375139426153,-0.5647194346248728,-0.6565255567694668,0.5196047208828873,-0.460833526896701,0.8504058755237636,-0.7052736551070931,0.10842063484260189,-0.8707277358271557,0.7955254401113954,0.579639294714788,0.6892877190485799,0.4765013546835787,0.5777685474667409,-0.5958090215860075,0.40016886191217865,-0.209140626712196,0.8848755900203488,0.6475957416533774,-0.820894020142421,0.3000412530986918,0.9165291581837015,0.9380501759881388,-0.6806211116167815,0.1274282248352785,-0.374639476358257,0.5082772884090792,-0.01845591283331438,0.4085878224152084,0.8780416529057742,-0.9750411361339694,-0.4780809234260027,0.7482059214954293,0.8185101811849091,0.8790567648405814,-0.6854163999595891,-0.18061346583262888,-0.23577878862531232,0.039599524716813155,-0.6340459191963311,-0.9266904910810354,-0.8759294051331146,-0.6119698182501023,-0.0018194847711997687,-0.23406463656527748,0.7678729122993527,0.560952728978993,-0.4960836746552758,-0.5109166715218748,-0.8902101809268036,0.8565912553372752,-0.917808826974504,-0.36285948723687766,-0.5373492108366216,-0.6036604855226635,0.4907330560920449,-0.5027696106130115,-0.9772026595011618,-0.6095195581818527,0.913805949461556,-0.6578812596876059,0.3147231797071799,0.6935946175705366,-0.7533581855416728,0.7657857738875281,0.06540022131148904,0.9668688730995912,0.7027720020011741,0.742705929127238,-0.8746700974890862,-0.41416671346864614,-0.9383820631463098,-0.11410937319086657,0.3257409502033629,-0.8694932339486692,0.20267298332229033,0.5380078981284269,-0.017026608786662477,0.5780848635258549,0.39381807455505147,0.09813084504480041,0.04196106877269279,-0.4752191665932626,0.32112909076787965,-0.978549602431501,0.9401293842613723,0.8813655164108506,0.29647488796759724,0.4490547029133584,-0.5797988931442993,0.8513010950066039,-0.18364044115015382,-0.6202157559411525,0.13841035672103832,-0.9437676187864461,-0.2076041426423169,-0.5581788358006542,-0.8594520333166499,0.22047730817069863,0.7151265992420256,0.8258541105146298,0.8867952669616888,-0.23044707237723108,-0.6402232259262856,0.5185695729383137,0.8409701374162792,0.2308741487706425,0.34933716121564484,-0.6389643101203089,0.2221338875694825,0.9789277855208738,0.5365880855995175,-0.5539893086785401,-0.006248145550421647,-0.18773794298326987,0.32902687252165197,-0.1797329505870047,-0.5796773689834125,-0.7183367907388173,0.8717471517084714,0.203830729595322,-0.30870971140439935,-0.7038086591471429,0.3693034994940984,-0.6771961854190768,0.793518296604523,0.6965864092855927,0.7566569996551816,0.28782623510831284,0.3495063856297204,-0.24884354072405893,0.36160284221703903,0.7479184538814792,0.8840061136912583,0.5924839198554326,0.2273676801600344,-0.7221568449037881,-0.820996449245604,0.8175645963370635,-0.8045146613402826,-0.2881064579301078,-0.46920704232995775,-0.07889360494766555,-0.7920011239285077,-0.5794084032949486,-0.6880132233926736,-0.6039605229303991,0.39372520399144806,-0.6629153947586189,-0.23422538263780068,1.010328913024635,-0.9272100674337718,0.923089138452559,0.39332354236574635,-0.43861964356574806,0.17542673780418505,0.6469114652202612,0.46135425873722913,-0.9324371550904776,0.7191605432443838,-0.8408353560794309,0.4951612779382435,-0.9222146300236762,0.011041828901992012,-0.5348952643270117,-0.38358058006669427,0.7886696317180384,-0.4379954223697984,0.4049113103463208,0.5831773836861309,0.018911315845754603,-0.39581747755223606,-0.4322275823065284,-0.9539755508058397,0.11287289666166397,-0.3840561095180042,0.7244100580159413,-0.9409189734045433,-0.08286622748847454,1.004845300699204,0.40659996039869944,-0.721496371704548,0.43087598334204297,-0.45190447977350456,0.39344532787015657,-0.26537040732775735,0.4520529973464431,-0.6459425898396739,0.3521037778474298,-0.5621293715956293,0.5908683601724303,-0.17322778011356843,-0.8803591122293655,-0.9029664312968806,-0.9636793052608517,0.21673226413164848,-0.5448566403136285,0.9081591225098361,0.7326101801848134,0.799702725640549,-0.4894675225680039,0.7981363329983433,0.9470992848307727,-0.29920140064430506,0.6999544202351691,0.3735062435683794,0.5001517845357023,0.8735216783963416,-0.7485427761182001,0.8707421304777859,0.4160251558182649,0.5955807631352451,-0.4380865389759378,-0.922623428539197,-0.708711537709359,0.8549599954621689,-0.9408828411095782,0.522317620703167,0.624235779803356,0.7465004286479673,0.17337983715039673,0.4315586962884099,0.20964050256164768,-0.03199612676724606,0.994109772448685,-0.8097663476811832,-0.5046032896030515,-0.5201493979449681,1.0012548389685887,0.8747605166917544,-0.8497061479648134,0.7971815111336198,-0.7008735722657632,0.12187288133753554,0.522918485909049,0.6204235696384516,-0.6967582349667212,-0.3048662058470787,-0.15473540776302927,-0.9578037923220879,0.2575615995158732,0.5589186676685834,-0.9266216412794732,0.44606390145105834,0.005396782220667924,0.9885641038364563,-0.72147527882898,-0.9412904213840563,0.8046859287678665,-0.8215108941409321,0.15735480802010504,-0.0646615880842607,-0.7140874578885944,0.9831451258840448,-0.3677388490116935,0.08682236651425106,-0.4200526931344449,-0.030281858332030075,-0.3044434603950264,0.48638854090726374,-0.1472761143870768,0.003098142060953384,0.8901144067031455,-0.643196999265052,0.7021960600182447,0.6076176478601709,0.2966725445569266,0.453326466280252,-0.4185278075411372,-0.34198939138125467,0.5138683036429404,0.33509880853756835,-0.33939044984960487,0.5911876669112535,-0.49486606730840454,0.6154662536529201,0.35523248992638323,0.7619231574991361,0.9625451154832472,-0.9911250397521654,0.9136981305527224,-0.5742390817545803,-0.3216582244223064,0.841018504445812,-0.2531421889495856,0.23191231177735794,0.5108272769937973,-0.7066137042600963,-0.5299665595108202,-0.5860054216427745,0.028891696763327604,0.31507984133428296,-1.0094199200445324,0.36546051224100307,0.18731536479627448,-0.7537669274232895,0.6694888944570193,0.6865361824610726,0.7127561273828233,0.3822487607752083,-0.3145091344204308,-0.1607034630890486,0.49689598916885247,0.1476761750633251,-0.33760228629112354,0.8221395489862839,-0.7252711382346559,-0.30194583316424206,0.48018884306731285,-0.000339520863716817,0.7300675366261737,-0.16107878558315813,0.04068648760368198,-0.2833645668058713,0.5864898190136558,-0.5722978153812851,-0.6559580461777872,-0.9374683469285667,0.6267558710106169,-0.5337769127051011,-0.8995454395176397,0.01743436589819799,-0.012000453358475445,-0.8493165058942923,0.5991357222352469,-0.8335935412089169,0.3258881986516525,0.2973860881810416,-0.5778914976762102,-0.7231482172958312,0.9446565806607978,0.6664004873793574,-0.9504867335550891,-0.4192255788572252,0.32338409466826556,0.07773088527737682,-0.06581657988290146,0.5092996272770824,0.16569793494571947,-0.06685457108861086,-0.022456976133253783,-0.16553044269828207,-0.16097355558593085,0.4942120054095155,-0.2651402926284407,-0.7526776424483622,-0.6817429534455643,0.29771651776568453,0.7957962958903292,-0.21958932840423942,0.9323727323631326,0.6320559886741973,-0.9548982314127865,0.21188246228097204,0.2780984279149394,0.6932331514166427,0.8886633822175969,0.36644518159630013,0.5427993086831642,-0.503542466789271,-0.5030960736345016,-0.022380153193315544,-0.7240543354880318,0.20647790152881207,0.060301450574910875,-0.9538780394726796,-0.22796662953464175,-0.5456293929326659,0.4031610694120548,-0.4766046725975335,0.5196153840709891,-0.1375739654477154,-0.06775040772027517,-0.25959091500401993,0.5346747006197652,0.27630733459399764,-0.807995919968297,0.5179621214802491,0.46615769420288505,0.40327676752233116,0.8690689862431492,-0.9738949162445188,0.5152235114396335,0.6860122228917377,-0.5977442552113128,-0.6585128623121426,0.6291269714148375,-0.16159003468304411,0.3032098167125181,0.630199066191073,0.18906750305977993,0.5677382385207983,0.9689920525853486,-0.3393222639985952,-0.5831035151130716,0.9827300361210716,-0.453346244641481,0.6217298704952439,-0.5707697572313228,-0.3182383020989133,0.4787134666330107,0.8704980785324719,0.9105233704116695,0.28537930083854063,0.2927678052809608,0.09904596463230425,-0.26198370605395505,0.3278311748806997,0.6953970924689183,0.9951250239750203,0.5286577631289266,-0.577976361622716,0.9551911205136452,-0.8309111149845191,-0.34837530522997273,-0.5236596602591033,0.46283125386705204,-0.4099732122430453,-0.19570854082503752,-0.28111638467810884,-0.5830050108875171,0.9333586096453288,0.14520813695681997,0.7521645047067257,0.3144749747314963,0.931550681118468,-0.12695006932612005,-0.7465215967198943,-0.6682201879743822,0.5514564923369544,-0.26206588797592456,-0.41714152611368005,0.08907712469079546,-0.20373201952723483,0.95368160007084,1.0008323947048385,-0.8786821049922965,-0.7655268522466695,-0.5514457604396916,0.369572726507633,0.6488409243529583,-0.6703603000407826,0.16931341564597058,0.3084216019135913,-0.8981178421052721,-0.2325997227954677,0.6129035305291897,0.8002185643651609,-0.9909469587686225,0.9405519021398163,-0.4815616721317597,0.9538240531893813,-0.1853930732434789,0.7050053381752569,-0.7412811629640735,0.5317021156550881,-0.26719509297064914,-0.8264832202923661,0.986548193074805,0.3604448123567415,-0.7857718271422139,-0.5055209627578349,0.018014227799443512,-0.8722059335313258,0.2651194153971123,-0.01853166488669463,0.3775242831688073,0.2158946993470848,-0.7462177697682616,-0.3204181585454254,-0.6215226251164803,0.22689056357646842,-0.8584085823308716,0.43494490880283765,0.07026886710443936,-0.9126207846741289,-0.23598264215326992,0.8366361362098884,0.647716502654365,-0.4554521598437857,-0.6840646369588892,0.07419910575349839,-0.7519020285290253,-0.6014490961047386,0.038614760567460604,-0.21996626590340465,0.7550459528651239,0.39862556143025946,-0.4761175263436637,-0.5763675239574593,0.26885954580584687,0.9344626198152463,-0.7309644634454481,0.13896880060022201,0.20732693441098807,0.2054199209681713,0.35094265050652396,0.06063281507469849,-0.9490888398627751,0.11746276077630954,0.38939365995553965,-0.6030390772982682,0.54638842565305,0.32942329129642967,0.562026618775924,0.29190704659181965,0.8114637766480394,0.38026624120532293,-0.3559117966725399,-0.8172721309774932,-0.21903926901681078,-0.09208166460974324,-0.4903543678671328,0.423170815384734,0.016596492026953295,0.11227389772244589,-0.7805073879924285,-0.3789194762185451,0.07601904278243662,-0.5357530500907336,0.2537016281690532,-0.9637020538205472,-0.2701299001757984,0.8640847668927814,0.43541306696618576,-0.5482656823230282,-0.044514074476675214,-0.00032832613230138197,-0.774395145370809,0.8646992835517504,-0.26359543728809587,0.7033623874668788,0.7857028207675101,-0.46367353935587824,0.16939494557056528,0.9355405758972712,0.5415430354723775,-0.07232225398235052,-0.16341661302888189,0.7659651216722662,-0.02711673203283902,-0.6464936732333851,-0.2782859043184975,-0.6867686486502632,0.6315913038009228,-0.6470577867945573,0.40521690407786165,-0.15182972292579563,-0.8497351906223484,-0.8783945781855458,0.00032550786019049994,-0.2492346159263069,0.993530219417778,0.5752839220572654,0.8603048994486708,0.35059571887859886,0.664187030710367,0.6817777751394445,0.8940102243302437,0.11029230109895227,-0.6635788789315051,-0.17602134190582858,0.17432416627782812,-0.2123920381195998,0.4489475341908691,0.0712080270270781,0.11237633827274919,1.0046893423147316,-0.7095896948690587,0.09294514669204172,0.5883118285964588,0.2874510743213483,0.7675204563682128,0.31021344715205873,0.5038730307605277,-0.09366633725814574,0.3305686722456712,-0.5820506548425419,-0.765028733210611,0.07954904001295514,0.04564500640703101,-0.8984339823473403,-0.1537967934989356,-0.8963435347640624,-0.13853001647560392,0.9837528569548171,0.7098321680491009,-0.7895811012897552,-0.32793617217239746,0.8069920687968806,-0.7430836035604977,0.844448630625591,0.017271365512754544,0.7079992544408884,0.41041967378708105,-0.833646516852345,0.21952910981428408,0.9682512125085204,-0.08864569654941408,-0.4259960081741603,0.24284125662554876,0.41023038501152037,-0.41042956135900954,0.08583402050683518,-0.43921686962210427,0.7121706063450177,-0.027539737096725362,-0.3264894400151791,-0.9332803370558085,-0.05134725433371368,-0.9831766113560538,0.24623768555290892,0.4446801093615034,-0.1883282853236088,-0.9358328599183974,-0.7651448965841647,0.9679890563562461,0.05246212754978896,0.9080137982536172,0.44818674933546543,0.34851194794686147,-0.10497959382132604,0.3153486069716663,-0.5345029387871846,-0.15788795748905352,0.7436260262059352,-0.7238727241942282,-0.9279678631238489,0.9038721437510221,0.3500579705152955,0.7156885555155783,0.39713621952086536,0.535064404613834,0.6679287970382388,0.834703257230438,0.6293290861087522,0.5075663437636413,0.7600825884193567,0.5428733348580419,0.14929937717937825,0.011132542514769694,0.03377221572854183,-0.857192479938824,0.7234110821613162,0.7901686801529344,0.010678710886593334,-0.6002314787359124,-0.7944003491636367,0.6438321143592858,0.1783782593805241,-0.8142044692366405,-0.8630642191800588,-0.9724719691893421,0.43469819120815867,0.22065692079284083,-0.6473851537552593,-0.8999531790148249,-0.8589284912957477,-0.7243108347637164,-0.15593349801187095,0.43838327817543554,-0.09941182243610347,-0.22817695198030075,-0.2862765776395223,0.22639850025363195,-0.3814071125264312,0.7111732809390747,0.7767513123232646,-0.023031542554046713
Weights[3]: -0.272711240347806,-0.7920935320631105,0.5095887926917471,-0.2412855789257612,-0.5629457931793043,-0.6852602677816806,-0.24778711388250207,0.593338171762106,-0.3372405149681682,0.7997527419588308,0.316948107125679,-0.9318123226667812,-0.5717999774831347,-0.27414135507966453,0.1680924255252314,0.5853184645927132,0.3707024703597195,-0.8996337865943247,-0.552728123754602,0.4820884109856973,0.5292822651235769,0.36649483505938885,0.4843934231830731,-0.30119316713008715,0.7109160990039427,-0.8894556350491268,-0.7380508322911574,0.42908409770069844,-0.5029874180923157,0.17157579267936574,0.2995054299475184,-0.37698279105917676,0.22863119339040994,0.2089940603864351,-0.5489105002716699,0.97788906282647,-0.3726530118718059,0.2688136097364191,-0.0023560156125370657,-0.09408281142547859,0.6004019601272428,-0.493291350776931,0.47831202367242054,-0.5240635767225472,0.5271183948624498,0.3701956008422167,-0.5276118449529688,-0.9540355969006361,0.5456309968352462,0.6410800356609188,0.24789041711384918,0.6108070675333994,0.32947943607786634,0.4948800464602561,-0.09444421115072643,0.3607939245928051,-0.2764869552461835,-0.1892180401781658,0.047798322070295995,-0.6734901581301773,-0.9472094354905232,0.3231287884167995,0.09632558985442174,0.4911836923524662,-0.49975268798868766,-0.30606910181514413,-0.1604435160571912,0.2192059621304301,-0.7252308548079947,0.19020336269876137,-0.04202852353548092,-0.8981111393766995,0.10272222901821237,0.5413546876708766,0.8816864508584545,0.022573615900507882,0.8881828113869683,0.008456999905620322,0.17168843800746303,-0.659279501838274,0.638156209903842,-0.7840152353905212,0.883453100865452,-0.1440674537532346,0.9236853755655166,0.688698362414119,0.2935377728629567,0.7337511469301541,-0.6965617284628385,0.09029557513552522,0.25437601807265353,0.8165650283063599,-0.778984712333877,-0.32886585748235964,-0.151375180689811,-0.7275779109995298,0.4037467782214039,0.9772321225916094,0.9657929025377954,-0.17263380257437444,-0.47297008863681256,0.25318219291660116,0.7711952579073587,-0.6445723658635152,-0.3168914408036002,0.14600155649054858,-0.49191516148481296,0.7881247484069898,0.6131935956018015,0.8829821729487657,0.4726111132058366,0.7150560448481962,0.6390935218143712,-0.2929221760914299,-0.31164636803401935,0.836805799899998,0.43967568755134745,-0.7596069563923435,0.5674983167869496,-0.18845105040280663,0.4003931253218991,0.09924667318877053,-0.09405090081171777,0.17465497865149374,0.9251345741579118,0.11966978567360231,0.8509534930504187,-0.5928716752790156,-0.3191929269561624,0.6042826658151335,0.6139813888484282,0.9023816208730088,0.03271460230427998,-0.6615171986991365,0.8077089543307487,-0.6173603035574134,-0.5552637796330806,0.5280254667289674,-0.8271760129496344,-0.22231618092503225,0.18061352389893193,0.5054130244559669,-0.8794424486716476,-0.5795439014116042,0.6176844619296884,0.5393199732244573,-0.8225284935080113,0.5139374637575529,0.976221846727776,0.005890335305113152,-0.17759693212864047,0.15608163810292008,-0.5928148898911932,0.13730176621832219,0.4047082720948289,0.3994529540276525,-0.68279724450332,-0.4264746423586922,-0.5811544692359375,0.5519239953533663,0.26461922812941485,-0.9328567538767312,0.08619805794991782,-0.9977610739307352,-0.7294952227917249,0.5715566331388227,-0.3177118437912836,0.3005925804845022,-0.10300355735374778,-0.6966203850212602,0.3920162931978779,0.91165022082238,-0.9323988336301059,-0.21014355237155274,0.6309354256982613,0.8929620504585827,-0.0259461096424385,-0.5224956912931329,0.547664180252712,-0.6176858817354508,-0.05916704178958608,-0.6622940367172353,-0.5758982572352446,0.6405021586431963,-0.26067893267036757,-0.5732245189332031,0.4815214109940672,0.8743041327600181,-0.09874058505736354,-0.6313327685285852,-0.9689583087746223,0.8535652583416108,0.1081383380099619,-0.368878123987875,0.5125558355415964,0.104116771884317,-0.594483660345191,-0.888222765125438,-0.850335517828509,-0.9538721712091343,-0.14290292755864578,-0.12303665625937887,-0.38119454050902574,0.6782983583607013,0.604752643209912,-0.09543480830963641,0.07993959388452525,0.6058999544040732,0.5063058935572743,0.5165254887218625,-0.5845260173454158,0.8126372984960799,-0.009732414602283005,-0.9932724002348235,-0.4232611267755223,-0.08975555933509935,0.6315275736964622,0.4195514783305219,0.2351686076942762,0.8283983378378651,-0.9100605702033563,-0.1863395707618164,-0.6051139894896718,-0.4882511587293126,-0.7441798996851685,0.5339484743466361,-0.19677495639621045,0.43644718054516574,0.2773726002151067,-0.47309692845292073,0.4943912055002587,-0.12345002914195284,-0.664415718321106,0.5092285977390444,0.5145895018797948,-0.9307044791930486,0.7363450684709947,-0.2454854363263607,-0.9716295473049507,0.8152029146619059,0.3094689767701801,0.8380163684182753,-0.6650017332959237,0.38120977679570234,0.9500682981355456,-0.7967094476110431,-0.16307477777188392,0.0853322591098642,-0.9466452933599452,-0.38563603879215014,0.4764275958186144,-0.02247310570556349,-0.1301872865903132,-0.6789265934745439,0.9559956611860523,-0.9566286122224427,-0.5178921106577126,-0.8947234024262516,0.4244560093678815,-0.9113815740837999,-0.885699196667732,0.6460615146619934,-0.6645513500084039,-0.004737495846241381,-0.9640908287587474,0.5477580277571771,0.4775205822248108,0.4736175398340245,-0.5327641828892783,-0.5161364430922277,0.1443124490144111,-0.15576459452011174,0.384762390108158,0.4052283286331235,-0.5108703846614899,-0.761476781108173,-0.5217625617616636,0.026993711025916856,-0.43391276590242644,-0.9496365040306172,-0.304186764780519,0.7178927844939254,0.3830924739051109,-0.33708147562811425,0.0505179435451339,-0.48797871535017856,-1.0008825689815664,-0.9827194185361809,0.5541245107556483,0.48187133457285175,0.5978198024810369,0.6333034487541283,0.3249532132409438,0.9272473756004966,0.6944880134051876,0.6565650959799321,0.49628704564225073,0.3299090965653799,0.3054498346877368,-0.6410336305553128,-0.2941538865943817,0.3468839663059656,-0.39603976735887203,0.5627153438846548,0.466167174962427,-0.38185489987109555,0.5971401574076807,0.4687167235970109,0.8322619124465911,0.7174724422942254,0.5651339495392209,0.45506135249563484,0.5392364923946729,0.37328811200008655,0.38991359099626655,-0.6046657767325748,-0.7362723124093533,0.6800662865810435,0.9489740830171005,0.5200481856488474,0.5344996673849383,0.44381058161130815,0.9185934170471806,-0.021474959864304363,-0.11231641653407727,0.5073176168042977,0.4931532135456458,0.3995334728067413,0.672542581378114,-0.18586936738409957,-0.25550239331313307,0.14927232035321714,0.7074519208201449,-0.8134589296828298,0.34136269210901227,0.3569492964804868,0.1161778891068781,0.8204489209784422,0.19672752600010845,-0.5676716960012531,-0.08507174383936096,-0.4651010433393375,-0.8122346982699779,0.8403659034092472,0.9146397546111797,-0.8624538130441757,-0.9092552956310973,0.9479268912786115,-0.4592168810249914,0.2923969294036632,0.3777478335163083,0.8022484422057918,0.3726072684965082,0.7822878460416781,-0.19417034563070634,0.21523459019494032,0.39290491835106967,0.6020487067140318,-0.3198478138823194,0.9627903900499504,0.10568848955709886,-0.8259999276259914,0.7857670457036081,0.017256221276361616,-0.021998682535252834,-0.5840665798560095,0.7475472836510964,0.3526462215581912,-0.9680138461686736,-0.9625418385377307,0.28750919666458996,-0.5402118049550493,-0.5212783404289535,0.5074563855774036,-0.40341438702122073,0.005486861941257212,0.2594187555973336,-0.9372734718996524,0.04043373715604336,-0.27463711289704507,0.3931039979727429,0.5362276633668757,-0.14535825139539613,-0.6426055245407498,0.4127112794414358,-0.08211061681019818,0.7788914229425806,0.9243237729763256,0.3694525125294237,-0.8957560145742055,0.9526910399797797,0.501976190834295,0.14345342160363383,0.23395422903539353,0.32655746830932686,-0.2591210167326809,-0.2506943852489327,0.17483429317806584,-0.13064364141071483,0.5221804605876766,-0.6081479995450098,-0.268092131424838,0.9231472495389638,-0.4921029806127991,-0.9855385913564649,-0.07991403281439818,0.30554819749084144,0.8414869969303127,0.15014130774992468,0.7825903079859253,0.9536484136468925,0.3030911350867229,-0.45495588219223027,0.928380592486507,-0.44254135531715516,0.5658404648144917,0.31356381779236897,0.4161342444904774,0.5931750282613444,-0.9520798669904842,-0.36022522456954476,0.8232235106747707,0.9831113628964459,0.9276883067843908,-0.914966486307784,0.7865089909337508,0.32120843604610994,0.257820890376729,-0.8142597761413466,0.8623356829520498,-0.7295135518830411,-0.902287043433919,0.21800991983860948,0.5404736376851306,-0.6705698407763467,-0.36230130844709846,0.5878981893331553,-0.6762681679543282,-0.6653577450501091,-0.5248369336419395,0.6005721397968973,0.9138809059064958,-0.23588217274600795,0.5798804469312915,-0.8533044149416054,-0.3641547101382887,-0.05568252739295476,0.2020420800904008,-0.3311231524362802,0.760717003494835,0.42723281934262847,0.3330398236089571,0.5819421714478196,-0.17879419778460792,-0.1236111695154568,-0.4331641177289941,-0.24282989861029863,-1.0117023811220403,-0.5665318576236228,-0.766162952716796,0.6069205942196099,-0.9485110560890206,0.6498179015549825,0.276483139759826,0.5038823325906536,0.8396910524134886,-0.9302773380281697,-0.006821300714951184,0.5953404580548981,0.907386027895106,0.9646941826043657,-0.02176213125780324,0.07116677382549597,0.09758594962655853,-0.5657057387594626,-0.2870910508963703,0.06041095268931751,-0.5967690840348457,0.7809150366955042,0.4490571950790738,-0.1576421173092174,-0.8830665191744905,-0.4098412760843468,-0.5765132931883604,-0.5665986420163137,-0.08459046397223798,-0.48617757412765183,-0.6046118627339689,-0.33386422179843095,0.7492422796004989,0.8714011746466103,0.5829194318842956,0.8823493578172323,-0.9226755320140837,-0.14202890790241993,0.5346776913114017,-0.7384289064323138,0.47947404468419247,-0.9312635638879356,-0.7062745042789548,-0.4627162379654147,0.9281649374999874,0.5936982843995553,-0.25163870549371403,0.7939705847734448,-0.5510050493995682,-0.7381269502165387,-0.51570540830293,-0.613022535859152,-0.8376430353049094,0.5200978910254791,-0.6435063969751729,-0.7930225806416603,-0.03858358873500746,0.3915046035224122,0.49717222501368147,0.46599216770217955,0.2101817852113741,-0.18095570242751055,-0.45042560843397134,0.30842607168954744,0.6768267816509665,-0.6733200064895665,0.8320607717092929,-0.9681685779032512,-0.6188915887187941,0.08344669382147049,-0.03548376805040041,-0.7882006488662313,-0.12185669649478825,-0.5618556568221449,0.5782893139767877,-0.6654198894581851,0.48725311527366433,-0.08816299265630678,-0.08580705480920481,-0.47676140231860864,0.8418784872237457,-0.35482142699903674,-1.0058297884871001,-0.34001818168761827,-0.991556809657984,-0.9992700361356907,-0.4984193191088638,-0.7887512430378497,0.4730297286147407,0.3228158936803778,-0.11923909035984281,-0.3101356770060063,0.37006608950191733,-0.9370990133589795,0.03166062364778114,-0.3456694282967911,0.5014033156007679,-0.04232530781749255,-0.170043752790592,0.572483269849542,0.7334240598997507,-0.29800324093606073,0.41317485524954956,0.36587521031772496,0.29768377137262547,-0.7272154315035861,0.5088341606356364,0.7242087292132009,0.9405664978648647,-0.9660927553777622,-0.25807450317245806,-0.9432677065091418,-0.5400624416424432,-0.05341306045297371,0.5955230798857716,-0.46681638739961895,-0.21831909384306938,0.8513769612436508,0.2618529668126109,0.6622486494971015,0.8165824575240702,0.5905892748390997,-0.4835631358810693,0.017432570136080898,-0.8306396487794374,-0.7569747158492717,-0.19180822450229493,-0.22045488269032817,0.36918777175732215,-0.08150234722475355,-0.16814365385479468,-0.47600933791883726,-0.9237070008757091,0.33593638117235924,-0.21589033548528813,0.13935741090185827,0.22848596602399956,-0.3599559417408177,0.3892201588601347,0.7474378724941845,-0.5186355242494025,-0.24567289560964642,-0.7399800131057366,0.43613404664423855,-0.43006922559569194,-0.20486763715282466,-0.8014307183888383,-0.6044072925968386,-0.5634946139582474,-0.5281085437490535,0.8220122402028138,0.6107414210947495,0.6617377258174723,0.1342598726752978,0.7256806159474515,-0.8850887356998622,-0.8403849205466659,-0.6161105989927016,0.18672297298289964,0.044839895816910946,0.4547742015937224,-0.280529548079022,-0.6547976339491073,0.01732171653645187,0.19926046075889062,-0.7800800334405589,-0.9984544149671901,0.14049542698646014,-0.8273122750838796,-0.5373572246236176,0.3122625379016577,-0.8493531066922736,-0.5354030817346712,0.4965300209350785,0.15872504255620304,0.044459123220479235,0.31340799390904067,0.05339973794310027,-0.5863532720129807,0.3530604014622537,-0.9768838761452882,-0.6061192894915334,-0.6737867797137176,-0.1070090006603901,0.09076383946964706,0.2116300720775639,-0.147211926592147,-0.06754628804863727,0.6036971014010242,-0.33534221320196156,-0.024798281968011704,-0.15864032368983152,0.4458907444314931,-0.6676089932954582,-0.698468613485394,0.7768502842380803,-0.5620029963866522,0.2738621527388054,-0.7417737333130292,-0.635980159631379,-0.1948965050977566,0.07554151787839963,-0.7700964489825767,0.9682434226770595,0.13785760162042662,0.6479600014214231,0.12355380179491107,-0.8552811575078912,0.9534503677456969,-0.3339796872711046,-0.20592571664877501,0.1014621383983001,0.9677752982674983,0.832224620428041,0.021902275747573974,0.06092581854244972,-0.6067427683653044,0.4522113667112828,0.926557877066805,0.9841062658688443,0.35960374563819913,0.0619367683797945,0.532662407272694,0.5127098740591703,0.5106449291612267,-0.4963321019362143,-0.25794485924842636,-0.8403064760158989,0.2182133662845164,0.406107538422716,-0.36741264585922506,-0.9487241322632278,-0.2118180470177067,-0.9693048781184969,-0.46705567445038243,-0.06146586922065633,-0.8449548774979202,-0.6504940966044864,0.7507986136158902,0.4420501624429831,-0.911844490986245,-0.29190968595999744,-0.0208181520089592,-0.0622072541444596,0.8705835034468135,0.8737395796336884,-0.12454763852271611,0.6197697220462233,0.31900360776065084,0.2498550150775607,0.3884096142781943,-0.017731372740925955,0.3511958935509661,-0.7099876062019916,0.026000396089214648,0.7567895305992677,0.5474586816987815,-0.28047080468481744,-0.5305425600147939,-0.35334687075070426,-0.079714570448688,-0.03215314014429694,-0.07102623631759841,-0.45562871333939425,-0.965940735918692,-0.2541688485758103,-0.6859963531410886,0.9372117230376282,0.29935953360952405,-0.9166318550317697,-0.09398858858923831,-0.9560771956835301,0.7014422694693516,-0.5154922853761783,0.900569770438862,-0.3398938446025801,-0.9086149408987793,-0.39598708106018,0.6499867176869822,0.6373303977946427,0.6254997442292625,0.11558696358657192,-0.15715086309495793,0.970463489472083,-0.9791095144685498,0.6495863029964204,-0.30174240493440907,-0.4960267260337949,0.015994452573468307,-0.21736843363692154,0.395936306284711,0.43655065234589885,0.8835256117785004,0.10911299712448996,-0.4748642553923951,0.12052677344555351,0.779116550357601,-0.5651894386695648,-0.09625667943444882,0.12490906991293138,0.5597907488978424,-0.06175936156034445,-0.6795898115633008,0.23563546279242042,-0.6561563963332011,0.3444868099617244,0.28082635778972254,-0.1340878471425212,-0.6141148030823631,-0.6405400036091637,0.6596812995428598,-0.061415094445187224,0.06837703709880683,-0.1715215822549172,0.016542659614487754,0.8048848806903162,-0.8692134841667551,-0.036895216925486585,-0.47611967636091623,-0.6155368777064313,-0.9523055488021605,0.8128904904298906,-0.07378570040398547,-0.48243919456491213,-0.3125681613164806,0.46946075906486295,-0.8396028074620305
Weights[4]: 0.9593719700162169,-0.21995700300669163,-0.11901039496018107,0.6565744977707857,0.7002695983742688,-0.47492235222594925,-0.9224603511031998,-0.3131271979367022,-0.20838065129163708,0.6012067569425361,0.6220253769410893,-0.32399584694020256,-0.6312400547933019,0.8320678294785637,-0.8848268566116816,-0.34846257294922256,0.12211742863157649,-0.5426485992701019,-0.631826384752908,0.0550471940334174,-0.907429662489998,-0.27974913608271124,-0.01025974238769134,-0.18398823271691256,0.9109302376913513,-0.48071980172801754,0.07721461871509194,0.7469002584679518,-0.987973661156359,0.8028493830016112,-0.4517963758910989,-0.12561715539806395,0.18408961742375496,-0.31150291455513934,-0.09345981715873808,0.6058421999243284,0.4784703913510173,-0.9968931982279258,0.23831530718054394,-0.4567006106752439,-0.2490612311517174,-0.67033014244881,0.013265531981953238,-0.47042024110929126,0.34107940613342413,0.8478761705792863,-0.9842968229131293,-0.7843733782807241,0.6977173470415721,-0.7253231274547629,0.3954433768035115,-0.7699195620463787,0.10128714381777093,0.10534999850455207,-0.5002410651651402,0.239121106098928,0.7903027393809998,-0.9350221622432685,0.7456442600794342,0.18098940010228626,0.4478630290589589,-0.6693606095711517,-0.3251535367803432,-0.011230034293248314,0.053003132833635114,-0.2523574676608469,0.4919145356360426,0.6802628597618374,-0.07447235336269831,-0.49066905653601,0.17306703569976012,0.11901062685950214,0.21903609354935405,0.8248742259223361,-0.6958915748148652,0.7629004799588119,0.7069853319353356,-0.5398395012784002,0.4749323611496632,-0.936945932887935,-0.4964229788148883,-0.138412003004184,-0.9508170885736202,0.7373494662984039,-0.5925939938019003,-0.6818768138447202,0.7730957007841652,-0.9212603810807971,-0.8112618493899991,0.6674190767423338,0.8155394605433286,0.41349255359428594,-0.7425374583073601,-0.9426740929217423,0.1018206653467707,-0.5728209824846892,0.664234740614693,-0.9614699699692111,0.49061108981266277,-0.39830755929067563,-0.6389199135694252,-0.6645596826749667,0.29009897508197424,0.18838640357758218,0.10160983684547698,-0.7235672500559908,0.011044344404267381,0.2764129178954349,-0.19875842668058274,-0.26314154512395227,0.5321357741635926,0.3301422406593999,-0.4099545233929318,0.6825901929673692,-0.32258762108282546,-0.4137249679368571,-0.7185435209975315,-0.06250300307874712,-0.41863604049134817,-0.2651200533216447,-0.02545316844501211,0.42247618877446486,0.5054490986818925,0.272032959425021,-0.2958184625246399,0.7667771350880492,-0.1305887465093478,0.174091877568855,-0.2555068296613925,0.906548989679047,-0.8837391067933249,0.6814670893812718,-0.017425462237499467,-0.11884811601551001,0.7087171154930657,-0.8292704496541499,0.5704796870118166,-0.13920349215120242,-0.36426037054707316,-0.8690267437459094,0.3070788417510124,-0.5033172171112696,0.27749804559978575,0.45187969573395304,-0.8647166974212587,-0.5146027801160713,-0.17655292301278236,-0.4251276512747294,0.3892148002187082,-0.4769746673865957,-0.8451384661565842,-0.2594360596240395,0.4473596734367375,-0.26070100042084937,0.617298254207946,-0.05894974905052,-0.15928128472374795,-0.9720875868426924,-0.5336474659711885,0.3369870987533222,0.4001983471561478,0.8307013049312131,-0.47266109072414736,-0.09482825019936725,-0.3766518590536235,0.8496460085034585,-0.6534416320051261,0.708549989251676,0.9754977607985482,-0.49072432494290374,0.014786010149301143,0.42065997115367093,-0.6977878567216786,-0.5490151541549565,0.4278011049273429,-0.5192740214698571,-0.8530605126992157,-0.951477197128318,0.1276389734334475,-0.798733295402251,-0.08988795944921905,-0.7481487666550805,0.7331726916835678,-0.8245691994538525,0.7129421356449147,0.36518009825780046,-0.8072865308866842,-0.7841114145558138,0.2488804942920521,-0.25780751364832716,0.3076390191492509,0.530736997976276,-0.6392316411105158,0.29370427471292415,-0.2839114085230564,0.4577446838178414,0.9497077306498343,-0.6399344809539311,-0.17690167351481578,-0.7143627059247171,-0.8602369263035298,0.1160927080102125,-0.39466320115138515,-0.11604979294730577,0.49951981096773196,-0.2867381428427105,-0.5986193080711583,-0.026308900352085402,0.2683649013536969,0.09452200007656698,-0.22874262826224387,-0.21518986452487904,-0.0851187893796669,-0.7289898465727029,-0.6201984636957655,0.10939286642453358,-0.9285616698388379,-0.6808458733031316,0.16799257741754348,0.2343798952159338,0.6066370637940374,-0.8953288252909336,-0.5540554558644329,0.21119204685613147,0.18505457937021497,0.4752873934224655,0.054458383961794254,0.008053092755402114,0.7359158323937386,0.9712520413841716,-0.45608641026142777,0.7919778073013742,0.21727248882128777,-0.1694839378353159,-0.9453376836078967,0.7997823138651184,0.6662783386403882,-0.09633496138532768,-0.2680264927010814,0.04218136414758234,0.022685946787052477,0.2743909560312276,-0.0553144858681947,-0.853864729856644,0.9970764824021763,-0.4695237917536722,-0.3702838151574539,-0.9199990704283114,-0.11220367490882222,0.5878796631413883,0.3902071841946837,0.6230092158648228,0.18759913984108678,0.5850676454534138,-0.3246505555345912,-0.9658323228200116,-0.3294190655964862,0.3893781613452624,0.6902784616116959,-0.9734766817781516,0.6595424711927939,0.40242748271341494,0.25700290420953326,0.340926458729743,-0.3863041742078938,0.04423224902233786,0.6166019443709323,-0.8714119257305027,-0.723643883266276,-0.3793891919945366,0.45845973436499043,0.18861864668389222,0.6442639453114274,-0.8342143318063223,-0.7316537622161201,-0.6363294057717218,0.17667955587463435,-0.6756349074075161,0.253996180023065,-0.33489592156135284,-0.15504608543359022,-0.02554254560989444,-0.8797432323357757,-0.853240137053125,-0.418353665126321,-0.09365727757372903,-0.41256403787266327,0.6269780107603921,-0.827150304345734,-0.9550667397400789,0.1587376113939575,-0.7082751122856364,0.2154161614000786,-0.28666190834027516,0.38556584855174764,0.6102595175161185,1.0271231790609976,0.6123579998601714,0.5020145108777471,-0.04701894788678188,-0.02907588292774314,-0.4232006035417492,0.8772941873986582,-0.6957232488110842,-0.8530281166792978,-0.7661715102224478,-0.9777880795196574,0.04191597972154426,0.32221862269668766,-0.6883211497628694,-0.142511878694646,-0.6545323377473551,-0.8639505251502262,0.021417113041618977,0.17127431806420265,-0.30563250400483943,0.3152490446775239,0.14814194178598378,-0.22149512888297387,0.7085254243069113,-0.5653700977753117,0.9601219817567003,0.9359587267107274,-0.7811698421646593,0.46570803660985627,0.1599691926437729,0.9335125231182051,-0.0927716751822036,-0.18742044800531074,-0.2899218641532781,-0.6105642755618136,0.5936851487188458,-0.18434468339399657,-0.6717011917716363,0.7328774853296938,-0.7134023996598098,0.11110177129092702,0.817138074812078,0.9994505653155272,-0.6528129729629009,-0.11520170452649445,0.5450007243708225,-0.6926469778540509,0.8741785168140961,0.21764556634903273,-0.16123138912563412,-0.8226116823171931,-0.781132326556189,0.536170766217779,-0.3310536420369037,-0.6976332422771067,-0.0963867964361303,-0.1589993636073196,0.8090101663685222,-0.49553325747314353,-0.00614124645967813,-0.34048579242440935,0.6949320974699393,-0.12053520046511078,0.005458439119715636,-0.696974673167325,0.12822791986550564,-0.7407085056140592,-0.37296467897154606,0.9361867196560776,0.2649610309232777,0.5289321344014872,0.807053832718996,0.2894648237676783,-0.11519342059937521,0.5784524671424248,0.5042325327309819,0.15284542085579278,-0.5611594045342393,-0.16845593111947013,-0.08363193950472624,0.6639372053448724,-0.9444094511714972,0.018767676186097898,-0.3571843264296804,-0.01577394630176189,0.7437179344470237,0.3822738149377102,-0.8676002210550128,-0.5697083241894171,0.5110841371147576,-0.22572755229483846,0.014668114024525503,0.8460877192421294,-0.24310424143593024,0.638379921968272,0.4290036006965692,-0.05358075958377717,-0.005732145628767116,-0.9570045796954094,0.7558735417055855,0.28866785192466066,0.6778233814200177,0.9114792275421684,0.9451419317114965,0.31234569921132693,-0.6289910210358601,-0.06014851041317604,-0.3274158460317576,0.11755885062763748,-0.17087746694664063,0.774905246039228,-0.5994484626883387,-0.03994500670465514,0.5941675691735318,0.34954215788029636,-0.38694735332952007,-0.31259237936827305,-0.7536597358566621,-0.9723618791037589,-0.42268149993507265,0.7669232039558345,-0.8495414060771193,-0.7877414290736157,-0.5631432903758917,-0.507403510393297,-0.48573597962303827,0.959799833577033,-0.4681937845421929,0.25101226646455427,-0.8545760435906725,-0.4788233997007239,-0.8598476227993959,-0.5995065630749743,0.08632377244441147,0.6243525089108886,0.9767598145790459,-0.8387038894609954,0.11175711991790623,0.3796657680008446,-0.3804536145850856,-0.20572766787700084,-0.28731878291408086,0.012340012061764227,0.6038228968367598,0.7350018770596818,-0.630868498715897,-0.9617067836735961,-0.738733319443992,0.42789847935917713,0.05014120091225083,-0.2497366700553041,-0.29959005829859064,-0.03405793059340578,0.4656769202396631,0.9877840578499175,0.13634614419953262,0.4708394029792056,0.4754295065601103,0.4182075836404237,-0.2231940068605638,-0.579509320701815,-0.6015167223243619,0.39594404687958135,-0.039648719111481504,-0.696161876333689,0.6768258565931765,-0.9190391270865709,0.9251242837264124,0.9807272976678455,0.35660549303075284,-0.5853338473638822,0.5538891903069695,-0.10920317536053693,0.4089120083431884,0.7689868721141959,0.050761363027040485,0.1372519597118962,-0.3922327223197709,-0.29887695764139155,-0.8775746719341607,-0.5242042827998308,0.698533153021025,0.1028074720421841,-0.8009847131562349,0.3988983879792032,0.8232274869605757,0.15514118945958685,-0.10174918719652222,0.07127204477443624,-0.5291457393949109,-0.4989454059592124,-0.3081904698774029,0.6988643778647047,-0.3703188287463776,-0.7373213136602241,-0.5511691196095172,0.342002273631925,-0.9436800957926899,0.28480076488789535,-0.9584121101302762,-0.6869820546088091,-0.8852776251119749,-0.7191999400568538,-0.9409654168742421,-0.3967174885453138,0.1619423772962496,0.8003519902938754,0.5554285168440214,0.6965706207307849,-0.06297730517712297,0.9990941844876362,-0.13780075085246968,-0.22400679310039007,0.297633541607224,-0.7215824657370189,-0.3233125548101862,0.2738670927941914,0.20104585497151584,0.5702733936701229,-0.5269556771957585,-0.48354647723283073,0.14941907418944617,-0.15416393810779494,0.51206445732074,-0.12692359860258054,0.7540682685477055,0.8966522539321178,-0.7119481679553649,0.17569924943677484,0.3249305695333156,0.7067952227425165,0.04671918724849753,0.2688067175218674,-0.38931220555180324,0.7794737973154866,-0.656552905056883,0.41150219897343887,0.03914692208131165,0.5911068085539652,-0.7630439893170464,-0.9770600777012576,0.5870145510855209,0.18874262353627969,-0.8810345744805317,-0.5208597869402246,0.6438384605238126,0.9077881037109025,-0.6323923263864062,-0.6928202049159359,0.5214808821541491,0.15950235335374738,-0.8575051704902891,-0.4927800647523213,-0.1701087974220779,0.577423295847961,0.2068203317202897,0.30964098581368665,-0.21933149760263979,0.18547766289888312,-0.17417227579981187,0.24846114053598442,0.48984167377357213,-0.6359672921893719,-0.6511121530323811,0.20643678549976863,-0.07141568934145182,0.5723396621515693,-0.8346945875485868,0.5184429667510293,0.9213698275853724,0.25917594437707797,-0.7873660933879283,0.5981353870684771,0.3082478873283801,-0.5642614105649397,-0.10115184872580915,0.9220723085947983,-0.2851813971015909,0.059310291995589424,0.2512579147083987,0.8585953107272435,0.5308853493343849,-0.971775085368475,0.6827768218026941,-0.7758045785242685,0.6213105387480445,-0.4347416621746936,-0.5508320241889818,0.027119501418140325,-0.4316305418598389,0.041691646398072234,-0.3755321965438929,0.8449314785399156,-0.24345869628873595,-0.00674263993592128,-0.4588112958980777,0.23344500047780814,-0.1627739390004749,-0.09354229194374095,0.5140171292877911,-0.9602488283444607,0.7140777058151545,-0.16257410697472044,-0.6360011743763803,-0.7403730526650422,-0.06818426796392733,-0.4635240473754274,0.2122329035717203,-0.5914700468020154,-0.2889300976834146,0.3411905867862115,-0.3556577282565079,0.7759177635908137,0.9709788681605522,-0.03228567160784941,0.7069166579036801,0.4623485168073527,-0.304168835862388,-0.8582154883902686,0.5990552294994962,-0.6227496376367052,0.13709607587060701,0.15211030056332708,-0.03600210185907882,-0.08967072567421508,-0.3435555431300248,-0.618920082507819,-0.18676090234452425,-0.7187689095543772,0.8823806260662574,0.6651641202976534,0.06666194350233069,0.7726004948660523,0.5011898325706624,0.19484110457378165,-0.8321498062470543,-0.29961931936452524,0.6916429849741755,0.4655839604262493,0.3255267810599679,0.09232436669281756,0.3427988744616576,-0.9790150865525883,-0.6882823424824898,0.23461293393495164,-0.5950527003011912,-0.13771501702150102,0.8875675675866974,0.8024222300399197,0.29564197421802296,0.08527952948830997,-0.4559468214660636,-0.2793007032305802,0.3240691739690143,0.14551718501673438,-0.1060760248974829,-0.45172094567992405,0.8728038981713079,0.43308938601945296,0.5889103836583658,-0.47595764487195,0.6824369066515348,-0.0940875155276406,-0.4734973716291622,0.048202104173685485,-0.7144293472296323,-0.10297167848113098,-0.714985812392559,-0.21923008373071703,-0.19870552564146463,0.00526956046159065,0.7775745036907376,0.24394746462067007,-0.17898501231287844,-0.4909862650050718,0.0344821899358565,0.11611672263411643,-0.15960735695418315,0.7293849642059695,-0.4946180253730239,0.7913500513712047,-0.5083264386799999,0.026001153814108013,-0.0024518428885714205,-0.21064515068248843,0.11666285439635622,-0.6739806146033256,-0.5664347016910195,-0.6651824152558786,-0.727970355985308,0.5912146032618821,-0.17665770202708775,-0.7375111802028379,0.8881500657414783,-0.1732097178466539,0.42314669046230535,-0.5484448138384357,0.5059006663526106,0.27283992415137664,-0.043855891042795844,0.5146861577009252,-0.42160693529136806,0.1068012775419287,0.0011584577156036335,-0.7096076420087403,0.3077050257975724,0.30010571391326635,0.9041759771779998,-0.16923237273899483,-0.8651718794671688,0.8070411131750053,0.7350881862151848,-0.8396653671933643,-0.05568581712830069,0.7840982911164849,1.0112475287267844,-0.35947645365041786,0.8850465064997514,0.7048775904933974,0.9311779271467363,0.977081160290135,-0.49970419295132423,0.9755562463477839,-0.4726734950545586,0.22388930023828957,-0.7973948641418198,0.5364448860379661,0.3624169883471039,0.9960878193360232,0.08698931387019782,-0.4170729962257077,0.610238538873493,0.5675822121871552,-0.22675406803691478,-0.009304183073949202,0.2240636568628549,0.40553395701829986,-0.9542576996396565,-0.2686815426073417,0.5061785082827222,0.8184113352645241,-0.5817772522955124,0.5918152101361713,-0.8018632100360936,-0.5389087368752967,0.8435639024969619,-0.3576884601999486,0.310181255920534,-0.8712893529194211,-0.14066831051642883,-0.19662947305982026,-0.4179469847203917,0.8046605483650511,0.3524202533776035,-0.006167601331215189,0.024357293278145287,-0.39651826182218186,-0.42052522740351284,0.7772691574773143,-0.9122110856288165,0.7712870946951615,0.9376981537498992,0.9080881578419768,0.7437783133908074,0.551901116758539,-0.8031974256984877,-0.8324940259719705,0.3870887008435506,0.9411003067815211,-0.4626159255684428,-0.42516395143473706,-0.4246259850564533,0.1381837134892976,-0.8049608728871498,-0.898021157783466,0.5503153426341318,-0.07883578589131857,0.8007588553245919,-0.9190721669788808,0.3816030143674478,0.5602919038200247,-0.7729425177783438,0.2423153870004766,0.15153065656848752,-0.7139187919506425,-0.999126011505316,0.8055779905084417,-0.7848380411904482
Weights[5]: 0.9663385236479056,-0.37941808131496335,-0.1739408155781873,-0.7315268571169706,-0.3564704569785252,0.7348914135875606,0.880713181514625,-0.49609686690200905,0.8253863369232912,-0.377748645552317,-0.75040390237719,0.6747803118428124,0.2552228389565008,0.3682601420992333,0.5827080987313333,-0.7302788857977274,-0.7744659091227064,0.4438693017903106,0.6096214212522011,0.25044141116106955,0.4435170560346531,-0.8968069208305361,-0.19727711714677376,-0.5014530604246319,-0.6043338568901335,-0.47250298944884117,0.5442296124735053,-0.30461723325057755,-0.2434424987265107,0.4576971053414498,0.551027128263855,-0.6087754162069295,0.9523440152184777,0.6076751675492502,0.9747617831336157,0.9168021557465205,0.7487768641434502,-0.6930991279394827,-0.5053458295321771,-0.5398522864747104,-0.778734339298091,0.04641220953614078,0.09577787718539033,0.1785075008769088,0.8313317353983092,0.7068227025246354,-0.6949309351364761,-0.14120265987757719,0.6596072882691433,-0.11819045763378522,-0.9394528828279362,-0.4429953132956267,-0.8040434307437592,-0.03527945235151775,-0.6641035227403527,0.8631454444784417,0.8178590358318105,-0.6724877551535553,0.8728069997731629,-0.883967467529684,-0.8093381988859447,0.18533041476520262,0.7473456318245015,-0.6323107684181588,0.07122422618382807,0.8583715138297396,0.7224362966243347,0.6475476714072506,0.3934983589656178,0.6659059429848129,-0.4790557499411775,0.9186332188167763,-0.050784868677512196,0.1494737077269115,0.029175750459160543,-0.6028951535014879,0.007415201984073638,0.6242153819763174,-0.3327847958229412,-0.31115655941476883,-0.7775720543123652,-0.3145677276489175,0.03577547848027929,0.8747479589072744,0.39714998816938607,-0.0059775584405183935,-0.8047319854631703,-0.012376532430004583,0.2717786902896029,-0.888383661344826,-0.9010568800852898,0.42126461929700554,-0.5659061277126456,-0.6213783620024931,-0.7327898330583175,0.03348293400831062,0.2957118149935936,-0.2769140707303782,-0.8977194416408467,0.9700174472544951,0.982561885825575,-0.3424786065437265,0.4652989811568051,0.9937013452843304,-0.6391347076926077,-0.8580861016447126,0.6077895553818855,0.046482861529329345,0.9355447971893218,0.9387916307611353,-0.14426975750563187,-0.8063563461445069,0.6602970406693858,0.18396355918793184,0.8936045867826812,0.5052295287629727,-0.8504450637150766,0.8725976729172271,-0.029460756587544767,-0.9227982153756535,0.6631034992929099,-0.26850269667285204,-0.629194498225425,0.2769185409673705,0.5580477920101127,0.08776537404957852,0.4738229631833159,-0.43532370541539,-0.127431249030033,0.9733528279258162,0.08967152035908368,-0.7207536065652462,0.5169564715486754,-0.3057367231734898,-0.2955177530704807,0.5649087349537042,0.22015765545971533,0.04207413319594888,0.5138826665998821,0.2552360898140986,0.3862328861775961,0.1487851530075004,0.05207867038067371,0.33298705952846763,0.2558860961608058,0.9052994660592171,0.7609675786276198,0.2501303130994226,-0.5182984745123667,-0.24071213412319797,-0.11871551026473502,0.4202068013382711,0.7469473746278679,-0.9795208446812752,-0.7012049018745034,0.2426133648335614,-0.7275287578292072,-0.8361026648030733,-0.5769350654205719,0.25996277980722815,-0.34001036494005876,0.04287363451437831,-0.8277005494354295,0.9453571544218684,-0.1591154857032728,-0.4235963138861565,-0.32328845342774337,-0.0339579419391034,-0.5204934754969988,-0.6713019654486803,-0.7149037624313048,0.10748080308897467,-0.641286993090307,0.7153005414690049,-0.30903110155324964,-0.486701815476803,0.6785240460215896,0.03860270319278498,-0.9762067490313361,0.6639449287472247,0.33833178374824263,-0.7670682945348839,-0.9173032526587361,-0.8852765587813746,0.09605250624633628,0.6545537090098116,-0.4760835785090423,0.4886350892758499,-0.6113508315960724,0.46020253488139296,0.287715126420154,0.0383099822749114,-0.3845332366958146,-0.7473029949456933,-0.40213846201176684,-0.6509631758793086,-0.017709913206151673,0.10977437771380627,-0.5077663024457946,-0.3205175899530377,0.22858385617463767,-0.2050797359404889,-0.22932443657156207,-0.8439414325616043,-0.5201687026087345,0.7806975403979247,0.0732736210255129,-0.9511930814301873,0.3424755009929832,0.7952097918107636,0.5634940249480697,0.23584436968133365,-0.8590180469288782,-0.2426820177894956,0.9230625530137576,-0.5758913401108768,-0.048177053967067895,-0.9485619850298411,-0.16362526792238088,0.1692721240482801,-0.9452853420091097,0.18986092935775445,-0.4183562022719328,0.024623066664032134,0.045543894658583994,0.24837990722077885,-0.5078548078927467,-0.8939819987369617,0.11743452093781301,-0.6580731821811525,0.5321650929761763,-0.4264806504515996,-0.4448526131361327,0.352215459517367,-0.5603246201997024,-0.449396946848394,0.46717486628865673,0.9299734984776665,0.6314988291392006,0.3193189354985274,-0.4139081956482363,-0.5210171449956796,-0.8518051241130843,-0.4105998630103145,0.8884818532706135,-0.9562883098640378,-0.12071739194215418,0.8502604457783793,-0.6697766043570714,-0.8251039804076329,0.39741720417394166,-0.06847356775238811,-0.7256697200823901,0.3230496995724037,-0.3751441218774505,-0.9612730098707941,-0.7867254363306758,0.7459954654251778,0.1108113801687386,0.23082116699789113,0.2886304191575697,-0.03423818213804375,-0.0715687154840785,0.005296782479871651,-0.733741545125112,-0.009530140284709054,-0.3232572810260345,-0.21291984207159503,-0.6901567454527192,0.38033810235279925,-0.039977689612275456,0.02355054968830424,-0.5856787163703543,0.5071630851565805,-0.43462005819600397,0.5750956263277194,0.04212290376523642,0.9927839133854881,0.13657902699735902,0.001360245515294567,-0.6309153864304141,-0.35811525367112607,0.7757946056201097,-0.05745588741372676,-0.055493030732955605,-0.3995034292632618,-0.7014047187999486,0.22753187928403842,-0.2783810892776447,-0.6038753761492125,-0.6666496697041684,0.7240327127395051,-0.17873810673004975,-0.6044498300886547,-0.9736898852930159,0.6105877248390352,0.5340278323587653,0.15095338386650312,-0.6735893633443641,-0.10440837423301341,0.3549841663864956,-0.9320889852357525,0.5181839482440587,-0.048461378230689474,0.21571574603007915,-0.6249449903261592,-0.4826659567107754,-0.2331531295707231,-0.24231883289400435,0.049760251794830124,-0.003395913636030534,-0.7795060603680918,-0.39058649618663704,-0.8905841593540691,-0.13827165247501397,-0.3551922238846291,0.1872356020232128,0.9853072539005059,-0.9445780170250758,0.6670848748652641,-0.30180323983841295,0.4524808969678834,-0.930763182556109,0.9072898339657236,0.03184731674844256,0.24330038032542273,-0.7945635597034664,-0.9916062268141695,0.4654270851376472,-0.07721106161797368,-0.9799477762933291,0.8915676994389293,0.6674341455415982,-0.7575853754568777,0.6455988630864764,-0.6993031574875597,0.12362402822991081,-0.17574171217891466,0.7268298499876773,-0.4305452670348939,-0.916840407166943,0.5318264525453373,-0.5300806921487495,0.6729035723708083,0.3998269463161229,-0.8870195549123426,0.10995055009347532,-0.29425884023171106,0.543582055067046,0.38885314472758753,-0.5651364585225583,0.5453978414261049,0.09057811712232751,-0.335217184972893,-0.80049634310197,0.8941049734335019,0.9784721986776176,0.5801072050322923,0.9029637650912047,0.9743205439333349,-0.8288248813845334,-0.4910673189401009,0.30056983479325194,0.8343922029409521,0.02939089808119033,0.1050386908953258,-0.4469363360884303,-0.6329980571212632,-0.5361921777185163,-0.4389256195794909,0.5215036333499256,-0.6364948286208589,-0.7422145054150149,0.4856456455198328,0.5799100235167768,0.15877806380048123,-0.013112244719976393,-0.5945422751479722,-0.48075661508748513,-0.07976454923877709,-0.8659911130033434,0.4965506048079391,-0.5363361360828099,-0.9305879750599187,-0.5333335326255333,-0.5526021211075964,-0.2067303536728501,0.005092666952448255,-0.9564996417409273,0.750761222909559,-0.678441041930784,0.5430145904156447,-0.0790957608628533,0.7525098546186975,-0.6017152581371903,0.5742299753816543,-0.768795395301947,-0.3644562837692056,-0.3571845143951628,-0.7055408849661838,0.5590869428922292,-0.2574986620873343,-0.7574620975099637,-0.020660068590746032,0.8717571106720446,-0.9226006910676233,0.29650616602264557,0.6019088527046191,0.08853849451946005,0.039560117937037356,-0.09615312250830771,0.5614935779858865,0.04018397950677441,-0.03535028434764432,0.8408754472498434,-0.32363734549080825,-0.9553732797295662,0.23062960488285378,0.36724151548335393,-0.41851121998322716,-0.6886348434205329,0.5479709969591213,-0.6764932878671648,-0.286950046782983,-0.7605683341656105,0.9783554956838518,0.4408853570740754,-0.4955876006672639,0.08664800532231066,-0.9925009641918716,-0.0691565621415752,-0.6460498355687944,0.7729741542898818,-0.7727697083441882,0.35576456739349394,0.38235503533591236,0.25549732749651566,0.48766480957079406,-0.8015470943910996,-0.6270306132799119,0.1303250918440903,0.17845776727057516,0.9222818921640515,0.008053597532237777,-0.15297003237203233,-0.2402264239453834,-0.49768792814467466,0.9557254602926437,0.9112227819446581,0.7219220873536178,0.5296083826243916,0.000583190936866762,0.26817980135951897,-0.9389159458799659,0.9812690848590668,-0.9912551048912019,-0.5811933184266452,0.5303926189285771,-0.2583693098359942,0.8935439960605169,-0.3509564619812048,-0.2120952335303044,-0.49503047728995353,0.07016085779607845,-0.8977395589087775,-0.4453871892020589,0.7932015009987712,-0.2028291580198225,0.5832855977208623,-0.5507919832771232,0.4267761737462503,-0.43658262185593255,0.0357806408013126,-0.005453899039632559,0.45062471062439724,0.13237769675086142,0.6253793032958075,0.31545311460059744,0.8660248228656244,0.4796662486529286,0.4759188776258001,0.48505485950892346,-0.4085029906758517,0.3622606310942922,-0.5276828300614017,0.9260273408060802,0.08204817957142602,0.709749838664595,-0.7448587218444238,0.34402959376238257,-0.04620954492263621,0.7107722508447772,-0.268974359344213,-0.6969430070854129,0.7253029945506742,-0.6774995573507415,-0.3501354758613956,-0.15472676416880765,-0.09523664980042003,-0.7010929605197164,-0.02723869298125934,0.7088108024135282,-0.6282213840765047,0.4616128743913084,-0.7048795165982468,-0.033808995519675755,0.9648025501355542,-0.7263624620280985,-0.3896070045370641,-0.15104164666505507,-0.616811472048546,0.10148530403039142,0.6606418435623113,0.2588146118472273,-0.5853763151241027,0.16666060161491963,-0.791236248273329,0.1417398479906136,-0.4155101481418661,-0.8312562087973575,0.45771843352115665,-0.9251164613536711,-0.4660586287807036,-0.7827268875053738,0.47567533710415927,0.7090786110144499,0.825489898480591,-0.26258293842516106,0.27519541012176507,0.13387935754558034,-0.5168447333932131,-0.22031681948356185,-0.5894084319422992,0.5670448800395451,-0.4931679617116078,0.7671080752122719,0.11327468841954813,0.1299274545672398,0.06732375517928192,0.5089145483999594,0.9613993815359212,-0.1911331049136376,0.09704565728547757,0.41418730608337895,-0.030319610593615095,0.8509097634802406,-0.9548976572507161,0.4731695343645052,0.8748300304322673,-0.448479931402561,-0.8997744368104214,0.4875944302707808,-0.7549538349109302,-0.2675172862577616,-0.16478307295149605,-0.10348742761147817,0.17817244475502816,-0.8427925512030507,0.9856349015629617,-0.41431669304814034,0.1403261745070694,0.22701055706805118,-0.0018896567644037798,0.47651363791735557,-0.6341924498016911,0.6035661604112029,-0.30874828590831255,-0.9017657370671841,-0.24853530788901146,-0.3525870911921815,-0.9508615558206525,0.08332359546472366,-0.9223530781880089,0.07241323280165719,-0.8038482136242799,-0.3584434475882731,-0.035004956564591024,0.104993952556748,0.22042606193484998,0.6007044359738937,0.6545680834478489,-0.6524673458394918,-0.14421869528744816,-0.2798319868749492,0.034592691023424486,-0.004264570644934013,-0.4675274660973259,0.6772505537035178,-0.2713826295320795,0.6071088833767497,-0.41406219332202443,-0.04681667920519439,0.14425258950528352,-0.5181128361452358,-0.631072815793326,-0.26104372100590456,0.8117173207822186,0.621403429081288,0.04901694297304982,0.3725748725276403,0.15944786551436912,0.9376556573910478,-0.2862575406607141,0.2169057134208122,-0.5150704426336753,-0.010153173995928565,0.3772813548915738,0.1493290545960823,-0.4749034538670699,-0.8122356726740066,0.9252474289568732,-0.9328878723146588,-0.0652246836777448,-0.6208138764833648,-0.07367949642514306,-0.2119766525979977,-0.6337342269875734,-0.7270211492325278,-0.5630425324491424,0.36510864150016964,0.06902424575249855,0.014534443575287975,0.37073166075575126,0.15340172361173138,-0.9280467589706646,0.10387239261747543,0.9489212281543162,0.6016782305494188,-0.2951746324943917,0.4564592843130378,-0.1725923736741831,0.33234424705412835,-0.952558794503287,0.8278973615375278,-0.5791213975387532,0.7038676602361807,0.6362039412248103,0.6388230392171576,-0.769681691781313,-0.9624285269353672,0.6171301489775676,0.3811805729666635,0.14856110287297564,-0.4631177594247823,0.6770614691437509,-0.4844898467345582,-0.9838873594924283,-0.23722889797632996,0.5560368175968107,0.5854606737895127,-0.6211460652108218,0.5486084453832691,0.19525338301892262,0.6900469951106082,-0.6806057020698979,-0.8461869102022607,-0.42958911006082734,0.5652157931622097,0.1553984385896721,0.38829585783021126,0.0469090695183992,0.7595239521597178,-0.5690724952948468,0.06389136488181668,0.3609450708683336,-0.41141454892499774,-0.988385236419677,0.0988066993182557,0.9567597145013325,0.22125991583860483,0.15212401615088988,-0.2712651655409789,-0.9571054549688033,-0.6006140055137752,0.7479784925226023,0.6878436727858352,0.869158806768652,-0.16048281264153255,0.4788780319441815,0.5582752700319237,0.09086301213067871,0.18747605731618344,-0.9362422832164308,0.1394483261036844,0.09069343114713498,0.2878518655629517,-0.847181807235094,-0.6250092248326521,0.5238969426419712,-0.7400614896453617,0.12461449337414651,-0.9304594749874671,-0.51778735011713,-0.16185150230342352,-0.015086093306417636,0.8504674747900449,-0.05091176789762064,-0.9153351960309479,0.17608978002150066,0.08976811873250079,-0.4952652535844898,-0.08269405881068392,-0.1939886124776623,-0.666503506557319,-0.5706675227594876,0.6448578041255744,0.49987631454126746,-0.20942178518018773,0.9380032345363885,-0.37208630734813875,-0.7008161320360513,0.7481109687017735,-0.906474982225348,0.6030678694877634,-0.6930086171664318,0.8703883866340406,0.7074115339318965,0.293603236903504,0.9728036565867701,-0.9273793492128045,-0.5654965041044617,0.6371761054931414,0.5774095823039584,0.6975087453147923,-0.9033627686572088,0.08257855711624895,-0.753477815423849,0.2056922312852425,0.4157133183515227,0.8977246721730217,-0.2612445593165441,0.7813279022375716,0.6575375290855474,-0.6167799642387684,0.0476506571507318,-0.8312533869553607,-0.6206965891740734,0.7284519259230152,-0.28907371842781515,0.4465111154366374,0.788423083204152,0.36222273430275964,-0.5643327150327772,-0.10521997708196085,0.9620079943859647,0.3791650632382829,0.97659161249777,-0.12072023522142328,-0.4696271240104116,0.11508867755303553,-0.8546864864671074,0.6571520928559602,-0.8880309815928484,0.10346912923430507,-0.34473537716303737,-0.13237014093081012,0.34103076222400674,0.10889942902554739,-0.7631407379001103,0.34675392012426354,0.3983356195494232,-0.705815916743975,0.3748648964682897,-0.9597214376366331,0.8891333471467409,-0.4822465914684565,-0.9096086807128082,0.7101456819615073,-0.44471777204643836,-0.8619171752882736,0.48928058775574,0.9765007784480699,-0.4188875851309335,-0.4736469236545483,-0.7156748444380587,0.07229185619963885,0.20143760237909736,-0.3183675535574404,0.7365455132613636,-0.28005660478028316,0.10639881580434674,0.3672424197975743,-0.3246806447043459,-0.699375359201513
